{"learner":{"attributes":{"best_iteration":"99","best_ntree_limit":"100","scikit_learn":"{\"n_estimators\": 100, \"objective\": \"reg:squarederror\", \"max_depth\": null, \"max_leaves\": null, \"max_bin\": null, \"grow_policy\": null, \"learning_rate\": null, \"verbosity\": null, \"booster\": null, \"tree_method\": null, \"gamma\": null, \"min_child_weight\": null, \"max_delta_step\": null, \"subsample\": null, \"sampling_method\": null, \"colsample_bytree\": null, \"colsample_bylevel\": null, \"colsample_bynode\": null, \"reg_alpha\": null, \"reg_lambda\": null, \"scale_pos_weight\": null, \"base_score\": null, \"missing\": NaN, \"num_parallel_tree\": null, \"random_state\": null, \"n_jobs\": null, \"monotone_constraints\": null, \"interaction_constraints\": null, \"importance_type\": null, \"gpu_id\": null, \"validate_parameters\": null, \"predictor\": null, \"enable_categorical\": false, \"feature_types\": null, \"max_cat_to_onehot\": null, \"max_cat_threshold\": null, \"eval_metric\": null, \"early_stopping_rounds\": null, \"callbacks\": null, \"_estimator_type\": \"regressor\"}"},"feature_names":["vix","AAAvstreasury","t10y3m","unemp_rate","oil_prices","bus_confidence","mno","cpi","consumer_confidence_sent"],"feature_types":["float","float","float","float","float","float","float","float","float"],"gradient_booster":{"model":{"gbtree_model_param":{"num_parallel_tree":"1","num_trees":"100","size_leaf_vector":"0"},"tree_info":[0,0,0,0,0,0,0,0,0,0,0,0,0,0,0,0,0,0,0,0,0,0,0,0,0,0,0,0,0,0,0,0,0,0,0,0,0,0,0,0,0,0,0,0,0,0,0,0,0,0,0,0,0,0,0,0,0,0,0,0,0,0,0,0,0,0,0,0,0,0,0,0,0,0,0,0,0,0,0,0,0,0,0,0,0,0,0,0,0,0,0,0,0,0,0,0,0,0,0,0],"trees":[{"base_weights":[1.5887166E3,1.080262E3,2.980668E3,5.351365E2,1.2553666E3,2.498453E3,4.0682861E3,6.994948E2,4.5645642E2,1.196921E3,1.7544855E3,2.13908E3,2.8374558E3,3.5633452E3,4.1781445E3,7.8435864E2,6.391741E2,4.421869E2,5.2642444E2,1.231977E3,9.831937E2,1.6097086E3,1.881459E3,2.0610854E3,2.3373962E3,2.68367E3,2.994205E3,4.1234232E2,4.549122E2,1.0970627E3,1.276649E3,9.446392E2,1.1477726E3,1.1454468E3,9.617258E2,1.0226044E3,1.3055461E3,1.0743649E3,8.723579E2],"categories":[],"categories_nodes":[],"categories_segments":[],"categories_sizes":[],"default_left":[1,1,1,1,1,1,1,1,1,1,1,1,1,0,0,0,0,1,0,1,1,0,0,0,0,0,0,0,0,1,1,1,0,0,0,0,0,0,0],"id":0,"left_children":[1,3,5,7,9,11,13,15,17,19,21,23,25,-1,-1,-1,-1,27,-1,29,31,-1,-1,-1,-1,-1,-1,-1,-1,33,35,37,-1,-1,-1,-1,-1,-1,-1],"loss_changes":[4.4555684E9,4.399442E8,8.735611E8,1.4216E7,9.979494E7,1.364695E8,1.3735424E7,1.35176E6,5.28992E5,2.2239744E7,3.662848E6,4.029952E6,6.404096E6,0E0,0E0,0E0,0E0,5.548E4,0E0,1.4781952E7,1.74576E6,0E0,0E0,0E0,0E0,0E0,0E0,0E0,0E0,3.3184E6,1.3427968E7,2.504E6,0E0,0E0,0E0,0E0,0E0,0E0,0E0],"parents":[2147483647,0,0,1,1,2,2,3,3,4,4,5,5,6,6,7,7,8,8,9,9,10,10,11,11,12,12,17,17,19,19,20,20,29,29,30,30,31,31],"right_children":[2,4,6,8,10,12,14,16,18,20,22,24,26,-1,-1,-1,-1,28,-1,30,32,-1,-1,-1,-1,-1,-1,-1,-1,34,36,38,-1,-1,-1,-1,-1,-1,-1],"split_conditions":[2.088685E2,1.536E2,2.266735E2,6.05E0,2.0185E2,9.969057E1,2.280855E2,9.910159E1,1.00784424E2,2.9994999E1,4.40026E5,8.5E0,4.24238E5,1.0690037E3,1.2534434E3,2.353076E2,1.9175223E2,1.4095001E2,1.5792734E2,4.45E0,3.5432724E1,4.829126E2,5.6443774E2,6.183257E2,7.012189E2,8.05101E2,8.9826154E2,1.237027E2,1.3647366E2,1.0025618E2,1.5795E2,9.992415E1,3.443318E2,3.4363403E2,2.8851776E2,3.067813E2,3.9166385E2,3.2230948E2,2.617074E2],"split_indices":[7,7,7,3,7,5,7,5,5,0,6,3,6,0,0,0,0,7,0,3,4,0,0,0,0,0,0,0,0,5,7,5,0,0,0,0,0,0,0],"split_type":[0,0,0,0,0,0,0,0,0,0,0,0,0,0,0,0,0,0,0,0,0,0,0,0,0,0,0,0,0,0,0,0,0,0,0,0,0,0,0],"sum_hessian":[6.299E3,4.615E3,1.684E3,1.123E3,3.492E3,1.169E3,5.15E2,3.61E2,7.62E2,3.129E3,3.63E2,5.71E2,5.98E2,9.8E1,4.17E2,1.45E2,2.16E2,6.39E2,1.23E2,2.684E3,4.45E2,1.76E2,1.87E2,4.18E2,1.53E2,3.11E2,2.87E2,2.01E2,4.38E2,6.74E2,2.01E3,3.66E2,7.9E1,4.91E2,1.83E2,2.09E2,1.801E3,1.26E2,2.4E2],"tree_param":{"num_deleted":"0","num_feature":"9","num_nodes":"39","size_leaf_vector":"0"}},{"base_weights":[1.113609E3,7.643777E2,2.1103955E3,3.6933456E2,8.859537E2,1.753221E3,2.830758E3,3.142871E2,4.6994064E2,8.3713873E2,1.2548125E3,1.5346239E3,2.0083871E3,3.2236997E3,2.7058818E3,3.2884738E2,2.95949E2,5.2555194E2,4.340701E2,9.745864E2,8.0393256E2,1.1511449E3,1.3658676E3,1.4526946E3,1.6899474E3,1.9612069E3,2.258786E3,2.773029E3,2.328011E3,4.0335483E2,4.5979858E2,8.7894916E2,9.9747015E2,8.369952E2,6.744437E2,2.9490818E3,2.6403538E3,1.089728E3,9.51533E2,9.0801654E2,7.380339E2,6.142833E2,7.362186E2],"categories":[],"categories_nodes":[],"categories_segments":[],"categories_sizes":[],"default_left":[1,1,1,1,1,1,1,1,1,1,1,1,1,0,1,0,0,0,1,1,1,0,0,0,0,0,0,1,0,0,0,0,1,1,1,0,0,0,0,0,0,0,0],"id":1,"left_children":[1,3,5,7,9,11,13,15,17,19,21,23,25,-1,27,-1,-1,-1,29,31,33,-1,-1,-1,-1,-1,-1,35,-1,-1,-1,-1,37,39,41,-1,-1,-1,-1,-1,-1,-1,-1],"loss_changes":[2.1914747E9,2.2381824E8,4.1545728E8,5.944224E6,6.319411E7,5.7995264E7,1.7774592E7,9.332E4,5.43864E5,1.3611776E7,3.205504E6,5.104E6,1.500672E6,0E0,4.099328E6,0E0,0E0,0E0,4.992E3,4.56128E5,1.033536E7,0E0,0E0,0E0,0E0,0E0,0E0,3.42016E5,0E0,0E0,0E0,0E0,1.014304E6,1.3555328E7,1.49144E6,0E0,0E0,0E0,0E0,0E0,0E0,0E0,0E0],"parents":[2147483647,0,0,1,1,2,2,3,3,4,4,5,5,6,6,7,7,8,8,9,9,10,10,11,11,12,12,14,14,18,18,19,19,20,20,27,27,32,32,33,33,34,34],"right_children":[2,4,6,8,10,12,14,16,18,20,22,24,26,-1,28,-1,-1,-1,30,32,34,-1,-1,-1,-1,-1,-1,36,-1,-1,-1,-1,38,40,42,-1,-1,-1,-1,-1,-1,-1,-1],"split_conditions":[2.11116E2,1.533E2,2.263515E2,1.477E2,2.0185E2,1.725E0,9.943286E1,7.2E0,9.958108E1,1.0036034E2,2.0559601E2,8.85E0,9.918859E1,9.671099E2,8.55E0,9.865422E1,8.8784706E1,1.5766559E2,2.780845E5,9.864319E1,1.00701454E2,3.4534348E2,4.0976028E2,4.3580838E2,5.0698422E2,5.883621E2,6.776358E2,4.79886E5,6.984033E2,1.21006454E2,1.3793958E2,2.6368475E2,1.8275E2,2.185E0,1.8725E2,8.8472455E2,7.9210614E2,3.2691843E2,2.8545993E2,2.7240497E2,2.2141017E2,1.84285E2,2.208656E2],"split_indices":[7,7,7,7,7,2,5,3,5,8,7,3,4,0,3,0,0,0,6,5,5,0,0,0,0,0,0,6,0,0,0,0,7,2,7,0,0,0,0,0,0,0,0],"split_type":[0,0,0,0,0,0,0,0,0,0,0,0,0,0,0,0,0,0,0,0,0,0,0,0,0,0,0,0,0,0,0,0,0,0,0,0,0,0,0,0,0,0,0],"sum_hessian":[6.299E3,4.666E3,1.633E3,1.099E3,3.567E3,1.094E3,5.39E2,7.13E2,3.86E2,3.153E3,4.14E2,5.93E2,5.01E2,1.24E2,4.15E2,3.88E2,3.25E2,1.46E2,2.4E2,6.08E2,2.545E3,2.2E2,1.94E2,3.95E2,1.98E2,4.29E2,7.2E1,3.47E2,6.8E1,1.17E2,1.23E2,1.25E2,4.83E2,2.023E3,5.22E2,1.4E2,2.07E2,1.53E2,3.3E2,1.173E3,8.5E2,2.7E2,2.52E2],"tree_param":{"num_deleted":"0","num_feature":"9","num_nodes":"43","size_leaf_vector":"0"}},{"base_weights":[7.809049E2,5.30442E2,1.466576E3,2.7444418E2,6.220204E2,1.2102606E3,1.9698396E3,3.6601E2,2.2735675E2,5.894265E2,8.427534E2,1.0559055E3,1.3847704E3,2.2643267E3,1.8822985E3,3.2663904E2,4.0814777E2,2.746999E2,2.171803E2,6.1733636E2,4.757914E2,7.66005E2,9.1843274E2,9.9272565E2,1.1369956E3,1.3483301E3,1.5904327E3,1.9459387E3,1.6319952E3,1.9892055E2,2.2324615E2,6.371067E2,4.944984E2,5.2443134E2,4.1091638E2,7.231386E2,8.34445E2,2.1588499E3,1.8805581E3,5.590513E2,6.7442584E2,5.0952283E2,4.2702023E2,5.6418317E2,4.563586E2,5.1973676E2,3.7513486E2],"categories":[],"categories_nodes":[],"categories_segments":[],"categories_sizes":[],"default_left":[1,1,1,1,1,1,1,1,1,1,1,1,1,0,1,0,0,0,1,1,1,1,0,0,0,0,0,1,0,0,0,1,1,1,1,0,0,0,0,0,0,0,0,0,0,0,0],"id":2,"left_children":[1,3,5,7,9,11,13,15,17,19,21,23,25,-1,27,-1,-1,-1,29,31,33,35,-1,-1,-1,-1,-1,37,-1,-1,-1,39,41,43,45,-1,-1,-1,-1,-1,-1,-1,-1,-1,-1,-1,-1],"loss_changes":[1.0811535E9,1.0804608E8,2.1497114E8,5.168312E6,2.3957632E7,2.8679552E7,1.0354944E7,5.50192E5,3.2914E5,9.109888E6,1.823072E6,1.93504E6,1.767616E6,0E0,3.88096E6,0E0,0E0,0E0,2.9692E4,5.4576E6,1.643096E6,4.788E4,0E0,0E0,0E0,0E0,0E0,7.84384E5,0E0,0E0,0E0,5.577024E6,1.21048E5,6.43632E5,8.05728E5,0E0,0E0,0E0,0E0,0E0,0E0,0E0,0E0,0E0,0E0,0E0,0E0],"parents":[2147483647,0,0,1,1,2,2,3,3,4,4,5,5,6,6,7,7,8,8,9,9,10,10,11,11,12,12,14,14,18,18,19,19,20,20,21,21,27,27,31,31,32,32,33,33,34,34],"right_children":[2,4,6,8,10,12,14,16,18,20,22,24,26,-1,28,-1,-1,-1,30,32,34,36,-1,-1,-1,-1,-1,38,-1,-1,-1,40,42,44,46,-1,-1,-1,-1,-1,-1,-1,-1,-1,-1,-1,-1],"split_conditions":[2.088685E2,1.5525E2,2.257505E2,5.8500004E0,2.002E2,1.000141E2,9.943286E1,1.525E2,6.45E0,2.7715E1,4.36835E5,7.05E0,9.918859E1,6.7929803E2,8.55E0,9.7991714E1,1.22444336E2,8.240997E1,1.4065E2,1.0086517E2,2.0749998E0,3.0149999E0,2.7552985E2,2.9781772E2,3.410987E2,4.0449905E2,4.7712985E2,4.735315E5,4.895986E2,5.9676167E1,6.697385E1,4.55E0,1.0209636E2,1.00618355E2,9.987562E1,2.1694159E2,2.5033351E2,6.4765497E2,5.641675E2,1.677154E2,2.0232776E2,1.5285686E2,1.2810608E2,1.6925496E2,1.369076E2,1.5592104E2,1.1254046E2],"split_indices":[7,7,7,3,7,5,5,7,3,0,6,3,4,0,3,0,0,0,7,5,1,2,0,0,0,0,0,6,0,0,0,3,5,5,5,0,0,0,0,0,0,0,0,0,0,0,0],"split_type":[0,0,0,0,0,0,0,0,0,0,0,0,0,0,0,0,0,0,0,0,0,0,0,0,0,0,0,0,0,0,0,0,0,0,0,0,0,0,0,0,0,0,0,0,0,0,0],"sum_hessian":[6.299E3,4.615E3,1.684E3,1.217E3,3.398E3,1.118E3,5.66E2,4.11E2,8.06E2,2.964E3,4.34E2,5.97E2,5.21E2,1.24E2,4.42E2,2.17E2,1.94E2,1.38E2,6.68E2,2.376E3,5.88E2,2.21E2,2.13E2,3.43E2,2.54E2,4.49E2,7.2E1,3.47E2,9.5E1,1.75E2,4.93E2,2.043E3,3.33E2,3.32E2,2.56E2,1.43E2,7.8E1,7.4E1,2.73E2,6.66E2,1.377E3,2.67E2,6.6E1,2.05E2,1.27E2,6E1,1.96E2],"tree_param":{"num_deleted":"0","num_feature":"9","num_nodes":"47","size_leaf_vector":"0"}},{"base_weights":[5.476333E2,3.665931E2,1.0162721E3,1.9397807E2,4.3163757E2,8.4049414E2,1.3830864E3,1.6073088E2,2.6016528E2,4.1226297E2,5.563522E2,7.557354E2,1.00641797E3,1.4399055E3,1.1684836E3,1.979559E2,1.5284856E2,2.3242435E2,2.8300757E2,4.4898358E2,3.6355307E2,5.878138E2,4.9328845E2,7.106908E2,8.3767126E2,9.7327277E2,1.1411038E3,1.5138398E3,1.289391E3,1.408876E2,1.5835884E2,4.284003E2,5.378725E2,3.3697678E2,4.3196143E2,5.3046814E2,6.1402246E2,7.2515375E2,5.760172E2,8.445312E2,5.7142957E2,1.576802E3,1.3731107E3,4.003424E2,5.1464197E2,4.4048425E2,5.549932E2,3.727392E2,2.738268E2],"categories":[],"categories_nodes":[],"categories_segments":[],"categories_sizes":[],"default_left":[1,1,1,1,1,1,1,1,1,1,1,1,1,1,0,0,1,0,0,1,1,1,0,1,1,0,0,1,0,0,0,1,1,1,0,0,0,0,0,0,0,0,0,0,0,0,0,0,0],"id":3,"left_children":[1,3,5,7,9,11,13,15,17,19,21,23,25,27,-1,-1,29,-1,-1,31,33,35,-1,37,39,-1,-1,41,-1,-1,-1,43,45,47,-1,-1,-1,-1,-1,-1,-1,-1,-1,-1,-1,-1,-1,-1,-1],"loss_changes":[5.341348E8,5.0957184E7,1.1199629E8,2.700056E6,7.746816E6,1.5960832E7,5.231232E6,2.13868E5,1.97192E5,4.954144E6,5.85024E5,2.324064E6,6.70624E5,2.988992E6,0E0,0E0,2.3232E4,0E0,0E0,2.746368E6,2.099712E6,1.08632E5,0E0,5.89296E5,1.968E4,0E0,0E0,4.22144E5,0E0,0E0,0E0,3.002576E6,2.59072E5,1.916936E6,0E0,0E0,0E0,0E0,0E0,0E0,0E0,0E0,0E0,0E0,0E0,0E0,0E0,0E0,0E0],"parents":[2147483647,0,0,1,1,2,2,3,3,4,4,5,5,6,6,7,7,8,8,9,9,10,10,11,11,12,12,13,13,16,16,19,19,20,20,21,21,23,23,24,24,27,27,31,31,32,32,33,33],"right_children":[2,4,6,8,10,12,14,16,18,20,22,24,26,28,-1,-1,30,-1,-1,32,34,36,-1,38,40,-1,-1,42,-1,-1,-1,44,46,48,-1,-1,-1,-1,-1,-1,-1,-1,-1,-1,-1,-1,-1,-1,-1],"split_conditions":[2.0741849E2,1.558E2,2.257505E2,1.496E2,1.9920001E2,1.0043451E2,8.4E0,6.25E0,1.525E2,3.304925E5,4.6499996E0,8.85E0,4.545935E5,2.3165851E2,3.505451E2,5.9386772E1,1.414E2,6.972731E1,8.4902275E1,1.0019203E2,3.740305E5,4.276725E5,1.4798654E2,2.156E1,5.5480003E1,2.9198184E2,3.4233115E2,9.740338E1,3.8681732E2,4.226628E1,4.7507652E1,1.7905E2,1.6004999E2,1.745E0,1.2958844E2,1.5914044E2,1.8420674E2,2.1754613E2,1.7280518E2,2.5335936E2,1.7142888E2,4.7304062E2,4.1193323E2,1.2010273E2,1.543926E2,1.3214528E2,1.6649797E2,1.1182176E2,8.214805E1],"split_indices":[7,7,7,7,7,5,3,3,7,6,3,3,6,7,0,0,7,0,0,5,6,6,0,0,0,0,0,4,0,0,0,7,7,1,0,0,0,0,0,0,0,0,0,0,0,0,0,0,0],"split_type":[0,0,0,0,0,0,0,0,0,0,0,0,0,0,0,0,0,0,0,0,0,0,0,0,0,0,0,0,0,0,0,0,0,0,0,0,0,0,0,0,0,0,0,0,0,0,0,0,0],"sum_hessian":[6.299E3,4.545E3,1.754E3,1.245E3,3.3E3,1.188E3,5.66E2,8.31E2,4.14E2,2.86E3,4.4E2,7.9E2,3.98E2,4.43E2,1.23E2,1.41E2,6.9E2,1.92E2,2.22E2,1.626E3,1.234E3,2.88E2,1.52E2,5.16E2,2.74E2,3.26E2,7.2E1,2.91E2,1.52E2,2.26E2,4.64E2,1.325E3,3.01E2,8.93E2,3.41E2,9.7E1,1.91E2,4.62E2,5.4E1,2.65E2,9E0,1.94E2,9.7E1,1.004E3,3.21E2,4.9E1,2.52E2,5.67E2,3.26E2],"tree_param":{"num_deleted":"0","num_feature":"9","num_nodes":"49","size_leaf_vector":"0"}},{"base_weights":[3.8409943E2,2.5698734E2,7.1314075E2,1.4452725E2,3.0766132E2,5.936176E2,9.809685E2,1.1472454E2,1.9313185E2,3.181572E2,1.9427002E2,5.1369507E2,6.818205E2,1.0672341E3,8.988573E2,1.065134E2,1.4005623E2,1.7082074E2,2.0549112E2,3.353123E2,2.4295816E2,2.2837573E2,1.6193102E2,5.365195E2,4.5118353E2,7.313951E2,6.305786E2,1.1633605E3,9.7790356E2,9.955885E2,8.558322E2,1.0055068E2,1.11804436E2,2.121916E2,1.23250435E2,2.6450467E2,3.5324353E2,2.1098691E2,2.8151028E2,1.7641028E2,2.5442435E2,1.6804167E2,1.2685593E2,5.1910034E2,5.912984E2,4.8633374E2,4.1752686E2,7.4707086E2,4.717894E2,6.018204E2,7.0363715E2,8.896456E2,7.405348E2,2.1964966E2,1.9331955E2,2.817395E2,1.7588593E2,2.9295847E2,3.7071362E2,2.2831221E2,1.8158241E2,2.58409E2,3.0690347E2,1.7057465E2,9.275259E1,1.5315796E2,6.3079197E1],"categories":[],"categories_nodes":[],"categories_segments":[],"categories_sizes":[],"default_left":[1,1,1,1,1,1,1,1,1,1,1,1,1,1,1,1,0,0,1,1,1,1,1,1,1,1,1,0,0,0,1,0,0,1,0,1,1,1,1,0,0,1,1,0,0,0,0,0,0,0,0,0,0,0,0,0,0,0,0,0,0,0,0,0,0,0,0],"id":4,"left_children":[1,3,5,7,9,11,13,15,17,19,21,23,25,27,29,31,-1,-1,33,35,37,39,41,43,45,47,49,-1,-1,-1,51,-1,-1,53,-1,55,57,59,61,-1,-1,63,65,-1,-1,-1,-1,-1,-1,-1,-1,-1,-1,-1,-1,-1,-1,-1,-1,-1,-1,-1,-1,-1,-1,-1,-1],"loss_changes":[2.6331507E8,2.5862272E7,5.559808E7,2.026092E6,3.666912E6,8.221824E6,2.865696E6,1.67916E5,1.127E5,3.61584E6,2.58608E5,6.73936E5,9.99472E5,1.077792E6,3.25744E5,9.833E3,0E0,0E0,1.61205E5,2.86616E6,6.01258E5,1.283815E5,8.9035E3,1.36768E5,7.524E3,8.11424E5,1.85832E5,0E0,0E0,0E0,1.32608E5,0E0,0E0,1.593E3,0E0,6.75932E5,1.847136E6,1.09847E5,6.148E4,0E0,0E0,6.4915E3,3.2275406E4,0E0,0E0,0E0,0E0,0E0,0E0,0E0,0E0,0E0,0E0,0E0,0E0,0E0,0E0,0E0,0E0,0E0,0E0,0E0,0E0,0E0,0E0,0E0,0E0],"parents":[2147483647,0,0,1,1,2,2,3,3,4,4,5,5,6,6,7,7,8,8,9,9,10,10,11,11,12,12,13,13,14,14,15,15,18,18,19,19,20,20,21,21,22,22,23,23,24,24,25,25,26,26,30,30,33,33,35,35,36,36,37,37,38,38,41,41,42,42],"right_children":[2,4,6,8,10,12,14,16,18,20,22,24,26,28,30,32,-1,-1,34,36,38,40,42,44,46,48,50,-1,-1,-1,52,-1,-1,54,-1,56,58,60,62,-1,-1,64,66,-1,-1,-1,-1,-1,-1,-1,-1,-1,-1,-1,-1,-1,-1,-1,-1,-1,-1,-1,-1,-1,-1,-1,-1],"split_conditions":[2.0741849E2,1.5845E2,2.263515E2,1.503E2,2.165E0,9.983081E1,2.2115E1,2.617125E5,1.53E2,1.00701454E2,3.5765E1,1.6045E1,9.45E0,9.473573E1,9.948472E1,9.919412E1,4.201687E1,5.1246223E1,1.675E0,4.3500004E0,4.0478928E1,4.4E0,1.01283295E2,9.2E0,2.13695E2,4.196E1,2.8649998E0,3.4900815E2,2.933711E2,2.9867657E2,2.761E1,3.0165205E1,3.3541332E1,2.1321468E1,3.6975132E1,2.3310001E1,9.918932E1,2.5015E1,2.05E-1,5.2923084E1,7.632731E1,7.15E1,2.3449998E0,1.557301E2,1.7738953E2,1.4590013E2,1.25258064E2,2.2412126E2,1.4153682E2,1.8054611E2,2.1109116E2,2.668937E2,2.2216045E2,6.58949E1,5.799587E1,8.452185E1,5.276578E1,8.788754E1,1.1121409E2,6.849367E1,5.4474728E1,7.7522705E1,9.2071045E1,5.1172398E1,2.7825777E1,4.5947388E1,1.892376E1],"split_indices":[7,7,7,7,1,5,0,6,7,5,0,0,3,4,5,8,0,0,1,3,4,3,5,3,7,0,2,0,0,0,0,0,0,4,0,0,5,0,2,0,0,0,1,0,0,0,0,0,0,0,0,0,0,0,0,0,0,0,0,0,0,0,0,0,0,0,0],"split_type":[0,0,0,0,0,0,0,0,0,0,0,0,0,0,0,0,0,0,0,0,0,0,0,0,0,0,0,0,0,0,0,0,0,0,0,0,0,0,0,0,0,0,0,0,0,0,0,0,0,0,0,0,0,0,0,0,0,0,0,0,0,0,0,0,0,0,0],"sum_hessian":[6.299E3,4.545E3,1.754E3,1.413E3,3.132E3,1.215E3,5.39E2,8.78E2,5.35E2,2.865E3,2.67E2,6.41E2,5.74E2,2.57E2,2.82E2,6.67E2,2.11E2,1.96E2,3.39E2,2.33E3,5.35E2,1.27E2,1.4E2,4.64E2,1.77E2,2.85E2,2.89E2,1.18E2,1.39E2,8E1,2.02E2,3.23E2,3.44E2,3.12E2,2.7E1,4.74E2,1.856E3,2.96E2,2.39E2,4.5E1,8.2E1,1.16E2,2.4E1,3.6E2,1.04E2,8E1,9.7E1,2.67E2,1.8E1,2.14E2,7.5E1,1.51E2,5.1E1,2.16E2,9.6E1,3.95E2,7.9E1,4.21E2,1.435E3,1.82E2,1.14E2,1.31E2,1.08E2,1.11E2,5E0,1.6E1,8E0],"tree_param":{"num_deleted":"0","num_feature":"9","num_nodes":"67","size_leaf_vector":"0"}},{"base_weights":[2.6950635E2,1.7907048E2,4.9887228E2,1.0139386E2,2.1436357E2,4.2015598E2,7.019575E2,7.8796906E1,1.3337448E2,2.2829634E2,1.7035039E2,3.5097833E2,4.7007977E2,7.6484717E2,6.414567E2,7.366031E1,9.290274E1,1.1189125E2,1.4207162E2,1.7790607E2,2.388788E2,2.4310869E2,1.4864296E2,3.608084E2,2.8680142E2,4.3392578E2,5.277721E2,7.9882214E2,6.5074097E2,6.690041E2,5.5424274E2,7.000883E1,7.8113304E1,8.3518456E1,9.714523E1,1.4690222E2,9.833155E1,1.8648158E2,1.19907135E2,2.4642862E2,1.7825131E2,2.0584602E2,2.9520935E2,2.3349138E2,1.348252E2,3.9904166E2,4.723082E2,5.391148E2,3.3146075E2,9.193118E2,7.575351E2,4.2725558E2,5.91413E2,1.3695001E2,1.6500887E2,1.9875024E2,1.7471396E2,9.610204E1,1.3358638E2,2.0676259E2,2.616192E2,9.549162E1,1.8301047E2,3.3001923E2,2.3895584E2,2.759347E2,2.1474469E2,1.2531485E2,1.6796509E2,4.0281116E2,2.1118056E2,4.8243015E2,3.5582788E2,5.209586E2,6.435424E2,3.395754E2,9.675586E1],"categories":[],"categories_nodes":[],"categories_segments":[],"categories_sizes":[],"default_left":[1,1,1,1,1,1,1,1,1,1,1,1,1,1,1,1,1,0,1,1,1,1,1,0,0,1,1,1,0,0,1,0,0,0,0,1,0,1,1,1,1,0,1,1,1,1,1,1,1,0,0,0,0,0,0,0,0,0,0,0,0,0,0,0,0,0,0,0,0,0,0,0,0,0,0,0,0],"id":5,"left_children":[1,3,5,7,9,11,13,15,17,19,21,23,25,27,29,31,33,-1,35,37,39,41,43,-1,-1,45,47,49,-1,-1,51,-1,-1,-1,-1,53,-1,55,57,59,61,-1,63,65,67,69,71,73,75,-1,-1,-1,-1,-1,-1,-1,-1,-1,-1,-1,-1,-1,-1,-1,-1,-1,-1,-1,-1,-1,-1,-1,-1,-1,-1,-1,-1],"loss_changes":[1.3059101E8,1.2369616E7,2.817632E7,1.011339E6,1.8664E6,4.276368E6,1.396608E6,5.3368E4,9.3219E4,1.214384E6,1.14999E6,2.39076E5,1.322816E6,4.02832E5,2.51464E5,4.515E3,5.6575E2,0E0,7.2607E4,1.83053E5,8.46344E5,2.71213E5,6.49693E5,0E0,0E0,4.31456E5,4.49232E5,1.94056E5,0E0,0E0,6.8286E4,0E0,0E0,0E0,0E0,4.3896E4,0E0,1.696E4,5.397625E3,9.86512E5,6.87805E4,0E0,5.62545E4,4.3985E3,1.37167E5,9.1264E4,8.1824E4,1.67192E5,1.426E3,0E0,0E0,0E0,0E0,0E0,0E0,0E0,0E0,0E0,0E0,0E0,0E0,0E0,0E0,0E0,0E0,0E0,0E0,0E0,0E0,0E0,0E0,0E0,0E0,0E0,0E0,0E0,0E0],"parents":[2147483647,0,0,1,1,2,2,3,3,4,4,5,5,6,6,7,7,8,8,9,9,10,10,11,11,12,12,13,13,14,14,15,15,16,16,18,18,19,19,20,20,21,21,22,22,25,25,26,26,27,27,30,30,35,35,37,37,38,38,39,39,40,40,42,42,43,43,44,44,45,45,46,46,47,47,48,48],"right_children":[2,4,6,8,10,12,14,16,18,20,22,24,26,28,30,32,34,-1,36,38,40,42,44,-1,-1,46,48,50,-1,-1,52,-1,-1,-1,-1,54,-1,56,58,60,62,-1,64,66,68,70,72,74,76,-1,-1,-1,-1,-1,-1,-1,-1,-1,-1,-1,-1,-1,-1,-1,-1,-1,-1,-1,-1,-1,-1,-1,-1,-1,-1,-1,-1],"split_conditions":[2.069945E2,1.5845E2,2.269595E2,2.772085E5,2.531E1,8.75E0,4.794085E5,1.00666985E2,1.5225E2,4.25E0,1.6315E2,1.9974998E1,8.432318E1,2.4525002E1,2.6595001E1,1.4320001E2,1.025E0,3.3567375E1,1.575E0,1.585E0,1.0086517E2,3.16272E5,9.992023E1,1.0824253E2,8.604043E1,1.00492065E2,4.2665E1,9.941985E1,1.952223E2,2.0070123E2,7.55E0,2.100265E1,2.3433992E1,2.5055538E1,2.9143572E1,9.891504E1,2.9499466E1,1.568E1,1.023735E2,9.928342E1,3.5720543E1,6.175381E1,1.305E0,1.48E0,3.673998E1,2.5060001E1,9.851193E1,1.725E0,3.24E0,2.7579355E2,2.2726054E2,1.2817668E2,1.7742392E2,4.1085007E1,4.9502663E1,5.9625076E1,5.241419E1,2.8830614E1,4.0075916E1,6.2028778E1,7.848576E1,2.8647488E1,5.490314E1,9.9005775E1,7.168675E1,8.278041E1,6.442341E1,3.7594456E1,5.038953E1,1.2084335E2,6.3354168E1,1.4472905E2,1.0674837E2,1.562876E2,1.9306273E2,1.0187263E2,2.9026758E1],"split_indices":[7,7,7,6,0,3,6,5,7,3,7,0,4,0,0,7,1,0,1,1,5,6,8,0,0,5,0,5,0,0,3,0,0,0,0,5,0,0,8,5,4,0,2,1,4,0,8,1,2,0,0,0,0,0,0,0,0,0,0,0,0,0,0,0,0,0,0,0,0,0,0,0,0,0,0,0,0],"split_type":[0,0,0,0,0,0,0,0,0,0,0,0,0,0,0,0,0,0,0,0,0,0,0,0,0,0,0,0,0,0,0,0,0,0,0,0,0,0,0,0,0,0,0,0,0,0,0,0,0,0,0,0,0,0,0,0,0,0,0,0,0,0,0,0,0,0,0,0,0,0,0,0,0,0,0,0,0],"sum_hessian":[6.299E3,4.519E3,1.78E3,1.413E3,3.106E3,1.285E3,4.95E2,8.3E2,5.83E2,2.356E3,7.5E2,5.42E2,7.43E2,2.37E2,2.58E2,6.13E2,2.17E2,1.72E2,4.11E2,4.12E2,1.944E3,1.7E2,5.8E2,4.66E2,7.6E1,4.62E2,2.81E2,1.78E2,5.9E1,1.91E2,6.7E1,3.46E2,2.67E2,7.4E1,1.43E2,3.68E2,4.3E1,3.57E2,5.5E1,1.726E3,2.18E2,1.02E2,6.8E1,7.9E1,5.01E2,2.48E2,2.14E2,2.64E2,1.7E1,4E1,1.38E2,1.8E1,4.9E1,2.43E2,1.25E2,1.67E2,1.9E2,2.3E1,3.2E1,4.82E2,1.244E3,1.3E1,2.05E2,3.9E1,2.9E1,2E1,5.9E1,3.93E2,1.08E2,2.42E2,6E0,1.94E2,2E1,2.3E2,3.4E1,1.6E1,1E0],"tree_param":{"num_deleted":"0","num_feature":"9","num_nodes":"77","size_leaf_vector":"0"}},{"base_weights":[1.8920044E2,1.23316635E2,3.452122E2,7.115411E1,1.4771507E2,2.7808514E2,4.669984E2,9.230362E1,5.4138607E1,1.8864087E2,1.3931761E2,3.2123666E2,2.4533466E2,3.7186188E2,4.995679E2,7.782313E1,9.974159E1,4.9400425E1,5.868025E1,1.468297E2,2.194964E2,1.8004965E2,1.26777405E2,2.898804E2,3.4218423E2,2.5116191E2,1.976894E2,3.917814E2,2.6797946E2,5.7066315E2,4.739917E2,7.8982285E1,5.1342403E1,1.0364184E2,6.72473E1,4.403321E1,5.137088E1,5.1950745E1,6.118372E1,1.5553943E2,1.14918274E2,2.0345453E2,2.6934824E2,1.6051163E2,2.1085762E2,1.496041E2,1.0424361E2,2.9609238E2,1.877288E2,3.63246E2,3.037102E2,2.5363521E2,1.8566226E2,1.3881293E2,2.2044339E2,3.130113E2,1.9907806E2,5.127879E2,6.589101E2,4.924102E2,3.9822845E2,9.7046844E1,1.14597755E2,7.277441E1,4.7193768E1,6.15646E1,3.7371212E1,1.652258E2,1.2824808E2,1.0071768E2,1.7865675E2,2.4797821E2,1.8897932E2,7.5060425E1,2.7112775E2,1.6450188E2,5.670516E1,1.7611983E2,2.3723889E2,1.4018965E2,2.1495534E2,9.6975746E1,1.3072743E2,3.8699997E2,3.2946783E2,2.7742612E2,2.4673068E2,8.0581055E1,2.3484233E2,5.394903E2,3.722602E2,5.0027197E2,3.8410294E2],"categories":[],"categories_nodes":[],"categories_segments":[],"categories_sizes":[],"default_left":[1,1,1,1,1,1,1,1,1,1,1,1,1,1,1,1,1,1,1,1,1,1,1,1,1,1,1,0,1,1,1,0,0,1,1,0,0,0,1,1,1,1,1,1,1,1,1,0,0,1,0,1,0,0,0,0,1,1,0,1,0,0,0,0,0,0,0,0,0,0,0,0,0,0,0,0,0,0,0,0,0,0,0,0,0,0,0,0,0,0,0,0,0],"id":6,"left_children":[1,3,5,7,9,11,13,15,17,19,21,23,25,27,29,31,33,35,37,39,41,43,45,47,49,51,53,-1,55,57,59,-1,-1,61,63,-1,-1,-1,65,67,69,71,73,75,77,79,81,-1,-1,83,-1,85,-1,-1,-1,-1,87,89,-1,91,-1,-1,-1,-1,-1,-1,-1,-1,-1,-1,-1,-1,-1,-1,-1,-1,-1,-1,-1,-1,-1,-1,-1,-1,-1,-1,-1,-1,-1,-1,-1,-1,-1],"loss_changes":[6.471291E7,5.628752E6,1.515768E7,5.03858E5,1.01092E6,1.628384E6,1.86856E6,5.99845E4,1.401525E4,6.27016E5,1.258232E6,2.41048E5,1.42192E5,2.52996E5,6.2232E5,2.636375E3,4.524575E4,1.8731875E3,3.492875E3,4.32725E4,1.78718E5,3.20088E5,9.72514E5,8.0212E4,1.36828E5,5.2056E4,7.65735E4,0E0,3.3872E4,3.00532E5,3.1604E5,0E0,0E0,1.532375E4,1.7748594E3,0E0,0E0,0E0,2.66E2,2.375025E4,2.81675E4,9.8147E4,3.159E3,1.41446E5,1.64413E5,5.55578E5,1.74028E5,0E0,0E0,2.655E4,0E0,2.7976E4,0E0,0E0,0E0,0E0,4.46455E4,9.9362E4,0E0,5.5624E4,0E0,0E0,0E0,0E0,0E0,0E0,0E0,0E0,0E0,0E0,0E0,0E0,0E0,0E0,0E0,0E0,0E0,0E0,0E0,0E0,0E0,0E0,0E0,0E0,0E0,0E0,0E0,0E0,0E0,0E0,0E0,0E0,0E0],"parents":[2147483647,0,0,1,1,2,2,3,3,4,4,5,5,6,6,7,7,8,8,9,9,10,10,11,11,12,12,13,13,14,14,15,15,16,16,17,17,18,18,19,19,20,20,21,21,22,22,23,23,24,24,25,25,26,26,28,28,29,29,30,30,33,33,34,34,38,38,39,39,40,40,41,41,42,42,43,43,44,44,45,45,46,46,49,49,51,51,56,56,57,57,59,59],"right_children":[2,4,6,8,10,12,14,16,18,20,22,24,26,28,30,32,34,36,38,40,42,44,46,48,50,52,54,-1,56,58,60,-1,-1,62,64,-1,-1,-1,66,68,70,72,74,76,78,80,82,-1,-1,84,-1,86,-1,-1,-1,-1,88,90,-1,92,-1,-1,-1,-1,-1,-1,-1,-1,-1,-1,-1,-1,-1,-1,-1,-1,-1,-1,-1,-1,-1,-1,-1,-1,-1,-1,-1,-1,-1,-1,-1,-1,-1],"split_conditions":[2.04013E2,1.5845E2,2.235695E2,5.95E0,1.6329999E2,1.475E0,9.8114456E1,1.5225E2,2.45748E5,3.151055E5,1.0022519E2,9.8109184E1,2.180765E2,3.739E1,9.943286E1,1.8985E1,3.1555E1,1.105E0,8.55E-1,5.3500004E0,3.205875E5,5.6E0,1.9165E1,2.1325E1,1.579E1,4.83142E5,2.1878351E2,1.17534424E2,3.09E0,9.185739E1,2.5735E1,2.3694687E1,1.5402721E1,9.891504E1,3.9629997E1,1.3209964E1,1.5411264E1,1.5585224E1,1.6765E1,1.0018364E2,2.9935001E1,3.166735E5,1.5136591E1,3.618E1,9.97128E1,4.1079E5,3.58876E5,8.882771E1,5.6318645E1,9.85E0,9.111307E1,9.666528E1,5.569868E1,4.164388E1,6.613302E1,9.390339E1,3.15E0,2.902E1,1.9767303E2,9.05E0,1.19468544E2,2.9114054E1,3.437933E1,2.1832323E1,1.4158131E1,1.8469381E1,1.1211364E1,4.956774E1,3.8474426E1,3.0215305E1,5.3597027E1,7.439346E1,5.6693798E1,2.2518127E1,8.1338326E1,4.9350567E1,1.7011549E1,5.283595E1,7.117167E1,4.2056896E1,6.44866E1,2.9092726E1,3.921823E1,1.161E2,9.8840355E1,8.322784E1,7.401921E1,2.4174318E1,7.0452705E1,1.6184709E2,1.1167806E2,1.500816E2,1.1523089E2],"split_indices":[7,7,7,3,7,1,8,7,6,6,8,8,7,0,5,0,0,1,1,3,6,3,0,0,0,6,7,0,2,4,0,0,0,5,0,0,0,0,0,5,0,6,4,0,8,6,6,0,0,3,0,5,0,0,0,0,2,0,0,3,0,0,0,0,0,0,0,0,0,0,0,0,0,0,0,0,0,0,0,0,0,0,0,0,0,0,0,0,0,0,0,0,0],"split_type":[0,0,0,0,0,0,0,0,0,0,0,0,0,0,0,0,0,0,0,0,0,0,0,0,0,0,0,0,0,0,0,0,0,0,0,0,0,0,0,0,0,0,0,0,0,0,0,0,0,0,0,0,0,0,0,0,0,0,0,0,0,0,0,0,0,0,0,0,0,0,0,0,0,0,0,0,0,0,0,0,0,0,0,0,0,0,0,0,0,0,0,0,0],"sum_hessian":[6.299E3,4.43E3,1.869E3,1.413E3,3.017E3,1.207E3,6.62E2,6.28E2,7.85E2,5.1E2,2.507E3,5.17E2,6.9E2,1.72E2,4.9E2,2.17E2,4.11E2,3.9E2,3.95E2,2.19E2,2.91E2,5.87E2,1.92E3,2.13E2,3.04E2,6.11E2,7.9E1,1.42E2,3E1,1.24E2,3.66E2,2.06E2,1.1E1,3.65E2,4.6E1,1.11E2,2.79E2,1.13E2,2.82E2,1.69E2,5E1,2.24E2,6.7E1,3.63E2,2.24E2,9.51E2,9.69E2,1.99E2,1.4E1,1.91E2,1.13E2,5.86E2,2.5E1,2.4E1,5.5E1,1.6E1,1.4E1,7.9E1,4.5E1,2.9E2,7.6E1,2.34E2,1.31E2,3.4E1,1.2E1,2.76E2,6E0,1.21E2,4.8E1,4.3E1,7E0,5.1E1,1.73E2,1E0,6.6E1,3.49E2,1.4E1,1E2,1.24E2,8.34E2,1.17E2,7.64E2,2.05E2,1.06E2,8.5E1,1.23E2,4.63E2,4E0,1E1,6.4E1,1.5E1,2.67E2,2.3E1],"tree_param":{"num_deleted":"0","num_feature":"9","num_nodes":"93","size_leaf_vector":"0"}},{"base_weights":[1.3290356E2,8.766818E1,2.4550485E2,4.9958138E1,1.0493524E2,1.9706058E2,3.2865164E2,3.9450092E1,6.7097336E1,1.0842436E2,5.212709E1,1.8015335E2,2.3834422E2,3.562316E2,2.7225977E2,4.9231308E1,3.6717678E1,5.797961E1,7.265779E1,7.947834E1,1.1419739E2,5.65463E1,2.8125866E1,1.953731E2,1.6387444E2,2.5178175E2,2.093024E2,4.476794E2,3.3927725E2,2.977599E2,2.2847166E2,3.8710808E1,3.2931366E1,6.0061558E1,3.764764E1,6.625914E1,8.996725E1,9.0145546E1,4.4860413E1,1.20901695E2,9.0556786E1,6.481376E1,3.5560806E1,-2.6403696E1,3.9201847E1,1.8537697E2,2.1316026E2,1.6638414E2,1.04791275E2,3.0142877E2,2.3837387E2,4.6199213E2,3.3110837E2,3.5323712E2,2.744884E2,2.3143799E2,6.9256996E1,3.6050045E1,4.0537636E1,3.3290684E1,2.2261198E1,6.2294743E1,4.932445E1,2.7063438E1,4.764234E1,7.432072E1,5.410938E1,6.796002E1,9.739004E1,1.08190094E2,8.50958E1,4.031822E1,5.903268E1,9.9419815E1,1.2850397E2,1.1393601E2,7.919645E1,8.8922165E1,5.5258766E1,4.3795982E1,-2.9384756E1,-5.4341125E0,-2.9510792E1,5.7845615E1,2.2768906E1,1.7324733E2,1.9785886E2,2.4280855E2,1.9659709E2,1.715986E2,1.4154968E2,1.1167399E2,5.106259E1,2.4502516E2,1.7697964E2,3.466167E2,3.0238293E2,2.7564575E2,7.9376465E1],"categories":[],"categories_nodes":[],"categories_segments":[],"categories_sizes":[],"default_left":[1,1,1,1,1,1,1,1,1,1,1,1,1,1,1,0,1,1,1,1,1,1,1,1,1,1,0,0,1,1,1,1,1,1,1,1,1,1,1,1,1,1,1,1,1,1,1,1,1,0,1,0,1,0,1,0,0,0,0,0,0,0,0,0,0,0,0,0,0,0,0,0,0,0,0,0,0,0,0,0,0,0,0,0,0,0,0,0,0,0,0,0,0,0,0,0,0,0,0],"id":7,"left_children":[1,3,5,7,9,11,13,15,17,19,21,23,25,27,29,-1,31,33,35,37,39,41,43,45,47,49,-1,-1,51,53,55,57,59,61,63,65,67,69,71,73,75,77,79,81,83,85,87,89,91,-1,93,-1,95,-1,97,-1,-1,-1,-1,-1,-1,-1,-1,-1,-1,-1,-1,-1,-1,-1,-1,-1,-1,-1,-1,-1,-1,-1,-1,-1,-1,-1,-1,-1,-1,-1,-1,-1,-1,-1,-1,-1,-1,-1,-1,-1,-1,-1,-1],"loss_changes":[3.2067936E7,2.922292E6,7.205744E6,2.520135E5,5.62408E5,7.54864E5,9.34168E5,2.168475E4,2.296175E4,4.74028E5,1.8880438E4,1.6991E5,7.5694E4,5.33408E5,1.79855E5,0E0,3.9399375E3,6.5435E3,3.0478E4,1.74686E5,3.70704E5,2.5801625E4,2.0362062E4,3.445E4,4.1877E4,7.4593E4,0E0,0E0,2.24952E5,7.9913E4,2.4588E4,7.11375E2,1.9825E2,1.4111875E3,1.0379238E3,1.9877375E4,7.4299375E3,2.441675E4,5.087203E3,2.93106E5,1.333365E5,2.1577125E4,2.695916E4,2.3056201E2,6.954965E3,7.206E3,2.24875E4,2.5179E4,1.3238281E3,0E0,2.9323E4,0E0,5.4224E4,0E0,9.275E2,0E0,0E0,0E0,0E0,0E0,0E0,0E0,0E0,0E0,0E0,0E0,0E0,0E0,0E0,0E0,0E0,0E0,0E0,0E0,0E0,0E0,0E0,0E0,0E0,0E0,0E0,0E0,0E0,0E0,0E0,0E0,0E0,0E0,0E0,0E0,0E0,0E0,0E0,0E0,0E0,0E0,0E0,0E0,0E0],"parents":[2147483647,0,0,1,1,2,2,3,3,4,4,5,5,6,6,7,7,8,8,9,9,10,10,11,11,12,12,13,13,14,14,16,16,17,17,18,18,19,19,20,20,21,21,22,22,23,23,24,24,25,25,28,28,29,29,30,30,31,31,32,32,33,33,34,34,35,35,36,36,37,37,38,38,39,39,40,40,41,41,42,42,43,43,44,44,45,45,46,46,47,47,48,48,50,50,52,52,54,54],"right_children":[2,4,6,8,10,12,14,16,18,20,22,24,26,28,30,-1,32,34,36,38,40,42,44,46,48,50,-1,-1,52,54,56,58,60,62,64,66,68,70,72,74,76,78,80,82,84,86,88,90,92,-1,94,-1,96,-1,98,-1,-1,-1,-1,-1,-1,-1,-1,-1,-1,-1,-1,-1,-1,-1,-1,-1,-1,-1,-1,-1,-1,-1,-1,-1,-1,-1,-1,-1,-1,-1,-1,-1,-1,-1,-1,-1,-1,-1,-1,-1,-1,-1,-1],"split_conditions":[2.063295E2,1.5845E2,2.235695E2,1.503E2,3.5325E1,1.00492065E2,2.5735E1,6.25E0,1.775E0,4.25E0,3.395E0,1.3780001E1,1.5965E1,9.941985E1,3.1215E1,1.4769393E1,1.432E1,3.628E1,1.558E2,1.625E0,1.00521835E2,4.9235E1,2.135E0,9.45E0,2.607E1,2.173185E2,6.279072E1,1.3430383E2,8.402432E1,9.94989E1,7.569E1,1.4320001E2,1.9244999E1,1.555E0,1.815E0,1.0064679E2,5.4E0,1.225E0,3.475E0,9.916928E1,5.15E0,1.0044339E2,6.1499996E0,2.0549998E0,3.6550002E0,1.645E0,9.789109E1,2.183065E2,3.0215E1,9.0428635E1,3.6149998E0,1.3859764E2,1.295E0,1.0597114E2,3.108E1,6.94314E1,2.07771E1,1.0815014E1,1.2161291E1,9.9872055E0,6.6783595E0,1.8688423E1,1.4797336E1,8.119032E0,1.4292703E1,2.2296215E1,1.6232815E1,2.0388008E1,2.9217012E1,3.245703E1,2.5528742E1,1.2095466E1,1.7709805E1,2.9825945E1,3.8551193E1,3.4180805E1,2.3758936E1,2.6676651E1,1.6577631E1,1.3138795E1,-8.815427E0,-1.6302339E0,-8.853238E0,1.7353685E1,6.830672E0,5.19742E1,5.935766E1,7.284257E1,5.897913E1,5.1479584E1,4.2464905E1,3.3502197E1,1.5318778E1,7.350755E1,5.3093895E1,1.03985016E2,9.071488E1,8.2693726E1,2.381294E1],"split_indices":[7,7,7,7,0,5,0,3,2,3,2,0,0,5,0,0,0,0,7,1,5,0,1,3,0,7,0,0,4,5,0,7,0,2,1,8,3,1,2,5,3,5,3,1,2,1,8,7,0,0,2,0,1,0,0,0,0,0,0,0,0,0,0,0,0,0,0,0,0,0,0,0,0,0,0,0,0,0,0,0,0,0,0,0,0,0,0,0,0,0,0,0,0,0,0,0,0,0,0],"split_type":[0,0,0,0,0,0,0,0,0,0,0,0,0,0,0,0,0,0,0,0,0,0,0,0,0,0,0,0,0,0,0,0,0,0,0,0,0,0,0,0,0,0,0,0,0,0,0,0,0,0,0,0,0,0,0,0,0,0,0,0,0,0,0,0,0,0,0,0,0,0,0,0,0,0,0,0,0,0,0,0,0,0,0,0,0,0,0,0,0,0,0,0,0,0,0,0,0,0,0],"sum_hessian":[6.299E3,4.495E3,1.804E3,1.413E3,3.082E3,1.142E3,6.62E2,8.78E2,5.35E2,2.89E3,1.92E2,8.14E2,3.28E2,4.41E2,2.21E2,1.88E2,6.9E2,2.07E2,3.28E2,4.83E2,2.407E3,1.61E2,3.1E1,4.15E2,3.99E2,2.19E2,1.09E2,6.5E1,3.76E2,1.36E2,8.5E1,4.46E2,2.44E2,1.86E2,2.1E1,2.43E2,8.5E1,3.68E2,1.15E2,1.872E3,5.35E2,1.14E2,4.7E1,5E0,2.6E1,2.73E2,1.42E2,3.81E2,1.8E1,4.2E1,1.77E2,2E1,3.56E2,3.6E1,1E2,8.3E1,2E0,1.9E2,2.56E2,2.34E2,1E1,1.5E2,3.6E1,1.2E1,9E0,1.43E2,1E2,2.4E1,6.1E1,7.6E1,2.92E2,9E1,2.5E1,4.93E2,1.379E3,1.72E2,3.63E2,3E1,8.4E1,4.2E1,5E0,1E0,4E0,1.1E1,1.5E1,1.46E2,1.27E2,4.6E1,9.6E1,3.1E2,7.1E1,1.5E1,3E0,1.57E2,2E1,2.24E2,1.32E2,9.9E1,1E0],"tree_param":{"num_deleted":"0","num_feature":"9","num_nodes":"99","size_leaf_vector":"0"}},{"base_weights":[9.3335655E1,5.948695E1,1.6915121E2,3.545481E1,7.1623634E1,1.3344966E2,2.2519852E2,2.8443707E1,4.847465E1,1.0438112E2,6.651019E1,1.20429985E2,1.5356142E2,2.496034E2,1.897467E2,2.4992716E1,3.3968685E1,5.1507862E1,3.745981E1,7.753238E1,1.3124548E2,9.167221E1,5.9172115E1,1.3589963E2,1.1358134E2,1.5750676E2,1.0518726E2,2.8335718E2,2.1725313E2,1.9470676E2,1.1895702E2,2.6188847E1,2.1397324E1,3.0246471E1,3.63228E1,4.7035908E1,6.7421814E1,2.9451674E1,4.225567E1,1.0885223E2,6.9112595E1,1.467846E2,8.510153E1,1.0829814E2,7.290514E1,1.0164327E2,5.5817924E1,1.419466E2,7.557459E1,1.1805284E2,9.406762E1,1.4385788E2,1.7105505E2,2.0434652E1,1.0932811E2,2.1231447E2,2.9121353E2,2.2752945E2,1.7333446E2,1.8699802E2,2.4907492E2,1.6275084E2,6.525012E1,3.4353794E1,2.5462479E1,2.5193886E1,1.9733814E1,3.6946022E1,2.1236122E1,4.8720947E1,2.1205599E1,4.8387497E1,7.4117485E1,1.0476296E0,3.7312584E1,5.038472E1,2.8552961E1,1.117308E2,6.5788475E1,1.4275522E2,2.294447E2,1.0133833E2,6.8144936E1,8.779719E1,1.2023495E2,7.83982E1,2.6713644E1,5.723202E1,1.2541613E2,6.138069E1,4.4042114E1,1.4913084E2,1.2678187E2,1.0212471E2,1.2264808E2,5.9087482E1,1.0493983E2,1.5912476E2,1.2918826E2,2.0215715E2,1.5747385E2,2.4963501E1,5.6884766E0,1.1566429E2,5.836983E1,7.1837074E1,2.2140654E2,3.0797903E2,2.3811057E2,1.8394193E2,2.5091766E2,1.9091835E2,1.2623427E2,1.9022841E2,1.17109024E2,5.903955E1,1.907613E2,1.5427343E1,8.823309E1],"categories":[],"categories_nodes":[],"categories_segments":[],"categories_sizes":[],"default_left":[1,1,1,1,1,1,1,1,1,1,1,1,1,1,1,1,1,1,1,1,1,1,1,1,1,1,1,1,1,1,1,1,1,0,1,1,1,1,1,0,1,1,1,1,1,1,1,1,0,1,1,1,1,1,1,1,1,1,1,1,0,1,1,0,0,0,0,0,0,0,0,0,0,0,0,0,0,0,0,0,0,0,0,0,0,0,0,0,0,0,0,0,0,0,0,0,0,0,0,0,0,0,0,0,0,0,0,0,0,0,0,0,0,0,0,0,0,0,0],"id":8,"left_children":[1,3,5,7,9,11,13,15,17,19,21,23,25,27,29,31,33,35,37,39,41,43,45,47,49,51,53,55,57,59,61,63,65,-1,67,69,71,73,75,-1,77,79,81,83,85,87,89,91,-1,93,95,97,99,101,103,105,107,109,111,113,-1,115,117,-1,-1,-1,-1,-1,-1,-1,-1,-1,-1,-1,-1,-1,-1,-1,-1,-1,-1,-1,-1,-1,-1,-1,-1,-1,-1,-1,-1,-1,-1,-1,-1,-1,-1,-1,-1,-1,-1,-1,-1,-1,-1,-1,-1,-1,-1,-1,-1,-1,-1,-1,-1,-1,-1,-1,-1],"loss_changes":[1.6157368E7,1.268268E6,3.859844E6,1.3226012E5,4.77813E5,2.93104E5,6.05864E5,1.7340688E4,1.5143125E4,2.704E5,4.57286E5,6.1588E4,7.1988E4,4.23262E5,8.6388E4,1.9812188E3,2.0909062E3,2.5153E4,3.1337656E3,4.4427E4,1.2589625E5,1.68084E5,2.71119E5,6.8795E4,3.33955E4,5.4353E4,1.1101906E4,5.7614E4,6.4817E4,7.4965E4,4.3477156E4,1.728875E3,4.691172E2,0E0,1.265125E3,1.263375E4,7.2466875E3,1.0231867E4,6.247297E3,0E0,1.5033E4,1.48745E4,7.1356562E3,6.212425E4,6.5906E4,1.4168762E5,1.15404E5,2.55575E3,0E0,1.7557E4,3.1830562E4,2.849E4,5.64485E4,5.8345337E1,4.8724062E3,1.6025625E4,9.5823E4,1.41422E5,1.5653375E4,3.597E4,0E0,2.3597594E4,1.2379703E4,0E0,0E0,0E0,0E0,0E0,0E0,0E0,0E0,0E0,0E0,0E0,0E0,0E0,0E0,0E0,0E0,0E0,0E0,0E0,0E0,0E0,0E0,0E0,0E0,0E0,0E0,0E0,0E0,0E0,0E0,0E0,0E0,0E0,0E0,0E0,0E0,0E0,0E0,0E0,0E0,0E0,0E0,0E0,0E0,0E0,0E0,0E0,0E0,0E0,0E0,0E0,0E0,0E0,0E0,0E0,0E0],"parents":[2147483647,0,0,1,1,2,2,3,3,4,4,5,5,6,6,7,7,8,8,9,9,10,10,11,11,12,12,13,13,14,14,15,15,16,16,17,17,18,18,19,19,20,20,21,21,22,22,23,23,24,24,25,25,26,26,27,27,28,28,29,29,30,30,31,31,32,32,34,34,35,35,36,36,37,37,38,38,40,40,41,41,42,42,43,43,44,44,45,45,46,46,47,47,49,49,50,50,51,51,52,52,53,53,54,54,55,55,56,56,57,57,58,58,59,59,61,61,62,62],"right_children":[2,4,6,8,10,12,14,16,18,20,22,24,26,28,30,32,34,36,38,40,42,44,46,48,50,52,54,56,58,60,62,64,66,-1,68,70,72,74,76,-1,78,80,82,84,86,88,90,92,-1,94,96,98,100,102,104,106,108,110,112,114,-1,116,118,-1,-1,-1,-1,-1,-1,-1,-1,-1,-1,-1,-1,-1,-1,-1,-1,-1,-1,-1,-1,-1,-1,-1,-1,-1,-1,-1,-1,-1,-1,-1,-1,-1,-1,-1,-1,-1,-1,-1,-1,-1,-1,-1,-1,-1,-1,-1,-1,-1,-1,-1,-1,-1,-1,-1,-1],"split_conditions":[2.03E2,1.5925E2,2.20031E2,1.515E2,1.624E2,9.2E0,8.4E0,2.568745E5,1.395E0,1.61E2,1.0022519E2,6.1296333E1,2.077E1,4.794085E5,4.1004997E1,1.5205E1,2.68844E5,1.5625E2,2.7265E1,1.285E0,1.0262215E2,1.765E0,7.75E-1,8.85E0,1.8279999E1,9.8102036E1,9.5E-1,9.93645E1,4.9758E5,1.725E0,3.09E0,9.933525E1,9.933525E1,9.073942E0,1.924E1,1.095E0,5.3500004E0,2.4000001E-1,1.675E0,3.265567E1,2.042E1,3.019E1,1.665E0,5.6E0,7.266028E1,5.75E0,2.4215E1,1.4059999E1,2.2672379E1,4.408335E5,4.55726E5,9.789109E1,9.700001E0,2.7335E1,2.72E0,1.47E0,9.931761E1,4.83918E5,1.775E0,3.685E0,7.472248E1,4.1805E1,3.15E0,1.0306139E1,7.638744E0,7.558166E0,5.9201446E0,1.1083807E1,6.3708367E0,1.4616284E1,6.36168E0,1.451625E1,2.2235247E1,3.1428888E-1,1.1193775E1,1.5115417E1,8.565888E0,3.351924E1,1.9736544E1,4.282657E1,6.883341E1,3.04015E1,2.0443481E1,2.6339157E1,3.6070484E1,2.351946E1,8.014093E0,1.7169607E1,3.762484E1,1.8414207E1,1.3212635E1,4.4739254E1,3.803456E1,3.0637415E1,3.6794426E1,1.7726246E1,3.1481949E1,4.7737427E1,3.875648E1,6.064715E1,4.7242157E1,7.4890504E0,1.7065431E0,3.4699287E1,1.751095E1,2.1551123E1,6.642197E1,9.2393715E1,7.1433174E1,5.518258E1,7.52753E1,5.727551E1,3.787028E1,5.7068523E1,3.513271E1,1.7711866E1,5.7228394E1,4.6282034E0,2.6469929E1],"split_indices":[7,7,7,7,7,3,3,6,1,7,8,4,0,6,0,0,6,7,0,1,8,1,1,3,0,8,1,5,6,1,2,5,5,0,0,1,3,2,1,0,0,0,2,3,4,3,0,0,0,6,6,8,3,0,2,2,4,6,2,2,0,0,2,0,0,0,0,0,0,0,0,0,0,0,0,0,0,0,0,0,0,0,0,0,0,0,0,0,0,0,0,0,0,0,0,0,0,0,0,0,0,0,0,0,0,0,0,0,0,0,0,0,0,0,0,0,0,0,0],"split_type":[0,0,0,0,0,0,0,0,0,0,0,0,0,0,0,0,0,0,0,0,0,0,0,0,0,0,0,0,0,0,0,0,0,0,0,0,0,0,0,0,0,0,0,0,0,0,0,0,0,0,0,0,0,0,0,0,0,0,0,0,0,0,0,0,0,0,0,0,0,0,0,0,0,0,0,0,0,0,0,0,0,0,0,0,0,0,0,0,0,0,0,0,0,0,0,0,0,0,0,0,0,0,0,0,0,0,0,0,0,0,0,0,0,0,0,0,0,0,0],"sum_hessian":[6.299E3,4.356E3,1.943E3,1.463E3,2.893E3,1.189E3,7.54E2,9.53E2,5.1E2,3.88E2,2.505E3,7.26E2,4.63E2,4.43E2,3.11E2,5.9E2,3.63E2,3.97E2,1.13E2,1.96E2,1.92E2,5.63E2,1.942E3,2.17E2,5.09E2,4.26E2,3.7E1,2.13E2,2.3E2,2.89E2,2.2E1,4.38E2,1.52E2,1.46E2,2.17E2,3.13E2,8.4E1,4.5E1,6.8E1,3.9E1,1.57E2,1.42E2,5E1,2.96E2,2.67E2,1.4E2,1.802E3,1.96E2,2.1E1,4.1E2,9.9E1,2.18E2,2.08E2,2E0,3.5E1,2.4E1,1.89E2,1.83E2,4.7E1,2.57E2,3.2E1,1.1E1,1.1E1,3.2E1,4.06E2,4.2E1,1.1E2,2.07E2,1E1,2.93E2,2E1,2.4E1,6E1,1E1,3.5E1,4.1E1,2.7E1,9E0,1.48E2,1.38E2,4E0,2.3E1,2.7E1,1.12E2,1.84E2,2.38E2,2.9E1,5E1,9E1,1.221E3,5.81E2,1.27E2,6.9E1,9.7E1,3.13E2,2.5E1,7.4E1,1.02E2,1.16E2,5.9E1,1.49E2,1E0,1E0,3E1,5E0,2E0,2.2E1,1.4E2,4.9E1,6.7E1,1.16E2,3.2E1,1.5E1,2.44E2,1.3E1,3E0,8E0,4E0,7E0],"tree_param":{"num_deleted":"0","num_feature":"9","num_nodes":"119","size_leaf_vector":"0"}},{"base_weights":[6.5621925E1,4.177392E1,1.1903764E2,2.492143E1,5.0284725E1,9.680786E1,1.6417957E2,1.8982658E1,3.2687843E1,7.220343E1,4.581999E1,8.851937E1,1.18996544E2,2.0420012E2,1.4783034E2,2.1760406E1,1.6786318E1,2.8610552E1,3.6368347E1,6.607693E1,1.0907187E2,6.0950455E1,3.8787647E1,9.568086E1,7.7962845E1,1.3421565E2,1.043714E2,2.7160593E2,1.9181563E2,1.5678508E2,1.0727278E2,2.0215302E1,3.0445549E1,1.4011651E1,1.7355307E1,2.6983095E1,3.618684E1,3.2695213E1,4.79649E1,9.004714E1,6.018935E1,3.9433838E1,1.10584625E2,7.0380424E1,3.445955E1,5.928889E1,3.4451027E1,9.707099E1,4.8120728E1,9.193288E1,7.297652E1,7.507065E1,1.3825813E2,1.15015434E2,9.0033295E1,1.9776753E2,1.266319E2,1.9670161E2,1.4788101E2,9.867244E1,1.7879208E2,1.715321E1,2.177498E1,1.4147577E1,1.2969208E0,2.2116848E1,1.7033806E1,1.4849684E1,2.7787374E1,8.306402E1,2.5533783E1,3.554794E1,1.3911137E1,2.2718307E1,5.642479E1,9.119793E1,-1.0079346E0,4.7590115E1,6.883386E1,1.05542885E2,1.6234589E2,5.8869408E1,8.9052475E1,4.9318707E1,1.7866453E1,5.143083E1,9.064466E1,2.5306646E1,4.3816624E1,1.0958131E2,9.298769E1,5.1663742E1,1.3184407E1,7.824443E1,4.8212147E1,3.7958595E1,8.7347275E1,1.5059381E2,1.179798E2,9.506691E1,1.2445604E2,1.00971146E2,6.061864E1,2.2437825E2,1.7858609E2,4.683899E1,2.0319756E2,2.5714072E2,1.4560501E2,1.4250533E2,8.435527E1],"categories":[],"categories_nodes":[],"categories_segments":[],"categories_sizes":[],"default_left":[1,1,1,1,1,1,1,1,1,1,1,1,1,1,1,1,1,1,1,1,1,1,1,1,1,1,1,0,1,1,1,1,0,1,1,1,1,1,1,1,1,0,1,1,1,1,1,1,1,0,1,1,1,1,1,1,0,1,1,1,0,0,0,0,0,0,0,0,0,0,0,0,0,0,0,0,0,0,0,0,0,0,0,0,0,0,0,0,0,0,0,0,0,0,0,0,0,0,0,0,0,0,0,0,0,0,0,0,0,0,0],"id":9,"left_children":[1,3,5,7,9,11,13,15,17,19,21,23,25,27,29,31,33,35,37,39,41,43,45,47,49,51,53,-1,55,57,59,61,-1,63,65,67,69,71,73,75,77,-1,79,81,83,85,87,89,91,-1,93,95,97,99,101,103,-1,105,107,109,-1,-1,-1,-1,-1,-1,-1,-1,-1,-1,-1,-1,-1,-1,-1,-1,-1,-1,-1,-1,-1,-1,-1,-1,-1,-1,-1,-1,-1,-1,-1,-1,-1,-1,-1,-1,-1,-1,-1,-1,-1,-1,-1,-1,-1,-1,-1,-1,-1,-1,-1],"loss_changes":[8.020336E6,6.236635E5,1.934902E6,6.69035E4,2.799015E5,2.2947E5,3.88568E5,4.7106562E3,8.4585625E3,1.0301975E5,2.537475E5,6.46635E4,6.43405E4,1.00668E5,1.4952E5,4.2692188E3,4.9726562E2,2.7842344E3,1.2445781E4,5.3994375E4,2.8026875E3,1.8792875E5,1.44297E5,3.2618E4,2.0528E4,3.00275E4,1.7726125E4,0E0,3.6255E4,1.03483E5,3.5256E4,1.1165625E3,0E0,1.2855469E2,2.1264062E2,2.0758125E3,2.334771E4,1.3062719E4,1.5164031E4,8.5795625E3,3.3864E4,0E0,8.9375E1,1.153355E5,4.892383E4,6.580719E4,1.1545075E5,1.7753E4,1.5468828E3,0E0,3.44515E4,2.6073672E3,2.1506E4,7.377625E3,2.0583125E4,3.2921E4,0E0,5.376E4,3.94E4,3.7556375E4,0E0,0E0,0E0,0E0,0E0,0E0,0E0,0E0,0E0,0E0,0E0,0E0,0E0,0E0,0E0,0E0,0E0,0E0,0E0,0E0,0E0,0E0,0E0,0E0,0E0,0E0,0E0,0E0,0E0,0E0,0E0,0E0,0E0,0E0,0E0,0E0,0E0,0E0,0E0,0E0,0E0,0E0,0E0,0E0,0E0,0E0,0E0,0E0,0E0,0E0,0E0],"parents":[2147483647,0,0,1,1,2,2,3,3,4,4,5,5,6,6,7,7,8,8,9,9,10,10,11,11,12,12,13,13,14,14,15,15,16,16,17,17,18,18,19,19,20,20,21,21,22,22,23,23,24,24,25,25,26,26,28,28,29,29,30,30,31,31,33,33,34,34,35,35,36,36,37,37,38,38,39,39,40,40,42,42,43,43,44,44,45,45,46,46,47,47,48,48,50,50,51,51,52,52,53,53,54,54,55,55,57,57,58,58,59,59],"right_children":[2,4,6,8,10,12,14,16,18,20,22,24,26,28,30,32,34,36,38,40,42,44,46,48,50,52,54,-1,56,58,60,62,-1,64,66,68,70,72,74,76,78,-1,80,82,84,86,88,90,92,-1,94,96,98,100,102,104,-1,106,108,110,-1,-1,-1,-1,-1,-1,-1,-1,-1,-1,-1,-1,-1,-1,-1,-1,-1,-1,-1,-1,-1,-1,-1,-1,-1,-1,-1,-1,-1,-1,-1,-1,-1,-1,-1,-1,-1,-1,-1,-1,-1,-1,-1,-1,-1,-1,-1,-1,-1,-1,-1],"split_conditions":[2.03E2,1.5925E2,2.244495E2,1.496E2,1.6345E2,1.00492065E2,1.9985E1,1.2775E1,1.775E0,3.205875E5,1.004569E2,1.4385E1,1.4235001E1,9.941985E1,3.1215E1,1.011676E2,1.335E0,2.998E1,2.98781E5,2.083E1,4.5E-1,2.3630001E1,1.3475E1,1.965E0,1.6499999E-1,1.066E1,9.700001E0,8.148178E1,4.79886E5,9.941985E1,1.795E0,2.315E0,9.133665E0,1.995E1,1.4579565E1,2.4000001E-1,6.05E-1,2.3705E1,2.185E0,3.195555E5,3.9499998E-1,1.1830152E1,3.019E1,5.6E0,1.000067E2,1.794E2,3.42379E5,1.1215E1,2.7649999E0,2.7579865E1,1.14516754E2,2.17E0,1.01246124E2,9.834758E1,9.8499985E1,1.155E0,3.798957E1,1.435E0,1.41E0,8.749188E1,5.3637627E1,5.145963E0,6.5324945E0,4.244273E0,3.8907626E-1,6.6350546E0,5.1101418E0,4.4549055E0,8.336213E0,2.4919207E1,7.6601353E0,1.0664382E1,4.1733413E0,6.8154926E0,1.6927437E1,2.735938E1,-3.0238038E-1,1.4277035E1,2.065016E1,3.1662867E1,4.870377E1,1.7660824E1,2.6715744E1,1.4795612E1,5.359936E0,1.5429249E1,2.71934E1,7.5919943E0,1.3144988E1,3.2874393E1,2.7896309E1,1.5499124E1,3.9553223E0,2.347333E1,1.4463645E1,1.1387579E1,2.6204184E1,4.5178146E1,3.539394E1,2.8520075E1,3.7336815E1,3.0291346E1,1.8185593E1,6.731348E1,5.357583E1,1.4051698E1,6.095927E1,7.714222E1,4.3681503E1,4.27516E1,2.5306581E1],"split_indices":[7,7,7,7,7,5,0,0,2,6,8,0,0,5,0,5,2,0,6,0,2,0,0,1,2,0,3,0,6,5,1,2,0,0,4,2,2,0,2,6,2,0,0,3,8,7,6,0,2,0,4,2,5,8,8,1,0,2,2,4,0,0,0,0,0,0,0,0,0,0,0,0,0,0,0,0,0,0,0,0,0,0,0,0,0,0,0,0,0,0,0,0,0,0,0,0,0,0,0,0,0,0,0,0,0,0,0,0,0,0,0],"split_type":[0,0,0,0,0,0,0,0,0,0,0,0,0,0,0,0,0,0,0,0,0,0,0,0,0,0,0,0,0,0,0,0,0,0,0,0,0,0,0,0,0,0,0,0,0,0,0,0,0,0,0,0,0,0,0,0,0,0,0,0,0,0,0,0,0,0,0,0,0,0,0,0,0,0,0,0,0,0,0,0,0,0,0,0,0,0,0,0,0,0,0,0,0,0,0,0,0,0,0,0,0,0,0,0,0,0,0,0,0,0,0],"sum_hessian":[6.299E3,4.356E3,1.943E3,1.463E3,2.893E3,1.304E3,6.39E2,8.31E2,6.32E2,4.87E2,2.406E3,9.53E2,3.51E2,1.82E2,4.57E2,3.63E2,4.68E2,3.04E2,3.28E2,4.2E2,6.7E1,7.61E2,1.645E3,5.63E2,3.9E2,1.68E2,1.83E2,2.5E1,1.57E2,3.72E2,8.5E1,3.11E2,5.2E1,8.4E1,3.84E2,2.54E2,5E1,2.52E2,7.6E1,8E1,3.4E2,2E0,6.5E1,5.6E2,2.01E2,2.85E2,1.36E3,5.46E2,1.7E1,9.8E1,2.92E2,1.2E1,1.56E2,1.01E2,8.2E1,1.42E2,1.5E1,6.4E1,3.08E2,7.8E1,7E0,1.09E2,2.02E2,8.3E1,1E0,2E1,3.64E2,1.7E1,2.37E2,8E0,4.2E1,2.18E2,3.4E1,2E1,5.6E1,7.9E1,1E0,1.41E2,1.99E2,6.2E1,3E0,3.49E2,2.11E2,1.05E2,9.6E1,2.3E2,5.5E1,6.9E2,6.7E2,1.28E2,4.18E2,1.5E1,2E0,2.39E2,5.3E1,4E0,8E0,9.3E1,6.3E1,3.6E1,6.5E1,5.8E1,2.4E1,5.5E1,8.7E1,3E0,6.1E1,4E0,3.04E2,1.7E1,6.1E1],"tree_param":{"num_deleted":"0","num_feature":"9","num_nodes":"111","size_leaf_vector":"0"}},{"base_weights":[4.614794E1,3.105138E1,8.8361374E1,1.7336525E1,3.719519E1,7.3850266E1,1.2223752E2,1.3928932E1,2.4003551E1,3.4248447E1,5.4660744E1,6.142848E1,8.3854546E1,1.3858548E2,1.0674311E2,1.2310588E1,1.6518251E1,2.652759E1,1.8077007E1,4.561067E1,2.869035E1,6.54167E1,3.703301E1,6.580624E1,5.0411633E1,9.051787E1,7.066164E1,1.4867485E2,1.14216125E2,2.0669394E2,1.0436469E2,9.11237E0,1.2959066E1,2.02873E1,1.5402314E1,2.2938282E1,3.6163258E1,1.4780393E1,3.2303307E1,4.1236954E1,7.798322E1,7.721659E1,2.7434992E1,9.778055E1,6.1928715E1,3.3947716E0,4.415212E1,5.2828808E1,6.8754555E1,4.391185E1,7.3616684E1,1.0055477E2,7.7188286E1,4.2077847E1,7.427556E1,1.1701456E2,1.6181223E2,1.1619776E2,2.8584799E1,1.0571501E2,-4.4300213E1,1.0592789E1,7.8748565E0,1.1699624E1,1.5895233E1,2.46134E1,1.5787179E1,2.177116E1,1.4211932E1,3.5800903E1,2.0737679E1,4.3454216E1,2.9175838E1,3.2890437E0,2.0556396E1,1.7228403E1,4.1590527E1,3.397063E1,5.5161617E1,6.6789665E1,8.456312E1,7.089979E1,1.25818085E2,7.3881054E0,3.0934782E1,2.2505981E1,1.0311568E2,6.796602E1,5.221924E1,-8.561722E0,7.0850587E0,5.3153595E1,3.492201E1,6.328174E1,2.572057E1,6.92205E1,-2.924398E-1,5.2276375E1,3.203584E1,9.5851746E1,1.4702522E2,5.8099125E1,8.984899E1,6.1911476E1,2.8721504E1,7.798377E1,4.173937E1,1.3530734E2,3.653165E1,2.0392944E2,1.3242528E2,1.1195532E2,7.944081E1],"categories":[],"categories_nodes":[],"categories_segments":[],"categories_sizes":[],"default_left":[1,1,1,1,1,1,1,1,1,1,1,1,1,1,1,1,1,1,1,1,1,1,1,1,1,1,1,1,1,0,1,1,1,1,1,1,1,1,1,1,1,1,1,1,1,1,1,1,1,1,0,1,1,1,1,1,1,0,0,1,0,0,0,0,0,0,0,0,0,0,0,0,0,0,0,0,0,0,0,0,0,0,0,0,0,0,0,0,0,0,0,0,0,0,0,0,0,0,0,0,0,0,0,0,0,0,0,0,0,0,0,0,0],"id":10,"left_children":[1,3,5,7,9,11,13,15,17,19,21,23,25,27,29,31,33,35,37,39,41,43,45,47,49,51,53,55,57,-1,59,61,63,65,67,69,71,73,75,77,79,81,83,85,87,89,91,93,95,97,-1,99,101,103,105,107,109,-1,-1,111,-1,-1,-1,-1,-1,-1,-1,-1,-1,-1,-1,-1,-1,-1,-1,-1,-1,-1,-1,-1,-1,-1,-1,-1,-1,-1,-1,-1,-1,-1,-1,-1,-1,-1,-1,-1,-1,-1,-1,-1,-1,-1,-1,-1,-1,-1,-1,-1,-1,-1,-1,-1,-1],"loss_changes":[4.012105E6,3.90497E5,8.06505E5,3.2334906E4,1.630785E5,1.395005E5,1.108455E5,3.7942969E3,6.7754688E3,1.720445E5,8.4984375E4,2.1906375E4,5.00415E4,4.1536E4,3.999925E4,1.107625E3,1.2185156E3,1.0860344E4,6.463543E3,1.2421375E5,1.10335875E5,2.611675E4,4.223711E4,1.056275E4,1.9843969E4,4.88305E4,1.9600625E4,4.969425E4,9.2355625E3,0E0,5.5873E4,1.052832E2,1.6223203E3,1.1688633E3,1.8512812E3,6.3056484E3,3.3172188E3,8.0300273E3,3.0635664E3,7.8565E4,2.15925E3,5.2018125E3,1.2612925E5,8.1208906E3,1.1691875E4,1.4725928E3,1.0274094E4,1.9057672E4,9.63975E3,1.04444375E4,0E0,3.792275E4,3.973275E4,5.3742305E3,2.015125E4,7.161444E4,1.14092E5,0E0,0E0,3.258775E4,0E0,0E0,0E0,0E0,0E0,0E0,0E0,0E0,0E0,0E0,0E0,0E0,0E0,0E0,0E0,0E0,0E0,0E0,0E0,0E0,0E0,0E0,0E0,0E0,0E0,0E0,0E0,0E0,0E0,0E0,0E0,0E0,0E0,0E0,0E0,0E0,0E0,0E0,0E0,0E0,0E0,0E0,0E0,0E0,0E0,0E0,0E0,0E0,0E0,0E0,0E0,0E0,0E0],"parents":[2147483647,0,0,1,1,2,2,3,3,4,4,5,5,6,6,7,7,8,8,9,9,10,10,11,11,12,12,13,13,14,14,15,15,16,16,17,17,18,18,19,19,20,20,21,21,22,22,23,23,24,24,25,25,26,26,27,27,28,28,30,30,31,31,32,32,33,33,34,34,35,35,36,36,37,37,38,38,39,39,40,40,41,41,42,42,43,43,44,44,45,45,46,46,47,47,48,48,49,49,51,51,52,52,53,53,54,54,55,55,56,56,59,59],"right_children":[2,4,6,8,10,12,14,16,18,20,22,24,26,28,30,32,34,36,38,40,42,44,46,48,50,52,54,56,58,-1,60,62,64,66,68,70,72,74,76,78,80,82,84,86,88,90,92,94,96,98,-1,100,102,104,106,108,110,-1,-1,112,-1,-1,-1,-1,-1,-1,-1,-1,-1,-1,-1,-1,-1,-1,-1,-1,-1,-1,-1,-1,-1,-1,-1,-1,-1,-1,-1,-1,-1,-1,-1,-1,-1,-1,-1,-1,-1,-1,-1,-1,-1,-1,-1,-1,-1,-1,-1,-1,-1,-1,-1,-1,-1],"split_conditions":[2.10012E2,1.589E2,2.269595E2,1.515E2,2.002E2,9.9464905E1,4.794085E5,2.568745E5,2.1321468E1,3.211585E5,7.095843E1,2.14999E2,9.700001E0,9.62093E1,1.385E0,8.45E-1,1.405E0,1.015E0,2.4250002E0,1.7955E2,1.632E2,5.682909E1,4.230995E5,3.414835E5,1.97E0,1.7875E1,7.201169E1,4.66908E5,3.547E1,6.2008183E1,3.36E1,2.05E0,1.4355E2,1.6369999E1,1.1515E1,5.55E0,2.1985E1,2.5445E1,1.927E1,1.0224524E2,7.75E-1,3.019E1,2.4152683E1,1.26E1,3.275E0,2.775E0,2.245E0,8.85E0,2.9375E1,1.7685001E1,2.2085007E1,2.244495E2,1.435E0,1.0585E1,2.004E1,1.95E1,2.0585E1,3.485933E1,8.57544E0,2.7285E1,-1.3290065E1,3.1778367E0,2.362457E0,3.5098875E0,4.76857E0,7.3840203E0,4.736154E0,6.531348E0,4.26358E0,1.0740272E1,6.221304E0,1.3036265E1,8.752752E0,9.867131E-1,6.166919E0,5.168521E0,1.2477159E1,1.019119E1,1.6548487E1,2.00369E1,2.5368937E1,2.1269938E1,3.7745426E1,2.2164316E0,9.280435E0,6.751795E0,3.0934704E1,2.0389807E1,1.5665772E1,-2.5685167E0,2.1255176E0,1.5946079E1,1.0476603E1,1.8984522E1,7.7161713E0,2.076615E1,-8.773194E-2,1.5682913E1,9.610752E0,2.8755526E1,4.4107567E1,1.7429739E1,2.6954699E1,1.8573444E1,8.616451E0,2.3395132E1,1.25218115E1,4.0592205E1,1.0959496E1,6.1178837E1,3.9727585E1,3.3586597E1,2.3832245E1],"split_indices":[7,7,7,7,7,5,6,6,4,6,4,7,3,4,2,1,2,1,2,7,7,4,6,6,1,0,4,6,0,0,0,2,7,0,0,3,0,0,0,8,1,0,4,0,2,2,2,3,0,0,0,7,1,0,0,0,0,0,0,0,0,0,0,0,0,0,0,0,0,0,0,0,0,0,0,0,0,0,0,0,0,0,0,0,0,0,0,0,0,0,0,0,0,0,0,0,0,0,0,0,0,0,0,0,0,0,0,0,0,0,0,0,0],"split_type":[0,0,0,0,0,0,0,0,0,0,0,0,0,0,0,0,0,0,0,0,0,0,0,0,0,0,0,0,0,0,0,0,0,0,0,0,0,0,0,0,0,0,0,0,0,0,0,0,0,0,0,0,0,0,0,0,0,0,0,0,0,0,0,0,0,0,0,0,0,0,0,0,0,0,0,0,0,0,0,0,0,0,0,0,0,0,0,0,0,0,0,0,0,0,0,0,0,0,0,0,0,0,0,0,0,0,0,0,0,0,0,0,0],"sum_hessian":[6.299E3,4.641E3,1.658E3,1.437E3,3.204E3,1.163E3,4.95E2,9.53E2,4.84E2,2.744E3,4.6E2,5.22E2,6.41E2,2.37E2,2.58E2,5.9E2,3.63E2,3.37E2,1.47E2,8.99E2,1.845E3,2.84E2,1.76E2,3.7E2,1.52E2,4.22E2,2.19E2,1.64E2,7.3E1,4E0,2.54E2,1.02E2,4.88E2,7.9E1,2.84E2,2.48E2,8.9E1,1.21E2,2.6E1,7.94E2,1.05E2,4.5E1,1.8E3,2.5E1,2.59E2,3.1E1,1.45E2,7.2E1,2.98E2,1.21E2,3.1E1,2.37E2,1.85E2,2.6E1,1.93E2,5.1E1,1.13E2,7.1E1,2E0,2.52E2,2E0,4.3E1,5.9E1,3.45E2,1.43E2,3.8E1,4.1E1,4.2E1,2.42E2,3.4E1,2.14E2,4.1E1,4.8E1,4.1E1,8E1,1.1E1,1.5E1,5.24E2,2.7E2,4.3E1,6.2E1,4.2E1,3E0,2.68E2,1.532E3,2E0,2.3E1,1.56E2,1.03E2,7E0,2.4E1,7.1E1,7.4E1,5.1E1,2.1E1,2.96E2,2E0,6.9E1,5.2E1,2.18E2,1.9E1,7.6E1,1.09E2,9E0,1.7E1,1.72E2,2.1E1,4.1E1,1E1,4.4E1,6.9E1,2.01E2,5.1E1],"tree_param":{"num_deleted":"0","num_feature":"9","num_nodes":"113","size_leaf_vector":"0"}},{"base_weights":[3.2449574E1,2.1809803E1,6.2200855E1,1.2329768E1,2.6282825E1,5.1931557E1,8.617518E1,1.6841381E1,9.633739E0,3.0166801E1,1.7999958E1,4.3181133E1,5.897913E1,9.542941E1,6.910621E1,1.2178026E1,1.8472288E1,9.310832E0,2.1015112E1,3.0800411E1,-2.7111755E1,2.9264767E1,1.2725642E1,4.8160614E1,3.7508286E1,5.5106228E1,7.11016E1,1.1284256E2,8.045607E1,5.3350163E1,9.920393E1,1.7283016E1,7.312672E0,2.742572E1,1.6352867E1,1.097455E1,8.188745E0,2.412482E1,1.2806207E1,2.8743982E1,5.1440304E1,-3.7690765E1,-1.2423859E0,2.4678776E1,4.8024326E1,1.9119762E1,-5.4543185E-1,3.5150845E1,5.140101E1,4.5712646E1,3.1788658E1,4.2625034E1,6.0629887E1,8.100375E1,4.1350487E1,1.4430719E2,1.01904686E2,9.695591E1,6.304195E1,5.739259E1,-2.4342718E0,8.746312E1,1.7560393E2,1.763566E1,3.4111736E0,1.2832253E1,-4.3562642E-1,3.058339E1,9.5277E0,-6.107396E-1,1.704177E1,9.99917E0,1.6509342E1,5.2103224E0,8.817783E0,5.531759E0,2.6235111E1,2.3327637E0,1.7654135E1,-1.2927314E1,2.951964E1,5.7608334E1,3.70133E1,-4.734626E1,-2.3847412E1,6.631063E0,-1.6575155E1,2.6792294E1,-3.53966E0,3.6444344E1,1.045958E2,2.3806765E1,3.5933485E0,-1.8719917E1,1.700164E1,5.9151196E1,2.4599493E1,5.3711826E1,4.185076E1,4.2295124E1,5.590681E1,2.5154325E1,3.941897E1,9.271235E1,3.734952E1,7.893644E1,5.5377975E1,6.7648285E1,9.484677E1,2.6757883E1,1.19582275E2,1.4288987E1,1.1238044E2,7.910485E1,1.1942346E2,6.9410034E1,1.2155384E1,2.7808563E1,6.480878E1,-1.3611719E1,9.230029E0,1.0764636E2,4.7769276E1],"categories":[],"categories_nodes":[],"categories_segments":[],"categories_sizes":[],"default_left":[1,1,1,1,1,1,1,1,1,1,1,1,1,1,1,1,1,1,1,1,1,1,1,1,1,1,1,1,1,1,1,1,1,1,1,1,1,1,1,1,1,1,1,1,1,1,1,1,1,1,1,1,1,1,1,0,1,1,1,1,1,1,0,0,0,0,0,0,0,0,0,0,0,0,0,0,0,0,0,0,0,0,0,0,0,0,0,0,0,0,0,0,0,0,0,0,0,0,0,0,0,0,0,0,0,0,0,0,0,0,0,0,0,0,0,0,0,0,0,0,0,0,0],"id":11,"left_children":[1,3,5,7,9,11,13,15,17,19,21,23,25,27,29,31,33,35,37,39,41,43,45,47,49,51,53,55,57,59,61,63,65,67,69,71,73,75,77,79,81,83,85,87,89,91,93,95,97,99,101,103,105,107,109,-1,111,113,115,117,119,121,-1,-1,-1,-1,-1,-1,-1,-1,-1,-1,-1,-1,-1,-1,-1,-1,-1,-1,-1,-1,-1,-1,-1,-1,-1,-1,-1,-1,-1,-1,-1,-1,-1,-1,-1,-1,-1,-1,-1,-1,-1,-1,-1,-1,-1,-1,-1,-1,-1,-1,-1,-1,-1,-1,-1,-1,-1,-1,-1,-1,-1],"loss_changes":[1.992889E6,1.96517E5,4.039695E5,1.7961281E4,1.008905E5,6.92365E4,7.175375E4,4.0036875E3,3.2405703E3,7.8681875E4,5.95765E4,1.2967125E4,2.622325E4,7.409475E4,7.911881E4,3.5247383E3,7.3317188E3,1.6108125E3,3.2923438E2,8.8588375E4,6.5213105E3,2.6430812E4,5.8476805E4,9.786375E3,1.0231406E4,3.1266125E4,4.1429688E4,3.5197125E4,4.4170625E4,2.6974781E4,3.8461062E4,2.871621E2,3.2986772E3,4.0603477E3,3.9136172E3,1.7999844E3,9.807617E2,5.2189844E2,4.1578748E2,6.2829E4,1.4864094E4,1.143207E3,1.075685E3,1.5601297E4,3.6804062E4,3.375358E4,7.20728E4,1.3232609E4,2.563125E3,1.1192812E3,6.60175E3,3.7229625E4,2.81255E4,1.447525E4,4.2464453E4,0E0,1.00274375E5,2.5847062E4,2.7672688E4,2.2551219E4,1.2990304E3,3.8119938E4,0E0,0E0,0E0,0E0,0E0,0E0,0E0,0E0,0E0,0E0,0E0,0E0,0E0,0E0,0E0,0E0,0E0,0E0,0E0,0E0,0E0,0E0,0E0,0E0,0E0,0E0,0E0,0E0,0E0,0E0,0E0,0E0,0E0,0E0,0E0,0E0,0E0,0E0,0E0,0E0,0E0,0E0,0E0,0E0,0E0,0E0,0E0,0E0,0E0,0E0,0E0,0E0,0E0,0E0,0E0,0E0,0E0,0E0,0E0,0E0,0E0],"parents":[2147483647,0,0,1,1,2,2,3,3,4,4,5,5,6,6,7,7,8,8,9,9,10,10,11,11,12,12,13,13,14,14,15,15,16,16,17,17,18,18,19,19,20,20,21,21,22,22,23,23,24,24,25,25,26,26,27,27,28,28,29,29,30,30,31,31,32,32,33,33,34,34,35,35,36,36,37,37,38,38,39,39,40,40,41,41,42,42,43,43,44,44,45,45,46,46,47,47,48,48,49,49,50,50,51,51,52,52,53,53,54,54,56,56,57,57,58,58,59,59,60,60,61,61],"right_children":[2,4,6,8,10,12,14,16,18,20,22,24,26,28,30,32,34,36,38,40,42,44,46,48,50,52,54,56,58,60,62,64,66,68,70,72,74,76,78,80,82,84,86,88,90,92,94,96,98,100,102,104,106,108,110,-1,112,114,116,118,120,122,-1,-1,-1,-1,-1,-1,-1,-1,-1,-1,-1,-1,-1,-1,-1,-1,-1,-1,-1,-1,-1,-1,-1,-1,-1,-1,-1,-1,-1,-1,-1,-1,-1,-1,-1,-1,-1,-1,-1,-1,-1,-1,-1,-1,-1,-1,-1,-1,-1,-1,-1,-1,-1,-1,-1,-1,-1,-1,-1,-1,-1],"split_conditions":[2.10012E2,3.08675E5,2.269595E2,5.6499996E0,2.3135E1,9.9464905E1,2.314435E2,1.5225E2,1.0089557E2,6.1499996E0,1.6454999E2,1.4375E1,1.435E0,9.963858E1,9.503823E1,1.6380001E1,1.9994999E1,1.2775E1,1.565E0,5.75E0,2.22E0,1.0047366E2,1.0121359E2,3.414835E5,1.6499999E-1,9.8102036E1,3.3605E1,1.7685001E1,1.295E0,3.214E1,2.185E0,1.185E0,1.405E0,2.2432814E1,8.75E-1,1.011676E2,1.425E0,1.904E1,1.625E0,1.2219857E1,1.52E0,2.025E0,6.55E-1,1.0033746E2,2.8305E1,4.0595E1,2.9759998E1,-4.85E-1,2.14758E2,2.0549998E0,6.4E-1,9.9643486E1,7.576318E1,2.67E0,1.795E0,4.329216E1,4.640425E5,2.875E0,3.4650002E0,2.2154999E1,1.73E0,1.8050001E0,5.268118E1,5.290698E0,1.0233521E0,3.8496761E0,-1.3068794E-1,9.175017E0,2.8583102E0,-1.8322188E-1,5.1125317E0,2.999751E0,4.9528027E0,1.5630968E0,2.6453352E0,1.6595277E0,7.8705335E0,6.998291E-1,5.296241E0,-3.8781943E0,8.855892E0,1.7282501E1,1.1103991E1,-1.4203878E1,-7.154224E0,1.989319E0,-4.9725466E0,8.037688E0,-1.061898E0,1.0933304E1,3.1378742E1,7.14203E0,1.0780046E0,-5.6159754E0,5.1004925E0,1.774536E1,7.379848E0,1.6113548E1,1.2555229E1,1.2688538E1,1.6772043E1,7.546298E0,1.1825691E1,2.7813705E1,1.1204857E1,2.3680933E1,1.6613394E1,2.0294487E1,2.8454033E1,8.027366E0,3.5874683E1,4.2866964E0,3.3714134E1,2.3731457E1,3.582704E1,2.0823011E1,3.6466153E0,8.342569E0,1.9442635E1,-4.083516E0,2.7690089E0,3.229391E1,1.4330783E1],"split_indices":[7,6,7,3,0,5,7,7,8,3,7,0,1,5,4,0,0,0,2,3,1,5,8,6,2,8,0,0,1,0,2,1,2,4,1,5,2,0,2,4,1,1,2,5,0,0,0,2,7,1,2,5,4,2,1,0,6,2,2,0,2,2,0,0,0,0,0,0,0,0,0,0,0,0,0,0,0,0,0,0,0,0,0,0,0,0,0,0,0,0,0,0,0,0,0,0,0,0,0,0,0,0,0,0,0,0,0,0,0,0,0,0,0,0,0,0,0,0,0,0,0,0,0],"split_type":[0,0,0,0,0,0,0,0,0,0,0,0,0,0,0,0,0,0,0,0,0,0,0,0,0,0,0,0,0,0,0,0,0,0,0,0,0,0,0,0,0,0,0,0,0,0,0,0,0,0,0,0,0,0,0,0,0,0,0,0,0,0,0,0,0,0,0,0,0,0,0,0,0,0,0,0,0,0,0,0,0,0,0,0,0,0,0,0,0,0,0,0,0,0,0,0,0,0,0,0,0,0,0,0,0,0,0,0,0,0,0,0,0,0,0,0,0,0,0,0,0,0,0],"sum_hessian":[6.299E3,4.641E3,1.658E3,1.489E3,3.152E3,1.163E3,4.95E2,5.55E2,9.34E2,2.144E3,1.008E3,5.22E2,6.41E2,3.18E2,1.77E2,1.46E2,4.09E2,9.1E2,2.4E1,2.121E3,2.3E1,3.2E2,6.88E2,2.74E2,2.48E2,4.9E2,1.51E2,1.44E2,1.74E2,1.18E2,5.9E1,7E1,7.6E1,7.6E1,3.33E2,3.63E2,5.47E2,1.6E1,8E0,1.931E3,1.9E2,1.6E1,7E0,2.59E2,6.1E1,4.64E2,2.24E2,5.7E1,2.17E2,9.9E1,1.49E2,1.53E2,3.37E2,1.12E2,3.9E1,3.4E1,1.1E2,8.7E1,8.7E1,1.1E2,8E0,5.3E1,6E0,6.8E1,2E0,4.4E1,3.2E1,6.4E1,1.2E1,1.3E1,3.2E2,3.11E2,5.2E1,9.7E1,4.5E2,2E0,1.4E1,3E0,5E0,3.5E1,1.896E3,1.31E2,5.9E1,8E0,8E0,5E0,2E0,2.41E2,1.8E1,5.2E1,9E0,3.56E2,1.08E2,1.1E2,1.14E2,1.6E1,4.1E1,1.71E2,4.6E1,7.8E1,2.1E1,8.2E1,6.7E1,1.3E1,1.4E2,7.2E1,2.65E2,6E1,5.2E1,3.4E1,5E0,1.2E1,9.8E1,5.1E1,3.6E1,7.7E1,1E1,2.3E1,8.7E1,4E0,4E0,3.4E1,1.9E1],"tree_param":{"num_deleted":"0","num_feature":"9","num_nodes":"123","size_leaf_vector":"0"}},{"base_weights":[2.2823668E1,1.4246695E1,4.203511E1,7.8243494E0,1.680199E1,3.554531E1,6.0909473E1,1.0271188E1,6.391742E0,4.423093E1,1.612945E1,3.256956E1,4.32946E1,6.420091E1,3.6385284E1,1.161235E1,-8.781213E-1,8.4313545E0,5.727383E0,3.1730442E1,8.756205E1,2.3451115E1,1.347202E1,3.180771E1,6.1380642E1,4.0547985E1,7.1587746E1,8.962558E1,5.8411106E1,1.3998553E2,2.861311E1,9.427476E0,1.6839252E1,8.74413E0,-3.8162982E0,7.953711E0,1.5524276E1,2.1727498E-1,5.948178E0,2.3945333E1,4.5714134E1,1.4295852E1,3.198081E1,2.4954664E1,1.0424876E1,4.1708042E1,2.9680391E1,7.53951E1,3.5415916E1,5.350919E1,3.4086884E1,9.483867E1,4.5651447E1,7.531442E1,1.2328112E2,9.48018E1,5.5977333E1,1.7447549E0,5.7338318E1,1.0520661E1,-8.746657E0,-8.406586E0,1.9488426E1,1.7492819E1,-3.90625E-3,-1.4183798E0,-1.6768454E1,8.240493E0,-3.5207695E-1,1.7791954E1,7.107849E0,1.1564234E0,-2.7929077E0,5.590299E0,1.1289565E1,-1.0640869E0,2.4613886E1,1.1907959E1,4.6866673E1,1.5506821E1,-4.918457E0,3.4086094E1,5.520645E0,1.4759874E1,3.4016563E1,-4.184644E1,1.1077163E1,5.521655E0,4.3591312E1,4.1665833E1,2.755059E1,1.2100871E1,8.357279E1,1.1986441E1,5.8011845E1,3.604769E1,-1.121425E0,9.959726E1,9.350586E0,3.490804E0,5.0703354E1,8.119628E1,-3.2725587E0,1.3492305E2,6.974878E1,1.1845937E2,6.718701E1,5.2959408E1,7.840937E1,1.529049E1,-5.724422E1,4.7026623E1,1.0745184E2],"categories":[],"categories_nodes":[],"categories_segments":[],"categories_sizes":[],"default_left":[1,1,1,1,1,1,1,1,1,1,1,1,1,1,1,1,1,1,1,1,0,1,1,1,1,1,1,1,1,0,1,1,1,1,1,1,1,1,1,1,1,1,1,1,1,1,1,1,0,1,1,1,1,1,1,1,1,1,1,0,0,0,0,0,0,0,0,0,0,0,0,0,0,0,0,0,0,0,0,0,0,0,0,0,0,0,0,0,0,0,0,0,0,0,0,0,0,0,0,0,0,0,0,0,0,0,0,0,0,0,0,0,0],"id":12,"left_children":[1,3,5,7,9,11,13,15,17,19,21,23,25,27,29,31,33,35,37,39,-1,41,43,45,47,49,51,53,55,-1,57,59,61,63,65,67,69,71,73,75,77,79,81,83,85,87,89,91,-1,93,95,97,99,101,103,105,107,109,111,-1,-1,-1,-1,-1,-1,-1,-1,-1,-1,-1,-1,-1,-1,-1,-1,-1,-1,-1,-1,-1,-1,-1,-1,-1,-1,-1,-1,-1,-1,-1,-1,-1,-1,-1,-1,-1,-1,-1,-1,-1,-1,-1,-1,-1,-1,-1,-1,-1,-1,-1,-1,-1,-1],"loss_changes":[1.03749E6,7.137125E4,2.3595725E5,4.288E3,5.676775E4,3.200375E4,3.7701125E4,6.8437344E3,1.01676953E3,3.7304484E4,5.8891188E4,2.111675E4,2.8103688E4,5.8945625E4,4.511175E4,4.500664E3,1.4469642E3,5.236113E2,7.238008E2,5.328367E3,0E0,6.2718938E4,7.794081E4,2.0370812E4,6.7907344E3,2.8826188E4,1.6173953E4,2.87655E4,2.6400125E4,0E0,4.4664305E4,5.8536523E3,8.122625E3,9.184745E2,1.1874861E3,4.3403418E2,8.348071E1,7.107799E1,1.0322168E3,6.9499414E2,2.2117188E2,9.197289E3,2.3096969E4,4.273372E4,6.074503E4,1.1957906E4,2.0498688E4,7.2703047E3,0E0,2.1740156E4,1.70925E4,5.9843438E3,3.6568555E3,2.7075531E4,4.300125E3,5.7603438E3,1.87295E4,2.5645812E4,9.416055E3,0E0,0E0,0E0,0E0,0E0,0E0,0E0,0E0,0E0,0E0,0E0,0E0,0E0,0E0,0E0,0E0,0E0,0E0,0E0,0E0,0E0,0E0,0E0,0E0,0E0,0E0,0E0,0E0,0E0,0E0,0E0,0E0,0E0,0E0,0E0,0E0,0E0,0E0,0E0,0E0,0E0,0E0,0E0,0E0,0E0,0E0,0E0,0E0,0E0,0E0,0E0,0E0,0E0,0E0],"parents":[2147483647,0,0,1,1,2,2,3,3,4,4,5,5,6,6,7,7,8,8,9,9,10,10,11,11,12,12,13,13,14,14,15,15,16,16,17,17,18,18,19,19,21,21,22,22,23,23,24,24,25,25,26,26,27,27,28,28,30,30,31,31,32,32,33,33,34,34,35,35,36,36,37,37,38,38,39,39,40,40,41,41,42,42,43,43,44,44,45,45,46,46,47,47,49,49,50,50,51,51,52,52,53,53,54,54,55,55,56,56,57,57,58,58],"right_children":[2,4,6,8,10,12,14,16,18,20,22,24,26,28,30,32,34,36,38,40,-1,42,44,46,48,50,52,54,56,-1,58,60,62,64,66,68,70,72,74,76,78,80,82,84,86,88,90,92,-1,94,96,98,100,102,104,106,108,110,112,-1,-1,-1,-1,-1,-1,-1,-1,-1,-1,-1,-1,-1,-1,-1,-1,-1,-1,-1,-1,-1,-1,-1,-1,-1,-1,-1,-1,-1,-1,-1,-1,-1,-1,-1,-1,-1,-1,-1,-1,-1,-1,-1,-1,-1,-1,-1,-1,-1,-1,-1,-1,-1,-1],"split_conditions":[2.03E2,2.98192E5,2.269595E2,5.95E0,7.1500003E-1,1.0043451E2,2.934E1,2.3060001E1,1.198E1,3.241835E5,1.6454999E2,1.0090425E2,1.585E0,9.941985E1,1.37E0,1.53E2,2.125E0,1.011676E2,6.05E0,1.2715E1,2.6268616E1,3.151055E5,1.00114655E2,9.685513E1,1.79E0,1.329E1,1.785E0,1.94E0,8.515978E1,4.1995663E1,1.17E0,2.4250002E0,8.75E-1,1.245E0,1.095E0,1.0111714E2,1.135E0,1.4535E1,2.673605E5,1.065E0,9.35E-1,1.0033746E2,1.0263307E2,9.969679E1,1.2219857E1,1.485E0,1.117E1,1.26E1,1.0624775E1,1.066E1,1.0211737E2,3.69E0,1.825E0,9.441138E1,1.45E0,2.025E0,2.326725E2,7.8500004E0,3.3E0,3.1561985E0,-2.6239972E0,-2.5219758E0,5.846528E0,5.2478456E0,-1.171875E-3,-4.2551395E-1,-5.030536E0,2.472148E0,-1.0562309E-1,5.3375864E0,2.1323547E0,3.4692705E-1,-8.378723E-1,1.6770898E0,3.3868697E0,-3.192261E-1,7.3841662E0,3.572388E0,1.4060002E1,4.652046E0,-1.4755372E0,1.0225828E1,1.6561936E0,4.4279623E0,1.0204969E1,-1.2553932E1,3.323149E0,1.6564966E0,1.30773945E1,1.249975E1,8.265178E0,3.6302614E0,2.5071838E1,3.5959322E0,1.7403555E1,1.0814308E1,-3.364275E-1,2.9879179E1,2.8051758E0,1.0472412E0,1.5211007E1,2.4358885E1,-9.8176765E-1,4.0476917E1,2.0924635E1,3.5537815E1,2.0156105E1,1.5887823E1,2.3522812E1,4.587147E0,-1.7173267E1,1.4107987E1,3.2235554E1],"split_indices":[7,6,7,3,1,5,0,0,0,6,7,8,1,5,2,7,2,5,3,0,0,6,8,8,1,0,1,2,4,0,1,2,1,1,1,5,1,0,6,2,2,5,8,8,4,1,0,0,0,0,4,2,1,4,1,2,7,3,2,0,0,0,0,0,0,0,0,0,0,0,0,0,0,0,0,0,0,0,0,0,0,0,0,0,0,0,0,0,0,0,0,0,0,0,0,0,0,0,0,0,0,0,0,0,0,0,0,0,0,0,0,0,0],"split_type":[0,0,0,0,0,0,0,0,0,0,0,0,0,0,0,0,0,0,0,0,0,0,0,0,0,0,0,0,0,0,0,0,0,0,0,0,0,0,0,0,0,0,0,0,0,0,0,0,0,0,0,0,0,0,0,0,0,0,0,0,0,0,0,0,0,0,0,0,0,0,0,0,0,0,0,0,0,0,0,0,0,0,0,0,0,0,0,0,0,0,0,0,0,0,0,0,0,0,0,0,0,0,0,0,0,0,0,0,0,0,0,0,0],"sum_hessian":[6.299E3,4.356E3,1.943E3,1.241E3,3.115E3,1.448E3,4.95E2,4.56E2,7.85E2,7.3E1,3.042E3,1.05E3,3.98E2,4.35E2,6E1,4.07E2,4.9E1,1.9E2,5.95E2,5.8E1,1.5E1,8.08E2,2.234E3,1.025E3,2.5E1,3.65E2,3.3E1,7.8E1,3.57E2,3E0,5.7E1,2.89E2,1.18E2,1.1E1,3.8E1,1.8E2,1E1,2.3E1,5.72E2,3.9E1,1.9E1,3.91E2,4.17E2,4.67E2,1.767E3,1.78E2,8.47E2,1.5E1,1E1,1.19E2,2.46E2,1.6E1,1.7E1,5.7E1,2.1E1,2E1,3.37E2,3E1,2.7E1,2.73E2,1.6E1,1.1E1,1.07E2,5E0,6E0,3.3E1,5E0,1.74E2,6E0,7E0,3E0,1.8E1,5E0,5.38E2,3.4E1,1E0,3.8E1,1E0,1.8E1,3.68E2,2.3E1,3.86E2,3.1E1,2.21E2,2.46E2,2.1E1,1.746E3,9E0,1.69E2,1.25E2,7.22E2,2E0,1.3E1,1.2E1,1.07E2,2.33E2,1.3E1,1.5E1,1E0,2E0,1.5E1,5.3E1,4E0,1.6E1,5E0,9E0,1.1E1,3E2,3.7E1,2.5E1,5E0,2.4E1,3E0],"tree_param":{"num_deleted":"0","num_feature":"9","num_nodes":"113","size_leaf_vector":"0"}},{"base_weights":[1.6056002E1,9.513138E0,2.896124E1,1.0795411E1,3.2698317E0,2.2923382E1,3.9839012E1,3.1650385E1,1.0337795E1,4.163298E0,-3.8643253E1,2.6387913E1,1.8000835E1,4.429276E1,2.9856861E1,2.2629898E1,6.293528E1,9.979414E0,3.512699E1,4.355673E0,-9.546155E0,-4.2230267E1,-1.8221405E1,2.8340687E1,9.509214E-1,1.9019375E1,3.777542E-1,5.04247E1,2.5509056E1,3.368319E1,-1.0092683E0,1.6938366E1,3.2881462E1,6.8017815E1,3.0683228E1,1.0260794E1,-2.9430954E1,5.2604588E1,1.2080533E1,7.95728E0,4.0683894E0,-1.8515442E1,3.1262207E0,2.2210297E1,3.3555004E1,1.0900326E1,-1.0876184E1,2.9984207E1,1.6052288E1,-2.2004833E1,4.3611536E0,5.5046665E1,2.7660856E1,1.1077885E2,2.1212032E1,1.0848883E2,3.2074947E1,-1.4389022E1,6.0739452E1,2.1406942E1,1.1399445E1,3.6464664E1,1.8443216E1,1.0528029E1,-2.1591766E1,-6.8799744E0,-3.2324905E1,2.9422607E1,6.256099E1,-4.815515E1,2.8141527E1,9.78249E0,4.464439E0,4.3451614E0,-2.0566025E-1,-2.852824E0,8.063191E0,2.4941925E1,1.6329226E1,4.258861E1,2.6307375E1,2.5148228E1,6.6451087E0,2.786444E1,-1.3437918E1,3.5377445E1,-4.4552952E-1,1.7018114E1,-9.639923E0,1.1519603E1,-6.143412E0,7.442648E1,5.0268738E1,6.521359E1,1.6717302E1,2.6149502E1,-2.3337666E1,3.0583775E0,3.775995E1,-3.3626514E1,1.9272243E1,6.682495E1,1.819873E1],"categories":[],"categories_nodes":[],"categories_segments":[],"categories_sizes":[],"default_left":[1,1,1,1,1,1,1,1,1,1,1,1,1,1,1,1,1,1,1,1,1,0,0,1,1,1,1,1,1,1,1,1,1,0,0,1,1,1,1,1,1,0,1,1,1,1,1,1,1,0,1,1,1,0,1,0,1,1,1,0,0,0,0,0,0,0,0,0,0,0,0,0,0,0,0,0,0,0,0,0,0,0,0,0,0,0,0,0,0,0,0,0,0,0,0,0,0,0,0,0,0,0,0],"id":13,"left_children":[1,3,5,7,9,11,13,15,17,19,21,23,25,27,29,31,33,35,37,39,41,-1,-1,43,45,47,49,51,53,55,57,59,61,-1,-1,63,65,67,69,71,73,-1,75,77,79,81,83,85,87,-1,89,91,93,-1,95,-1,97,99,101,-1,-1,-1,-1,-1,-1,-1,-1,-1,-1,-1,-1,-1,-1,-1,-1,-1,-1,-1,-1,-1,-1,-1,-1,-1,-1,-1,-1,-1,-1,-1,-1,-1,-1,-1,-1,-1,-1,-1,-1,-1,-1,-1,-1],"loss_changes":[5.316791E5,3.344422E4,1.3825938E5,3.2779438E4,2.6898709E4,2.2804125E4,3.224325E4,1.9458945E4,2.98195E4,1.8877305E3,3.293047E2,3.96615E4,1.0170359E4,5.8607562E4,2.7906531E4,2.8855176E3,5.357461E2,3.744E4,1.8698754E4,6.825928E2,1.1945049E3,0E0,0E0,2.2973375E4,6.943568E3,1.6956703E4,2.9490479E3,3.9616E4,4.528296E4,2.178436E4,2.3180916E4,7.460176E2,3.6217773E2,0E0,0E0,2.8538688E4,1.3438789E3,4.391133E3,2.263895E4,2.750852E2,7.603379E2,0E0,1.7059473E2,5.119047E3,2.5003E4,1.7729807E3,3.0540051E3,1.8560742E4,1.0685281E4,0E0,2.176269E3,2.6259562E4,2.6855105E4,0E0,2.810561E4,0E0,3.4031062E4,1.5541898E4,7.827734E1,0E0,0E0,0E0,0E0,0E0,0E0,0E0,0E0,0E0,0E0,0E0,0E0,0E0,0E0,0E0,0E0,0E0,0E0,0E0,0E0,0E0,0E0,0E0,0E0,0E0,0E0,0E0,0E0,0E0,0E0,0E0,0E0,0E0,0E0,0E0,0E0,0E0,0E0,0E0,0E0,0E0,0E0,0E0,0E0],"parents":[2147483647,0,0,1,1,2,2,3,3,4,4,5,5,6,6,7,7,8,8,9,9,10,10,11,11,12,12,13,13,14,14,15,15,16,16,17,17,18,18,19,19,20,20,23,23,24,24,25,25,26,26,27,27,28,28,29,29,30,30,31,31,32,32,35,35,36,36,37,37,38,38,39,39,40,40,42,42,43,43,44,44,45,45,46,46,47,47,48,48,50,50,51,51,52,52,54,54,56,56,57,57,58,58],"right_children":[2,4,6,8,10,12,14,16,18,20,22,24,26,28,30,32,34,36,38,40,42,-1,-1,44,46,48,50,52,54,56,58,60,62,-1,-1,64,66,68,70,72,74,-1,76,78,80,82,84,86,88,-1,90,92,94,-1,96,-1,98,100,102,-1,-1,-1,-1,-1,-1,-1,-1,-1,-1,-1,-1,-1,-1,-1,-1,-1,-1,-1,-1,-1,-1,-1,-1,-1,-1,-1,-1,-1,-1,-1,-1,-1,-1,-1,-1,-1,-1,-1,-1,-1,-1,-1,-1],"split_conditions":[2.002E2,6.25E0,2.20031E2,7.1500003E-1,2.108E1,1.4655E1,2.543E1,3.241835E5,6.5100494E1,1.87E0,2.045E0,1.945E0,1.0107825E2,1.0179811E2,2.3203949E2,1.2715E1,1.6E0,4.269645E5,4.85E0,9.927434E1,2.25E0,-1.2669081E1,-5.4664216E0,9.810872E1,9.9939545E1,1.28E0,1.534E1,9.921211E1,8.9E-1,1.37E0,4.84065E5,1.0860001E1,1.22E0,2.0405346E1,9.204968E0,6.3933914E1,1.7725E1,2.91E0,2.782E1,1.7395E1,1.6925E1,-5.5546327E0,2.0205E1,2.15653E2,4.33093E5,9.954201E1,4.6499996E0,2.3345001E1,1.0058809E2,-6.6014504E0,1.8255001E1,7.95E0,8.35E-1,3.3233654E1,2.1875E1,3.254665E1,1.585E0,3.16E1,2.851E1,6.422083E0,3.4198334E0,1.09394E1,5.532965E0,3.1584089E0,-6.47753E0,-2.0639925E0,-9.697472E0,8.826782E0,1.8768297E1,-1.4446546E1,8.442458E0,2.934747E0,1.3393317E0,1.3035485E0,-6.169808E-2,-8.5584724E-1,2.4189575E0,7.482578E0,4.898768E0,1.2776584E1,7.892213E0,7.5444684E0,1.9935327E0,8.359333E0,-4.0313754E0,1.0613234E1,-1.3365886E-1,5.1054344E0,-2.891977E0,3.4558809E0,-1.8430237E0,2.2327946E1,1.5080622E1,1.956408E1,5.015191E0,7.844851E0,-7.0013E0,9.175133E-1,1.1327985E1,-1.00879545E1,5.7816734E0,2.0047485E1,5.4596195E0],"split_indices":[7,3,7,1,0,0,0,6,4,1,1,1,5,4,7,0,2,6,3,5,1,0,0,8,5,1,0,8,1,2,6,0,2,0,0,4,0,2,0,0,0,0,0,7,6,5,3,0,5,0,0,3,1,0,0,0,2,0,0,0,0,0,0,0,0,0,0,0,0,0,0,0,0,0,0,0,0,0,0,0,0,0,0,0,0,0,0,0,0,0,0,0,0,0,0,0,0,0,0,0,0,0,0],"split_type":[0,0,0,0,0,0,0,0,0,0,0,0,0,0,0,0,0,0,0,0,0,0,0,0,0,0,0,0,0,0,0,0,0,0,0,0,0,0,0,0,0,0,0,0,0,0,0,0,0,0,0,0,0,0,0,0,0,0,0,0,0,0,0,0,0,0,0,0,0,0,0,0,0,0,0,0,0,0,0,0,0,0,0,0,0,0,0,0,0,0,0,0,0,0,0,0,0,0,0,0,0,0,0],"sum_hessian":[6.299E3,4.181E3,2.118E3,3.468E3,7.13E2,1.364E3,7.54E2,7.3E1,3.395E3,6.99E2,1.4E1,7.98E2,5.66E2,5.19E2,2.35E2,5.8E1,1.5E1,3.348E3,4.7E1,6.9E2,9E0,1.1E1,3E0,7.41E2,5.7E1,5.35E2,3.1E1,3.9E2,1.29E2,2.09E2,2.6E1,3.9E1,1.9E1,1.2E1,3E0,3.325E3,2.3E1,2.6E1,2.1E1,4.9E1,6.41E2,5E0,4E0,3.43E2,3.98E2,3.1E1,2.6E1,1.12E2,4.23E2,4E0,2.7E1,3.23E2,6.7E1,5E0,1.24E2,3E0,2.06E2,2.2E1,4E0,2E1,1.9E1,1.4E1,5E0,3.298E3,2.7E1,3E0,2E1,9E0,1.7E1,4E0,1.7E1,3.1E1,1.8E1,6.02E2,3.9E1,2E0,2E0,2.32E2,1.11E2,1.75E2,2.23E2,6E0,2.5E1,1E0,2.5E1,9.5E1,1.7E1,4.08E2,1.5E1,1.6E1,1.1E1,6.1E1,2.62E2,1.4E1,5.3E1,1.12E2,1.2E1,3.4E1,1.72E2,1.4E1,8E0,3E0,1E0],"tree_param":{"num_deleted":"0","num_feature":"9","num_nodes":"103","size_leaf_vector":"0"}},{"base_weights":[1.1280854E1,6.395185E0,1.988634E1,7.3776226E0,6.7122096E-1,1.6797497E1,3.2628242E1,5.630172E0,1.2727178E1,6.454479E0,-8.6719675E0,1.5765677E1,2.689418E1,4.7425175E1,2.7001524E1,1.9137627E1,4.9599085E0,1.6268167E1,4.2004433E0,1.885008E1,3.2910237E0,-1.4651961E1,3.323443E0,1.6293188E1,-2.10917E1,2.2097008E1,3.726287E1,3.2857456E1,7.504859E1,2.8729727E1,-2.478549E1,1.144375E1,4.7105644E1,-3.650805E1,5.815342E0,1.1929782E1,2.2307796E1,-2.3964249E1,6.1082835E0,2.4700512E1,-1.6902433E1,2.016763E0,1.6819458E1,-3.33052E1,-1.0686596E1,9.477988E0,-1.5639035E1,1.2925173E1,1.9081121E1,-1.4058332E1,-2.8125832E1,1.1928955E0,2.4899553E1,4.41923E0,3.848823E1,4.2356075E1,5.458618E0,6.0207535E1,1.3853264E2,2.25611E1,4.2502636E1,1.395166E1,-3.4943928E1,-9.069117E0,1.8311941E1,-9.220561E0,-5.9411446E1,3.2701988E0,9.390484E0,2.6612816E1,6.4128485E0,2.7076988E1,5.8517895E0,2.3084018E0,-3.995868E1,8.166737E0,-1.4098932E1,7.7361884E0,2.632206E1,-2.6345232E1,-3.0202636E-1,3.1693974E0,-8.388952E0,2.2566326E0,1.7987677E1,9.543956E0,-4.3961853E1,-1.2445613E1,2.6568024E1,-7.404953E-1,1.9039923E1,-2.1706469E1,1.1248169E0,1.1205647E1,1.810683E1,1.3938692E1,2.0838549E1,-1.5151433E1,7.598877E-2,-8.698578E0,4.3906455E0,3.422628E1,1.9458546E1,2.1478504E1,4.1698208E1,4.542623E0,5.07521E1,-2.2962135E1,3.1056091E1,6.807833E1,-6.3291013E-1,3.3160374E1,4.7940984E0,5.587491E1,8.031581E0,1.7408203E1,3.519287E0,-4.195819E1,1.0585083E1],"categories":[],"categories_nodes":[],"categories_segments":[],"categories_sizes":[],"default_left":[1,1,1,1,1,1,1,1,1,1,1,1,1,1,1,1,1,1,1,1,1,1,1,1,1,1,1,1,1,1,1,1,0,1,1,1,1,1,1,1,1,1,1,1,1,1,1,1,1,1,0,1,1,0,1,1,1,1,0,1,1,1,1,0,0,0,0,0,0,0,0,0,0,0,0,0,0,0,0,0,0,0,0,0,0,0,0,0,0,0,0,0,0,0,0,0,0,0,0,0,0,0,0,0,0,0,0,0,0,0,0,0,0,0,0,0,0,0,0],"id":14,"left_children":[1,3,5,7,9,11,13,15,17,19,21,23,25,27,29,31,33,35,37,39,41,43,45,47,49,51,53,55,57,59,61,63,-1,65,67,69,71,73,75,77,79,81,83,85,87,89,91,93,95,97,-1,99,101,-1,103,105,107,109,-1,111,113,115,117,-1,-1,-1,-1,-1,-1,-1,-1,-1,-1,-1,-1,-1,-1,-1,-1,-1,-1,-1,-1,-1,-1,-1,-1,-1,-1,-1,-1,-1,-1,-1,-1,-1,-1,-1,-1,-1,-1,-1,-1,-1,-1,-1,-1,-1,-1,-1,-1,-1,-1,-1,-1,-1,-1,-1,-1],"loss_changes":[2.647472E5,2.2601266E4,8.9226875E4,3.200161E4,3.1936074E4,1.8724156E4,3.5686125E4,2.333568E4,2.541461E4,1.4250686E4,1.626024E4,3.2812938E4,7.5827266E3,4.622572E4,2.9709547E4,2.5713195E4,8.772438E4,1.5350406E4,1.352608E4,1.58959E4,4.999795E3,1.0813086E4,9.01784E3,1.5218375E4,7.9196484E2,6.883293E3,1.9226719E3,2.0849133E4,3.0288266E4,2.5718516E4,4.8161255E3,1.3832041E4,0E0,3.0701008E4,2.1971266E4,2.81002E4,1.9305055E4,6.815698E3,9.848513E3,1.5569062E3,1.7163408E3,3.2409763E3,3.8472266E2,1.2291914E4,8.587627E3,5.6811904E3,1.9569736E3,6.4706953E3,7.8341875E3,2.1745459E2,0E0,5.126493E2,4.611668E3,0E0,1.8344219E3,1.8818422E4,1.6718102E4,1.6803297E4,0E0,4.1082516E4,4.380303E4,4.6915344E1,3.3183018E3,0E0,0E0,0E0,0E0,0E0,0E0,0E0,0E0,0E0,0E0,0E0,0E0,0E0,0E0,0E0,0E0,0E0,0E0,0E0,0E0,0E0,0E0,0E0,0E0,0E0,0E0,0E0,0E0,0E0,0E0,0E0,0E0,0E0,0E0,0E0,0E0,0E0,0E0,0E0,0E0,0E0,0E0,0E0,0E0,0E0,0E0,0E0,0E0,0E0,0E0,0E0,0E0,0E0,0E0,0E0,0E0],"parents":[2147483647,0,0,1,1,2,2,3,3,4,4,5,5,6,6,7,7,8,8,9,9,10,10,11,11,12,12,13,13,14,14,15,15,16,16,17,17,18,18,19,19,20,20,21,21,22,22,23,23,24,24,25,25,26,26,27,27,28,28,29,29,30,30,31,31,33,33,34,34,35,35,36,36,37,37,38,38,39,39,40,40,41,41,42,42,43,43,44,44,45,45,46,46,47,47,48,48,49,49,51,51,52,52,54,54,55,55,56,56,57,57,59,59,60,60,61,61,62,62],"right_children":[2,4,6,8,10,12,14,16,18,20,22,24,26,28,30,32,34,36,38,40,42,44,46,48,50,52,54,56,58,60,62,64,-1,66,68,70,72,74,76,78,80,82,84,86,88,90,92,94,96,98,-1,100,102,-1,104,106,108,110,-1,112,114,116,118,-1,-1,-1,-1,-1,-1,-1,-1,-1,-1,-1,-1,-1,-1,-1,-1,-1,-1,-1,-1,-1,-1,-1,-1,-1,-1,-1,-1,-1,-1,-1,-1,-1,-1,-1,-1,-1,-1,-1,-1,-1,-1,-1,-1,-1,-1,-1,-1,-1,-1,-1,-1,-1,-1,-1,-1],"split_conditions":[1.971E2,2.915E0,2.275325E2,1.0143227E2,1.635E0,1.0037307E2,9.87358E1,4.45E0,3.37253E5,1.3584103E1,1.0240523E2,1.0029405E2,4.55E0,1.255E0,1.345E0,9.761876E1,4.75E0,3.188965E5,2.11E0,9.93804E1,3.420395E5,2.4029999E1,3.6550002E0,7.05E0,2.605E0,1.635E0,1.26E1,1.185E0,2.7075E1,2.085E0,1.979E1,3.257665E5,1.4131694E1,4.55E0,1.789E2,2.1465E1,1.0262599E2,1.3635E1,1.0285457E2,1.485E0,3.605E0,2.86695E5,1.345E0,1.6454999E2,3.58E0,2.9945E1,3.8049998E0,9.9919395E1,7.036828E1,2.2975E1,-8.43775E0,1.565E0,1.3780001E1,1.3257691E0,2.91E0,1.595E0,9.101868E1,2.4705E1,4.155979E1,1.795E0,1.275E0,1.8294998E1,2.607E1,-2.720735E0,5.4935827E0,-2.7661684E0,-1.7823435E1,9.810597E-1,2.8171453E0,7.983845E0,1.9238546E0,8.123096E0,1.7555369E0,6.9252056E-1,-1.1987604E1,2.450021E0,-4.22968E0,2.3208566E0,7.8966184E0,-7.9035697E0,-9.060791E-2,9.5081925E-1,-2.5166857E0,6.769898E-1,5.396303E0,2.8631868E0,-1.3188557E1,-3.733684E0,7.9704075E0,-2.2214861E-1,5.711977E0,-6.511941E0,3.3744508E-1,3.3616943E0,5.4320493E0,4.1816077E0,6.251565E0,-4.54543E0,2.279663E-2,-2.6095734E0,1.3171937E0,1.0267884E1,5.837564E0,6.4435515E0,1.2509463E1,1.362787E0,1.5225631E1,-6.888641E0,9.316828E0,2.04235E1,-1.8987305E-1,9.9481125E0,1.4382296E0,1.6762474E1,2.4094744E0,5.222461E0,1.0557861E0,-1.2587458E1,3.175525E0],"split_indices":[7,2,7,8,1,8,8,3,6,4,8,8,3,1,1,5,3,6,2,5,6,0,2,3,2,1,0,1,0,2,0,6,0,3,7,0,8,0,8,1,2,6,1,7,2,0,2,8,4,0,0,1,0,0,2,2,4,0,0,2,1,0,0,0,0,0,0,0,0,0,0,0,0,0,0,0,0,0,0,0,0,0,0,0,0,0,0,0,0,0,0,0,0,0,0,0,0,0,0,0,0,0,0,0,0,0,0,0,0,0,0,0,0,0,0,0,0,0,0],"split_type":[0,0,0,0,0,0,0,0,0,0,0,0,0,0,0,0,0,0,0,0,0,0,0,0,0,0,0,0,0,0,0,0,0,0,0,0,0,0,0,0,0,0,0,0,0,0,0,0,0,0,0,0,0,0,0,0,0,0,0,0,0,0,0,0,0,0,0,0,0,0,0,0,0,0,0,0,0,0,0,0,0,0,0,0,0,0,0,0,0,0,0,0,0,0,0,0,0,0,0,0,0,0,0,0,0,0,0,0,0,0,0,0,0,0,0,0,0,0,0],"sum_hessian":[6.299E3,4.019E3,2.28E3,3.43E3,5.89E2,1.837E3,4.43E2,2.587E3,8.43E2,3.64E2,2.25E2,1.669E3,1.68E2,1.2E2,3.23E2,1.21E2,2.466E3,5.95E2,2.48E2,7.3E1,2.91E2,1.5E2,7.5E1,1.646E3,2.3E1,1.17E2,5.1E1,8E1,4E1,3.13E2,1E1,9.6E1,2.5E1,4.9E1,2.417E3,3.48E2,2.47E2,1.5E1,2.33E2,6.3E1,1E1,2.67E2,2.4E1,2.5E1,1.25E2,5.7E1,1.8E1,7.48E2,8.98E2,1.3E1,1E1,1.4E1,1.03E2,2E0,4.9E1,5.9E1,2.1E1,3.4E1,6E0,2.18E2,9.5E1,2E0,8E0,2.4E1,7.2E1,2.3E1,2.6E1,1.413E3,1.004E3,9.4E1,2.54E2,1.91E2,5.6E1,6E0,9E0,2.12E2,2.1E1,6E0,5.7E1,6E0,4E0,2.41E2,2.6E1,2E0,2.2E1,5E0,2E1,1.2E2,5E0,2.8E1,2.9E1,1.3E1,5E0,5.64E2,1.84E2,2.31E2,6.67E2,1.2E1,1E0,3E0,1.1E1,3.6E1,6.7E1,9E0,4E1,1.1E1,4.8E1,1E1,1.1E1,3E1,4E0,1.36E2,8.2E1,6.8E1,2.7E1,1E0,1E0,7E0,1E0],"tree_param":{"num_deleted":"0","num_feature":"9","num_nodes":"119","size_leaf_vector":"0"}},{"base_weights":[7.921431E0,4.478318E0,1.3986048E1,5.1015224E0,-4.628639E0,1.1373131E1,2.1864649E1,4.7208257E0,3.4467503E1,-1.4556213E1,9.517341E0,1.3296799E1,5.2958627E0,2.2758356E1,-1.5062378E1,5.265293E0,-5.6996007E0,1.0814453E1,4.5956074E1,-1.80661E1,9.5351225E-1,1.6433834E1,-2.4786315E0,1.0952133E1,1.8389305E1,3.110902E0,3.1281612E1,3.550673E1,2.0780369E1,1.4537402E1,-2.835603E1,4.3954005E0,2.0890373E1,-9.798786E0,2.5117035E1,1.3141187E1,-4.4240317E0,1.8080872E1,4.8216236E1,-2.0028927E1,-2.4676187E0,2.633562E1,-1.1785217E1,6.5941734E0,3.971931E1,1.7742168E1,-1.17783375E1,1.3651132E1,3.4124982E0,2.5840593E1,1.2872586E1,5.359416E-1,1.25563545E1,2.517995E1,4.9476128E1,3.7529606E1,-5.507019E1,-1.8699594E1,2.1828154E1,-2.3309734E0,2.6559977E1,-1.9268768E1,-4.313672E1,5.3870115E0,-5.233785E0,1.1391897E1,4.955113E1,4.7282127E1,-1.1521322E1,-2.005717E-1,3.2575188E1,9.281394E0,1.9004492E1,5.1839848E1,3.2224274E1,-1.5109175E1,-2.7939993E1,-1.3724655E1,9.09787E0,3.0216688E1,-4.296997E0,-4.8007812E0,-1.8289576E1,1.4561086E1,-1.4363185E1,2.4309288E1,5.9795685E1,-8.661194E-1,2.3411266E1,7.5089517E0,-1.6297703E1,4.4676823E1,1.31033945E1,1.0382395E1,-2.6039171E0,1.9878588E1,4.2357437E1,1.5756897E1,-5.4351845E0,2.5479922E0,-1.8492949E1,5.1956244E0,2.094258E1,-6.855469E-1,2.6241993E1,7.220661E1,3.328311E1,-3.0909668E1,3.2303875E1,2.6940807E1,1.4285141E1,4.3012695E0,-7.7977295E0,-2.1955706E1,-2.3010254E-1],"categories":[],"categories_nodes":[],"categories_segments":[],"categories_sizes":[],"default_left":[1,1,1,1,1,1,1,1,1,1,1,1,1,1,1,1,1,1,1,1,1,1,1,1,1,1,1,1,1,1,1,1,1,1,1,1,0,0,1,1,1,1,1,1,1,1,1,1,1,1,1,1,1,1,0,1,0,1,1,1,0,1,0,0,0,0,0,0,0,0,0,0,0,0,0,0,0,0,0,0,0,0,0,0,0,0,0,0,0,0,0,0,0,0,0,0,0,0,0,0,0,0,0,0,0,0,0,0,0,0,0,0,0,0,0],"id":15,"left_children":[1,3,5,7,9,11,13,15,17,19,21,23,25,27,29,31,33,35,37,39,41,43,45,47,49,51,53,55,57,59,61,63,65,67,69,71,-1,-1,73,75,77,79,81,83,85,87,89,91,93,95,97,99,101,103,-1,105,-1,107,109,111,-1,113,-1,-1,-1,-1,-1,-1,-1,-1,-1,-1,-1,-1,-1,-1,-1,-1,-1,-1,-1,-1,-1,-1,-1,-1,-1,-1,-1,-1,-1,-1,-1,-1,-1,-1,-1,-1,-1,-1,-1,-1,-1,-1,-1,-1,-1,-1,-1,-1,-1,-1,-1,-1,-1],"loss_changes":[1.3148866E5,2.2839094E4,4.6708312E4,4.190585E4,3.6370832E4,1.9979047E4,1.9054875E4,2.1113031E4,1.2546512E4,8.291707E3,8.91853E3,1.5344781E4,2.340871E4,1.3231875E4,5.9210723E3,4.791561E4,2.361589E4,6.608872E2,1.1442891E3,3.7470977E3,9.68711E3,1.5318326E4,7.7308735E3,1.8145828E4,1.6479984E4,9.308469E3,2.3067285E3,1.544225E4,2.0346844E4,1.075917E3,5.1196875E2,3.1986707E4,5.0070938E4,1.6669879E4,4.16063E3,1.630791E2,0E0,0E0,1.0015625E1,3.8591016E3,2.077762E3,1.3187129E3,8.20781E2,8.39045E3,4.733955E3,1.3916753E3,2.5630354E3,1.0596609E4,9.965345E3,1.6193914E4,1.2600496E4,1.1609823E4,4.9529463E3,7.322168E2,0E0,8.199164E3,0E0,9.094332E3,1.774061E4,1.423107E2,0E0,4.041936E2,0E0,0E0,0E0,0E0,0E0,0E0,0E0,0E0,0E0,0E0,0E0,0E0,0E0,0E0,0E0,0E0,0E0,0E0,0E0,0E0,0E0,0E0,0E0,0E0,0E0,0E0,0E0,0E0,0E0,0E0,0E0,0E0,0E0,0E0,0E0,0E0,0E0,0E0,0E0,0E0,0E0,0E0,0E0,0E0,0E0,0E0,0E0,0E0,0E0,0E0,0E0,0E0,0E0],"parents":[2147483647,0,0,1,1,2,2,3,3,4,4,5,5,6,6,7,7,8,8,9,9,10,10,11,11,12,12,13,13,14,14,15,15,16,16,17,17,18,18,19,19,20,20,21,21,22,22,23,23,24,24,25,25,26,26,27,27,28,28,29,29,30,30,31,31,32,32,33,33,34,34,35,35,38,38,39,39,40,40,41,41,42,42,43,43,44,44,45,45,46,46,47,47,48,48,49,49,50,50,51,51,52,52,53,53,55,55,57,57,58,58,59,59,61,61],"right_children":[2,4,6,8,10,12,14,16,18,20,22,24,26,28,30,32,34,36,38,40,42,44,46,48,50,52,54,56,58,60,62,64,66,68,70,72,-1,-1,74,76,78,80,82,84,86,88,90,92,94,96,98,100,102,104,-1,106,-1,108,110,112,-1,114,-1,-1,-1,-1,-1,-1,-1,-1,-1,-1,-1,-1,-1,-1,-1,-1,-1,-1,-1,-1,-1,-1,-1,-1,-1,-1,-1,-1,-1,-1,-1,-1,-1,-1,-1,-1,-1,-1,-1,-1,-1,-1,-1,-1,-1,-1,-1,-1,-1,-1,-1,-1,-1],"split_conditions":[1.971E2,4.6426407E1,2.257505E2,4.410752E1,1.935E0,1.789E1,3.475E0,3.5800003E1,-1.4E-1,3.144E1,1.0044339E2,1.002552E2,1.965E0,1.7725E1,1.395E0,2.9974998E1,2.645E0,-1.6499999E-1,1.55E0,1.865E0,3.457E1,2.055E0,2.266E1,9.974391E1,1.0070606E2,3.2649999E0,2.25E1,1.315E0,4.57255E5,3.52E0,3.5549998E0,2.5705E1,2.4405434E1,1.25E-1,1.7E-1,-2.15E-1,-1.3272096E0,5.4242616E0,1.705E0,5.3500004E0,5.1499996E0,2.685E0,2.9099998E0,1.841E1,2.105E0,-6.25E-1,1.985E0,1.34E0,4.6499996E0,1.00586945E2,3.625E0,3.0949998E0,1.835E0,1.8025002E1,1.4842839E1,7.9500003E0,-1.6521057E1,2.2759998E1,9.888262E1,2.1375E1,7.9679933E0,3.525E0,-1.2941016E1,1.6161035E0,-1.5701356E0,3.4175694E0,1.4865339E1,1.4184639E1,-3.4563968E0,-6.017151E-2,9.772556E0,2.7844183E0,5.701348E0,1.5551955E1,9.667282E0,-4.5327525E0,-8.381998E0,-4.117397E0,2.729361E0,9.065007E0,-1.2890992E0,-1.4402344E0,-5.4868727E0,4.3683257E0,-4.3089557E0,7.2927866E0,1.7938705E1,-2.5983584E-1,7.0233803E0,2.2526855E0,-4.889311E0,1.3403048E1,3.9310186E0,3.1147187E0,-7.811752E-1,5.9635763E0,1.27072315E1,4.7270694E0,-1.6305554E0,7.643977E-1,-5.547885E0,1.5586873E0,6.282774E0,-2.0566407E-1,7.872598E0,2.1661983E1,9.984934E0,-9.272901E0,9.691163E0,8.082243E0,4.2855425E0,1.290381E0,-2.339319E0,-6.586712E0,-6.903076E-2],"split_indices":[7,4,7,4,1,0,2,0,2,0,5,5,1,0,1,0,1,2,1,1,0,2,0,5,5,2,0,1,6,2,2,0,4,2,2,2,0,0,1,3,3,2,2,0,1,2,1,1,3,5,2,2,1,0,0,3,0,0,8,0,0,2,0,0,0,0,0,0,0,0,0,0,0,0,0,0,0,0,0,0,0,0,0,0,0,0,0,0,0,0,0,0,0,0,0,0,0,0,0,0,0,0,0,0,0,0,0,0,0,0,0,0,0,0,0],"split_type":[0,0,0,0,0,0,0,0,0,0,0,0,0,0,0,0,0,0,0,0,0,0,0,0,0,0,0,0,0,0,0,0,0,0,0,0,0,0,0,0,0,0,0,0,0,0,0,0,0,0,0,0,0,0,0,0,0,0,0,0,0,0,0,0,0,0,0,0,0,0,0,0,0,0,0,0,0,0,0,0,0,0,0,0,0,0,0,0,0,0,0,0,0,0,0,0,0,0,0,0,0,0,0,0,0,0,0,0,0,0,0,0,0,0,0],"sum_hessian":[6.299E3,4.019E3,2.28E3,3.762E3,2.57E2,1.714E3,5.66E2,3.715E3,4.7E1,1.51E2,1.06E2,1.301E3,4.13E2,5.53E2,1.3E1,3.531E3,1.84E2,1.6E1,3.1E1,1.23E2,2.8E1,6.7E1,3.9E1,8.93E2,4.08E2,3.82E2,3.1E1,7.2E1,4.81E2,4E0,9E0,3.346E3,1.85E2,1.63E2,2.1E1,1.4E1,2E0,3E0,2.8E1,1.09E2,1.4E1,9E0,1.9E1,4.8E1,1.9E1,1.2E1,2.7E1,6.57E2,2.36E2,1.72E2,2.36E2,3.01E2,8.1E1,2.5E1,6E0,7.1E1,1E0,1.2E1,4.69E2,2E0,2E0,7E0,2E0,3.034E3,3.12E2,1.4E2,4.5E1,4E0,1.59E2,5E0,1.6E1,1E1,4E0,2.1E1,7E0,6.9E1,4E1,7E0,7E0,8E0,1E0,1E1,9E0,3.5E1,1.3E1,1.2E1,7E0,3E0,9E0,5E0,2.2E1,1E1,6.47E2,1.09E2,1.27E2,1.28E2,4.4E1,2.04E2,3.2E1,2.73E2,2.8E1,4.4E1,3.7E1,1E0,2.4E1,6E0,6.5E1,1E1,2E0,2.78E2,1.91E2,1E0,1E0,6E0,1E0],"tree_param":{"num_deleted":"0","num_feature":"9","num_nodes":"115","size_leaf_vector":"0"}},{"base_weights":[5.572756E0,3.2712975E0,1.011222E1,3.7405884E0,-4.998591E0,8.301279E0,1.6413744E1,3.5619414E0,3.2875423E1,-2.7150278E0,-5.950244E1,1.1500477E1,6.5899014E0,2.42188E1,1.2773722E1,5.085376E-1,4.7079906E0,3.9957577E1,2.246347E1,2.0858486E0,-1.9661568E1,-6.659017E1,-2.3130249E1,-2.1943412E0,1.2671805E1,7.3812866E0,5.645258E-1,2.771243E1,-1.1449236E1,1.4007339E1,-2.3601696E1,9.9270046E-1,-9.386618E-1,4.956388E0,-2.4861181E1,-6.7929263E0,1.0436444E1,-3.4316498E1,2.7162933E1,2.0196615E1,-1.2621529E1,1.2386167E1,5.8529865E1,6.2619166E0,2.4198511E1,-2.005495E1,4.4133573E0,1.597159E1,4.188606E1,1.156001E1,-2.1808935E1,1.7967106E1,3.1278837E0,9.00179E0,-3.1847115E1,6.231717E0,5.247277E-1,2.4946574E-2,-5.888672E0,4.0093102E0,1.1262818E1,-2.9572016E1,-1.0456054E0,7.488795E0,-1.2392399E1,1.8988375E1,-3.0561454E0,-6.367415E1,-2.5343908E1,2.9117876E1,2.8292847E0,-1.8309204E1,2.4254831E1,-1.6247576E1,1.0208643E1,1.31501465E1,3.4988956E0,1.2655188E1,5.3475933E0,-5.261213E0,3.263846E1,1.5951233E1,-2.734729E1,6.792462E1,1.9281805E0,2.1695496E1,-1.3436223E1,3.3941975E1,9.832014E1,-1.9812826E0,2.1247965E1,-1.4320129E1,-3.450944E1,4.1776623E1,1.1949782E1,-3.1476247E0,7.350464E1,1.2654053E1,8.486328E-1,-3.7067047E1,4.9561768E0],"categories":[],"categories_nodes":[],"categories_segments":[],"categories_sizes":[],"default_left":[1,1,1,1,1,1,1,1,1,1,1,1,1,1,1,1,1,0,0,1,1,0,0,1,1,1,1,1,1,1,1,1,1,1,1,1,1,1,1,1,1,1,0,1,1,1,1,1,1,1,1,1,1,1,1,0,0,0,0,0,0,0,0,0,0,0,0,0,0,0,0,0,0,0,0,0,0,0,0,0,0,0,0,0,0,0,0,0,0,0,0,0,0,0,0,0,0,0,0,0,0],"id":16,"left_children":[1,3,5,7,9,11,13,15,17,19,21,23,25,27,29,31,33,-1,-1,35,37,-1,-1,39,41,43,45,47,49,51,53,55,57,59,61,63,65,67,69,71,73,75,-1,77,79,81,83,85,87,89,91,93,95,97,99,-1,-1,-1,-1,-1,-1,-1,-1,-1,-1,-1,-1,-1,-1,-1,-1,-1,-1,-1,-1,-1,-1,-1,-1,-1,-1,-1,-1,-1,-1,-1,-1,-1,-1,-1,-1,-1,-1,-1,-1,-1,-1,-1,-1,-1,-1],"loss_changes":[6.578547E4,1.6248973E4,2.404511E4,2.0483719E4,2.7842623E4,8.94707E3,1.310043E4,1.3767551E4,8.7215234E2,1.769575E4,7.799199E2,9.219375E3,5.126625E3,1.8884312E4,1.4869566E4,7.541631E2,2.1137012E4,0E0,0E0,1.2675214E4,3.3870203E4,0E0,0E0,1.0994748E4,6.1912266E3,1.7750762E4,1.0087981E4,2.196282E4,3.5892756E3,1.3470957E4,3.2438037E3,1.972814E3,1.2880121E3,1.6905312E4,2.66167E3,6.7303247E3,1.02121455E4,8.1325703E3,4.8846777E2,2.788061E3,2.8149307E3,3.5253594E3,0E0,5.152371E3,1.4841391E4,5.6876104E3,1.675756E4,1.30844E4,2.4010148E4,6.9803546E2,4.5693652E2,3.2452773E4,3.777161E4,7.859378E1,1.912707E3,0E0,0E0,0E0,0E0,0E0,0E0,0E0,0E0,0E0,0E0,0E0,0E0,0E0,0E0,0E0,0E0,0E0,0E0,0E0,0E0,0E0,0E0,0E0,0E0,0E0,0E0,0E0,0E0,0E0,0E0,0E0,0E0,0E0,0E0,0E0,0E0,0E0,0E0,0E0,0E0,0E0,0E0,0E0,0E0,0E0,0E0],"parents":[2147483647,0,0,1,1,2,2,3,3,4,4,5,5,6,6,7,7,8,8,9,9,10,10,11,11,12,12,13,13,14,14,15,15,16,16,19,19,20,20,23,23,24,24,25,25,26,26,27,27,28,28,29,29,30,30,31,31,32,32,33,33,34,34,35,35,36,36,37,37,38,38,39,39,40,40,41,41,43,43,44,44,45,45,46,46,47,47,48,48,49,49,50,50,51,51,52,52,53,53,54,54],"right_children":[2,4,6,8,10,12,14,16,18,20,22,24,26,28,30,32,34,-1,-1,36,38,-1,-1,40,42,44,46,48,50,52,54,56,58,60,62,64,66,68,70,72,74,76,-1,78,80,82,84,86,88,90,92,94,96,98,100,-1,-1,-1,-1,-1,-1,-1,-1,-1,-1,-1,-1,-1,-1,-1,-1,-1,-1,-1,-1,-1,-1,-1,-1,-1,-1,-1,-1,-1,-1,-1,-1,-1,-1,-1,-1,-1,-1,-1,-1,-1,-1,-1,-1,-1,-1],"split_conditions":[2.002E2,1.014827E2,2.2719601E2,1.0134903E2,2.3449998E0,1.3285E1,9.87358E1,1.53E2,2.75E-1,1.0121359E2,2.455E0,3.414835E5,2.626E1,3.475E0,1.345E0,1.6244999E1,6.25E0,1.1987273E1,6.7390413E0,1.675E0,2.983E1,-1.9977053E1,-6.939075E0,-4.85E-1,1.0135074E2,2.244495E2,2.756E1,1.245E0,1.395E0,2.5630001E1,1.979E1,9.936228E1,2.605E0,5.75E0,2.255E0,1.87E1,1.875E0,1.675E0,3.478095E5,1.1375E1,1.58E0,1.905E0,1.755896E1,5.907384E1,2.39E0,1.3199999E0,2.7575E1,1.21E0,2.7185001E1,3.52E0,3.5549998E0,1.665E0,1.265E0,1.8294998E1,2.607E1,1.8695152E0,1.5741831E-1,7.4839727E-3,-1.7666017E0,1.2027931E0,3.3788457E0,-8.871605E0,-3.1368163E-1,2.2466385E0,-3.7177198E0,5.6965127E0,-9.1684365E-1,-1.9102245E1,-7.603173E0,8.735363E0,8.4878546E-1,-5.4927616E0,7.2764497E0,-4.874273E0,3.062593E0,3.945044E0,1.0496688E0,3.7965565E0,1.6042781E0,-1.5783639E0,9.791538E0,4.78537E0,-8.204187E0,2.0377388E1,5.7845414E-1,6.508649E0,-4.030867E0,1.0182592E1,2.9496042E1,-5.943848E-1,6.3743896E0,-4.296039E0,-1.0352833E1,1.2532988E1,3.584935E0,-9.442875E-1,2.2051392E1,3.796216E0,2.5458986E-1,-1.1120114E1,1.4868531E0],"split_indices":[7,5,7,5,1,0,8,7,2,8,1,6,0,2,1,0,3,0,0,1,0,0,0,2,5,7,0,1,1,0,0,5,2,3,1,0,1,1,6,0,1,1,0,4,2,1,0,1,0,2,2,2,1,0,0,0,0,0,0,0,0,0,0,0,0,0,0,0,0,0,0,0,0,0,0,0,0,0,0,0,0,0,0,0,0,0,0,0,0,0,0,0,0,0,0,0,0,0,0,0,0],"split_type":[0,0,0,0,0,0,0,0,0,0,0,0,0,0,0,0,0,0,0,0,0,0,0,0,0,0,0,0,0,0,0,0,0,0,0,0,0,0,0,0,0,0,0,0,0,0,0,0,0,0,0,0,0,0,0,0,0,0,0,0,0,0,0,0,0,0,0,0,0,0,0,0,0,0,0,0,0,0,0,0,0,0,0,0,0,0,0,0,0,0,0,0,0,0,0,0,0,0,0,0,0],"sum_hessian":[6.299E3,4.181E3,2.118E3,3.957E3,2.24E2,1.647E3,4.71E2,3.934E3,2.3E1,2.16E2,8E0,5.72E2,1.075E3,1.48E2,3.23E2,1.074E3,2.86E3,1.2E1,1.1E1,1.69E2,4.7E1,6E0,2E0,4.5E1,5.27E2,9.5E2,1.25E2,1.35E2,1.3E1,3.13E2,1E1,8.05E2,2.69E2,2.837E3,2.3E1,8.2E1,8.7E1,3.6E1,1.1E1,1.4E1,3.1E1,5.25E2,2E0,8.92E2,5.8E1,1.9E1,1.06E2,7.5E1,6E1,4E0,9E0,2.29E2,8.4E1,2E0,8E0,6.5E1,7.4E2,2.26E2,4.3E1,2.468E3,3.69E2,1.9E1,4E0,2.3E1,5.9E1,5.3E1,3.4E1,7E0,2.9E1,1E1,1E0,1E0,1.3E1,2.7E1,4E0,4.83E2,4.2E1,1.1E2,7.82E2,1.3E1,4.5E1,3E0,1.6E1,3E0,1.03E2,6.3E1,1.2E1,5.4E1,6E0,2E0,2E0,7E0,2E0,4.5E1,1.84E2,7.8E1,6E0,1E0,1E0,7E0,1E0],"tree_param":{"num_deleted":"0","num_feature":"9","num_nodes":"101","size_leaf_vector":"0"}},{"base_weights":[3.9155831E0,3.0261257E0,1.0215543E1,3.1628723E0,-1.733113E1,7.1264404E1,9.887694E0,1.741463E0,4.901621E0,-9.144524E0,-6.78965E1,1.11521E1,8.758447E1,6.7480286E1,9.576881E0,2.6782548E0,-7.508039E0,2.2245874E1,3.5268018E0,-1.8911272E1,2.374047E1,1.0770074E1,-9.965657E0,2.4081936E0,3.0807026E1,-3.4652638E0,-4.4962532E1,2.611773E1,1.2402194E1,6.288995E0,4.2854586E-1,1.5357574E1,-2.4048841E1,-1.1506022E1,3.740697E1,1.281626E1,2.983017E0,7.2662463E0,-5.2941593E1,5.505689E0,1.0857005E0,3.249557E1,1.7216015E1,1.2684352E1,-7.2297335E0,-2.4354504E1,-5.391352E1,3.2155575E1,1.1879633E1,2.1912119E1,2.432929E0,5.829421E0,1.9239061E1,-1.9003911E0,1.0487902E1,1.7347229E1,4.6943054E0,-4.801483E0,-3.607918E1,9.204803E0,-2.6463837E1,4.523457E1,-8.6550903E-1,1.5747459E1,3.1026511E0,2.4387977E-1,5.2599396E1,-2.0851147E1,1.8679068E1,6.130493E0,-5.837514E1],"categories":[],"categories_nodes":[],"categories_segments":[],"categories_sizes":[],"default_left":[1,1,1,1,1,1,1,1,1,1,0,0,0,0,1,1,1,1,1,1,1,1,1,1,1,1,1,1,1,1,1,1,1,1,1,1,1,1,1,0,0,0,0,0,0,0,0,0,0,0,0,0,0,0,0,0,0,0,0,0,0,0,0,0,0,0,0,0,0,0,0],"id":17,"left_children":[1,3,5,7,9,11,13,15,17,19,-1,-1,-1,-1,21,23,25,27,29,31,33,35,37,39,41,43,45,47,49,51,53,55,57,59,61,63,65,67,69,-1,-1,-1,-1,-1,-1,-1,-1,-1,-1,-1,-1,-1,-1,-1,-1,-1,-1,-1,-1,-1,-1,-1,-1,-1,-1,-1,-1,-1,-1,-1,-1],"loss_changes":[3.5271438E4,1.5426891E4,1.4886898E4,1.3549973E4,1.4695592E4,2.9473965E3,1.3244531E4,2.618798E4,5.8747688E4,1.1047885E4,0E0,0E0,0E0,0E0,1.8132164E4,2.0762982E4,4.1938984E4,6.574586E3,1.9569406E4,4.9468545E3,4.2839756E3,1.1577484E4,3.3709758E4,1.1128083E4,3.723047E1,1.5411979E4,3.6674375E3,1.0707805E4,4.971459E3,7.0832227E3,2.5298318E4,3.4317017E0,5.1524697E3,1.1729604E3,1.8366406E3,1.6379781E4,2.0780803E4,1.0979139E4,4.530492E3,0E0,0E0,0E0,0E0,0E0,0E0,0E0,0E0,0E0,0E0,0E0,0E0,0E0,0E0,0E0,0E0,0E0,0E0,0E0,0E0,0E0,0E0,0E0,0E0,0E0,0E0,0E0,0E0,0E0,0E0,0E0,0E0],"parents":[2147483647,0,0,1,1,2,2,3,3,4,4,5,5,6,6,7,7,8,8,9,9,14,14,15,15,16,16,17,17,18,18,19,19,20,20,21,21,22,22,23,23,24,24,25,25,26,26,27,27,28,28,29,29,30,30,31,31,32,32,33,33,34,34,35,35,36,36,37,37,38,38],"right_children":[2,4,6,8,10,12,14,16,18,20,-1,-1,-1,-1,22,24,26,28,30,32,34,36,38,40,42,44,46,48,50,52,54,56,58,60,62,64,66,68,70,-1,-1,-1,-1,-1,-1,-1,-1,-1,-1,-1,-1,-1,-1,-1,-1,-1,-1,-1,-1,-1,-1,-1,-1,-1,-1,-1,-1,-1,-1,-1,-1],"split_conditions":[2.193125E2,5.4739998E1,1.355E0,1.794E2,6.1499996E0,3.0695E1,7.45E-1,1.7735E2,1.8165E2,2.6350002E0,-2.036895E1,3.34563E0,2.6275343E1,2.0244087E1,4.9758E5,1.7685E2,3.216545E5,1.0002753E2,1.7369999E1,1.7500001E-1,6.8104996E1,2.7575E1,1.775E0,1.555E0,1.3255E1,9.987699E1,1.3335E1,2.0025002E1,1.124E1,1.0092033E2,3.0035E1,1.45E-1,6.035E1,6.493E1,7.5195E1,1.0179811E2,1.795E0,1.575E0,9.1499996E-1,1.6517068E0,3.2571018E-1,9.748672E0,5.1648045E0,3.8053057E0,-2.16892E0,-7.306351E0,-1.6174057E1,9.646673E0,3.56389E0,6.573636E0,7.298787E-1,1.7488264E0,5.7717185E0,-5.7011735E-1,3.1463706E0,5.204169E0,1.4082917E0,-1.440445E0,-1.0823755E1,2.7614412E0,-7.9391513E0,1.3570372E1,-2.5965273E-1,4.724238E0,9.307954E-1,7.3163934E-2,1.57798195E1,-6.2553444E0,5.6037207E0,1.839148E0,-1.7512543E1],"split_indices":[7,0,2,7,3,0,1,7,7,1,0,0,0,0,6,7,6,5,0,2,0,0,2,2,0,8,0,0,0,8,0,2,0,0,0,4,1,2,1,0,0,0,0,0,0,0,0,0,0,0,0,0,0,0,0,0,0,0,0,0,0,0,0,0,0,0,0,0,0,0,0],"split_type":[0,0,0,0,0,0,0,0,0,0,0,0,0,0,0,0,0,0,0,0,0,0,0,0,0,0,0,0,0,0,0,0,0,0,0,0,0,0,0,0,0,0,0,0,0,0,0,0,0,0,0,0,0,0,0,0,0,0,0,0,0,0,0,0,0,0,0,0,0,0,0],"sum_hessian":[6.299E3,5.521E3,7.78E2,5.485E3,3.6E1,3E0,7.75E2,3.019E3,2.466E3,3.2E1,4E0,1E0,2E0,3E0,7.72E2,2.742E3,2.77E2,1.8E2,2.286E3,2.5E1,7E0,7.28E2,4.4E1,2.717E3,2.5E1,2.51E2,2.6E1,1.28E2,5.2E1,1.208E3,1.078E3,3E0,2.2E1,2E0,5E0,5.76E2,1.52E2,3.2E1,1.2E1,8.12E2,1.905E3,2.1E1,4E0,4.7E1,2.04E2,9E0,1.7E1,8.9E1,3.9E1,2.6E1,2.6E1,1.168E3,4E1,8.76E2,2.02E2,2E0,1E0,9E0,1.3E1,1E0,1E0,4E0,1E0,4.42E2,1.34E2,1.45E2,7E0,9E0,2.3E1,1E0,1.1E1],"tree_param":{"num_deleted":"0","num_feature":"9","num_nodes":"71","size_leaf_vector":"0"}},{"base_weights":[2.75089E0,1.5757596E0,5.5487847E0,2.6009743E0,-1.5226704E0,2.357407E1,5.03867E0,2.2816825E0,2.396651E1,-2.1162426E1,-5.90433E-1,3.9746933E1,1.4318611E1,-1.475118E1,5.3348575E0,1.2406312E0,5.132207E0,1.8568432E1,8.0052795E1,-3.363028E1,-1.1729512E1,-1.6149354E-1,-1.7560326E1,4.8640472E1,2.966555E1,-2.7124634E1,1.6396425E1,5.439392E0,-1.5736948E1,5.229718E1,5.2265706E0,2.1189384E0,-6.252449E0,1.076339E1,2.0897906E-1,6.499308E0,3.8774624E1,-3.7612198E1,-7.3040924E0,-1.6084066E1,4.876029E0,-1.2043183E0,9.768272E0,1.3991834E1,-3.508746E1,1.2137439E1,3.7819263E1,-1.7443665E1,-5.0800047E0,5.5485325E0,-7.338775E0,1.8738033E0,2.2138527E1,-3.1215773E0,-3.234339E1,1.4154915E1,5.2079067E0,-1.447454E0,1.2733837E1,2.4060425E1,-3.4842713E0,5.4247174E0,5.6472324E1,-1.2609558E1,4.3061523E0,-1.9163181E1,-5.5079347E-1,1.6787577E1,-3.246106E0,9.09777E-2,-1.5811683E1,3.3718746E1,5.708567E0,2.5990173E1,-3.204541E0,-4.5350983E1,9.606735E0,1.8151072E1,-3.2429743E0,5.5964386E1,-1.7380615E1,-1.3722764E1,-2.507894E1,9.919983E0,-1.1309998E1,4.1911883E0,1.0946454E1,5.066606E0,-3.8264835E1],"categories":[],"categories_nodes":[],"categories_segments":[],"categories_sizes":[],"default_left":[1,1,1,1,1,1,1,1,1,1,1,1,1,1,1,1,1,1,0,1,1,1,1,0,0,0,1,0,1,0,1,1,1,1,1,1,1,0,1,1,1,1,1,1,1,1,1,1,1,1,1,0,0,0,0,0,0,0,0,0,0,0,0,0,0,0,0,0,0,0,0,0,0,0,0,0,0,0,0,0,0,0,0,0,0,0,0,0,0],"id":18,"left_children":[1,3,5,7,9,11,13,15,17,19,21,23,25,27,29,31,33,35,-1,37,39,41,43,-1,-1,-1,45,-1,47,-1,49,51,53,55,57,59,61,-1,63,65,67,69,71,73,75,77,79,81,83,85,87,-1,-1,-1,-1,-1,-1,-1,-1,-1,-1,-1,-1,-1,-1,-1,-1,-1,-1,-1,-1,-1,-1,-1,-1,-1,-1,-1,-1,-1,-1,-1,-1,-1,-1,-1,-1,-1,-1],"loss_changes":[2.0704969E4,1.4101518E4,1.7011445E4,2.2696154E4,2.0200545E4,7.0649316E3,1.0705613E4,9.747943E3,1.3348695E4,5.4859434E3,7.67657E3,1.7091797E2,3.3725327E3,6.229863E2,8.814297E3,1.5867423E4,2.4366793E4,1.096606E4,0E0,1.9266777E3,2.2477183E3,1.067742E4,1.486943E4,0E0,0E0,0E0,2.551877E3,0E0,3.8428418E2,0E0,7.2580117E3,1.0544006E4,2.056595E4,7.651324E3,9.769328E3,5.3435176E3,9.727334E3,0E0,3.006897E2,1.1373345E3,7.3172473E2,1.7654602E4,9.336237E3,2.1465657E3,8.233914E3,2.7411357E3,5.980739E3,2.8086963E2,5.794441E2,1.27028125E4,1.7458105E4,0E0,0E0,0E0,0E0,0E0,0E0,0E0,0E0,0E0,0E0,0E0,0E0,0E0,0E0,0E0,0E0,0E0,0E0,0E0,0E0,0E0,0E0,0E0,0E0,0E0,0E0,0E0,0E0,0E0,0E0,0E0,0E0,0E0,0E0,0E0,0E0,0E0,0E0],"parents":[2147483647,0,0,1,1,2,2,3,3,4,4,5,5,6,6,7,7,8,8,9,9,10,10,11,11,12,12,13,13,14,14,15,15,16,16,17,17,19,19,20,20,21,21,22,22,26,26,28,28,30,30,31,31,32,32,33,33,34,34,35,35,36,36,38,38,39,39,40,40,41,41,42,42,43,43,44,44,45,45,46,46,47,47,48,48,49,49,50,50],"right_children":[2,4,6,8,10,12,14,16,18,20,22,24,26,28,30,32,34,36,-1,38,40,42,44,-1,-1,-1,46,-1,48,-1,50,52,54,56,58,60,62,-1,64,66,68,70,72,74,76,78,80,82,84,86,88,-1,-1,-1,-1,-1,-1,-1,-1,-1,-1,-1,-1,-1,-1,-1,-1,-1,-1,-1,-1,-1,-1,-1,-1,-1,-1,-1,-1,-1,-1,-1,-1,-1,-1,-1,-1,-1,-1],"split_conditions":[4.010645E5,1.0052768E2,4.0324E5,1.0048914E2,1.00549194E2,1.215E0,4.04262E5,1.789E2,3.032E1,2.5E-1,4.3735E1,2.5549998E0,1.225E0,1.6700001E0,7.45E-1,1.7735E2,1.525E0,7.0000005E-1,2.401584E1,2.5149999E0,5.95E-1,3.0035E1,7.05E-1,1.4592142E1,8.899666E0,-8.13739E0,2.105E0,1.6318177E0,4.095E1,1.5689155E1,4.9758E5,1.7685E2,3.216545E5,9.989486E1,2.7895E1,2.415E1,2.3134998E1,-1.128366E1,6.6075E1,5.5004997E1,6.95E-1,2.5705E1,1.7E0,2.585E0,2.62E0,3.6085E1,2.1550002E0,3.7565002E1,4.1165E1,2.284265E2,1.775E0,5.62141E-1,6.641558E0,-9.364732E-1,-9.703018E0,4.2464747E0,1.5623721E0,-4.342362E-1,3.8201513E0,7.2181277E0,-1.0452814E0,1.6274153E0,1.6941698E1,-3.7828677E0,1.2918458E0,-5.748955E0,-1.6523805E-1,5.036273E0,-9.7383183E-1,2.7293311E-2,-4.743505E0,1.0115624E1,1.7125702E0,7.7970524E0,-9.613623E-1,-1.3605295E1,2.8820207E0,5.4453216E0,-9.7289234E-1,1.6789316E1,-5.2141848E0,-4.1168294E0,-7.523682E0,2.975995E0,-3.3929994E0,1.2573565E0,3.2839363E0,1.5199819E0,-1.1479451E1],"split_indices":[6,5,6,5,5,1,6,7,0,2,0,2,1,1,1,7,1,2,0,1,2,0,2,0,0,0,1,0,0,0,6,7,6,5,0,0,0,0,0,0,2,0,1,1,1,0,1,0,0,7,2,0,0,0,0,0,0,0,0,0,0,0,0,0,0,0,0,0,0,0,0,0,0,0,0,0,0,0,0,0,0,0,0,0,0,0,0,0,0],"split_type":[0,0,0,0,0,0,0,0,0,0,0,0,0,0,0,0,0,0,0,0,0,0,0,0,0,0,0,0,0,0,0,0,0,0,0,0,0,0,0,0,0,0,0,0,0,0,0,0,0,0,0,0,0,0,0,0,0,0,0,0,0,0,0,0,0,0,0,0,0,0,0,0,0,0,0,0,0,0,0,0,0,0,0,0,0,0,0,0,0],"sum_hessian":[6.299E3,4.437E3,1.862E3,3.334E3,1.103E3,5E1,1.812E3,3.286E3,4.8E1,4.9E1,1.054E3,1.7E1,3.3E1,2.6E1,1.786E3,2.408E3,8.78E2,4.5E1,3E0,2E1,2.9E1,1.029E3,2.5E1,7E0,1E1,1E0,3.2E1,1E0,2.5E1,3E0,1.783E3,2.156E3,2.52E2,4.09E2,4.69E2,2.9E1,1.6E1,1.7E1,3E0,2.3E1,6E0,9.32E2,9.7E1,9E0,1.6E1,2.8E1,4E0,2.1E1,4E0,1.739E3,4.4E1,2.131E3,2.5E1,2.26E2,2.6E1,2.53E2,1.56E2,4.15E2,5.4E1,1E1,1.9E1,6E0,1E1,2E0,1E0,1.9E1,4E0,2E0,4E0,8.57E2,7.5E1,1.3E1,8.4E1,5E0,4E0,1.3E1,3E0,2E1,8E0,3E0,1E0,1.6E1,5E0,1E0,3E0,1.391E3,3.48E2,3.2E1,1.2E1],"tree_param":{"num_deleted":"0","num_feature":"9","num_nodes":"89","size_leaf_vector":"0"}},{"base_weights":[1.9372683E0,2.19091E0,-5.5767317E0,1.8415651E0,7.851216E0,7.1839355E1,-6.304807E0,2.5504093E0,-2.759544E0,3.2031548E1,4.8420887E0,-3.0822968E0,-1.9942099E1,-2.6424414E-1,3.5824957E0,1.7468152E0,-8.606851E0,2.1316361E0,4.2268356E1,-1.3507001E1,7.323893E0,-4.2006774E0,2.7627686E1,-4.1717617E1,-1.4718744E1,1.1116469E1,-5.2526724E-1,1.2147004E1,2.990702E0,4.3648145E-1,2.0731066E1,-1.2787939E1,-1.6913135E0,-8.274048E-1,1.5861023E1,2.1201721E1,4.5773834E1,2.45177E1,-2.001128E1,4.787263E0,3.182313E1,2.4384217E0,-1.1745426E1,-1.7040527E1,3.9969433E1,-6.890259E0,-5.4270508E1,2.1141642E1,-1.7714306E1,5.1685295E0,1.6719841E1,-2.4168281E-1,-6.8560247E0,3.5734816E0,2.7516392E1,4.5994573E0,3.503253E-1,-2.7470402E1,2.3347602E0,2.8858526E0,6.498337E1,-8.283979E0,-3.0392065E1,9.432731E0,-9.786003E0,1.2749512E1,-3.7525635E0,4.8111217E1,1.3375081E1,-1.2483887E1,4.6139465E1,-7.9013855E1,-1.1477228E1,1.7198666E1,2.4558983E0,6.8199844E1,-9.799729E0,9.842313E0,-1.43792E1,-1.8529661E1,-1.2996117E0,1.8574402E1,6.277478E1,-1.5101929E0,-8.825195E0,-5.66803E0,3.7380493E1,-2.8070526E0,-2.1945295E1],"categories":[],"categories_nodes":[],"categories_segments":[],"categories_sizes":[],"default_left":[1,1,1,1,1,0,1,1,1,1,1,1,1,1,1,1,1,1,1,1,1,1,1,1,1,1,1,1,1,1,1,1,1,1,0,0,1,1,1,1,1,1,1,0,1,1,0,1,1,0,0,0,0,0,0,0,0,0,0,0,0,0,0,0,0,0,0,0,0,0,0,0,0,0,0,0,0,0,0,0,0,0,0,0,0,0,0,0,0],"id":19,"left_children":[1,3,5,7,9,-1,11,13,15,17,19,21,23,25,27,29,31,33,35,37,39,41,43,45,47,49,51,53,55,57,59,61,63,65,-1,-1,67,69,71,73,75,77,79,-1,81,83,-1,85,87,-1,-1,-1,-1,-1,-1,-1,-1,-1,-1,-1,-1,-1,-1,-1,-1,-1,-1,-1,-1,-1,-1,-1,-1,-1,-1,-1,-1,-1,-1,-1,-1,-1,-1,-1,-1,-1,-1,-1,-1],"loss_changes":[1.2019162E4,1.2037793E4,1.206407E4,1.8734396E4,2.5602537E4,0E0,8.947526E3,1.4456053E4,2.0225531E4,1.1847008E4,1.4489199E4,5.8517427E3,3.821878E3,3.9745994E3,1.8417809E4,1.0787007E4,9.635807E3,4.6000748E2,1.1711289E3,9.888914E3,1.7186246E4,8.1432744E3,3.9888032E3,2.6863506E3,3.919435E3,9.13438E2,2.3448054E3,3.0867574E4,1.4470373E4,2.1624982E4,2.1923836E4,1.6240191E4,1.152811E4,4.4498972E2,0E0,0E0,1.1739883E3,5.3762373E3,1.5709667E4,7.3073804E3,4.0035016E4,1.0974404E4,5.3618E3,0E0,1.2736016E3,1.7902512E1,0E0,1.5179486E3,1.8936445E3,0E0,0E0,0E0,0E0,0E0,0E0,0E0,0E0,0E0,0E0,0E0,0E0,0E0,0E0,0E0,0E0,0E0,0E0,0E0,0E0,0E0,0E0,0E0,0E0,0E0,0E0,0E0,0E0,0E0,0E0,0E0,0E0,0E0,0E0,0E0,0E0,0E0,0E0,0E0,0E0],"parents":[2147483647,0,0,1,1,2,2,3,3,4,4,6,6,7,7,8,8,9,9,10,10,11,11,12,12,13,13,14,14,15,15,16,16,17,17,18,18,19,19,20,20,21,21,22,22,23,23,24,24,25,25,26,26,27,27,28,28,29,29,30,30,31,31,32,32,33,33,36,36,37,37,38,38,39,39,40,40,41,41,42,42,44,44,45,45,47,47,48,48],"right_children":[2,4,6,8,10,-1,12,14,16,18,20,22,24,26,28,30,32,34,36,38,40,42,44,46,48,50,52,54,56,58,60,62,64,66,-1,-1,68,70,72,74,76,78,80,-1,82,84,-1,86,88,-1,-1,-1,-1,-1,-1,-1,-1,-1,-1,-1,-1,-1,-1,-1,-1,-1,-1,-1,-1,-1,-1,-1,-1,-1,-1,-1,-1,-1,-1,-1,-1,-1,-1,-1,-1,-1,-1,-1,-1],"split_conditions":[3.7535E1,2.9994999E1,9.7079956E1,2.4314999E1,5.8E-1,2.1551807E1,3.085E0,3.08751E5,1.655E0,-1.4E-1,1.155E0,3.03E0,3.145E0,9.840918E1,1.63E2,1.605E0,3.53185E1,1.835E0,3.00472E5,1.4549999E0,2.266735E2,3.39868E5,1.73E0,4.213E1,3.165E0,9.6500003E-1,1.5845E2,1.735E0,1.004569E2,9.71635E1,8.5991264E1,5.6499996E0,3.693335E5,1.6949999E0,4.758307E0,6.3605165E0,5.3E-1,3.25E1,1.5550001E0,3.1005001E1,2.314295E2,5.4775E1,9.45E-1,-5.1121583E0,6.1385002E1,3.893E1,-1.6281153E1,5.1690002E1,4.25E0,1.5505589E0,5.0159526E0,-7.250485E-2,-2.0568075E0,1.0720445E0,8.254918E0,1.3798373E0,1.0509759E-1,-8.241121E0,7.0042807E-1,8.657558E-1,1.949501E1,-2.485194E0,-9.1176195E0,2.8298192E0,-2.935801E0,3.8248537E0,-1.1257691E0,1.4433366E1,4.0125246E0,-3.745166E0,1.384184E1,-2.3704157E1,-3.4431686E0,5.1596E0,7.367695E-1,2.0459953E1,-2.939919E0,2.952694E0,-4.3137603E0,-5.5588984E0,-3.8988352E-1,5.572321E0,1.8832436E1,-4.530579E-1,-2.6475587E0,-1.700409E0,1.12141485E1,-8.421158E-1,-6.583589E0],"split_indices":[0,0,8,0,2,0,2,6,1,2,1,2,2,5,7,1,4,1,6,2,7,6,1,0,2,1,7,1,8,8,4,3,6,1,0,0,2,0,2,0,7,0,2,0,0,0,0,0,3,0,0,0,0,0,0,0,0,0,0,0,0,0,0,0,0,0,0,0,0,0,0,0,0,0,0,0,0,0,0,0,0,0,0,0,0,0,0,0,0],"split_type":[0,0,0,0,0,0,0,0,0,0,0,0,0,0,0,0,0,0,0,0,0,0,0,0,0,0,0,0,0,0,0,0,0,0,0,0,0,0,0,0,0,0,0,0,0,0,0,0,0,0,0,0,0,0,0,0,0,0,0,0,0,0,0,0,0,0,0,0,0,0,0,0,0,0,0,0,0,0,0,0,0,0,0,0,0,0,0,0,0],"sum_hessian":[6.299E3,6.094E3,2.05E2,5.741E3,3.53E2,1E0,2.04E2,4.975E3,7.66E2,3.8E1,3.15E2,1.66E2,3.8E1,1.335E3,3.64E3,4.33E2,3.33E2,1E1,2.8E1,3.7E1,2.78E2,1.61E2,5E0,6E0,3.2E1,2.9E1,1.306E3,2.34E2,3.406E3,4.06E2,2.7E1,2.07E2,1.26E2,9E0,1E0,5E0,2.3E1,5E0,3.2E1,2.53E2,2.5E1,8.6E1,7.5E1,1E0,4E0,2E0,4E0,2E0,3E1,1.5E1,1.4E1,1.251E3,5.5E1,1.51E2,8.3E1,2.116E3,1.29E3,2.5E1,3.81E2,2E1,7E0,1.66E2,4.1E1,5.3E1,7.3E1,1E0,8E0,2.1E1,2E0,2E0,3E0,3E0,2.9E1,3.9E1,2.14E2,1.3E1,1.2E1,6E1,2.6E1,4.5E1,3E1,3E0,1E0,1E0,1E0,1E0,1E0,7E0,2.3E1],"tree_param":{"num_deleted":"0","num_feature":"9","num_nodes":"89","size_leaf_vector":"0"}},{"base_weights":[1.3673799E0,1.0027745E0,5.0593324E0,7.55461E-1,5.836419E0,1.4232326E1,3.3408055E0,1.1075882E0,-5.409922E0,7.436161E0,-1.3189481E1,9.612516E0,7.65376E1,4.036712E0,-1.5768002E1,1.4896757E1,9.206283E-1,-2.7750221E1,-3.596431E0,1.1749054E1,