{"learner":{"attributes":{"best_iteration":"99","best_ntree_limit":"100","scikit_learn":"{\"n_estimators\": 100, \"objective\": \"reg:squarederror\", \"max_depth\": null, \"max_leaves\": null, \"max_bin\": null, \"grow_policy\": null, \"learning_rate\": null, \"verbosity\": null, \"booster\": null, \"tree_method\": null, \"gamma\": null, \"min_child_weight\": null, \"max_delta_step\": null, \"subsample\": null, \"sampling_method\": null, \"colsample_bytree\": null, \"colsample_bylevel\": null, \"colsample_bynode\": null, \"reg_alpha\": null, \"reg_lambda\": null, \"scale_pos_weight\": null, \"base_score\": null, \"missing\": NaN, \"num_parallel_tree\": null, \"random_state\": null, \"n_jobs\": null, \"monotone_constraints\": null, \"interaction_constraints\": null, \"importance_type\": null, \"gpu_id\": null, \"validate_parameters\": null, \"predictor\": null, \"enable_categorical\": false, \"feature_types\": null, \"max_cat_to_onehot\": null, \"max_cat_threshold\": null, \"eval_metric\": null, \"early_stopping_rounds\": null, \"callbacks\": null, \"_estimator_type\": \"regressor\"}"},"feature_names":["unemp_rate","AAAvstreasury","oil_prices","mno","gdp","cpi","bus_confidence","vix","t10y3m","consumer_confidence_sent"],"feature_types":["float","float","float","float","float","float","float","float","float","float"],"gradient_booster":{"model":{"gbtree_model_param":{"num_parallel_tree":"1","num_trees":"100","size_leaf_vector":"0"},"tree_info":[0,0,0,0,0,0,0,0,0,0,0,0,0,0,0,0,0,0,0,0,0,0,0,0,0,0,0,0,0,0,0,0,0,0,0,0,0,0,0,0,0,0,0,0,0,0,0,0,0,0,0,0,0,0,0,0,0,0,0,0,0,0,0,0,0,0,0,0,0,0,0,0,0,0,0,0,0,0,0,0,0,0,0,0,0,0,0,0,0,0,0,0,0,0,0,0,0,0,0,0],"trees":[{"base_weights":[1.5887166E3,1.080262E3,2.980668E3,5.351365E2,1.2553666E3,2.498453E3,4.0682861E3,6.994948E2,4.5645642E2,1.196921E3,1.7544855E3,2.13908E3,2.8374558E3,3.5633452E3,4.1781445E3,6.391741E2,7.8435864E2,4.421869E2,5.2642444E2,1.231977E3,9.831937E2,1.6097086E3,1.881459E3,2.0610854E3,2.3373962E3,2.68367E3,2.994205E3,4.1234232E2,4.549122E2,1.0970627E3,1.276649E3,9.446392E2,1.1477726E3,1.1454468E3,9.617258E2,1.0226044E3,1.3055461E3,1.0743649E3,8.723579E2],"categories":[],"categories_nodes":[],"categories_segments":[],"categories_sizes":[],"default_left":[1,1,1,1,1,1,1,1,1,1,1,1,1,0,0,0,0,1,0,1,1,0,0,0,0,0,0,0,0,1,1,1,0,0,0,0,0,0,0],"id":0,"left_children":[1,3,5,7,9,11,13,15,17,19,21,23,25,-1,-1,-1,-1,27,-1,29,31,-1,-1,-1,-1,-1,-1,-1,-1,33,35,37,-1,-1,-1,-1,-1,-1,-1],"loss_changes":[4.4555684E9,4.399442E8,8.735611E8,1.4216E7,9.979494E7,1.364695E8,1.3735424E7,1.35176E6,5.28992E5,2.2239744E7,3.662848E6,4.029952E6,6.404096E6,0E0,0E0,0E0,0E0,5.548E4,0E0,1.4781952E7,1.74576E6,0E0,0E0,0E0,0E0,0E0,0E0,0E0,0E0,3.3184E6,1.3427968E7,2.504E6,0E0,0E0,0E0,0E0,0E0,0E0,0E0],"parents":[2147483647,0,0,1,1,2,2,3,3,4,4,5,5,6,6,7,7,8,8,9,9,10,10,11,11,12,12,17,17,19,19,20,20,29,29,30,30,31,31],"right_children":[2,4,6,8,10,12,14,16,18,20,22,24,26,-1,-1,-1,-1,28,-1,30,32,-1,-1,-1,-1,-1,-1,-1,-1,34,36,38,-1,-1,-1,-1,-1,-1,-1],"split_conditions":[2.088685E2,1.536E2,1.5744974E4,6.05E0,1.3811807E4,9.969057E1,2.280855E2,1.5195001E2,2.58598E5,2.9994999E1,4.40026E5,8.5E0,4.24238E5,1.0690037E3,1.2534434E3,1.9175223E2,2.353076E2,1.4095001E2,1.5792734E2,4.45E0,3.5432724E1,4.829126E2,5.6443774E2,6.183257E2,7.012189E2,8.05101E2,8.9826154E2,1.237027E2,1.3647366E2,1.0025618E2,8.19559E3,9.992415E1,3.443318E2,3.4363403E2,2.8851776E2,3.067813E2,3.9166385E2,3.2230948E2,2.617074E2],"split_indices":[5,5,4,0,4,6,5,5,3,7,3,0,3,0,0,0,0,5,0,0,2,0,0,0,0,0,0,0,0,6,4,6,0,0,0,0,0,0,0],"split_type":[0,0,0,0,0,0,0,0,0,0,0,0,0,0,0,0,0,0,0,0,0,0,0,0,0,0,0,0,0,0,0,0,0,0,0,0,0,0,0],"sum_hessian":[6.299E3,4.615E3,1.684E3,1.123E3,3.492E3,1.169E3,5.15E2,3.61E2,7.62E2,3.129E3,3.63E2,5.71E2,5.98E2,9.8E1,4.17E2,2.16E2,1.45E2,6.39E2,1.23E2,2.684E3,4.45E2,1.76E2,1.87E2,4.18E2,1.53E2,3.11E2,2.87E2,2.01E2,4.38E2,6.74E2,2.01E3,3.66E2,7.9E1,4.91E2,1.83E2,2.09E2,1.801E3,1.26E2,2.4E2],"tree_param":{"num_deleted":"0","num_feature":"10","num_nodes":"39","size_leaf_vector":"0"}},{"base_weights":[1.113609E3,7.643777E2,2.1103955E3,3.6933456E2,8.859537E2,1.753221E3,2.830758E3,3.142871E2,4.6994064E2,8.3713873E2,1.2548125E3,1.5346239E3,2.0083871E3,3.2236997E3,2.7058818E3,3.2884738E2,2.95949E2,4.340701E2,5.2555194E2,9.745864E2,8.0393256E2,1.1511449E3,1.3658676E3,1.4526946E3,1.6899474E3,1.9612069E3,2.258786E3,2.773029E3,2.328011E3,4.0335483E2,4.5979858E2,8.7894916E2,9.9747015E2,8.369952E2,6.744437E2,2.9490818E3,2.6403538E3,1.089728E3,9.51533E2,9.0801654E2,7.380339E2,6.142833E2,7.362186E2],"categories":[],"categories_nodes":[],"categories_segments":[],"categories_sizes":[],"default_left":[1,1,1,1,1,1,1,1,1,1,1,1,1,0,1,0,0,1,0,1,1,0,0,0,0,0,0,1,0,0,0,0,1,1,1,0,0,0,0,0,0,0,0],"id":1,"left_children":[1,3,5,7,9,11,13,15,17,19,21,23,25,-1,27,-1,-1,29,-1,31,33,-1,-1,-1,-1,-1,-1,35,-1,-1,-1,-1,37,39,41,-1,-1,-1,-1,-1,-1,-1,-1],"loss_changes":[2.1914747E9,2.2381824E8,4.1545728E8,5.944224E6,6.319411E7,5.7995264E7,1.7774592E7,9.332E4,5.43864E5,1.3611776E7,3.205504E6,5.104E6,1.500672E6,0E0,4.099328E6,0E0,0E0,4.992E3,0E0,4.56128E5,1.033536E7,0E0,0E0,0E0,0E0,0E0,0E0,3.42016E5,0E0,0E0,0E0,0E0,1.014304E6,1.3555328E7,1.49144E6,0E0,0E0,0E0,0E0,0E0,0E0,0E0,0E0],"parents":[2147483647,0,0,1,1,2,2,3,3,4,4,5,5,6,6,7,7,8,8,9,9,10,10,11,11,12,12,14,14,17,17,19,19,20,20,27,27,32,32,33,33,34,34],"right_children":[2,4,6,8,10,12,14,16,18,20,22,24,26,-1,28,-1,-1,30,-1,32,34,-1,-1,-1,-1,-1,-1,36,-1,-1,-1,-1,38,40,42,-1,-1,-1,-1,-1,-1,-1,-1],"split_conditions":[2.11116E2,7.7278555E3,2.263515E2,1.477E2,1.3811807E4,1.725E0,9.943286E1,7.2E0,7.551643E3,1.0036034E2,1.4308867E4,8.85E0,9.918859E1,9.671099E2,8.55E0,9.865422E1,8.8784706E1,2.780845E5,1.5766559E2,1.0822252E4,1.00701454E2,3.4534348E2,4.0976028E2,4.3580838E2,5.0698422E2,5.883621E2,6.776358E2,4.79886E5,6.984033E2,1.21006454E2,1.3793958E2,2.6368475E2,1.8275E2,2.185E0,1.2018131E4,8.8472455E2,7.9210614E2,3.2691843E2,2.8545993E2,2.7240497E2,2.2141017E2,1.84285E2,2.208656E2],"split_indices":[5,4,5,5,4,8,6,0,4,9,4,0,2,0,0,0,0,3,0,4,6,0,0,0,0,0,0,3,0,0,0,0,5,8,4,0,0,0,0,0,0,0,0],"split_type":[0,0,0,0,0,0,0,0,0,0,0,0,0,0,0,0,0,0,0,0,0,0,0,0,0,0,0,0,0,0,0,0,0,0,0,0,0,0,0,0,0,0,0],"sum_hessian":[6.299E3,4.666E3,1.633E3,1.099E3,3.567E3,1.094E3,5.39E2,7.13E2,3.86E2,3.153E3,4.14E2,5.93E2,5.01E2,1.24E2,4.15E2,3.88E2,3.25E2,2.4E2,1.46E2,6.08E2,2.545E3,2.2E2,1.94E2,3.95E2,1.98E2,4.29E2,7.2E1,3.47E2,6.8E1,1.17E2,1.23E2,1.25E2,4.83E2,2.023E3,5.22E2,1.4E2,2.07E2,1.53E2,3.3E2,1.173E3,8.5E2,2.7E2,2.52E2],"tree_param":{"num_deleted":"0","num_feature":"10","num_nodes":"43","size_leaf_vector":"0"}},{"base_weights":[7.809049E2,5.30442E2,1.466576E3,2.7444418E2,6.220204E2,1.2102606E3,1.9698396E3,3.6601E2,2.2735675E2,5.894265E2,8.427534E2,1.0559055E3,1.3847704E3,2.2643267E3,1.8822985E3,3.2663904E2,4.0814777E2,2.746999E2,2.171803E2,6.1733636E2,4.757914E2,7.2724365E2,9.0038873E2,9.9272565E2,1.1369956E3,1.3483301E3,1.5904327E3,1.9459387E3,1.6319952E3,1.9892055E2,2.2324615E2,6.371067E2,4.944984E2,5.2443134E2,4.1091638E2,2.1588499E3,1.8805581E3,5.590513E2,6.7442584E2,5.0952283E2,4.2702023E2,5.6418317E2,4.563586E2,5.1973676E2,3.7513486E2],"categories":[],"categories_nodes":[],"categories_segments":[],"categories_sizes":[],"default_left":[1,1,1,1,1,1,1,1,1,1,1,1,1,0,1,0,0,0,1,1,1,0,0,0,0,0,0,1,0,0,0,1,1,1,1,0,0,0,0,0,0,0,0,0,0],"id":2,"left_children":[1,3,5,7,9,11,13,15,17,19,21,23,25,-1,27,-1,-1,-1,29,31,33,-1,-1,-1,-1,-1,-1,35,-1,-1,-1,37,39,41,43,-1,-1,-1,-1,-1,-1,-1,-1,-1,-1],"loss_changes":[1.0811535E9,1.0804608E8,2.1497114E8,5.168312E6,2.3957632E7,2.8679552E7,1.0354944E7,5.50192E5,3.2914E5,9.109888E6,2.241152E6,1.93504E6,1.767616E6,0E0,3.88096E6,0E0,0E0,0E0,2.9692E4,5.4576E6,1.643096E6,0E0,0E0,0E0,0E0,0E0,0E0,7.84384E5,0E0,0E0,0E0,5.577024E6,1.21048E5,6.43632E5,8.05728E5,0E0,0E0,0E0,0E0,0E0,0E0,0E0,0E0,0E0,0E0],"parents":[2147483647,0,0,1,1,2,2,3,3,4,4,5,5,6,6,7,7,8,8,9,9,10,10,11,11,12,12,14,14,18,18,19,19,20,20,27,27,31,31,32,32,33,33,34,34],"right_children":[2,4,6,8,10,12,14,16,18,20,22,24,26,-1,28,-1,-1,-1,30,32,34,-1,-1,-1,-1,-1,-1,36,-1,-1,-1,38,40,42,44,-1,-1,-1,-1,-1,-1,-1,-1,-1,-1],"split_conditions":[2.088685E2,1.5525E2,2.257505E2,5.8500004E0,1.3676292E4,1.000141E2,9.943286E1,7.632061E3,6.45E0,2.7715E1,1.3954874E4,7.05E0,9.918859E1,6.7929803E2,8.55E0,9.7991714E1,1.22444336E2,8.240997E1,1.4065E2,1.0086517E2,2.0749998E0,2.1817311E2,2.7011664E2,2.9781772E2,3.410987E2,4.0449905E2,4.7712985E2,4.735315E5,4.895986E2,5.9676167E1,6.697385E1,4.55E0,1.0209636E2,1.00618355E2,9.987562E1,6.4765497E2,5.641675E2,1.677154E2,2.0232776E2,1.5285686E2,1.2810608E2,1.6925496E2,1.369076E2,1.5592104E2,1.1254046E2],"split_indices":[5,5,5,0,4,6,6,4,0,7,4,0,2,0,0,0,0,0,5,6,1,0,0,0,0,0,0,3,0,0,0,0,6,6,6,0,0,0,0,0,0,0,0,0,0],"split_type":[0,0,0,0,0,0,0,0,0,0,0,0,0,0,0,0,0,0,0,0,0,0,0,0,0,0,0,0,0,0,0,0,0,0,0,0,0,0,0,0,0,0,0,0,0],"sum_hessian":[6.299E3,4.615E3,1.684E3,1.217E3,3.398E3,1.118E3,5.66E2,4.11E2,8.06E2,2.964E3,4.34E2,5.97E2,5.21E2,1.24E2,4.42E2,2.17E2,1.94E2,1.38E2,6.68E2,2.376E3,5.88E2,1.49E2,2.85E2,3.43E2,2.54E2,4.49E2,7.2E1,3.47E2,9.5E1,1.75E2,4.93E2,2.043E3,3.33E2,3.32E2,2.56E2,7.4E1,2.73E2,6.66E2,1.377E3,2.67E2,6.6E1,2.05E2,1.27E2,6E1,1.96E2],"tree_param":{"num_deleted":"0","num_feature":"10","num_nodes":"45","size_leaf_vector":"0"}},{"base_weights":[5.475929E2,3.6645377E2,1.016488E3,1.9397807E2,4.3144568E2,8.408128E2,1.3830864E3,1.6073088E2,2.6016528E2,4.1226297E2,5.549158E2,7.562145E2,1.00641797E3,1.4399055E3,1.1684836E3,1.979559E2,1.5284856E2,2.3242435E2,2.8300757E2,4.4898358E2,3.6355307E2,5.2011774E2,6.252655E2,7.114237E2,8.3767126E2,9.7327277E2,1.1411038E3,1.5138398E3,1.289391E3,1.408876E2,1.5835884E2,4.284003E2,5.378725E2,3.3697678E2,4.3196143E2,7.292954E2,5.998283E2,8.445312E2,5.7142957E2,1.576802E3,1.3731107E3,4.003424E2,5.1464197E2,4.4048425E2,5.549932E2,3.727392E2,2.738268E2],"categories":[],"categories_nodes":[],"categories_segments":[],"categories_sizes":[],"default_left":[1,1,1,1,1,1,1,1,1,1,1,1,1,1,0,0,1,0,0,1,1,0,0,1,1,0,0,1,0,0,0,1,1,1,0,0,0,0,0,0,0,0,0,0,0,0,0],"id":3,"left_children":[1,3,5,7,9,11,13,15,17,19,21,23,25,27,-1,-1,29,-1,-1,31,33,-1,-1,35,37,-1,-1,39,-1,-1,-1,41,43,45,-1,-1,-1,-1,-1,-1,-1,-1,-1,-1,-1,-1,-1],"loss_changes":[5.347195E8,5.0874816E7,1.1186304E8,2.700056E6,7.589568E6,1.5896704E7,5.231232E6,2.13868E5,1.97192E5,4.954144E6,7.54368E5,2.290016E6,6.70624E5,2.988992E6,0E0,0E0,2.3232E4,0E0,0E0,2.746368E6,2.099712E6,0E0,0E0,5.93648E5,1.968E4,0E0,0E0,4.22144E5,0E0,0E0,0E0,3.002576E6,2.59072E5,1.916936E6,0E0,0E0,0E0,0E0,0E0,0E0,0E0,0E0,0E0,0E0,0E0,0E0,0E0],"parents":[2147483647,0,0,1,1,2,2,3,3,4,4,5,5,6,6,7,7,8,8,9,9,10,10,11,11,12,12,13,13,16,16,19,19,20,20,23,23,24,24,27,27,31,31,32,32,33,33],"right_children":[2,4,6,8,10,12,14,16,18,20,22,24,26,28,-1,-1,30,-1,-1,32,34,-1,-1,36,38,-1,-1,40,-1,-1,-1,42,44,46,-1,-1,-1,-1,-1,-1,-1,-1,-1,-1,-1,-1,-1],"split_conditions":[2.0741849E2,7.950654E3,2.257505E2,1.496E2,1.3461682E4,1.0043451E2,8.4E0,6.25E0,7.632061E3,3.304925E5,1.4127605E4,8.85E0,4.545935E5,1.6524719E4,3.505451E2,5.9386772E1,6.623722E3,6.972731E1,8.4902275E1,1.0019203E2,3.740305E5,1.5603532E2,1.8757965E2,1.9974998E1,5.5480003E1,2.9198184E2,3.4233115E2,9.740338E1,3.8681732E2,4.226628E1,4.7507652E1,1.088377E4,1.6004999E2,1.745E0,1.2958844E2,2.1878864E2,1.799485E2,2.5335936E2,1.7142888E2,4.7304062E2,4.1193323E2,1.2010273E2,1.543926E2,1.3214528E2,1.6649797E2,1.1182176E2,8.214805E1],"split_indices":[5,4,5,5,4,6,0,0,4,3,4,0,3,4,0,0,4,0,0,6,3,0,0,7,7,0,0,2,0,0,0,4,5,1,0,0,0,0,0,0,0,0,0,0,0,0,0],"split_type":[0,0,0,0,0,0,0,0,0,0,0,0,0,0,0,0,0,0,0,0,0,0,0,0,0,0,0,0,0,0,0,0,0,0,0,0,0,0,0,0,0,0,0,0,0,0,0],"sum_hessian":[6.299E3,4.545E3,1.754E3,1.245E3,3.3E3,1.188E3,5.66E2,8.31E2,4.14E2,2.86E3,4.4E2,7.9E2,3.98E2,4.43E2,1.23E2,1.41E2,6.9E2,1.92E2,2.22E2,1.626E3,1.234E3,3E2,1.4E2,5.16E2,2.74E2,3.26E2,7.2E1,2.91E2,1.52E2,2.26E2,4.64E2,1.325E3,3.01E2,8.93E2,3.41E2,4.4E2,7.6E1,2.65E2,9E0,1.94E2,9.7E1,1.004E3,3.21E2,4.9E1,2.52E2,5.67E2,3.26E2],"tree_param":{"num_deleted":"0","num_feature":"10","num_nodes":"47","size_leaf_vector":"0"}},{"base_weights":[3.8404904E2,2.568573E2,7.132967E2,1.4452725E2,3.0747263E2,5.9384265E2,9.809685E2,1.1472454E2,1.9313185E2,3.1795096E2,1.9427002E2,5.3438544E2,7.129068E2,1.0672341E3,8.988573E2,1.065134E2,1.4005623E2,1.7082074E2,2.0549112E2,3.3505872E2,2.4295816E2,2.2837573E2,1.6193102E2,4.9810318E2,6.026784E2,7.229805E2,4.717894E2,1.1633605E3,9.7790356E2,9.955885E2,8.558322E2,1.0055068E2,1.11804436E2,2.121916E2,1.23250435E2,2.6450467E2,3.529252E2,2.1098691E2,2.8151028E2,1.7641028E2,2.5442435E2,1.6804167E2,1.2685593E2,5.0824115E2,3.9983264E2,7.6652057E2,6.730132E2,8.896456E2,7.405348E2,2.1964966E2,1.9331955E2,2.817395E2,1.7588593E2,2.9295847E2,3.7030197E2,2.2831221E2,1.8158241E2,2.58409E2,3.0690347E2,1.7057465E2,9.275259E1,1.5315796E2,6.3079197E1,4.9584082E2,6.924396E2],"categories":[],"categories_nodes":[],"categories_segments":[],"categories_sizes":[],"default_left":[1,1,1,1,1,1,1,1,1,1,1,1,1,1,1,1,0,0,1,1,1,1,1,1,0,1,0,0,0,0,1,0,0,1,0,1,1,1,1,0,0,1,1,0,0,0,1,0,0,0,0,0,0,0,0,0,0,0,0,0,0,0,0,0,0],"id":4,"left_children":[1,3,5,7,9,11,13,15,17,19,21,23,25,27,29,31,-1,-1,33,35,37,39,41,43,-1,45,-1,-1,-1,-1,47,-1,-1,49,-1,51,53,55,57,-1,-1,59,61,-1,-1,-1,63,-1,-1,-1,-1,-1,-1,-1,-1,-1,-1,-1,-1,-1,-1,-1,-1,-1,-1],"loss_changes":[2.6364544E8,2.5802368E7,5.553267E7,2.026092E6,3.654528E6,8.227392E6,2.865696E6,1.67916E5,1.127E5,3.595584E6,2.58608E5,1.719232E6,6.35344E5,1.077792E6,3.25744E5,9.833E3,0E0,0E0,1.61205E5,2.844992E6,6.01258E5,1.283815E5,8.9035E3,3.32776E5,0E0,3.19536E5,0E0,0E0,0E0,0E0,1.32608E5,0E0,0E0,1.593E3,0E0,6.75932E5,1.82656E6,1.09847E5,6.148E4,0E0,0E0,6.4915E3,3.2275406E4,0E0,0E0,0E0,3.0028E5,0E0,0E0,0E0,0E0,0E0,0E0,0E0,0E0,0E0,0E0,0E0,0E0,0E0,0E0,0E0,0E0,0E0,0E0],"parents":[2147483647,0,0,1,1,2,2,3,3,4,4,5,5,6,6,7,7,8,8,9,9,10,10,11,11,12,12,13,13,14,14,15,15,18,18,19,19,20,20,21,21,22,22,23,23,25,25,30,30,33,33,35,35,36,36,37,37,38,38,41,41,42,42,46,46],"right_children":[2,4,6,8,10,12,14,16,18,20,22,24,26,28,30,32,-1,-1,34,36,38,40,42,44,-1,46,-1,-1,-1,-1,48,-1,-1,50,-1,52,54,56,58,-1,-1,60,62,-1,-1,-1,64,-1,-1,-1,-1,-1,-1,-1,-1,-1,-1,-1,-1,-1,-1,-1,-1,-1,-1],"split_conditions":[2.0741849E2,1.5845E2,2.263515E2,7.4887886E3,2.165E0,1.4939596E4,2.2115E1,2.617125E5,1.53E2,1.00701454E2,3.5765E1,9.2E0,4.196E1,9.473573E1,9.948472E1,9.919412E1,4.201687E1,5.1246223E1,1.675E0,4.3500004E0,4.0478928E1,4.4E0,1.01283295E2,2.156E1,1.8080353E2,9.35E0,1.4153682E2,3.4900815E2,2.933711E2,2.9867657E2,2.761E1,3.0165205E1,3.3541332E1,2.1321468E1,3.6975132E1,2.3310001E1,9.918932E1,2.5015E1,2.05E-1,5.2923084E1,7.632731E1,7.15E1,2.3449998E0,1.5247235E2,1.199498E2,2.2995618E2,1.0043451E2,2.668937E2,2.2216045E2,6.58949E1,5.799587E1,8.452185E1,5.276578E1,8.788754E1,1.110906E2,6.849367E1,5.4474728E1,7.7522705E1,9.2071045E1,5.1172398E1,2.7825777E1,4.5947388E1,1.892376E1,1.4875226E2,2.0773189E2],"split_indices":[5,5,5,4,1,4,7,3,5,6,7,0,7,2,6,9,0,0,1,0,2,0,6,7,0,0,0,0,0,0,7,0,0,2,0,7,6,7,8,0,0,7,1,0,0,0,6,0,0,0,0,0,0,0,0,0,0,0,0,0,0,0,0,0,0],"split_type":[0,0,0,0,0,0,0,0,0,0,0,0,0,0,0,0,0,0,0,0,0,0,0,0,0,0,0,0,0,0,0,0,0,0,0,0,0,0,0,0,0,0,0,0,0,0,0,0,0,0,0,0,0,0,0,0,0,0,0,0,0,0,0,0,0],"sum_hessian":[6.299E3,4.545E3,1.754E3,1.413E3,3.132E3,1.215E3,5.39E2,8.78E2,5.35E2,2.865E3,2.67E2,8.14E2,4.01E2,2.57E2,2.82E2,6.67E2,2.11E2,1.96E2,3.39E2,2.33E3,5.35E2,1.27E2,1.4E2,5.37E2,2.77E2,3.83E2,1.8E1,1.18E2,1.39E2,8E1,2.02E2,3.23E2,3.44E2,3.12E2,2.7E1,4.74E2,1.856E3,2.96E2,2.39E2,4.5E1,8.2E1,1.16E2,2.4E1,4.83E2,5.4E1,1.97E2,1.86E2,1.51E2,5.1E1,2.16E2,9.6E1,3.95E2,7.9E1,4.21E2,1.435E3,1.82E2,1.14E2,1.31E2,1.08E2,1.11E2,5E0,1.6E1,8E0,2.1E1,1.65E2],"tree_param":{"num_deleted":"0","num_feature":"10","num_nodes":"65","size_leaf_vector":"0"}},{"base_weights":[2.6944244E2,1.7896646E2,4.9891013E2,1.0139386E2,2.1421227E2,4.202084E2,7.019575E2,7.8796906E1,1.3337448E2,2.2809097E2,1.7036891E2,3.7453363E2,5.0539288E2,7.6484717E2,6.414567E2,7.366031E1,9.290274E1,1.1189125E2,1.4207162E2,2.2084973E2,3.095168E2,2.4322928E2,1.4863141E2,3.5163647E2,4.269547E2,5.1151263E2,3.3146075E2,7.9882214E2,6.5074097E2,6.690041E2,5.5424274E2,7.000883E1,7.8113304E1,8.3518456E1,9.714523E1,1.4690222E2,9.833155E1,2.7319504E2,2.109643E2,2.4772168E2,3.173784E2,2.059683E2,2.9532568E2,2.3353151E2,1.3480544E2,3.6709387E2,3.0498657E2,4.8514542E2,5.7175653E2,3.395754E2,9.675586E1,9.193118E2,7.575351E2,4.2725558E2,5.91413E2,1.3695001E2,1.6500887E2,2.288734E2,3.0639844E2,2.525146E2,1.8922018E2,3.3013965E2,2.3906284E2,2.760523E2,2.1475705E2,1.2531485E2,1.6787407E2,3.329183E2,2.7309396E2,4.4223468E2,5.157553E2,5.2784393E2,6.432215E2],"categories":[],"categories_nodes":[],"categories_segments":[],"categories_sizes":[],"default_left":[1,1,1,1,1,1,1,1,1,1,1,1,1,1,1,1,1,0,1,1,1,1,1,1,0,1,1,1,0,0,1,0,0,0,0,1,0,1,1,0,0,0,1,1,1,0,1,1,1,0,0,0,0,0,0,0,0,0,0,0,0,0,0,0,0,0,0,0,0,0,0,0,0],"id":5,"left_children":[1,3,5,7,9,11,13,15,17,19,21,23,25,27,29,31,33,-1,35,37,39,41,43,45,-1,47,49,51,-1,-1,53,-1,-1,-1,-1,55,-1,57,59,-1,-1,-1,61,63,65,-1,67,69,71,-1,-1,-1,-1,-1,-1,-1,-1,-1,-1,-1,-1,-1,-1,-1,-1,-1,-1,-1,-1,-1,-1,-1,-1],"loss_changes":[1.3070701E8,1.2336448E7,2.8165728E7,1.011339E6,1.851712E6,4.814256E6,1.396608E6,5.3368E4,9.3219E4,1.321392E6,1.153284E6,8.59312E5,3.05192E5,4.02832E5,2.51464E5,4.515E3,5.6575E2,0E0,7.2607E4,1.0642E6,1.3682E4,2.71111E5,6.50512E5,3.14208E5,0E0,4.04064E5,1.426E3,1.94056E5,0E0,0E0,6.8286E4,0E0,0E0,0E0,0E0,4.3896E4,0E0,4.317E5,1.603768E6,0E0,0E0,0E0,5.62285E4,4.5805E3,1.36511E5,0E0,4.5377E4,1.72528E5,5.2756E4,0E0,0E0,0E0,0E0,0E0,0E0,0E0,0E0,0E0,0E0,0E0,0E0,0E0,0E0,0E0,0E0,0E0,0E0,0E0,0E0,0E0,0E0,0E0,0E0],"parents":[2147483647,0,0,1,1,2,2,3,3,4,4,5,5,6,6,7,7,8,8,9,9,10,10,11,11,12,12,13,13,14,14,15,15,16,16,18,18,19,19,20,20,21,21,22,22,23,23,25,25,26,26,27,27,30,30,35,35,37,37,38,38,42,42,43,43,44,44,46,46,47,47,48,48],"right_children":[2,4,6,8,10,12,14,16,18,20,22,24,26,28,30,32,34,-1,36,38,40,42,44,46,-1,48,50,52,-1,-1,54,-1,-1,-1,-1,56,-1,58,60,-1,-1,-1,62,64,66,-1,68,70,72,-1,-1,-1,-1,-1,-1,-1,-1,-1,-1,-1,-1,-1,-1,-1,-1,-1,-1,-1,-1,-1,-1,-1,-1],"split_conditions":[2.069945E2,1.5845E2,2.269595E2,2.772085E5,2.531E1,1.4939596E4,4.794085E5,1.465E2,1.5225E2,1.3954874E4,9.045398E3,9.45E0,4.2665E1,2.4525002E1,2.6595001E1,1.4320001E2,1.025E0,3.3567375E1,1.575E0,1.6329999E2,2.0195E2,3.16272E5,9.992023E1,1.4790379E4,1.2808643E2,1.435E0,3.24E0,9.941985E1,1.952223E2,2.0070123E2,7.55E0,2.100265E1,2.3433992E1,2.5055538E1,2.9143572E1,7.950654E3,2.9499466E1,1.0228124E2,1.004569E2,7.4316505E1,9.521352E1,6.1790493E1,1.305E0,1.48E0,3.673998E1,1.1012817E2,1.7635E1,9.824007E1,3.045E0,1.0187263E2,2.9026758E1,2.7579355E2,2.2726054E2,1.2817668E2,1.7742392E2,4.1085007E1,4.9502663E1,6.8662025E1,9.191953E1,7.575439E1,5.6766056E1,9.90419E1,7.171886E1,8.28157E1,6.442712E1,3.7594456E1,5.0362225E1,9.9875496E1,8.192819E1,1.3267041E2,1.547266E2,1.5835318E2,1.9296646E2],"split_indices":[5,5,5,3,7,4,3,5,5,4,4,0,7,7,7,5,1,0,1,5,5,3,9,4,0,1,8,6,0,0,0,0,0,0,0,4,0,9,9,0,0,0,8,1,2,0,7,9,8,0,0,0,0,0,0,0,0,0,0,0,0,0,0,0,0,0,0,0,0,0,0,0,0],"split_type":[0,0,0,0,0,0,0,0,0,0,0,0,0,0,0,0,0,0,0,0,0,0,0,0,0,0,0,0,0,0,0,0,0,0,0,0,0,0,0,0,0,0,0,0,0,0,0,0,0,0,0,0,0,0,0,0,0,0,0,0,0,0,0,0,0,0,0,0,0,0,0,0,0],"sum_hessian":[6.299E3,4.519E3,1.78E3,1.413E3,3.106E3,1.285E3,4.95E2,8.3E2,5.83E2,2.356E3,7.5E2,8.4E2,4.45E2,2.37E2,2.58E2,6.13E2,2.17E2,1.72E2,4.11E2,2.167E3,1.89E2,1.7E2,5.8E2,5.9E2,2.5E2,4.28E2,1.7E1,1.78E2,5.9E1,1.91E2,6.7E1,3.46E2,2.67E2,7.4E1,1.43E2,3.68E2,4.3E1,3.4E2,1.827E3,2.5E1,1.64E2,1.02E2,6.8E1,7.9E1,5.01E2,4.38E2,1.52E2,3.04E2,1.24E2,1.6E1,1E0,4E1,1.38E2,1.8E1,4.9E1,2.43E2,1.25E2,1.49E2,1.91E2,6.24E2,1.203E3,3.9E1,2.9E1,2E1,5.9E1,3.93E2,1.08E2,7.6E1,7.6E1,1.33E2,1.71E2,8.2E1,4.2E1],"tree_param":{"num_deleted":"0","num_feature":"10","num_nodes":"73","size_leaf_vector":"0"}},{"base_weights":[1.8917746E2,1.2553816E2,3.505814E2,7.115411E1,1.5024802E2,2.914892E2,4.8584418E2,9.230362E1,5.4138607E1,1.6111917E2,1.1760916E2,2.6356277E2,3.5510815E2,5.7066315E2,4.5918982E2,7.782313E1,9.974159E1,4.9400425E1,5.868025E1,1.4393834E2,1.8527966E2,1.7373221E2,1.1148049E2,2.3675095E2,2.874318E2,3.4315814E2,4.652184E2,5.127879E2,6.589101E2,4.8270383E2,3.934471E2,7.8982285E1,5.1342403E1,1.0364184E2,6.72473E1,4.403321E1,5.137088E1,5.1950745E1,6.118372E1,1.8693231E2,1.2355911E2,2.18771E2,1.6009877E2,1.8796053E2,1.3775714E2,8.666391E1,1.2837167E2,2.525927E2,2.0865025E2,2.7779572E2,3.5228632E2,3.6386972E2,3.0597867E2,5.394903E2,3.722602E2,5.0961804E2,4.146981E2,9.7046844E1,1.14597755E2,7.277441E1,4.7193768E1,6.15646E1,3.7371212E1,1.4942131E2,2.2392996E2,1.3428848E2,9.219734E1,2.4680652E2,2.0859416E2,1.7161122E2,9.718498E1,1.16600426E2,7.504472E1,1.1972068E2,1.5990912E2,2.2210976E2,1.5615742E2,2.784319E2,1.0079932E2,5.236103E2,4.110306E2],"categories":[],"categories_nodes":[],"categories_segments":[],"categories_sizes":[],"default_left":[1,1,1,1,1,1,1,1,1,1,1,1,1,1,1,1,1,1,1,1,1,1,1,1,1,1,0,1,0,1,0,0,0,1,1,0,0,0,1,1,1,1,1,0,0,1,1,0,1,1,0,0,0,0,0,1,0,0,0,0,0,0,0,0,0,0,0,0,0,0,0,0,0,0,0,0,0,0,0,0,0],"id":6,"left_children":[1,3,5,7,9,11,13,15,17,19,21,23,25,27,29,31,33,35,37,39,41,43,45,47,49,51,-1,53,-1,55,-1,-1,-1,57,59,-1,-1,-1,61,63,65,67,69,-1,-1,71,73,-1,75,77,-1,-1,-1,-1,-1,79,-1,-1,-1,-1,-1,-1,-1,-1,-1,-1,-1,-1,-1,-1,-1,-1,-1,-1,-1,-1,-1,-1,-1,-1,-1],"loss_changes":[6.4667264E7,6.063384E6,1.4093888E7,5.03858E5,1.08348E6,2.113E6,9.58776E5,5.99845E4,1.401525E4,9.39676E5,2.4892E5,4.86812E5,3.35108E5,3.00532E5,4.53168E5,2.636375E3,4.524575E4,1.8731875E3,3.492875E3,1.172896E6,7.77958E5,1.2497E4,2.84817E5,1.31596E5,1.8586E5,1.52788E5,0E0,9.9362E4,0E0,3.41424E5,0E0,0E0,0E0,1.532375E4,1.7748594E3,0E0,0E0,0E0,2.66E2,5.73018E5,3.0022E5,6.578E4,3.8458E5,0E0,0E0,9.177475E4,9.48985E4,0E0,7.48275E4,1.6972E4,0E0,0E0,0E0,0E0,0E0,7.7224E4,0E0,0E0,0E0,0E0,0E0,0E0,0E0,0E0,0E0,0E0,0E0,0E0,0E0,0E0,0E0,0E0,0E0,0E0,0E0,0E0,0E0,0E0,0E0,0E0,0E0],"parents":[2147483647,0,0,1,1,2,2,3,3,4,4,5,5,6,6,7,7,8,8,9,9,10,10,11,11,12,12,13,13,14,14,15,15,16,16,17,17,18,18,19,19,20,20,21,21,22,22,23,23,24,24,25,25,27,27,29,29,33,33,34,34,38,38,39,39,40,40,41,41,42,42,45,45,46,46,48,48,49,49,55,55],"right_children":[2,4,6,8,10,12,14,16,18,20,22,24,26,28,30,32,34,36,38,40,42,44,46,48,50,52,-1,54,-1,56,-1,-1,-1,58,60,-1,-1,-1,62,64,66,68,70,-1,-1,72,74,-1,76,78,-1,-1,-1,-1,-1,80,-1,-1,-1,-1,-1,-1,-1,-1,-1,-1,-1,-1,-1,-1,-1,-1,-1,-1,-1,-1,-1,-1,-1,-1,-1],"split_conditions":[2.069945E2,1.5845E2,2.263515E2,5.95E0,1.00521835E2,1.00492065E2,9.943286E1,1.5225E2,2.45748E5,1.083548E4,2.125881E1,6.65E0,1.585E0,9.185739E1,2.5735E1,1.8985E1,3.1555E1,1.105E0,8.55E-1,1.6329999E2,1.725E0,1.315E0,3.5720543E1,1.6045E1,1.5602607E4,1.5705E1,1.3956554E2,2.902E1,1.9767303E2,1.295E0,1.1803414E2,2.3694687E1,1.5402721E1,7.950654E3,3.9629997E1,1.3209964E1,1.5411264E1,1.5585224E1,1.6765E1,3.151055E5,1.645E0,3.207975E5,6.05E0,5.638816E1,4.1327145E1,1.565E0,1.971E2,7.577781E1,5.95E0,7.569E1,1.056859E2,1.0916092E2,9.17936E1,1.6184709E2,1.1167806E2,4.9758E5,1.2440943E2,2.9114054E1,3.437933E1,2.1832323E1,1.4158131E1,1.8469381E1,1.1211364E1,4.4826393E1,6.717899E1,4.0286545E1,2.7659204E1,7.404196E1,6.257825E1,5.1483368E1,2.9155497E1,3.498013E1,2.2513418E1,3.5916206E1,4.7972736E1,6.663293E1,4.684723E1,8.352957E1,3.0239796E1,1.570831E2,1.2330919E2],"split_indices":[5,5,5,0,6,6,6,5,3,4,2,0,1,2,7,7,7,1,1,5,1,1,2,7,4,7,0,7,0,1,0,0,0,4,7,0,0,0,7,3,1,3,0,0,0,1,5,0,0,7,0,0,0,0,0,3,0,0,0,0,0,0,0,0,0,0,0,0,0,0,0,0,0,0,0,0,0,0,0,0,0],"split_type":[0,0,0,0,0,0,0,0,0,0,0,0,0,0,0,0,0,0,0,0,0,0,0,0,0,0,0,0,0,0,0,0,0,0,0,0,0,0,0,0,0,0,0,0,0,0,0,0,0,0,0,0,0,0,0,0,0,0,0,0,0,0,0,0,0,0,0,0,0,0,0,0,0,0,0,0,0,0,0,0,0],"sum_hessian":[6.299E3,4.519E3,1.78E3,1.413E3,3.106E3,1.241E3,5.39E2,6.28E2,7.85E2,2.327E3,7.79E2,8.66E2,3.75E2,1.24E2,4.15E2,2.17E2,4.11E2,3.9E2,3.95E2,1.364E3,9.63E2,7.4E1,7.05E2,4.13E2,4.53E2,3.42E2,3.3E1,7.9E1,4.5E1,3.01E2,1.14E2,2.06E2,1.1E1,3.65E2,4.6E1,1.11E2,2.79E2,1.13E2,2.82E2,4.36E2,9.28E2,4.1E2,5.53E2,5E1,2.4E1,2.88E2,4.17E2,2.59E2,1.54E2,3.99E2,5.4E1,2.14E2,1.28E2,6.4E1,1.5E1,2.11E2,9E1,2.34E2,1.31E2,3.4E1,1.2E1,2.76E2,6E0,2.19E2,2.17E2,6.89E2,2.39E2,1.03E2,3.07E2,4.66E2,8.7E1,7.8E1,2.1E2,3.31E2,8.6E1,1.2E2,3.4E1,3.97E2,2E0,1.81E2,3E1],"tree_param":{"num_deleted":"0","num_feature":"10","num_nodes":"81","size_leaf_vector":"0"}},{"base_weights":[1.3283565E2,8.603642E1,2.4157684E2,5.0834988E1,1.035182E2,1.947117E2,3.2836893E2,3.9450092E1,6.782558E1,1.4112325E2,9.7752304E1,1.780134E2,2.4005289E2,2.6073212E2,3.5153146E2,4.9231308E1,3.6717678E1,5.842964E1,7.239782E1,1.2965485E2,1.933541E2,1.1380223E2,8.134653E1,1.938345E2,1.6158575E2,2.5854944E2,2.1539357E2,2.762726E2,1.806345E2,4.1323282E2,3.352922E2,3.8710808E1,3.2931366E1,5.9855198E1,3.714254E1,7.679024E1,5.1221172E1,1.6535033E2,1.2015926E2,3.4815735E1,1.952007E2,9.361185E1,1.3254848E2,1.2197748E2,7.3706764E1,1.8578694E2,2.1014987E2,1.6401677E2,8.539366E1,3.1053503E2,2.4324805E2,1.9056087E2,2.298773E2,2.2065181E2,1.2323927E2,4.4027936E2,2.857374E2,4.5532407E2,3.2765598E2,3.6050045E1,4.0537636E1,3.3290684E1,2.2261198E1,5.1105507E1,6.2338028E1,4.0652798E1,1.7326141E1,6.6828125E1,8.232818E1,1.8325611E1,5.2937183E1,1.6706569E2,2.7783203E1,1.1058542E2,1.3516321E2,2.564234E1,9.582004E1,1.6823601E2,1.16870926E2,1.0497959E2,1.4594958E2,1.04733154E2,6.7682E1,1.7371301E2,1.981556E2,2.3535817E2,1.9576906E2,1.5782228E2,1.8269264E2,2.5354736E1,9.729843E1,2.4956223E2,1.6588852E2,1.4451913E2,2.0996875E2,1.0690222E2,2.3739085E2,2.441538E1,1.5695566E2,3.3259418E2,2.1151129E2],"categories":[],"categories_nodes":[],"categories_segments":[],"categories_sizes":[],"default_left":[1,1,1,1,1,1,1,1,1,1,1,1,1,1,1,0,1,1,1,1,1,1,1,1,1,1,1,0,1,1,1,1,1,1,1,1,1,1,1,0,0,1,1,1,1,1,1,1,1,0,1,1,0,1,1,0,0,0,1,0,0,0,0,0,0,0,0,0,0,0,0,0,0,0,0,0,0,0,0,0,0,0,0,0,0,0,0,0,0,0,0,0,0,0,0,0,0,0,0,0,0],"id":7,"left_children":[1,3,5,7,9,11,13,15,17,19,21,23,25,27,29,-1,31,33,35,37,39,41,43,45,47,49,51,-1,53,55,57,59,61,63,65,67,69,71,73,-1,-1,75,77,79,81,83,85,87,89,-1,91,93,-1,95,97,-1,-1,-1,99,-1,-1,-1,-1,-1,-1,-1,-1,-1,-1,-1,-1,-1,-1,-1,-1,-1,-1,-1,-1,-1,-1,-1,-1,-1,-1,-1,-1,-1,-1,-1,-1,-1,-1,-1,-1,-1,-1,-1,-1,-1,-1],"loss_changes":[3.2039944E7,2.706122E6,7.644024E6,2.8051475E5,6.24324E5,8.90796E5,9.47024E5,2.168475E4,2.09445E4,2.07943E5,6.63504E5,2.03892E5,9.437E4,1.65439E5,3.53416E5,0E0,3.9399375E3,3.7549375E3,3.234325E4,8.92735E4,1.31115E4,4.75472E5,3.84299E5,2.0828E4,6.9344E4,7.0031E4,9.066E3,0E0,4.4007812E4,2.1213E5,2.11952E5,7.11375E2,1.9825E2,7.896875E2,3.390547E2,1.2207375E4,2.9813281E3,1.0697125E4,2.211325E4,0E0,0E0,9.11985E4,3.52961E5,6.576625E4,1.92736E5,1.247E4,5.764E3,2.1491E4,8.969016E3,0E0,2.9916E4,2.327E4,0E0,6.9914375E3,4.6147656E4,0E0,0E0,0E0,1.4416E5,0E0,0E0,0E0,0E0,0E0,0E0,0E0,0E0,0E0,0E0,0E0,0E0,0E0,0E0,0E0,0E0,0E0,0E0,0E0,0E0,0E0,0E0,0E0,0E0,0E0,0E0,0E0,0E0,0E0,0E0,0E0,0E0,0E0,0E0,0E0,0E0,0E0,0E0,0E0,0E0,0E0,0E0],"parents":[2147483647,0,0,1,1,2,2,3,3,4,4,5,5,6,6,7,7,8,8,9,9,10,10,11,11,12,12,13,13,14,14,16,16,17,17,18,18,19,19,20,20,21,21,22,22,23,23,24,24,25,25,26,26,28,28,29,29,30,30,31,31,32,32,33,33,34,34,35,35,36,36,37,37,38,38,41,41,42,42,43,43,44,44,45,45,46,46,47,47,48,48,50,50,51,51,53,53,54,54,58,58],"right_children":[2,4,6,8,10,12,14,16,18,20,22,24,26,28,30,-1,32,34,36,38,40,42,44,46,48,50,52,-1,54,56,58,60,62,64,66,68,70,72,74,-1,-1,76,78,80,82,84,86,88,90,-1,92,94,-1,96,98,-1,-1,-1,100,-1,-1,-1,-1,-1,-1,-1,-1,-1,-1,-1,-1,-1,-1,-1,-1,-1,-1,-1,-1,-1,-1,-1,-1,-1,-1,-1,-1,-1,-1,-1,-1,-1,-1,-1,-1,-1,-1,-1,-1,-1,-1],"split_conditions":[1.4127605E4,8.311213E3,1.545449E4,7.4887886E3,1.624E2,1.00492065E2,9.8114456E1,6.25E0,1.53E2,3.205875E5,1.9165E1,1.3780001E1,1.4895E1,3.739E1,9.941985E1,1.4769393E1,1.432E1,2.4850001E0,1.495E0,2.095E1,1.5136591E1,1.783E2,1.0001204E2,9.45E0,2.6395E1,2.173185E2,1.11E0,8.288179E1,3.09E0,2.934E1,8.515978E1,1.4320001E2,1.9244999E1,5.5E0,8.9E-1,2.917755E5,3.1E-1,3.193355E5,1.0044658E2,1.0444721E1,5.856021E1,4.05E-1,9.986339E1,9.959799E1,1.6425E2,1.645E0,9.789109E1,6.65E0,1.19E0,9.3160515E1,3.685E0,2.17314E2,6.8963196E1,4.045E1,3.15E0,1.3208382E2,8.572122E1,1.3659723E2,3.128E1,1.0815014E1,1.2161291E1,9.9872055E0,6.6783595E0,1.5331653E1,1.8701408E1,1.219584E1,5.1978426E0,2.0048439E1,2.4698454E1,5.4976835E0,1.5881156E1,5.011971E1,8.334961E0,3.317563E1,4.0548965E1,7.6927023E0,2.8746012E1,5.0470806E1,3.506128E1,3.149388E1,4.3784878E1,3.1419947E1,2.03046E1,5.2113907E1,5.9446682E1,7.060745E1,5.873072E1,4.7346687E1,5.4807796E1,7.606421E0,2.9189531E1,7.486867E1,4.976656E1,4.3355743E1,6.2990627E1,3.2070667E1,7.121726E1,7.3246145E0,4.70867E1,9.977826E1,6.345339E1],"split_indices":[4,4,4,4,5,6,9,0,5,3,7,7,7,7,6,0,7,8,1,7,2,5,9,0,7,5,1,0,8,7,2,5,7,0,1,3,8,3,6,0,0,8,6,9,5,1,9,0,1,0,8,5,0,7,8,0,0,0,7,0,0,0,0,0,0,0,0,0,0,0,0,0,0,0,0,0,0,0,0,0,0,0,0,0,0,0,0,0,0,0,0,0,0,0,0,0,0,0,0,0,0],"split_type":[0,0,0,0,0,0,0,0,0,0,0,0,0,0,0,0,0,0,0,0,0,0,0,0,0,0,0,0,0,0,0,0,0,0,0,0,0,0,0,0,0,0,0,0,0,0,0,0,0,0,0,0,0,0,0,0,0,0,0,0,0,0,0,0,0,0,0,0,0,0,0,0,0,0,0,0,0,0,0,0,0,0,0,0,0,0,0,0,0,0,0,0,0,0,0,0,0,0,0,0,0],"sum_hessian":[6.299E3,4.405E3,1.894E3,1.463E3,2.942E3,1.232E3,6.62E2,8.78E2,5.85E2,3.88E2,2.554E3,9.04E2,3.28E2,1.72E2,4.9E2,1.88E2,6.9E2,1.96E2,3.89E2,3.21E2,6.7E1,1.288E3,1.266E3,4.55E2,4.49E2,1.82E2,1.46E2,1.42E2,3E1,9.7E1,3.93E2,4.46E2,2.44E2,1.82E2,1.4E1,3.2E2,6.9E1,6.4E1,2.57E2,1E0,6.6E1,6.23E2,6.65E2,1.98E2,1.068E3,3.13E2,1.42E2,4.34E2,1.5E1,3.7E1,1.45E2,5.9E1,8.7E1,1.6E1,1.4E1,7.8E1,1.9E1,2E1,3.73E2,1.9E2,2.56E2,2.34E2,1E1,4.5E1,1.37E2,1.1E1,3E0,1.19E2,2.01E2,4E0,6.5E1,6.3E1,1E0,1.62E2,9.5E1,2E1,6.03E2,2E2,4.65E2,1.19E2,7.9E1,1.71E2,8.97E2,1.66E2,1.47E2,4.6E1,9.6E1,3.33E2,1.01E2,3E0,1.2E1,1.32E2,1.3E1,2E1,3.9E1,3E0,1.3E1,4E0,1E1,3.56E2,1.7E1],"tree_param":{"num_deleted":"0","num_feature":"10","num_nodes":"101","size_leaf_vector":"0"}},{"base_weights":[9.3326744E1,6.1758E1,1.7339267E2,3.570195E1,7.421606E1,1.3969987E2,2.3324231E2,2.7128735E1,4.691398E1,7.698958E1,3.2659885E1,1.2430816E2,1.657643E2,2.572545E2,1.9104668E2,2.4992716E1,3.223311E1,4.0433685E1,5.0848022E1,5.2711975E1,8.1890236E1,3.9723213E1,1.3252546E1,1.307417E2,1.039116E2,1.721129E2,1.0437779E2,3.204537E2,2.4489645E2,2.3215799E2,1.7406194E2,2.6188847E1,2.1397324E1,3.488752E1,2.7905512E1,4.1245235E1,2.795281E1,6.2731956E1,4.595529E1,6.3503635E1,2.1876335E1,8.4709076E1,4.911121E1,5.04086E1,1.7970102E1,2.949613E1,-1.8407185E-1,1.3195985E2,9.578453E1,1.2416002E2,9.4092445E1,1.8782031E2,1.611682E2,6.0923386E1,1.16053444E2,3.5895508E2,2.7457504E2,2.7852814E2,2.2950658E2,2.1430289E2,3.5203632E2,1.8480107E2,1.3779655E2,3.4353794E1,2.5462479E1,2.5193886E1,1.9733814E1,3.0889425E1,4.132022E1,2.9005135E1,2.1864683E1,3.8504436E1,4.8232056E1,3.5752747E1,1.9738964E1,2.4944649E1,6.542471E1,4.8060814E1,2.2556507E1,8.438672E1,5.7576324E1,1.4338652E1,3.982371E1,6.778604E1,8.957975E1,4.1625885E1,9.3035934E1,6.896243E1,3.4754456E1,2.6528152E1,-4.6357616E1,6.6149574E1,2.3157198E1,-1.8101084E1,1.1141624E1,1.1318599E2,1.3484372E2,1.1016816E2,6.723844E1,1.7096478E2,2.0370596E2,1.6250624E2,9.513554E1,1.06171326E2,3.068399E1,3.0771078E1,1.20713234E2,3.2846997E2,2.5550357E2,2.6693506E2,2.1646115E2,3.187984E2,2.0321016E2,1.5031216E2,1.9807613E2,1.16981476E2,2.4665926E2],"categories":[],"categories_nodes":[],"categories_segments":[],"categories_sizes":[],"default_left":[1,1,1,1,1,1,1,1,1,1,1,1,1,1,1,1,1,1,1,1,1,1,1,1,1,1,1,1,1,1,1,1,1,1,1,1,1,1,1,1,1,1,1,1,1,1,1,1,0,0,1,1,1,1,1,0,0,1,1,1,0,1,1,0,0,0,0,0,0,0,0,0,0,0,0,0,0,0,0,0,0,0,0,0,0,0,0,0,0,0,0,0,0,0,0,0,0,0,0,0,0,0,0,0,0,0,0,0,0,0,0,0,0,0,0,0,0],"id":8,"left_children":[1,3,5,7,9,11,13,15,17,19,21,23,25,27,29,31,33,35,37,39,41,43,45,47,49,51,53,55,57,59,61,63,65,67,69,71,73,75,77,79,81,83,85,87,89,91,93,95,-1,-1,97,99,101,103,105,-1,-1,107,109,111,-1,113,115,-1,-1,-1,-1,-1,-1,-1,-1,-1,-1,-1,-1,-1,-1,-1,-1,-1,-1,-1,-1,-1,-1,-1,-1,-1,-1,-1,-1,-1,-1,-1,-1,-1,-1,-1,-1,-1,-1,-1,-1,-1,-1,-1,-1,-1,-1,-1,-1,-1,-1,-1,-1,-1,-1],"loss_changes":[1.5913052E7,1.464578E6,3.558804E6,1.394515E5,3.49824E5,4.37538E5,5.99304E5,8.26575E3,1.40815E4,3.3655E5,2.5930078E4,8.1156E4,1.46105E5,2.37834E5,1.24381E5,1.9812188E3,1.8063438E3,1.3185312E3,1.9793688E4,1.5967038E5,2.15934E5,3.186825E4,1.1573146E4,1.0569E4,2.370775E4,3.5056E4,1.4238656E4,1.27225E4,1.1361E5,6.582675E4,4.1133E4,1.728875E3,4.691172E2,2.4785625E3,1.01484375E1,2.48975E3,4.474922E2,9.662469E3,1.27105625E4,3.945475E4,1.6609746E4,1.74607E5,5.8926344E4,2.4905031E4,2.7654738E4,4.0444102E3,6.2893545E3,1.3108E4,0E0,0E0,4.6122875E4,5.338E3,4.95E3,1.1793215E4,9.00225E3,0E0,0E0,3.4513E4,5.9892E4,4.76525E3,0E0,2.9288E4,6.858281E4,0E0,0E0,0E0,0E0,0E0,0E0,0E0,0E0,0E0,0E0,0E0,0E0,0E0,0E0,0E0,0E0,0E0,0E0,0E0,0E0,0E0,0E0,0E0,0E0,0E0,0E0,0E0,0E0,0E0,0E0,0E0,0E0,0E0,0E0,0E0,0E0,0E0,0E0,0E0,0E0,0E0,0E0,0E0,0E0,0E0,0E0,0E0,0E0,0E0,0E0,0E0,0E0,0E0,0E0],"parents":[2147483647,0,0,1,1,2,2,3,3,4,4,5,5,6,6,7,7,8,8,9,9,10,10,11,11,12,12,13,13,14,14,15,15,16,16,17,17,18,18,19,19,20,20,21,21,22,22,23,23,24,24,25,25,26,26,27,27,28,28,29,29,30,30,31,31,32,32,33,33,34,34,35,35,36,36,37,37,38,38,39,39,40,40,41,41,42,42,43,43,44,44,45,45,46,46,47,47,50,50,51,51,52,52,53,53,54,54,57,57,58,58,59,59,61,61,62,62],"right_children":[2,4,6,8,10,12,14,16,18,20,22,24,26,28,30,32,34,36,38,40,42,44,46,48,50,52,54,56,58,60,62,64,66,68,70,72,74,76,78,80,82,84,86,88,90,92,94,96,-1,-1,98,100,102,104,106,-1,-1,108,110,112,-1,114,116,-1,-1,-1,-1,-1,-1,-1,-1,-1,-1,-1,-1,-1,-1,-1,-1,-1,-1,-1,-1,-1,-1,-1,-1,-1,-1,-1,-1,-1,-1,-1,-1,-1,-1,-1,-1,-1,-1,-1,-1,-1,-1,-1,-1,-1,-1,-1,-1,-1,-1,-1,-1,-1,-1],"split_conditions":[2.069945E2,8.311213E3,2.244495E2,1.496E2,3.5325E1,1.0025651E2,2.543E1,2.568745E5,1.53E2,4.25E0,2.53E0,1.6045E1,2.077E1,9.941985E1,9.963003E1,1.5205E1,1.2755E1,2.355E0,2.091E1,1.585E0,1.015594E2,4.9235E1,3.7535E1,1.488235E4,1.6499999E-1,1.329E1,1.0043451E2,2.0689999E1,1.832E1,8E0,3.3605E1,9.933525E1,9.933525E1,2.68844E5,3.0949998E0,5.6499996E0,8.45E-1,8.75E-1,3.6375E1,1.225E0,3E1,9.916928E1,2.9905E1,3.39868E5,6.1499996E0,1.895E0,2.1149998E0,1.4391659E4,2.8735361E1,3.724801E1,1.14516754E2,1.045E0,3.775E0,2.234E1,9.5E-1,1.0768653E2,8.237251E1,9.122694E1,1.775E0,1.37E0,1.056109E2,1.9749999E0,1.795E0,1.0306139E1,7.638744E0,7.558166E0,5.9201446E0,9.266828E0,1.2396067E1,8.701541E0,6.5594053E0,1.15513315E1,1.4469617E1,1.0725824E1,5.9216895E0,7.483395E0,1.9627415E1,1.4418244E1,6.7669525E0,2.5316017E1,1.7272898E1,4.3015957E0,1.1947114E1,2.0335814E1,2.6873926E1,1.2487766E1,2.7910782E1,2.068873E1,1.0426337E1,7.958446E0,-1.3907286E1,1.9844873E1,6.94716E0,-5.4303255E0,3.3424876E0,3.39558E1,4.0453117E1,3.305045E1,2.0171534E1,5.1289436E1,6.111179E1,4.8751873E1,2.8540663E1,3.1851398E1,9.205197E0,9.231324E0,3.621397E1,9.854099E1,7.665108E1,8.008052E1,6.493835E1,9.563953E1,6.096305E1,4.509365E1,5.942284E1,3.5094444E1,7.399778E1],"split_indices":[5,4,5,5,7,6,7,3,5,0,8,7,7,6,6,7,7,8,7,1,6,7,7,4,8,7,6,7,7,0,7,6,6,3,8,0,1,1,7,1,7,6,7,3,0,1,1,4,0,0,2,1,8,7,1,0,0,2,8,8,0,8,1,0,0,0,0,0,0,0,0,0,0,0,0,0,0,0,0,0,0,0,0,0,0,0,0,0,0,0,0,0,0,0,0,0,0,0,0,0,0,0,0,0,0,0,0,0,0,0,0,0,0,0,0,0,0],"split_type":[0,0,0,0,0,0,0,0,0,0,0,0,0,0,0,0,0,0,0,0,0,0,0,0,0,0,0,0,0,0,0,0,0,0,0,0,0,0,0,0,0,0,0,0,0,0,0,0,0,0,0,0,0,0,0,0,0,0,0,0,0,0,0,0,0,0,0,0,0,0,0,0,0,0,0,0,0,0,0,0,0,0,0,0,0,0,0,0,0,0,0,0,0,0,0,0,0,0,0,0,0,0,0,0,0,0,0,0,0,0,0,0,0,0,0,0,0],"sum_hessian":[6.299E3,4.519E3,1.78E3,1.463E3,3.056E3,1.141E3,6.39E2,8.31E2,6.32E2,2.864E3,1.92E2,7.21E2,4.2E2,4.04E2,2.35E2,5.9E2,2.41E2,2.43E2,3.89E2,4.83E2,2.381E3,1.4E2,5.2E1,5.44E2,1.77E2,3.79E2,4.1E1,6.2E1,3.42E2,6.5E1,1.7E2,4.38E2,1.52E2,1.45E2,9.6E1,2.26E2,1.7E1,1.1E2,2.79E2,3.57E2,1.26E2,2.191E3,1.9E2,9.3E1,4.7E1,2.3E1,2.9E1,5.23E2,2.1E1,5.4E1,1.23E2,1.49E2,2.3E2,1E1,3.1E1,3E1,3.2E1,1.02E2,2.4E2,5.9E1,6E0,1.28E2,4.2E1,3.2E1,4.06E2,4.2E1,1.1E2,9.3E1,5.2E1,7.8E1,1.8E1,1.67E2,5.9E1,7E0,1E1,8E0,1.02E2,2.55E2,2.4E1,7.6E1,2.81E2,9E1,3.6E1,4.93E2,1.698E3,1.64E2,2.6E1,4.1E1,5.2E1,4.2E1,5E0,2E0,2.1E1,1.1E1,1.8E1,7.5E1,4.48E2,7.5E1,4.8E1,7.8E1,7.1E1,2.24E2,6E0,3E0,7E0,2E0,2.9E1,2.8E1,7.4E1,5.7E1,1.83E2,3E0,5.6E1,3.9E1,8.9E1,3.7E1,5E0],"tree_param":{"num_deleted":"0","num_feature":"10","num_nodes":"117","size_leaf_vector":"0"}},{"base_weights":[6.5616264E1,4.2135975E1,1.2017487E2,2.2865118E1,4.971881E1,1.0107747E2,1.7383653E2,2.9958054E1,1.867592E1,5.545778E1,3.7297768E1,9.019484E1,1.2415333E2,1.9662291E2,1.5222652E2,3.125528E1,9.556083E0,2.0365E1,1.637689E1,5.161671E1,7.14844E1,4.2823124E1,1.918232E1,9.894314E1,7.9283676E1,1.6108498E2,1.1939926E2,2.1226134E2,1.5909637E2,1.2732623E2,1.6587408E2,3.697142E1,2.7632906E1,3.208633E1,-1.0755138E1,1.7423286E1,2.1767973E1,2.2316736E1,1.5953149E1,6.761256E1,4.714738E1,4.345904E1,8.621573E1,3.513038E1,5.868542E1,1.5070229E1,4.4925957E1,1.19072685E2,9.5331635E1,8.2442535E1,6.297294E1,1.6672856E2,7.920449E1,9.4523125E1,1.2901805E2,1.4619064E2,2.224706E2,1.6171236E2,4.328076E1,1.3725728E2,7.310212E1,1.8887654E2,1.3228685E2,4.695354E1,3.2350063E1,3.046582E1,2.4804968E1,-1.4365104E1,9.676412E0,2.3842447E1,1.6692327E1,2.599192E1,2.0441809E1,1.4458496E1,1.7027027E1,5.137393E1,8.7919235E1,3.7709896E1,5.4234634E1,6.5180235E0,4.8977783E1,5.210389E1,9.388664E1,6.234116E1,3.1901812E1,5.0304115E1,9.3636894E1,5.1560005E1,1.3326684E1,7.176214E0,6.175874E1,1.2176144E2,6.741036E1,9.957946E1,8.056675E1,7.781276E1,1.0406304E2,4.8178707E1,9.1786804E1,4.418933E1,1.6855064E2,1.0133215E2,3.3303673E1,1.3254156E2,8.517739E1,2.9240885E1,1.5508885E2,1.8747997E2,2.4021552E2,1.449044E2,7.611579E1,1.5624756E1,7.972412E1,1.9421704E2,1.3043849E2,1.6570033E2,1.1241003E2],"categories":[],"categories_nodes":[],"categories_segments":[],"categories_sizes":[],"default_left":[1,1,1,1,1,1,1,1,1,1,1,1,1,1,1,1,1,1,1,1,1,1,1,1,1,1,1,1,1,1,1,1,1,0,1,1,1,0,1,1,1,1,1,1,1,1,1,1,1,1,1,1,0,1,1,1,1,0,0,1,1,1,1,0,0,0,0,0,0,0,0,0,0,0,0,0,0,0,0,0,0,0,0,0,0,0,0,0,0,0,0,0,0,0,0,0,0,0,0,0,0,0,0,0,0,0,0,0,0,0,0,0,0,0,0,0,0],"id":9,"left_children":[1,3,5,7,9,11,13,15,17,19,21,23,25,27,29,31,33,35,37,39,41,43,45,47,49,51,53,55,57,59,61,63,65,-1,67,69,71,-1,73,75,77,79,81,83,85,87,89,91,93,95,97,99,-1,101,103,105,107,-1,-1,109,111,113,115,-1,-1,-1,-1,-1,-1,-1,-1,-1,-1,-1,-1,-1,-1,-1,-1,-1,-1,-1,-1,-1,-1,-1,-1,-1,-1,-1,-1,-1,-1,-1,-1,-1,-1,-1,-1,-1,-1,-1,-1,-1,-1,-1,-1,-1,-1,-1,-1,-1,-1,-1,-1,-1,-1],"loss_changes":[8.065566E6,6.427015E5,1.924422E6,3.646375E4,2.232605E5,3.40379E5,2.14306E5,1.1902156E4,2.7187188E3,1.29278E5,9.9472875E4,8.33145E4,5.90735E4,1.05902E5,6.6896E4,7.9440625E3,1.36159795E4,1.4738125E3,4.9471094E2,1.216345E5,1.6758625E5,9.153125E4,2.4305953E4,2.68875E4,1.696325E4,8.975E3,8.3277E4,7.87745E4,1.5420875E4,4.1662375E4,1.017185E5,6.0926562E3,1.3993281E3,0E0,1.3191177E3,3.0583594E2,1.1491562E3,0E0,2.6583594E2,1.204595E5,8.945475E4,2.9241594E4,6.6020375E4,4.3606312E4,6.823156E4,1.2355289E4,1.9890664E4,2.349125E3,2.02635E4,2.76375E4,2.71225E4,2.376125E3,0E0,4.4562438E4,3.2735E4,2.1481062E4,4.2512E4,0E0,0E0,2.6375E4,5.2247812E3,4.31525E3,2.786425E4,0E0,0E0,0E0,0E0,0E0,0E0,0E0,0E0,0E0,0E0,0E0,0E0,0E0,0E0,0E0,0E0,0E0,0E0,0E0,0E0,0E0,0E0,0E0,0E0,0E0,0E0,0E0,0E0,0E0,0E0,0E0,0E0,0E0,0E0,0E0,0E0,0E0,0E0,0E0,0E0,0E0,0E0,0E0,0E0,0E0,0E0,0E0,0E0,0E0,0E0,0E0,0E0,0E0,0E0],"parents":[2147483647,0,0,1,1,2,2,3,3,4,4,5,5,6,6,7,7,8,8,9,9,10,10,11,11,12,12,13,13,14,14,15,15,16,16,17,17,18,18,19,19,20,20,21,21,22,22,23,23,24,24,25,25,26,26,27,27,28,28,29,29,30,30,31,31,32,32,34,34,35,35,36,36,38,38,39,39,40,40,41,41,42,42,43,43,44,44,45,45,46,46,47,47,48,48,49,49,50,50,51,51,53,53,54,54,55,55,56,56,59,59,60,60,61,61,62,62],"right_children":[2,4,6,8,10,12,14,16,18,20,22,24,26,28,30,32,34,36,38,40,42,44,46,48,50,52,54,56,58,60,62,64,66,-1,68,70,72,-1,74,76,78,80,82,84,86,88,90,92,94,96,98,100,-1,102,104,106,108,-1,-1,110,112,114,116,-1,-1,-1,-1,-1,-1,-1,-1,-1,-1,-1,-1,-1,-1,-1,-1,-1,-1,-1,-1,-1,-1,-1,-1,-1,-1,-1,-1,-1,-1,-1,-1,-1,-1,-1,-1,-1,-1,-1,-1,-1,-1,-1,-1,-1,-1,-1,-1,-1,-1,-1,-1,-1,-1],"split_conditions":[1.4127605E4,7.950654E3,2.269595E2,5.95E0,2.4115002E1,1.4939596E4,4.794085E5,2.0548904E1,1.3565001E1,5.6499996E0,2.915E0,1.398E1,4.03348E5,9.62093E1,4.83918E5,9.875932E1,2.1325E1,2.315E0,1.4579565E1,1.6345E2,9.940661E1,1.0143227E2,4.068205E5,1.055E0,1.488235E4,1.265E0,4.280955E5,9.93645E1,3.547E1,2.7630001E1,4.91021E5,5.55E0,1.62E1,9.625899E0,2.5994999E1,1.7432781E1,1.1515E1,6.695021E0,9.75E-1,1.61E2,1.059851E4,2.05E-1,2.5014547E1,1.405E0,1.0048914E2,1.3584103E1,2.782E1,2.53E0,9.970134E1,2.17314E2,1.97E0,2.045E0,2.3761349E1,2.149E1,4.0815002E1,1.47E0,4.66908E5,4.851371E1,1.2984229E1,3.4650002E0,2.872E1,3.1400002E1,8.75E-1,1.4086062E1,9.705019E0,9.139747E0,7.4414907E0,-4.309531E0,2.9029236E0,7.1527343E0,5.0076985E0,7.7975764E0,6.132543E0,4.337549E0,5.1081085E0,1.541218E1,2.6375772E1,1.1312969E1,1.6270391E1,1.9554071E0,1.4693336E1,1.5631167E1,2.8165995E1,1.8702349E1,9.570544E0,1.5091235E1,2.809107E1,1.5468002E1,3.9980054E0,2.1528645E0,1.8527622E1,3.652843E1,2.022311E1,2.9873838E1,2.4170027E1,2.3343828E1,3.1218914E1,1.4453612E1,2.7536043E1,1.32568E1,5.0565197E1,3.0399647E1,9.991102E0,3.976247E1,2.5553219E1,8.772265E0,4.6526657E1,5.624399E1,7.206466E1,4.347132E1,2.2834738E1,4.687427E0,2.3917236E1,5.8265114E1,3.913155E1,4.9710102E1,3.372301E1],"split_indices":[4,4,5,0,7,4,3,2,7,0,8,7,3,2,3,6,7,8,2,5,6,9,3,1,4,1,3,6,7,7,3,0,7,0,7,2,7,0,1,5,4,8,2,1,6,2,7,8,6,5,1,8,0,7,7,8,3,0,0,8,7,7,1,0,0,0,0,0,0,0,0,0,0,0,0,0,0,0,0,0,0,0,0,0,0,0,0,0,0,0,0,0,0,0,0,0,0,0,0,0,0,0,0,0,0,0,0,0,0,0,0,0,0,0,0,0,0],"split_type":[0,0,0,0,0,0,0,0,0,0,0,0,0,0,0,0,0,0,0,0,0,0,0,0,0,0,0,0,0,0,0,0,0,0,0,0,0,0,0,0,0,0,0,0,0,0,0,0,0,0,0,0,0,0,0,0,0,0,0,0,0,0,0,0,0,0,0,0,0,0,0,0,0,0,0,0,0,0,0,0,0,0,0,0,0,0,0,0,0,0,0,0,0,0,0,0,0,0,0,0,0,0,0,0,0,0,0,0,0,0,0,0,0,0,0,0,0],"sum_hessian":[6.299E3,4.405E3,1.894E3,1.245E3,3.16E3,1.399E3,4.95E2,4.6E2,7.85E2,2.159E3,1.001E3,9.54E2,4.45E2,2.37E2,2.58E2,4.32E2,2.8E1,4.48E2,3.37E2,1.745E3,4.14E2,7.66E2,2.35E2,5.25E2,4.29E2,4.7E1,3.98E2,1.64E2,7.3E1,9.5E1,1.63E2,1.64E2,2.68E2,1.3E1,1.5E1,1.49E2,2.99E2,1.9E1,3.18E2,3.78E2,1.367E3,1.44E2,2.7E2,5.18E2,2.48E2,2.04E2,3.1E1,7.5E1,4.5E2,3.56E2,7.3E1,4.3E1,4E0,1.14E2,2.84E2,2.4E1,1.4E2,7.1E1,2E0,7.9E1,1.6E1,9.4E1,6.9E1,4.9E1,1.15E2,1.29E2,1.39E2,1.3E1,2E0,1.2E1,1.37E2,6.7E1,2.32E2,1.39E2,1.79E2,2.12E2,1.66E2,5.89E2,7.78E2,1.9E1,1.25E2,5.1E1,2.19E2,5.3E1,4.65E2,2.02E2,4.6E1,8E0,1.96E2,1E1,2.1E1,7E1,5E0,3.45E2,1.05E2,2.97E2,5.9E1,5E1,2.3E1,1E0,4.2E1,1.02E2,1.2E1,2.61E2,2.3E1,2E0,2.2E1,5.1E1,8.9E1,6.9E1,1E1,2E0,1.4E1,8.4E1,1E1,2.3E1,4.6E1],"tree_param":{"num_deleted":"0","num_feature":"10","num_nodes":"117","size_leaf_vector":"0"}},{"base_weights":[4.613039E1,2.9004257E1,8.3758385E1,1.734702E1,3.4944702E1,6.782148E1,1.1677131E2,1.3936228E1,2.368077E1,5.270678E1,3.2144543E1,7.943566E1,6.0109898E1,1.4760536E2,1.0530451E2,1.2266986E1,1.6608168E1,2.6720785E1,1.7639359E1,4.5726353E1,8.498605E1,3.837511E1,2.330684E1,8.389245E1,6.0231518E1,6.673972E1,5.1747726E1,1.6099709E2,1.1197744E2,1.1124573E2,7.748275E1,1.5672426E1,1.1749239E1,1.6916508E1,5.175354E0,2.3746832E1,4.3375824E1,1.3210707E1,2.8989351E1,7.171101E1,4.0799763E1,7.834384E1,1.716755E2,3.4908714E1,6.433083E1,8.126435E0,2.6895786E1,8.6227554E1,4.895235E1,6.368949E1,3.1392504E1,5.8211582E1,7.3978714E1,6.168878E1,4.8054066E1,1.1248572E2,1.6674648E2,2.9680908E1,1.1848842E2,1.4027443E2,1.0598254E2,6.8596794E1,1.555462E2,1.8661867E1,1.1722726E1,1.2110047E1,6.267459E0,2.0804987E1,1.5796649E1,7.8092117E0,-1.3862E0,1.1915652E1,2.4773369E1,1.0862183E1,5.024803E1,9.915569E0,2.6939186E1,1.4079546E1,9.203411E1,3.825052E1,8.20967E1,1.9140055E1,7.991951E1,3.6190872E1,-1.9891796E1,6.6631386E1,2.848761E1,-4.2943563E0,1.939421E1,3.3614826E1,2.0046864E1,9.617161E1,7.3524086E1,5.7648647E1,3.828357E1,6.589185E1,2.1507364E1,4.000879E1,-1.0664714E1,4.713357E1,6.1580517E1,7.886716E1,6.7193306E1,5.7155872E1,7.472433E1,5.2764503E1,2.8496885E1,1.21864746E2,3.122168E1,1.4560596E2,1.9599713E2,4.574243E1,3.7257488E0,1.22902145E2,5.771543E1,1.641333E1,1.4697575E2,2.0830171E2,1.0408812E2,4.5949326E1,8.556752E1],"categories":[],"categories_nodes":[],"categories_segments":[],"categories_sizes":[],"default_left":[1,1,1,1,1,1,1,1,1,1,1,1,1,1,1,1,1,1,1,1,1,1,1,1,1,1,1,1,1,1,1,1,1,1,1,1,1,1,1,0,1,1,0,1,1,1,1,1,1,1,1,1,1,1,1,1,1,1,1,1,1,1,0,0,0,0,0,0,0,0,0,0,0,0,0,0,0,0,0,0,0,0,0,0,0,0,0,0,0,0,0,0,0,0,0,0,0,0,0,0,0,0,0,0,0,0,0,0,0,0,0,0,0,0,0,0,0,0,0,0,0],"id":10,"left_children":[1,3,5,7,9,11,13,15,17,19,21,23,25,27,29,31,33,35,37,39,41,43,45,47,49,51,53,55,57,59,61,63,65,67,69,71,73,75,77,-1,79,81,-1,83,85,87,89,91,93,95,97,99,101,103,105,107,109,111,113,115,117,119,-1,-1,-1,-1,-1,-1,-1,-1,-1,-1,-1,-1,-1,-1,-1,-1,-1,-1,-1,-1,-1,-1,-1,-1,-1,-1,-1,-1,-1,-1,-1,-1,-1,-1,-1,-1,-1,-1,-1,-1,-1,-1,-1,-1,-1,-1,-1,-1,-1,-1,-1,-1,-1,-1,-1,-1,-1,-1,-1],"loss_changes":[4.057431E6,2.99312E5,1.028545E6,3.1296938E4,1.4095025E5,1.14434E5,2.10739E5,4.0512344E3,8.9136875E3,8.3764625E4,1.3566425E5,4.0138E4,4.112E4,6.355925E4,6.9069E4,8.578906E2,1.195625E3,1.5711531E4,8.363168E3,3.829525E4,2.5705375E4,1.2848475E5,5.5788562E4,3.0536E4,8.272281E3,2.3165875E4,1.0254375E4,1.52705E4,2.327475E4,4.3955E4,4.898547E4,6.667871E2,9.4665625E2,1.2128516E3,2.0092932E2,3.2147656E3,1.0626219E4,5.478006E3,4.382349E4,0E0,2.5600094E4,4.5339375E3,0E0,9.0937375E4,1.21198125E4,2.7794316E4,3.7567188E4,4.3206E4,4.8358594E2,7.03675E3,5.137585E3,4.8975625E3,2.562E3,1.2834375E3,2.3093188E4,8.390016E3,3.762775E4,1.9139717E3,5.2455E3,4.40695E4,4.228375E4,2.6431406E4,0E0,0E0,0E0,0E0,0E0,0E0,0E0,0E0,0E0,0E0,0E0,0E0,0E0,0E0,0E0,0E0,0E0,0E0,0E0,0E0,0E0,0E0,0E0,0E0,0E0,0E0,0E0,0E0,0E0,0E0,0E0,0E0,0E0,0E0,0E0,0E0,0E0,0E0,0E0,0E0,0E0,0E0,0E0,0E0,0E0,0E0,0E0,0E0,0E0,0E0,0E0,0E0,0E0,0E0,0E0,0E0,0E0,0E0,0E0],"parents":[2147483647,0,0,1,1,2,2,3,3,4,4,5,5,6,6,7,7,8,8,9,9,10,10,11,11,12,12,13,13,14,14,15,15,16,16,17,17,18,18,19,19,20,20,21,21,22,22,23,23,24,24,25,25,26,26,27,27,28,28,29,29,30,30,31,31,32,32,33,33,34,34,35,35,36,36,37,37,38,38,40,40,41,41,43,43,44,44,45,45,46,46,47,47,48,48,49,49,50,50,51,51,52,52,53,53,54,54,55,55,56,56,57,57,58,58,59,59,60,60,61,61],"right_children":[2,4,6,8,10,12,14,16,18,20,22,24,26,28,30,32,34,36,38,40,42,44,46,48,50,52,54,56,58,60,62,64,66,68,70,72,74,76,78,-1,80,82,-1,84,86,88,90,92,94,96,98,100,102,104,106,108,110,112,114,116,118,120,-1,-1,-1,-1,-1,-1,-1,-1,-1,-1,-1,-1,-1,-1,-1,-1,-1,-1,-1,-1,-1,-1,-1,-1,-1,-1,-1,-1,-1,-1,-1,-1,-1,-1,-1,-1,-1,-1,-1,-1,-1,-1,-1,-1,-1,-1,-1,-1,-1,-1,-1,-1,-1,-1,-1,-1,-1,-1,-1],"split_conditions":[1.3954874E4,8.311213E3,2.244495E2,7.551643E3,1.624E2,1.475E0,1.9765E1,2.568745E5,2.1321468E1,3.205875E5,2.106E1,1.7875E1,1.4395E1,1.0179811E2,3.1215E1,9.933525E1,1.924E1,2.0852978E1,2.998E1,2.042E1,3.019E1,5.75E0,4.3500004E0,3.625E0,2.5325E1,1.645E0,1.6499999E-1,7.6E0,7.75E0,9.941082E1,1.795E0,1.639E1,1.6925E1,1.4200001E0,1.8541218E1,1.0040797E2,1.8199999E0,2.5E0,8.19559E3,2.1513306E1,2.83E1,4.5E-1,5.1502655E1,7.370506E1,6.05E0,2.9759998E1,1.0036331E2,9.700001E0,9.617483E1,1.36E0,2.71E0,-2.75E-1,6.993537E1,1.951E1,1.14516754E2,1.83E0,4.66908E5,1.935E1,1.315E0,1.435E0,1.41E0,2.257505E2,4.6663864E1,5.5985603E0,3.5168178E0,3.6330144E0,1.8802377E0,6.2414966E0,4.738995E0,2.3427637E0,-4.1586E-1,3.5746958E0,7.432011E0,3.2586548E0,1.507441E1,2.974671E0,8.081757E0,4.223864E0,2.7610235E1,1.1475156E1,2.4629011E1,5.742017E0,2.3975853E1,1.0857262E1,-5.967539E0,1.9989416E1,8.546284E0,-1.288307E0,5.8182635E0,1.0084448E1,6.0140595E0,2.8851484E1,2.2057226E1,1.7294596E1,1.1485071E1,1.9767557E1,6.4522095E0,1.2002637E1,-3.1994143E0,1.4140072E1,1.8474155E1,2.3660149E1,2.0157993E1,1.7146763E1,2.24173E1,1.5829351E1,8.549066E0,3.6559425E1,9.366505E0,4.368179E1,5.879914E1,1.372273E1,1.1177247E0,3.6870644E1,1.731463E1,4.9239993E0,4.4092728E1,6.2490517E1,3.1226437E1,1.3784799E1,2.5670258E1],"split_indices":[4,4,5,4,5,1,7,3,2,3,7,7,7,2,7,6,7,2,7,7,7,0,0,8,7,1,8,0,0,6,1,7,7,8,2,9,8,8,4,0,7,8,0,2,0,7,6,0,2,1,8,8,2,7,2,8,3,7,1,8,8,5,0,0,0,0,0,0,0,0,0,0,0,0,0,0,0,0,0,0,0,0,0,0,0,0,0,0,0,0,0,0,0,0,0,0,0,0,0,0,0,0,0,0,0,0,0,0,0,0,0,0,0,0,0,0,0,0,0,0,0],"split_type":[0,0,0,0,0,0,0,0,0,0,0,0,0,0,0,0,0,0,0,0,0,0,0,0,0,0,0,0,0,0,0,0,0,0,0,0,0,0,0,0,0,0,0,0,0,0,0,0,0,0,0,0,0,0,0,0,0,0,0,0,0,0,0,0,0,0,0,0,0,0,0,0,0,0,0,0,0,0,0,0,0,0,0,0,0,0,0,0,0,0,0,0,0,0,0,0,0,0,0,0,0,0,0,0,0,0,0,0,0,0,0,0,0,0,0,0,0,0,0,0,0],"sum_hessian":[6.299E3,4.33E3,1.969E3,1.463E3,2.867E3,1.33E3,6.39E2,9.53E2,5.1E2,3.88E2,2.479E3,5.27E2,8.03E2,1.7E2,4.69E2,5.9E2,3.63E2,3.37E2,1.73E2,3.21E2,6.7E1,1.452E3,1.027E3,4.25E2,1.02E2,4.44E2,3.59E2,1.21E2,4.9E1,3.84E2,8.5E1,7.4E1,5.16E2,3.53E2,1E1,2.88E2,4.9E1,1.26E2,4.7E1,4.9E1,2.72E2,6.4E1,3E0,1.283E3,1.69E2,1.97E2,8.3E2,3.97E2,2.8E1,9E1,1.2E1,2.08E2,2.36E2,9.3E1,2.66E2,1.5E1,1.06E2,4E0,4.5E1,5.5E1,3.29E2,7.8E1,7E0,4E1,3.4E1,4.83E2,3.3E1,7.5E1,2.78E2,7E0,3E0,2.4E1,2.64E2,9E0,4E1,1.03E2,2.3E1,3.9E1,8E0,2.58E2,1.4E1,2E0,6.2E1,1.254E3,2.9E1,1.58E2,1.1E1,9.4E1,1.03E2,4.17E2,4.13E2,2.19E2,1.78E2,1.3E1,1.5E1,8.5E1,5E0,1E1,2E0,5.2E1,1.56E2,1.31E2,1.05E2,7.3E1,2E1,2.13E2,5.3E1,1.3E1,2E0,6.5E1,4.1E1,2E0,2E0,4.1E1,4E0,3E0,5.2E1,4E0,3.25E2,3.5E1,4.3E1],"tree_param":{"num_deleted":"0","num_feature":"10","num_nodes":"121","size_leaf_vector":"0"}},{"base_weights":[3.2449055E1,2.1644217E1,6.2149475E1,1.2583101E1,2.627588E1,5.2057594E1,8.786756E1,1.686656E1,9.678881E0,3.5012794E1,2.2241182E1,3.915155E1,5.8704636E1,1.0217689E2,7.570515E1,3.2485912E1,1.6248972E1,9.392003E0,1.9745556E1,3.6551903E1,-1.4123185E1,3.9156708E1,1.8985907E1,3.395099E1,4.6343285E1,5.3455276E1,6.517412E1,1.0325361E2,-7.9700522E0,1.6342183E2,7.368833E1,2.5244583E1,4.2907837E1,1.3599438E1,1.9948513E1,9.650332E0,9.007394E-1,2.395329E1,9.603664E0,2.702574E1,4.6628254E1,-3.4818146E1,-1.0534184E1,3.727668E1,1.36659E2,3.602929E1,1.5440205E1,5.9053886E1,3.2282627E1,4.95472E1,2.6569628E1,3.6227955E1,5.8735126E1,8.0582794E1,5.3862232E1,5.494437E1,1.06391914E2,-1.3574951E1,1.619873E0,7.485366E1,-4.915047E1,3.7283726E1,1.4292725E1,4.684792E1,7.6636353E0,1.4510609E1,-8.203394E0,1.5105008E1,3.0363972E1,8.89036E0,1.2744577E1,9.575901E0,-1.3376864E1,5.410258E0,2.606501E1,1.6414295E1,8.7230223E-1,2.0914497E0,3.1676634E1,5.485188E1,3.5951103E1,-1.2495427E1,3.8668213E0,3.0091474E0,4.0670773E1,5.5786552E1,2.9372168E1,1.4560957E1,6.1468483E1,2.1201986E1,6.3595703E1,3.049385E1,4.962951E1,5.0539722E1,-1.460966E1,2.9788086E1,7.0944824E0,3.7979736E0,3.846007E1,5.7615475E1,1.11273155E2,6.929006E1,1.0175418E2,3.0541739E1,6.1740955E1,7.874124E1,1.6499197E1,1.131015E2,8.42695E1,6.0908936E1,8.271464E1,-1.5235474E1,-5.8490234E1],"categories":[],"categories_nodes":[],"categories_segments":[],"categories_sizes":[],"default_left":[1,1,1,1,1,1,1,1,1,1,1,1,1,1,1,1,1,1,1,1,1,1,1,1,1,1,1,1,1,0,1,1,1,1,1,1,1,1,1,1,1,0,1,1,0,1,1,1,1,1,1,1,1,1,1,1,1,0,0,1,1,0,0,0,0,0,0,0,0,0,0,0,0,0,0,0,0,0,0,0,0,0,0,0,0,0,0,0,0,0,0,0,0,0,0,0,0,0,0,0,0,0,0,0,0,0,0,0,0,0,0,0,0],"id":11,"left_children":[1,3,5,7,9,11,13,15,17,19,21,23,25,27,29,31,33,35,37,39,41,43,45,47,49,51,53,55,57,-1,59,61,63,65,67,69,71,73,75,77,79,-1,81,83,-1,85,87,89,91,93,95,97,99,101,103,105,107,-1,-1,109,111,-1,-1,-1,-1,-1,-1,-1,-1,-1,-1,-1,-1,-1,-1,-1,-1,-1,-1,-1,-1,-1,-1,-1,-1,-1,-1,-1,-1,-1,-1,-1,-1,-1,-1,-1,-1,-1,-1,-1,-1,-1,-1,-1,-1,-1,-1,-1,-1,-1,-1,-1,-1],"loss_changes":[2.020377E6,1.93604E5,4.31459E5,1.9305562E4,1.06983E5,1.014185E5,7.441E4,5.5589688E3,2.5147422E3,7.341925E4,1.1456219E5,1.3910625E4,2.354875E4,2.620275E4,3.3777E4,6.5258984E2,5.698172E3,1.989625E3,8.368203E2,8.84895E4,1.8614463E3,5.6680375E4,1.0568094E5,8.312469E3,9.516906E3,3.834825E4,5.7013625E4,2.629525E4,1.832414E2,0E0,4.018175E4,1.5767285E3,7.5189453E2,7.2311094E3,1.225407E4,1.9654531E3,3.59619E3,5.246621E2,5.208764E2,5.594572E4,3.7803625E4,0E0,8.109021E2,3.8491656E4,0E0,3.8082438E4,5.8070094E4,1.0584805E3,5.654453E3,1.0035219E4,1.4183477E3,7.5993906E3,1.3530375E4,2.8094625E4,3.5963875E4,1.2423953E4,1.985875E4,0E0,0E0,2.26955E4,5.914746E1,0E0,0E0,0E0,0E0,0E0,0E0,0E0,0E0,0E0,0E0,0E0,0E0,0E0,0E0,0E0,0E0,0E0,0E0,0E0,0E0,0E0,0E0,0E0,0E0,0E0,0E0,0E0,0E0,0E0,0E0,0E0,0E0,0E0,0E0,0E0,0E0,0E0,0E0,0E0,0E0,0E0,0E0,0E0,0E0,0E0,0E0,0E0,0E0,0E0,0E0,0E0,0E0],"parents":[2147483647,0,0,1,1,2,2,3,3,4,4,5,5,6,6,7,7,8,8,9,9,10,10,11,11,12,12,13,13,14,14,15,15,16,16,17,17,18,18,19,19,20,20,21,21,22,22,23,23,24,24,25,25,26,26,27,27,28,28,30,30,31,31,32,32,33,33,34,34,35,35,36,36,37,37,38,38,39,39,40,40,42,42,43,43,45,45,46,46,47,47,48,48,49,49,50,50,51,51,52,52,53,53,54,54,55,55,56,56,59,59,60,60],"right_children":[2,4,6,8,10,12,14,16,18,20,22,24,26,28,30,32,34,36,38,40,42,44,46,48,50,52,54,56,58,-1,60,62,64,66,68,70,72,74,76,78,80,-1,82,84,-1,86,88,90,92,94,96,98,100,102,104,106,108,-1,-1,110,112,-1,-1,-1,-1,-1,-1,-1,-1,-1,-1,-1,-1,-1,-1,-1,-1,-1,-1,-1,-1,-1,-1,-1,-1,-1,-1,-1,-1,-1,-1,-1,-1,-1,-1,-1,-1,-1,-1,-1,-1,-1,-1,-1,-1,-1,-1,-1,-1,-1,-1,-1,-1],"split_conditions":[1.4416492E4,3.097725E5,2.2719601E2,5.6499996E0,1.5805E1,7.05E0,4.794085E5,-2E-2,1.0089557E2,7.370506E1,1.624E2,4.737715E5,9.8109184E1,3.2215E1,1.385E0,2.6740002E1,2.185E0,3.009715E5,1.565E0,1.794E2,2.68E0,3.025E1,1.00114655E2,-1.95E-1,4.83142E5,1.245E0,1.0100307E2,1.595E0,1.28E0,4.902655E1,3.36E1,-1.8E-1,1.35E0,2.125E0,2.98781E5,2.673605E5,7.7E-1,1.904E1,8.8E-1,6.15E-1,2.036185E2,-1.0445444E1,1.4495E1,1.5136591E1,4.09977E1,1.425E0,6.5100494E1,-3E-1,2.05E0,2.9375E1,5.55E-1,5.7E-1,1.845E0,4.014925E5,2.66E0,7.75E0,9.931761E1,-4.0724854E0,4.8596194E-1,4.83918E5,7.7E0,1.1185118E1,4.2878175E0,1.4054377E1,2.2990906E0,4.353183E0,-2.4610183E0,4.5315027E0,9.109192E0,2.667108E0,3.8233733E0,2.8727703E0,-4.0130596E0,1.6230774E0,7.8195033E0,4.9242887E0,2.6169068E-1,6.2743497E-1,9.502991E0,1.6455564E1,1.0785332E1,-3.7486284E0,1.1600465E0,9.0274423E-1,1.2201232E1,1.6735966E1,8.81165E0,4.368287E0,1.8440546E1,6.360596E0,1.9078712E1,9.148155E0,1.4888853E1,1.5161918E1,-4.3828983E0,8.936426E0,2.1283448E0,1.1393921E0,1.1538022E1,1.7284643E1,3.3381947E1,2.078702E1,3.0526255E1,9.162522E0,1.8522287E1,2.3622374E1,4.9497595E0,3.393045E1,2.5280851E1,1.8272682E1,2.4814392E1,-4.5706425E0,-1.7547071E1],"split_indices":[4,3,5,0,7,0,3,8,9,2,5,3,9,7,8,7,8,3,8,5,8,7,9,8,3,1,6,8,1,0,7,8,1,8,3,3,1,7,1,8,5,0,7,2,0,1,2,8,1,7,8,8,1,3,8,0,2,0,0,3,0,0,0,0,0,0,0,0,0,0,0,0,0,0,0,0,0,0,0,0,0,0,0,0,0,0,0,0,0,0,0,0,0,0,0,0,0,0,0,0,0,0,0,0,0,0,0,0,0,0,0,0,0],"split_type":[0,0,0,0,0,0,0,0,0,0,0,0,0,0,0,0,0,0,0,0,0,0,0,0,0,0,0,0,0,0,0,0,0,0,0,0,0,0,0,0,0,0,0,0,0,0,0,0,0,0,0,0,0,0,0,0,0,0,0,0,0,0,0,0,0,0,0,0,0,0,0,0,0,0,0,0,0,0,0,0,0,0,0,0,0,0,0,0,0,0,0,0,0,0,0,0,0,0,0,0,0,0,0,0,0,0,0,0,0,0,0,0,0],"sum_hessian":[6.299E3,4.62E3,1.679E3,1.564E3,3.056E3,1.208E3,4.71E2,6.3E2,9.34E2,9.63E2,2.093E3,4.13E2,7.95E2,2.13E2,2.58E2,2.2E1,6.08E2,9.1E2,2.4E1,9.34E2,2.9E1,3.36E2,1.757E3,2.43E2,1.7E2,4.44E2,3.51E2,2.11E2,2E0,4E0,2.54E2,1.5E1,7E0,3.57E2,2.51E2,8.83E2,2.7E1,1.6E1,8E0,4.82E2,4.52E2,3E0,2.6E1,3.31E2,5E0,3.01E2,1.456E3,1.3E1,2.3E2,1.45E2,2.5E1,1.06E2,3.38E2,1.46E2,2.05E2,1.4E1,1.97E2,1E0,1E0,2.52E2,2E0,6E0,9E0,6E0,1E0,3.43E2,1.4E1,1.73E2,7.8E1,7.12E2,1.71E2,1.7E1,1E1,2E0,1.4E1,4E0,4E0,7.6E1,4.06E2,2.53E2,1.99E2,2.3E1,3E0,3E1,3.01E2,7.4E1,2.27E2,1.43E3,2.6E1,2E0,1.1E1,2.11E2,1.9E1,1.43E2,2E0,2.1E1,4E0,7E0,9.9E1,3.33E2,5E0,9.8E1,4.8E1,5.3E1,1.52E2,8E0,6E0,1.48E2,4.9E1,9.4E1,1.58E2,1E0,1E0],"tree_param":{"num_deleted":"0","num_feature":"10","num_nodes":"113","size_leaf_vector":"0"}},{"base_weights":[2.2803535E1,1.4225817E1,4.164988E1,8.443055E0,1.70943E1,3.3719315E1,5.8077904E1,1.1743442E1,6.6166115E0,2.52105E1,1.5136166E1,2.9429747E1,4.0086376E1,6.823332E1,4.6909615E1,1.0277092E1,2.0130793E1,6.8236847E0,-1.3075116E1,2.822585E1,-3.6229746E0,2.4654139E1,1.2441286E1,3.2215378E1,2.4402456E1,4.1807205E1,1.7832E1,7.1643875E1,3.3913948E1,1.3372052E2,4.561731E1,1.1793436E1,4.3820524E0,7.3081584E0,2.8516811E1,6.4250965E0,3.4108006E1,-1.6584747E1,-6.248535E0,3.512981E1,1.6485905E1,1.468531E1,-1.1041169E1,2.111463E1,4.755865E1,2.5879725E1,9.634847E0,3.537776E1,2.6100473E1,-1.68879E1,2.6096996E1,3.41791E1,4.775766E1,3.6115154E1,6.598182E0,1.3870364E2,6.958244E1,6.0499737E1,1.4937488E1,5.32151E1,3.8211678E1,5.7964525E0,1.3934323E1,9.559301E0,-7.608163E0,2.061354E1,-1.0404785E0,4.2145386E0,3.015234E1,-5.2260013E0,6.587151E0,1.271657E1,5.0626865E1,2.536214E0,-1.2950439E1,1.2725303E1,3.715788E1,2.4642038E1,7.7140026E0,-2.822998E0,-1.7263256E1,3.433099E1,1.8140135E1,4.3458267E1,1.0230023E2,1.6462542E1,3.6603176E1,5.4700074E0,1.5259567E1,3.0272991E1,4.006668E1,3.0994215E1,2.0743303E1,1.9663986E1,3.1946712E1,4.455722E1,2.4830584E1,5.533112E1,3.8496216E1,1.4503845E1,5.3212067E1,-2.7250183E1,1.2197977E1,2.573413E1,1.5116585E2,7.5479744E1,4.9548557E1,1.4457683E1,6.755669E1,6.181006E1,-2.9031893E1,1.8411499E1,5.6430176E1,3.5231445E1,9.7466484E1],"categories":[],"categories_nodes":[],"categories_segments":[],"categories_sizes":[],"default_left":[1,1,1,1,1,1,1,1,1,1,1,1,1,1,1,1,1,1,1,1,1,1,1,1,1,1,1,1,1,0,1,1,1,1,1,1,1,0,1,1,1,0,1,1,1,1,1,1,1,0,1,1,1,1,1,1,1,1,1,1,1,0,0,0,0,0,0,0,0,0,0,0,0,0,0,0,0,0,0,0,0,0,0,0,0,0,0,0,0,0,0,0,0,0,0,0,0,0,0,0,0,0,0,0,0,0,0,0,0,0,0,0,0,0,0],"id":12,"left_children":[1,3,5,7,9,11,13,15,17,19,21,23,25,27,29,31,33,35,37,39,41,43,45,47,49,51,53,55,57,-1,59,61,63,65,67,69,71,-1,73,75,77,-1,79,81,83,85,87,89,91,-1,93,95,97,99,101,103,105,107,109,111,113,-1,-1,-1,-1,-1,-1,-1,-1,-1,-1,-1,-1,-1,-1,-1,-1,-1,-1,-1,-1,-1,-1,-1,-1,-1,-1,-1,-1,-1,-1,-1,-1,-1,-1,-1,-1,-1,-1,-1,-1,-1,-1,-1,-1,-1,-1,-1,-1,-1,-1,-1,-1,-1,-1],"loss_changes":[1.017857E6,7.169725E4,2.5470025E5,8.590531E3,4.5611562E4,3.51725E4,6.9387E4,6.077797E3,3.8732656E3,4.8877312E4,5.9559875E4,1.040325E4,1.966625E4,3.6547375E4,2.8453438E4,3.854625E3,7.8564023E3,9.775184E3,1.3595752E2,4.0595312E4,7.496122E3,4.0666188E4,6.842816E4,8.9581875E3,2.06615E4,2.0790625E4,7.97729E3,3.2096875E4,1.5240418E4,0E0,1.51278125E4,4.3743164E3,5.721675E3,3.464984E3,1.6615469E3,1.7469414E3,3.9499082E3,0E0,3.2721783E2,1.4021844E4,1.3403426E4,0E0,1.945498E3,1.6949688E4,1.0817594E4,3.1106625E4,3.5243016E4,6.781625E3,4.0236328E3,0E0,9.833297E3,2.0238016E4,1.7158812E4,4.7705195E3,5.2605386E3,7.3726562E3,3.1113125E4,3.2471992E3,4.3013625E4,1.5521719E4,2.4467828E4,0E0,0E0,0E0,0E0,0E0,0E0,0E0,0E0,0E0,0E0,0E0,0E0,0E0,0E0,0E0,0E0,0E0,0E0,0E0,0E0,0E0,0E0,0E0,0E0,0E0,0E0,0E0,0E0,0E0,0E0,0E0,0E0,0E0,0E0,0E0,0E0,0E0,0E0,0E0,0E0,0E0,0E0,0E0,0E0,0E0,0E0,0E0,0E0,0E0,0E0,0E0,0E0,0E0,0E0],"parents":[2147483647,0,0,1,1,2,2,3,3,4,4,5,5,6,6,7,7,8,8,9,9,10,10,11,11,12,12,13,13,14,14,15,15,16,16,17,17,18,18,19,19,20,20,21,21,22,22,23,23,24,24,25,25,26,26,27,27,28,28,30,30,31,31,32,32,33,33,34,34,35,35,36,36,38,38,39,39,40,40,42,42,43,43,44,44,45,45,46,46,47,47,48,48,50,50,51,51,52,52,53,53,54,54,55,55,56,56,57,57,58,58,59,59,60,60],"right_children":[2,4,6,8,10,12,14,16,18,20,22,24,26,28,30,32,34,36,38,40,42,44,46,48,50,52,54,56,58,-1,60,62,64,66,68,70,72,-1,74,76,78,-1,80,82,84,86,88,90,92,-1,94,96,98,100,102,104,106,108,110,112,114,-1,-1,-1,-1,-1,-1,-1,-1,-1,-1,-1,-1,-1,-1,-1,-1,-1,-1,-1,-1,-1,-1,-1,-1,-1,-1,-1,-1,-1,-1,-1,-1,-1,-1,-1,-1,-1,-1,-1,-1,-1,-1,-1,-1,-1,-1,-1,-1,-1,-1,-1,-1,-1,-1],"split_conditions":[1.3954874E4,1.589E2,2.244495E2,9.9525314E1,1.001763E2,9.05E0,2.3095001E1,1.5625E2,3.3275E1,7.2003914E1,1.6345E2,2.12707E2,2.0915E1,4.91021E5,1.355E0,1.075E0,1.5699999E0,3.0035E1,1.77E0,2.086E1,2.4850001E0,3.205875E5,1.3495E1,1.459E1,-3.5500002E-1,9.8102036E1,9.45E0,9.05E-1,1.775E0,4.0116158E1,2.7605E1,1.0040797E2,2.0660713E1,1.23E0,1.01E0,2.5E-1,8.19559E3,-4.9754243E0,1.83E0,1.0629242E4,1.8375E2,4.4055934E0,1.3335E1,2.083E1,3.019E1,3.21864E5,3.44215E5,1.655E0,2.025E0,-5.06637E0,4.564885E5,9.789109E1,1.447E1,1.0054324E2,2.143E1,8.25E-1,1.0179811E2,2.0130001E1,9.1499996E-1,9.679573E1,3.295E0,1.7389358E0,4.1802974E0,2.8677905E0,-2.282449E0,6.1840625E0,-3.1214356E-1,1.2643616E0,9.045702E0,-1.5678004E0,1.9761454E0,3.8149712E0,1.518806E1,7.6086426E-1,-3.885132E0,3.817591E0,1.1147364E1,7.392612E0,2.3142009E0,-8.4689945E-1,-5.178977E0,1.0299297E1,5.4420404E0,1.303748E1,3.0690071E1,4.9387627E0,1.0980953E1,1.6410023E0,4.5778704E0,9.081898E0,1.2020005E1,9.2982645E0,6.2229915E0,5.899196E0,9.584014E0,1.33671665E1,7.4491754E0,1.6599337E1,1.1548865E1,4.351154E0,1.596362E1,-8.1750555E0,3.6593933E0,7.7202396E0,4.5349754E1,2.2643925E1,1.4864568E1,4.337305E0,2.0267006E1,1.8543018E1,-8.709568E0,5.52345E0,1.6929054E1,1.0569434E1,2.9239946E1],"split_indices":[4,5,5,6,9,0,7,5,7,2,5,5,7,3,8,1,8,7,1,7,8,3,7,7,8,9,0,1,8,0,7,9,2,8,1,8,4,0,1,4,5,0,7,7,7,3,3,1,8,0,3,9,7,6,7,1,2,7,1,9,8,0,0,0,0,0,0,0,0,0,0,0,0,0,0,0,0,0,0,0,0,0,0,0,0,0,0,0,0,0,0,0,0,0,0,0,0,0,0,0,0,0,0,0,0,0,0,0,0,0,0,0,0,0,0],"split_type":[0,0,0,0,0,0,0,0,0,0,0,0,0,0,0,0,0,0,0,0,0,0,0,0,0,0,0,0,0,0,0,0,0,0,0,0,0,0,0,0,0,0,0,0,0,0,0,0,0,0,0,0,0,0,0,0,0,0,0,0,0,0,0,0,0,0,0,0,0,0,0,0,0,0,0,0,0,0,0,0,0,0,0,0,0,0,0,0,0,0,0,0,0,0,0,0,0,0,0,0,0,0,0,0,0,0,0,0,0,0,0,0,0,0,0],"sum_hessian":[6.299E3,4.33E3,1.969E3,1.437E3,2.893E3,1.33E3,6.39E2,5.1E2,9.27E2,5.6E2,2.333E3,7.98E2,5.32E2,3.32E2,3.07E2,4.36E2,7.4E1,9.18E2,9E0,5.07E2,5.3E1,5.13E2,1.82E3,5.1E2,2.88E2,4.93E2,3.9E1,3.01E2,3.1E1,3E0,3.04E2,3.46E2,9E1,3E1,4.4E1,9.06E2,1.2E1,5E0,4E0,3.18E2,1.89E2,1.5E1,3.8E1,4.46E2,6.7E1,3.13E2,1.507E3,3.33E2,1.77E2,1.1E1,2.77E2,2.19E2,2.74E2,1.4E1,2.5E1,7E0,2.94E2,1.2E1,1.9E1,1.47E2,1.57E2,9.2E1,2.54E2,6.3E1,2.7E1,1.1E1,1.9E1,3E0,4.1E1,1.2E1,8.94E2,6E0,6E0,2E0,2E0,2.7E1,2.91E2,9.7E1,9.2E1,1.7E1,2.1E1,8E1,3.66E2,6.4E1,3E0,1.68E2,1.45E2,8.67E2,6.4E2,1.63E2,1.7E2,9E1,8.7E1,1.34E2,1.43E2,1.02E2,1.17E2,1.48E2,1.26E2,7E0,7E0,3E0,2.2E1,1E0,6E0,2.25E2,6.9E1,2E0,1E1,9E0,1E1,1.3E1,1.34E2,1.51E2,6E0],"tree_param":{"num_deleted":"0","num_feature":"10","num_nodes":"115","size_leaf_vector":"0"}},{"base_weights":[1.6038328E1,1.2267671E1,3.749921E1,9.990094E0,2.1832636E1,2.7956995E1,4.3390217E1,6.158094E0,1.2153842E1,2.4731033E1,1.8115473E1,2.1015503E1,3.649255E1,6.7641945E1,4.102491E1,4.662465E0,8.542859E0,1.795538E1,9.899836E0,1.2566964E1,2.5991026E1,1.9026052E1,1.6924707E0,2.522052E1,5.784207E0,3.9746586E1,1.5240224E1,7.390245E1,3.091051E1,5.7685463E1,3.7168324E1,4.8125734E0,-8.779885E0,5.8686125E-1,9.2781925E0,1.5031804E1,3.6210033E1,2.2364885E1,8.62102E0,4.034342E1,4.4779664E-1,3.1356876E1,2.3858297E1,1.7326576E1,3.836033E1,-2.5385416E1,5.1507835E0,2.9693867E1,7.376213E0,1.5638636E1,-2.0185924E0,3.2026592E1,4.7114307E1,5.0627075E1,-2.1416647E1,2.0975342E0,7.560263E1,4.7129494E1,8.509424E0,4.5006912E1,9.707173E1,3.829644E1,-2.0359077E1,4.643227E0,2.0334545E1,-5.740058E0,-1.4972737E1,2.9177842E0,-8.366378E0,9.724868E0,-1.9043468E0,1.8996279E1,9.9547E0,3.1313562E1,4.5248203E1,2.717064E1,9.205241E0,-5.637404E0,9.763696E0,4.3870758E1,-8.046997E0,2.3386871E1,-5.126761E0,2.7130487E1,5.5020763E1,7.8624268E0,2.497203E1,1.7983158E1,-6.370199E-1,4.7758095E1,6.9489746E0,2.0144897E1,-5.9272113E0,1.3301636E1,3.361965E1,1.2388293E1,-2.3169092E1,5.599569E0,2.728643E1,1.4473505E0,-2.1443115E1,-3.18615E0,4.232823E1,5.7730354E1,1.382826E1,-1.9044128E1,7.596683E1,-6.327368E1,7.4210815E0,5.194296E1,8.15592E1,5.472223E1,8.379272E0,-5.7561646E0,3.278589E1,3.5348774E1,7.4163765E1,1.01916306E2,-4.7543945E0,7.1994026E1,3.6459137E1,7.4052086E1,-5.7912563E1],"categories":[],"categories_nodes":[],"categories_segments":[],"categories_sizes":[],"default_left":[1,1,1,1,1,1,1,1,1,1,1,1,1,1,1,1,1,1,1,1,1,1,1,1,1,1,1,1,1,1,1,1,1,1,1,1,1,1,1,1,1,1,1,1,1,0,1,1,1,1,1,1,1,1,1,0,1,1,1,1,1,1,1,0,0,0,0,0,0,0,0,0,0,0,0,0,0,0,0,0,0,0,0,0,0,0,0,0,0,0,0,0,0,0,0,0,0,0,0,0,0,0,0,0,0,0,0,0,0,0,0,0,0,0,0,0,0,0,0,0,0,0,0],"id":13,"left_children":[1,3,5,7,9,11,13,15,17,19,21,23,25,27,29,31,33,35,37,39,41,43,45,47,49,51,53,55,57,59,61,63,65,67,69,71,73,75,77,79,81,83,85,87,89,-1,91,93,95,97,99,101,103,105,107,-1,109,111,113,115,117,119,121,-1,-1,-1,-1,-1,-1,-1,-1,-1,-1,-1,-1,-1,-1,-1,-1,-1,-1,-1,-1,-1,-1,-1,-1,-1,-1,-1,-1,-1,-1,-1,-1,-1,-1,-1,-1,-1,-1,-1,-1,-1,-1,-1,-1,-1,-1,-1,-1,-1,-1,-1,-1,-1,-1,-1,-1,-1,-1,-1,-1],"loss_changes":[5.0934625E5,1.16549125E5,5.1683625E4,3.5835562E4,1.0649E4,2.0681406E4,3.0495375E4,5.5420938E3,3.60055E4,8.501531E3,6.772078E3,1.2791789E4,1.0528344E4,9.213516E3,3.197425E4,1.9874219E3,3.5164414E3,4.0709844E4,3.1608484E4,1.8833074E4,5.2141562E3,1.3497219E4,2.4718499E3,1.2393133E4,3.4917136E3,6.3972188E3,3.09192E4,4.9688125E3,2.8688604E3,4.456847E4,2.894525E4,2.4132559E3,1.2113281E2,1.1096155E3,2.770746E3,1.3256422E4,3.2741719E3,1.1449672E4,2.9561203E4,3.254748E3,5.2349062E3,1.3009125E4,6.5199688E3,4.7056875E3,9.7048125E3,0E0,3.939811E3,7.661203E3,5.339177E3,2.1858677E3,1.781467E3,2.589004E4,2.3583953E4,2.263213E4,1.4954301E4,0E0,1.5417344E3,1.01256934E3,1.9203113E3,1.8780062E4,1.1830516E4,2.375E4,3.6197758E4,0E0,0E0,0E0,0E0,0E0,0E0,0E0,0E0,0E0,0E0,0E0,0E0,0E0,0E0,0E0,0E0,0E0,0E0,0E0,0E0,0E0,0E0,0E0,0E0,0E0,0E0,0E0,0E0,0E0,0E0,0E0,0E0,0E0,0E0,0E0,0E0,0E0,0E0,0E0,0E0,0E0,0E0,0E0,0E0,0E0,0E0,0E0,0E0,0E0,0E0,0E0,0E0,0E0,0E0,0E0,0E0,0E0,0E0,0E0,0E0],"parents":[2147483647,0,0,1,1,2,2,3,3,4,4,5,5,6,6,7,7,8,8,9,9,10,10,11,11,12,12,13,13,14,14,15,15,16,16,17,17,18,18,19,19,20,20,21,21,22,22,23,23,24,24,25,25,26,26,27,27,28,28,29,29,30,30,31,31,32,32,33,33,34,34,35,35,36,36,37,37,38,38,39,39,40,40,41,41,42,42,43,43,44,44,46,46,47,47,48,48,49,49,50,50,51,51,52,52,53,53,54,54,56,56,57,57,58,58,59,59,60,60,61,61,62,62],"right_children":[2,4,6,8,10,12,14,16,18,20,22,24,26,28,30,32,34,36,38,40,42,44,46,48,50,52,54,56,58,60,62,64,66,68,70,72,74,76,78,80,82,84,86,88,90,-1,92,94,96,98,100,102,104,106,108,-1,110,112,114,116,118,120,122,-1,-1,-1,-1,-1,-1,-1,-1,-1,-1,-1,-1,-1,-1,-1,-1,-1,-1,-1,-1,-1,-1,-1,-1,-1,-1,-1,-1,-1,-1,-1,-1,-1,-1,-1,-1,-1,-1,-1,-1,-1,-1,-1,-1,-1,-1,-1,-1,-1,-1,-1,-1,-1,-1,-1,-1,-1,-1,-1,-1],"split_conditions":[1.4939596E4,1.3954874E4,9.834758E1,3.097725E5,1.4115E1,1.435E0,9.8481094E1,2.828465E5,3.211585E5,3.414835E5,1.0101194E2,3.5349998E0,4.1004997E1,1.3299999E0,9.941985E1,3.0525002E1,1.0040797E2,1.7955E2,1.316E1,-4.85E-1,3.658165E5,9.55E0,1.5E1,2.617E1,1.3379999E1,1.605E0,3.09E0,2.045E0,2.4575E1,1.94E0,3.258E1,7.7247324E3,3.375E0,2.255E1,3.628E1,1.9854708E1,1.155E0,9.986339E1,3.226595E5,8.85E0,8.5E0,9.55E0,3.67794E5,2.607E1,2.4105E1,-7.615625E0,1.7625E1,7.572545E1,3.26E0,1.2E0,1.798E1,4.60831E5,4.613015E5,4.1805E1,3.15E0,6.292603E-1,2.455E0,1.395E0,1.435E0,7.9500003E0,2.967E1,1.535E0,1.475E0,1.3929682E0,6.1003637E0,-1.7220174E0,-4.4918213E0,8.753353E-1,-2.5099134E0,2.9174604E0,-5.713041E-1,5.698884E0,2.9864101E0,9.394069E0,1.3574462E1,8.151193E0,2.7615724E0,-1.6912212E0,2.9291089E0,1.3161228E1,-2.4140992E0,7.016062E0,-1.5380284E0,8.139147E0,1.650623E1,2.3587282E0,7.4916096E0,5.3949475E0,-1.9110598E-1,1.4327429E1,2.0846925E0,6.0434694E0,-1.7781634E0,3.990491E0,1.0085896E1,3.7164881E0,-6.950728E0,1.6798707E0,8.185929E0,4.3420517E-1,-6.4329348E0,-9.5584506E-1,1.269847E1,1.7319107E1,4.1484785E0,-5.7132387E0,2.2790049E1,-1.8982105E1,2.2263246E0,1.5582889E1,2.446776E1,1.641667E1,2.5137818E0,-1.7268494E0,9.835767E0,1.0604632E1,2.224913E1,3.0574892E1,-1.4263184E0,2.159821E1,1.0937741E1,2.2215626E1,-1.737377E1],"split_indices":[4,4,9,3,7,1,9,3,3,3,6,8,7,1,6,7,9,5,7,8,3,0,7,7,7,1,8,8,7,8,7,4,8,7,7,2,1,6,3,0,0,0,3,7,7,0,7,2,8,1,7,3,3,7,8,0,8,1,1,0,7,8,8,0,0,0,0,0,0,0,0,0,0,0,0,0,0,0,0,0,0,0,0,0,0,0,0,0,0,0,0,0,0,0,0,0,0,0,0,0,0,0,0,0,0,0,0,0,0,0,0,0,0,0,0,0,0,0,0,0,0,0,0],"split_type":[0,0,0,0,0,0,0,0,0,0,0,0,0,0,0,0,0,0,0,0,0,0,0,0,0,0,0,0,0,0,0,0,0,0,0,0,0,0,0,0,0,0,0,0,0,0,0,0,0,0,0,0,0,0,0,0,0,0,0,0,0,0,0,0,0,0,0,0,0,0,0,0,0,0,0,0,0,0,0,0,0,0,0,0,0,0,0,0,0,0,0,0,0,0,0,0,0,0,0,0,0,0,0,0,0,0,0,0,0,0,0,0,0,0,0,0,0,0,0,0,0,0,0],"sum_hessian":[6.299E3,5.359E3,9.4E2,4.33E3,1.029E3,3.61E2,5.79E2,1.564E3,2.766E3,5.75E2,4.54E2,2.01E2,1.6E2,4.9E1,5.3E2,9.63E2,6.01E2,7.72E2,1.994E3,5.5E1,5.2E2,4.3E2,2.4E1,1.57E2,4.4E1,1.38E2,2.2E1,4.1E1,8E0,9.7E1,4.33E2,9.53E2,1E1,5.1E1,5.5E2,6.67E2,1.05E2,1.84E2,1.81E3,1.6E1,3.9E1,1.44E2,3.76E2,3.97E2,3.3E1,2E0,2.2E1,1.25E2,3.2E1,1.9E1,2.5E1,7E1,6.8E1,1.1E1,1.1E1,1E0,4E1,4E0,4E0,7.5E1,2.2E1,4.25E2,8E0,9.44E2,9E0,8E0,2E0,4.1E1,1E1,5.29E2,2.1E1,3.73E2,2.94E2,7.1E1,3.4E1,1.34E2,5E1,1.34E2,1.676E3,1.5E1,1E0,7E0,3.2E1,1.24E2,2E1,2.5E1,3.51E2,3.83E2,1.4E1,2.5E1,8E0,9E0,1.3E1,2.5E1,1E2,2.8E1,4E0,1.1E1,8E0,2.2E1,3E0,1.6E1,5.4E1,5.1E1,1.7E1,3E0,8E0,4E0,7E0,1E1,3E1,3E0,1E0,3E0,1E0,5.8E1,1.7E1,2.1E1,1E0,2E1,4.05E2,2E0,6E0],"tree_param":{"num_deleted":"0","num_feature":"10","num_nodes":"123","size_leaf_vector":"0"}},{"base_weights":[1.1279234E1,8.608783E0,2.647832E1,7.00364E0,1.5349817E1,1.9703129E1,3.066132E1,7.2130356E0,-1.7492474E1,1.943341E1,1.3645007E1,1.5706736E1,2.783375E1,3.453236E1,2.172486E1,6.345394E0,1.5418988E1,-9.005948E0,-7.000504E1,1.7243107E1,3.0618902E1,1.4252296E1,1.8854519E0,2.0213129E1,5.4199767E0,3.7537144E1,1.4350131E1,4.337546E1,2.6033415E1,1.823899E1,1.0427406E2,7.6528673E0,-1.052599E-2,4.6360535E1,9.878028E0,-1.8760159E1,2.3820976E1,2.200218E1,1.3147455E1,1.6694393E1,3.4796673E1,1.3782189E1,5.2841156E1,4.8945885E0,-2.4163574E1,1.2460132E1,2.8002386E1,1.0411948E1,-1.5574838E1,4.4804195E1,1.4861775E1,6.0133057E0,5.8408905E1,3.4333736E1,6.482224E1,2.91657E1,-4.2912492E-1,3.3782143E1,1.0643644E1,3.431729E0,9.760858E0,5.3783793E0,-5.415631E0,6.765603E1,2.2882587E1,1.9951052E1,-2.5676503E0,1.9956787E1,-2.4677881E1,4.6812622E1,6.6346437E-1,1.3625783E1,3.278651E1,2.2296741E1,1.0532673E1,1.9062826E1,-5.8634033E0,3.5904156E1,-1.982666E0,1.4431993E1,1.6307034E0,6.6081543E0,7.925932E1,1.0360107E1,-5.988871E0,-2.0388428E1,1.651174E1,3.541196E1,6.811258E0,2.0341309E1,5.199364E0,6.5323486E0,-2.1645996E1,2.322847E1,5.7974712E1,-1.9183187E1,2.0316345E1,2.2376009E1,-9.899425E0,2.4906494E1,6.542529E1,4.091507E1,8.1915283E-1,7.1606804E1,2.5774097E1,3.27423E1,2.3949347E0,1.6393734E1,-2.8419542E1,9.327705E0,6.373254E1,6.956238E1,8.482955E0],"categories":[],"categories_nodes":[],"categories_segments":[],"categories_sizes":[],"default_left":[1,1,1,1,1,1,1,1,1,1,1,1,1,1,1,1,1,1,0,1,1,1,1,1,1,1,1,1,1,1,0,1,1,1,1,1,1,1,1,1,1,1,1,1,0,1,1,1,1,1,1,1,1,1,1,1,1,1,1,0,0,0,0,0,0,0,0,0,0,0,0,0,0,0,0,0,0,0,0,0,0,0,0,0,0,0,0,0,0,0,0,0,0,0,0,0,0,0,0,0,0,0,0,0,0,0,0,0,0,0,0,0,0],"id":14,"left_children":[1,3,5,7,9,11,13,15,17,19,21,23,25,27,29,31,33,35,-1,37,39,41,43,45,47,49,51,53,55,57,-1,59,61,63,65,67,69,71,73,75,77,79,81,83,-1,85,87,89,91,93,95,97,99,101,103,105,107,109,111,-1,-1,-1,-1,-1,-1,-1,-1,-1,-1,-1,-1,-1,-1,-1,-1,-1,-1,-1,-1,-1,-1,-1,-1,-1,-1,-1,-1,-1,-1,-1,-1,-1,-1,-1,-1,-1,-1,-1,-1,-1,-1,-1,-1,-1,-1,-1,-1,-1,-1,-1,-1,-1,-1],"loss_changes":[2.5547919E5,5.7889438E4,2.6064438E4,2.2341469E4,6.905422E3,1.1325344E4,1.9313938E4,3.0481797E4,1.5858561E4,6.846414E3,5.1863906E3,1.1247707E4,1.4900094E4,2.9159062E4,4.931865E4,3.22935E4,6.983486E4,1.1013509E4,0E0,4.661578E3,2.211414E3,1.18615E4,3.0185188E3,9.917398E3,8.127384E3,1.0539367E4,1.8381594E4,3.5781938E4,1.7253266E4,1.9946008E4,0E0,2.864514E4,1.9369852E4,2.9450266E4,4.3803816E4,6.4495107E3,4.2283765E3,1.0031988E4,3.0905059E3,8.063191E2,1.5375586E3,5.4010703E3,9.247371E3,2.0844932E3,0E0,1.1915435E4,1.294825E4,3.103211E3,2.154643E3,1.3145672E4,3.7323433E3,1.1678022E4,2.5101172E2,3.084639E4,1.3255125E4,1.7730766E4,1.1296115E4,4.042104E4,1.4304599E4,0E0,0E0,0E0,0E0,0E0,0E0,0E0,0E0,0E0,0E0,0E0,0E0,0E0,0E0,0E0,0E0,0E0,0E0,0E0,0E0,0E0,0E0,0E0,0E0,0E0,0E0,0E0,0E0,0E0,0E0,0E0,0E0,0E0,0E0,0E0,0E0,0E0,0E0,0E0,0E0,0E0,0E0,0E0,0E0,0E0,0E0,0E0,0E0,0E0,0E0,0E0,0E0,0E0,0E0],"parents":[2147483647,0,0,1,1,2,2,3,3,4,4,5,5,6,6,7,7,8,8,9,9,10,10,11,11,12,12,13,13,14,14,15,15,16,16,17,17,19,19,20,20,21,21,22,22,23,23,24,24,25,25,26,26,27,27,28,28,29,29,31,31,32,32,33,33,34,34,35,35,36,36,37,37,38,38,39,39,40,40,41,41,42,42,43,43,45,45,46,46,47,47,48,48,49,49,50,50,51,51,52,52,53,53,54,54,55,55,56,56,57,57,58,58],"right_children":[2,4,6,8,10,12,14,16,18,20,22,24,26,28,30,32,34,36,-1,38,40,42,44,46,48,50,52,54,56,58,-1,60,62,64,66,68,70,72,74,76,78,80,82,84,-1,86,88,90,92,94,96,98,100,102,104,106,108,110,112,-1,-1,-1,-1,-1,-1,-1,-1,-1,-1,-1,-1,-1,-1,-1,-1,-1,-1,-1,-1,-1,-1,-1,-1,-1,-1,-1,-1,-1,-1,-1,-1,-1,-1,-1,-1,-1,-1,-1,-1,-1,-1,-1,-1,-1,-1,-1,-1,-1,-1,-1,-1,-1,-1],"split_conditions":[1.4939596E4,1.3954874E4,9.834758E1,5.4739998E1,1.2385E1,1.525E0,2.314435E2,2.9994999E1,6.1499996E0,7.689801E1,1.0101194E2,3.46E0,2.9475E1,9.999739E1,2.185E0,2.3744999E1,5.95E-1,2.6350002E0,-2.1001514E1,9.789109E1,9.6500003E-1,9.85E0,2.59E0,2.935E0,1.415E0,1.785E0,1.795E0,2.0749998E0,4.771605E5,1.665E0,3.128222E1,1.53E2,9.6500003E-1,3.376385E5,3.548E1,1.7500001E-1,2.685E0,-1.05000004E-1,6.843815E1,9.5E-1,1.935E0,2.3900002E1,2.435E0,1.8255001E1,-7.2490726E0,7.572545E1,2.617E1,3.5349998E0,1.599E1,8.5991264E1,1.825E0,2.865E0,3.512E1,9.432652E1,1.345E0,9.75E0,1.335E0,1.595E0,7.45E-1,1.0295187E0,2.9282575E0,1.6135138E0,-1.6246893E0,2.029681E1,6.8647766E0,5.985316E0,-7.7029514E-1,5.987036E0,-7.4033647E0,1.4043787E1,1.9903933E-1,4.087735E0,9.835954E0,6.6890225E0,3.159802E0,5.718848E0,-1.759021E0,1.0771247E1,-5.947998E-1,4.329598E0,4.8921105E-1,1.9824463E0,2.3777798E1,3.1080325E0,-1.7966614E0,-6.1165285E0,4.953522E0,1.0623589E1,2.0433774E0,6.1023927E0,1.5598093E0,1.9597046E0,-6.493799E0,6.968541E0,1.7392414E1,-5.7549562E0,6.094904E0,6.712803E0,-2.9698274E0,7.4719486E0,1.9627588E1,1.2274522E1,2.4574585E-1,2.1482042E1,7.7322297E0,9.82269E0,7.184804E-1,4.9181204E0,-8.525863E0,2.7983117E0,1.9119762E1,2.0868713E1,2.5448866E0],"split_indices":[4,4,9,7,7,1,5,7,0,2,6,8,7,6,8,7,8,1,0,9,1,0,8,8,1,1,1,8,3,8,0,5,8,3,7,8,1,8,2,1,1,7,8,7,0,2,7,8,7,2,1,8,7,2,1,0,1,8,1,0,0,0,0,0,0,0,0,0,0,0,0,0,0,0,0,0,0,0,0,0,0,0,0,0,0,0,0,0,0,0,0,0,0,0,0,0,0,0,0,0,0,0,0,0,0,0,0,0,0,0,0,0,0],"split_type":[0,0,0,0,0,0,0,0,0,0,0,0,0,0,0,0,0,0,0,0,0,0,0,0,0,0,0,0,0,0,0,0,0,0,0,0,0,0,0,0,0,0,0,0,0,0,0,0,0,0,0,0,0,0,0,0,0,0,0,0,0,0,0,0,0,0,0,0,0,0,0,0,0,0,0,0,0,0,0,0,0,0,0,0,0,0,0,0,0,0,0,0,0,0,0,0,0,0,0,0,0,0,0,0,0,0,0,0,0,0,0,0,0],"sum_hessian":[6.299E3,5.359E3,9.4E2,4.33E3,1.029E3,3.61E2,5.79E2,4.294E3,3.6E1,3E2,7.29E2,2.44E2,1.17E2,4.02E2,1.77E2,3.885E3,4.09E2,3.2E1,4E0,2.53E2,4.7E1,6.93E2,3.6E1,1.69E2,7.5E1,6.7E1,5E1,1.95E2,2.07E2,1.71E2,6E0,3.222E3,6.63E2,6.1E1,3.48E2,2.5E1,7E0,1.15E2,1.38E2,1.2E1,3.5E1,6.86E2,7E0,3.3E1,3E0,8.6E1,8.3E1,6.1E1,1.4E1,5E1,1.7E1,4.3E1,7E0,1.39E2,5.6E1,1.85E2,2.2E1,5.5E1,1.16E2,1.074E3,2.148E3,3.32E2,3.31E2,3.1E1,3E1,1.92E2,1.56E2,3E0,2.2E1,3E0,4E0,6.6E1,4.9E1,2.9E1,1.09E2,1.1E1,1E0,3.4E1,1E0,6.51E2,3.5E1,3E0,4E0,2.2E1,1.1E1,9E0,7.7E1,6.1E1,2.2E1,2E1,4.1E1,3E0,1.1E1,2E1,3E1,2E0,1.5E1,2.1E1,2.2E1,2E0,5E0,1.16E2,2.3E1,4.7E1,9E0,1.63E2,2.2E1,1.4E1,8E0,3.1E1,2.4E1,3E0,1.13E2],"tree_param":{"num_deleted":"0","num_feature":"10","num_nodes":"113","size_leaf_vector":"0"}},{"base_weights":[7.940893E0,6.043079E0,1.8742533E1,3.6207387E0,8.630435E0,3.1156778E1,1.7278862E1,4.128997E0,-1.3973616E1,9.123458E0,-1.7679605E1,1.6930815E1,4.8231125E1,6.2221897E1,1.6774357E1,4.4616427E0,-1.4294151E1,-3.7312344E1,-1.5867075E0,9.678199E0,-8.538945E0,-3.4738655E1,3.639243E1,3.6691895E1,1.5809174E0,1.4422607E1,6.5220955E1,7.914193E1,2.1286377E1,1.578881E1,3.705537E1,-1.2202374E1,4.754639E0,3.8116455E0,-2.1861588E1,-1.7205566E1,-4.0061104E1,-7.0418067E0,3.340585E0,8.95962E0,2.1123564E1,-3.3744135E0,-4.332032E1,-6.2211456E1,-2.6254618E1,1.4139018E1,3.942921E1,4.5439087E1,-5.635254E0,-3.1122253E1,1.1982696E1,4.859424E1,-1.0939795E1,7.88518E1,1.111663E1,1.5144531E1,8.89125E1,2.8610758E1,-3.433838E-1,-1.169662E1,1.6765238E1,2.7058716E1,7.746073E1,1.068771E1,-3.765918E1,2.1404953E1,4.278917E0,-3.3808696E0,2.443628E1,-4.4345234E1,-1.645595E1,-2.5646646E1,-3.0292969E0,-8.014266E0,6.716919E-2,1.2447849E1,-9.2471313E-1,1.164991E1,4.4531374E0,3.345736E1,5.8534536E0,-5.1384788E0,5.8291016E1,-1.1532389E0,-5.3717934E1,-1.00737E1,-6.8220604E1,-3.1214945E1,1.37912445E1,4.16726E1,9.619354E0,1.5784912E1,4.9743652E1,4.955404E0,-1.4347493E1,-3.9890137E1,-1.2381836E1,-3.9813843E0,3.6326954E1,-8.051025E0,5.9376953E1,-3.0057714E1,6.815104E0,1.2600586E1,8.129046E1,-1.5047038E1,2.4591503E1,1.7659424E1,1.0231091E2,2.098907E1,-3.7522705E1,2.9131267E0,1.803465E1,2.1365497E0,4.190519E1],"categories":[],"categories_nodes":[],"categories_segments":[],"categories_sizes":[],"default_left":[1,1,1,1,1,1,1,1,1,1,1,1,1,1,1,1,1,1,1,1,1,1,1,1,1,1,1,1,1,1,1,1,1,1,1,1,0,1,1,1,1,1,1,1,1,0,1,1,1,1,1,1,1,1,1,0,1,0,0,1,1,1,0,0,0,0,0,0,0,0,0,0,0,0,0,0,0,0,0,0,0,0,0,0,0,0,0,0,0,0,0,0,0,0,0,0,0,0,0,0,0,0,0,0,0,0,0,0,0,0,0,0,0,0,0],"id":15,"left_children":[1,3,5,7,9,11,13,15,17,19,21,23,25,27,29,31,33,35,37,39,41,43,45,47,49,51,53,55,57,59,61,63,65,67,69,71,-1,73,75,77,79,81,83,85,87,-1,89,91,93,95,97,99,101,103,105,-1,107,-1,-1,109,111,113,-1,-1,-1,-1,-1,-1,-1,-1,-1,-1,-1,-1,-1,-1,-1,-1,-1,-1,-1,-1,-1,-1,-1,-1,-1,-1,-1,-1,-1,-1,-1,-1,-1,-1,-1,-1,-1,-1,-1,-1,-1,-1,-1,-1,-1,-1,-1,-1,-1,-1,-1,-1,-1],"loss_changes":[1.29033625E5,3.3562312E4,1.6559969E4,2.4828348E4,3.377036E4,2.2987516E4,1.8093125E4,1.6567531E4,2.249018E4,2.500889E4,4.554026E4,1.6625176E4,2.4332992E4,4.5490273E3,1.6124828E4,1.2977098E4,6.6600205E3,8.0298047E2,1.4212249E3,2.0100297E4,1.386492E4,6.990633E3,2.5345508E2,9.141908E3,1.1258404E4,1.4398406E4,2.0510578E4,2.405211E3,6.435231E2,2.1639312E4,1.325291E4,2.7207078E4,2.0510738E4,2.3077607E3,3.4025635E3,5.206238E2,0E0,1.7336792E2,1.0991763E3,2.8111594E4,2.7113227E4,7.805474E3,4.322422E3,1.8191934E3,6.389709E3,0E0,2.678877E2,1.7677695E3,5.3243933E2,8.2059717E2,9.860473E3,4.753574E3,3.5992139E3,2.6916719E3,2.8378943E3,0E0,2.9666367E3,0E0,0E0,2.4423582E4,1.3522344E4,1.1750672E4,0E0,0E0,0E0,0E0,0E0,0E0,0E0,0E0,0E0,0E0,0E0,0E0,0E0,0E0,0E0,0E0,0E0,0E0,0E0,0E0,0E0,0E0,0E0,0E0,0E0,0E0,0E0,0E0,0E0,0E0,0E0,0E0,0E0,0E0,0E0,0E0,0E0,0E0,0E0,0E0,0E0,0E0,0E0,0E0,0E0,0E0,0E0,0E0,0E0,0E0,0E0,0E0,0E0],"parents":[2147483647,0,0,1,1,2,2,3,3,4,4,5,5,6,6,7,7,8,8,9,9,10,10,11,11,12,12,13,13,14,14,15,15,16,16,17,17,18,18,19,19,20,20,21,21,22,22,23,23,24,24,25,25,26,26,27,27,28,28,29,29,30,30,31,31,32,32,33,33,34,34,35,35,37,37,38,38,39,39,40,40,41,41,42,42,43,43,44,44,46,46,47,47,48,48,49,49,50,50,51,51,52,52,53,53,54,54,56,56,59,59,60,60,61,61],"right_children":[2,4,6,8,10,12,14,16,18,20,22,24,26,28,30,32,34,36,38,40,42,44,46,48,50,52,54,56,58,60,62,64,66,68,70,72,-1,74,76,78,80,82,84,86,88,-1,90,92,94,96,98,100,102,104,106,-1,108,-1,-1,110,112,114,-1,-1,-1,-1,-1,-1,-1,-1,-1,-1,-1,-1,-1,-1,-1,-1,-1,-1,-1,-1,-1,-1,-1,-1,-1,-1,-1,-1,-1,-1,-1,-1,-1,-1,-1,-1,-1,-1,-1,-1,-1,-1,-1,-1,-1,-1,-1,-1,-1,-1,-1,-1,-1],"split_conditions":[1.4939596E4,1.059851E4,9.941985E1,1.0534125E4,1.0121359E2,1.875E0,1.44E0,3.34675E1,4.75E0,4.3735E1,2.983E1,1.135E0,1.115E0,1.17E0,2.326725E2,1.2219857E1,1.3940001E1,1.2245E1,4.95E0,3.058E1,1.01283295E2,1.675E0,1.645E0,7.75E0,1.55E0,9.75E-1,1.465E0,1.335E0,1.19E0,1.585E0,2.185E0,1.1635478E1,1.3511202E1,2.205E0,2.025E0,1.204E1,-1.2018332E1,8.95E-1,7.75E-1,1.7369999E1,3.6165E1,1.00623276E2,2.32E0,2.4955E1,1.195E0,4.2417054E0,3.478095E5,1.06E0,2.617E1,2.7615E1,1.265E0,1.975E1,1.045E0,1.6485E1,7.9500003E0,4.5433598E0,2.7335E1,8.583228E0,-1.0301514E-1,2.728E1,7.55E0,9.75E-1,2.323822E1,3.2063131E0,-1.1297754E1,6.4214864E0,1.2836751E0,-1.0142609E0,7.330884E0,-1.3303571E1,-4.936785E0,-7.693994E0,-9.087891E-1,-2.40428E0,2.0150758E-2,3.734355E0,-2.7741396E-1,3.4949732E0,1.3359413E0,1.0037209E1,1.7560362E0,-1.5415437E0,1.7487305E1,-3.4597167E-1,-1.6115381E1,-3.0221102E0,-2.0466183E1,-9.364484E0,4.1373734E0,1.25017805E1,2.8858063E0,4.7354736E0,1.4923097E1,1.4866211E0,-4.3042483E0,-1.1967041E1,-3.714551E0,-1.1944153E0,1.0898087E1,-2.4153078E0,1.7813087E1,-9.017315E0,2.0445313E0,3.780176E0,2.4387138E1,-4.5141115E0,7.3774514E0,5.2978272E0,3.0693275E1,6.2967215E0,-1.1256812E1,8.73938E-1,5.4103956E0,6.409649E-1,1.2571557E1],"split_indices":[4,4,6,4,9,8,8,2,0,7,7,1,1,1,5,2,7,7,0,7,6,1,1,0,8,1,1,8,1,8,8,2,2,8,8,7,0,1,1,7,7,9,1,7,8,0,3,1,7,7,1,7,1,7,0,0,7,0,0,7,0,1,0,0,0,0,0,0,0,0,0,0,0,0,0,0,0,0,0,0,0,0,0,0,0,0,0,0,0,0,0,0,0,0,0,0,0,0,0,0,0,0,0,0,0,0,0,0,0,0,0,0,0,0,0],"split_type":[0,0,0,0,0,0,0,0,0,0,0,0,0,0,0,0,0,0,0,0,0,0,0,0,0,0,0,0,0,0,0,0,0,0,0,0,0,0,0,0,0,0,0,0,0,0,0,0,0,0,0,0,0,0,0,0,0,0,0,0,0,0,0,0,0,0,0,0,0,0,0,0,0,0,0,0,0,0,0,0,0,0,0,0,0,0,0,0,0,0,0,0,0,0,0,0,0,0,0,0,0,0,0,0,0,0,0,0,0,0,0,0,0,0,0],"sum_hessian":[6.299E3,5.359E3,9.4E2,2.769E3,2.59E3,9.7E1,8.43E2,2.692E3,7.7E1,2.543E3,4.7E1,5.4E1,4.3E1,8E0,8.35E2,2.645E3,4.7E1,2.6E1,5.1E1,2.466E3,7.7E1,3.6E1,1.1E1,2.3E1,3.1E1,1.5E1,2.8E1,5E0,3E0,7.98E2,3.7E1,4.5E1,2.6E3,1.4E1,3.3E1,4E0,2.2E1,2.4E1,2.7E1,2.322E3,1.44E2,6.8E1,9E0,7E0,2.9E1,2E0,9E0,1.9E1,4E0,7E0,2.4E1,6E0,9E0,2.2E1,6E0,1E0,4E0,2E0,1E0,2.7E1,7.71E2,3.1E1,6E0,2.4E1,2.1E1,7.1E1,2.529E3,1.1E1,3E0,5E0,2.8E1,2E0,2E0,2.1E1,3E0,8E0,1.9E1,1.453E3,8.69E2,7.9E1,6.5E1,6.7E1,1E0,2E0,7E0,1E0,6E0,2.6E1,3E0,8E0,1E0,3E0,1.6E1,2E0,2E0,4E0,3E0,1.5E1,9E0,1E0,5E0,4E0,5E0,1E0,2.1E1,2E0,4E0,1E0,3E0,1.2E1,1.5E1,6.5E1,7.06E2,1.2E1,1.9E1],"tree_param":{"num_deleted":"0","num_feature":"10","num_nodes":"115","size_leaf_vector":"0"}},{"base_weights":[5.576451E0,4.319679E0,1.4478015E1,2.523008E0,6.1258755E0,1.6451096E1,2.32854E0,2.8857183E0,-1.0032141E1,3.3382114E1,5.8638563E0,2.95192E1,1.3340289E1,8.774717E0,-1.0626749E1,6.483179E0,1.3969014E0,-2.68824E1,-1.0900409E0,6.191615E0,-1.2565006E1,4.532051E1,2.2843464E1,-2.3297453E1,1.5227869E1,2.1248995E1,1.9766372E0,-2.4795654E0,-1.9088799E1,3.8678308E0,2.6472519E1,1.6969885E0,-1.0254323E1,-1.4605184E1,-2.9008806E1,-5.0246143E0,2.461901E0,6.4789166E0,-9.703048E0,-2.5093138E1,2.7110483E1,4.8684055E1,-9.027669E0,4.9566406E1,1.6993977E1,-5.8598267E1,4.634247E0,1.8578812E1,9.362937E0,3.2957966E1,1.0465219E1,-4.168786E0,7.1384187E0,-1.8271118E1,1.2101807E1,-2.3381144E1,-9.003523E0,4.682528E0,-1.6552328E1,1.9883108E1,6.447952E1,3.675321E0,-5.128422E-1,-4.4343576E0,-2.4071787E1,-2.4234211E0,-2.009021E1,-9.413086E0,-3.456842E0,6.8209305E0,-3.0924354E0,6.2311373E0,2.3242176E1,-4.3159633E0,-4.669331E1,-4.6484055E1,-1.8552456E1,1.3512756E1,3.2220253E1,5.1550545E1,9.246419E-1,1.3609926E1,4.4480164E1,-6.8494896E1,2.5132324E1,1.7844288E1,-1.4899275E1,3.0019934E1,1.2980708E1,-6.3246393E0,1.2946097E1,1.9944427E1,4.7188038E1,1.5820125E1,-1.6227783E1,3.365263E-1,-1.4514718E1,-1.3764648E1,1.0324829E1,-3.673989E1,1.6471355E-1,1.9188639E0,2.0267782E1,-1.3320654E1,-2.6746307E1,-1.8953531E1,-1.2328125E0],"categories":[],"categories_nodes":[],"categories_segments":[],"categories_sizes":[],"default_left":[1,1,1,1,1,1,1,1,1,0,1,1,1,1,1,1,1,1,1,1,1,1,1,1,1,1,1,1,1,1,1,1,1,1,0,1,1,1,1,1,1,1,0,0,1,1,1,1,1,1,1,1,1,1,1,1,1,0,0,0,0,0,0,0,0,0,0,0,0,0,0,0,0,0,0,0,0,0,0,0,0,0,0,0,0,0,0,0,0,0,0,0,0,0,0,0,0,0,0,0,0,0,0,0,0,0,0],"id":16,"left_children":[1,3,5,7,9,11,13,15,17,-1,19,21,23,25,27,29,31,33,35,37,39,41,43,45,47,49,51,53,55,57,59,61,63,65,-1,67,69,71,73,75,77,79,-1,-1,81,83,85,87,89,91,93,95,97,99,101,103,105,-1,-1,-1,-1,-1,-1,-1,-1,-1,-1,-1,-1,-1,-1,-1,-1,-1,-1,-1,-1,-1,-1,-1,-1,-1,-1,-1,-1,-1,-1,-1,-1,-1,-1,-1,-1,-1,-1,-1,-1,-1,-1,-1,-1,-1,-1,-1,-1,-1,-1],"loss_changes":[7.041706E4,1.790421E4,1.8635797E4,1.2643199E4,1.9465227E4,2.6843297E4,9.279577E3,1.4414545E4,1.17234795E4,0E0,1.6555531E4,1.2466852E4,3.790683E4,6.233282E3,2.5035176E3,4.1093527E4,6.681506E3,2.811914E2,7.3908966E2,1.2305805E4,2.4539156E4,7.2031953E3,1.3538695E4,2.6893877E4,9.986672E3,2.9380283E3,1.5841039E3,4.8263633E3,5.6869775E2,1.1689605E4,2.1508328E4,8.1290244E3,3.7532808E3,3.5221667E2,0E0,1.3946362E2,6.9901575E2,1.0795727E4,9.363416E3,4.3143203E3,3.9838965E2,4.7438984E3,0E0,0E0,6.556756E3,1.1665242E4,4.3944844E3,2.061825E4,1.0761988E4,1.2810635E3,2.4008037E3,1.0769526E3,1.9404729E3,3.4109238E3,8.757991E2,4.9983887E1,5.178643E2,0E0,0E0,0E0,0E0,0E0,0E0,0E0,0E0,0E0,0E0,0E0,0E0,0E0,0E0,0E0,0E0,0E0,0E0,0E0,0E0,0E0,0E0,0E0,0E0,0E0,0E0,0E0,0E0,0E0,0E0,0E0,0E0,0E0,0E0,0E0,0E0,0E0,0E0,0E0,0E0,0E0,0E0,0E0,0E0,0E0,0E0,0E0,0E0,0E0,0E0],"parents":[2147483647,0,0,1,1,2,2,3,3,4,4,5,5,6,6,7,7,8,8,10,10,11,11,12,12,13,13,14,14,15,15,16,16,17,17,18,18,19,19,20,20,21,21,22,22,23,23,24,24,25,25,26,26,27,27,28,28,29,29,30,30,31,31,32,32,33,33,35,35,36,36,37,37,38,38,39,39,40,40,41,41,44,44,45,45,46,46,47,47,48,48,49,49,50,50,51,51,52,52,53,53,54,54,55,55,56,56],"right_children":[2,4,6,8,10,12,14,16,18,-1,20,22,24,26,28,30,32,34,36,38,40,42,44,46,48,50,52,54,56,58,60,62,64,66,-1,68,70,72,74,76,78,80,-1,-1,82,84,86,88,90,92,94,96,98,100,102,104,106,-1,-1,-1,-1,-1,-1,-1,-1,-1,-1,-1,-1,-1,-1,-1,-1,-1,-1,-1,-1,-1,-1,-1,-1,-1,-1,-1,-1,-1,-1,-1,-1,-1,-1,-1,-1,-1,-1,-1,-1,-1,-1,-1,-1,-1,-1,-1,-1,-1,-1],"split_conditions":[2.193125E2,1.059851E4,3.455E0,1.0534125E4,4.3500004E0,1.7875E1,1.626E1,1.555E0,4.75E0,1.0014635E1,1.0121359E2,9.9821266E1,4.57255E5,1.0211737E2,1.375E0,1.023567E2,3.34675E1,1.263E1,4.95E0,4.9235E1,2.983E1,2.3049998E0,1.3995E1,8.6E0,9.888262E1,3.605E0,1.215E0,1.235E0,1.465E0,1.0235332E2,2.8305E1,9.984152E1,1.622E1,4.3E-1,-8.702642E0,8.3000004E-1,1.2405001E1,2.475E0,6.1499996E0,1.675E0,1.69E0,1.7685001E1,-2.7083008E0,1.4869923E1,1.754E1,2.3105E1,1.28E0,2.3095001E1,9.903142E1,1.485E0,1.548E1,1.3855E1,3.4850001E0,3.51E0,1.9305E1,3.505E0,1.718E1,1.4047585E0,-4.9656987E0,5.9649324E0,1.9343857E1,1.1025964E0,-1.5385266E-1,-1.3303074E0,-7.221536E0,-7.2702634E-1,-6.0270634E0,-2.823926E0,-1.0370526E0,2.0462792E0,-9.277306E-1,1.8693413E0,6.972653E0,-1.2947891E0,-1.4007994E1,-1.3945217E1,-5.565737E0,4.0538273E0,9.666077E0,1.5465164E1,2.773926E-1,4.0829782E0,1.3344049E1,-2.054847E1,7.5396976E0,5.3532867E0,-4.469783E0,9.0059805E0,3.8942125E0,-1.8973919E0,3.8838294E0,5.9833283E0,1.4156412E1,4.7460375E0,-4.8683352E0,1.0095789E-1,-4.3544154E0,-4.1293945E0,3.0974488E0,-1.1021968E1,4.9414065E-2,5.756592E-1,6.080335E0,-3.9961963E0,-8.023892E0,-5.6860595E0,-3.6984378E-1],"split_indices":[5,4,8,4,0,7,7,8,0,0,9,6,3,2,1,9,2,7,0,7,7,8,7,0,9,8,1,1,1,9,7,6,7,8,0,1,7,1,0,1,1,7,0,0,7,7,1,7,9,1,7,7,8,8,7,8,7,0,0,0,0,0,0,0,0,0,0,0,0,0,0,0,0,0,0,0,0,0,0,0,0,0,0,0,0,0,0,0,0,0,0,0,0,0,0,0,0,0,0,0,0,0,0,0,0,0,0],"split_type":[0,0,0,0,0,0,0,0,0,0,0,0,0,0,0,0,0,0,0,0,0,0,0,0,0,0,0,0,0,0,0,0,0,0,0,0,0,0,0,0,0,0,0,0,0,0,0,0,0,0,0,0,0,0,0,0,0,0,0,0,0,0,0,0,0,0,0,0,0,0,0,0,0,0,0,0,0,0,0,0,0,0,0,0,0,0,0,0,0,0,0,0,0,0,0,0,0,0,0,0,0,0,0,0,0,0,0],"sum_hessian":[6.299E3,5.521E3,7.78E2,2.769E3,2.752E3,6.69E2,1.09E2,2.692E3,7.7E1,2.5E1,2.727E3,1.27E2,5.42E2,7.3E1,3.6E1,7.87E2,1.905E3,2.6E1,5.1E1,2.68E3,4.7E1,3.6E1,9.1E1,2.6E1,5.16E2,2.5E1,4.8E1,1.9E1,1.7E1,6.97E2,9E1,1.858E3,4.7E1,5E0,2.1E1,2.4E1,2.7E1,2.633E3,4.7E1,3.6E1,1.1E1,3.4E1,2E0,1.5E1,7.6E1,1.1E1,1.5E1,3.27E2,1.89E2,1.1E1,1.4E1,2.2E1,2.6E1,9E0,1E1,1.1E1,6E0,6.71E2,2.6E1,7.8E1,1.2E1,9.8E2,8.78E2,3.4E1,1.3E1,2E0,3E0,5E0,1.9E1,1.5E1,1.2E1,2.596E3,3.7E1,4.2E1,5E0,7E0,2.9E1,4E0,7E0,3.2E1,2E0,6.9E1,7E0,1E1,1E0,9E0,6E0,1.06E2,2.21E2,3.5E1,1.54E2,7E0,4E0,1.2E1,2E0,1.6E1,6E0,3E0,2.3E1,4E0,5E0,5E0,5E0,4E0,7E0,2E0,4E0],"tree_param":{"num_deleted":"0","num_feature":"10","num_nodes":"107","size_leaf_vector":"0"}},{"base_weights":[3.9089184E0,2.4194674E0,8.0034685E0,2.6067202E0,-1.3465553E1,1.2753171E1,6.2288823E0,-2.0835643E0,3.1273558E0,1.1843872E-1,-1.8693203E1,1.529637E1,9.671631E-1,-1.9099277E1,6.7509265E0,-3.0274397E1,-1.027032E-1,1.8513546E0,6.010804E0,1.570601E0,-2.5635986E0,-1.2031071E1,-2.280464E1,1.9079351E1,6.473357E-1,-8.3664185E1,3.0448856E0,-3.4469066E0,-4.6542725E1,4.689505E0,1.1404389E1,-3.8905087E1,-1.4086273E1,-8.378728E0,6.9252257E0,1.2096181E0,5.433689E0,1.4465262E1,3.2160137E0,3.622855E0,-1.6166748E0,1.605835E0,-3.7186522E0,-1.22558594E-1,-1.3610702E1,-2.7763166E1,-1.2006578E1,1.7596272E1,5.6174583E1,2.5469988E1,-4.7090406E0,4.1353943E1,1.0412817E0,-1.9835585E1,1.3324761E1,1.0925781E1,-5.509201E1,5.2650414E0,-2.1693983E1,2.1306581E1,6.876215E0,-4.0410698E1,-5.9020386E0,-2.131178E1,5.692688E0,-5.6246166E0,-3.9183067E1,9.176571E0,-2.0350578E1,1.7815856E0,-8.047797E0,1.3340201E1,2.2176769E0,1.2499983E1,3.567816E1,1.7733023E-2,9.62264E0,-1.7441406E0,4.8080444E0,-3.8131409E0,3.5845947E0,-5.484131E0,-1.90625E0,-1.645944E1,-4.621338E0,-3.122293E1,-1.0443085E1,-1.3215803E1,-5.1828613E0,3.8096976E0,2.0133663E1,7.399191E1,-1.600228E1,3.0861816E0,2.695442E1,-2.2268908E1,-1.8538154E0,-7.5334406E-1,4.615804E1,9.000732E0,-2.4565216E1,3.8562695E1,-1.4578125E1,-2.4210571E1,-6.877876E1,-7.674527E-2,7.1971154E0,9.34115E1,-5.0942513E1,3.004741E1,-3.3475144E0,8.721474E0,-2.537976E1],"categories":[],"categories_nodes":[],"categories_segments":[],"categories_sizes":[],"default_left":[1,1,1,1,1,1,1,1,1,1,1,1,1,1,1,1,1,1,1,1,1,1,1,1,1,0,1,1,1,1,1,1,1,1,1,1,1,1,1,1,1,0,1,0,1,1,1,1,1,1,1,0,1,1,1,0,1,1,1,1,1,0,0,0,0,0,0,0,0,0,0,0,0,0,0,0,0,0,0,0,0,0,0,0,0,0,0,0,0,0,0,0,0,0,0,0,0,0,0,0,0,0,0,0,0,0,0,0,0,0,0,0,0],"id":17,"left_children":[1,3,5,7,9,11,13,15,17,19,21,23,25,27,29,31,33,35,37,39,41,43,45,47,49,-1,51,53,55,57,59,61,63,65,67,69,71,73,75,77,79,-1,81,-1,83,85,87,89,91,93,95,-1,97,99,101,-1,103,105,107,109,111,-1,-1,-1,-1,-1,-1,-1,-1,-1,-1,-1,-1,-1,-1,-1,-1,-1,-1,-1,-1,-1,-1,-1,-1,-1,-1,-1,-1,-1,-1,-1,-1,-1,-1,-1,-1,-1,-1,-1,-1,-1,-1,-1,-1,-1,-1,-1,-1,-1,-1,-1,-1],"loss_changes":[3.8402016E4,1.3780348E4,1.4080867E4,1.1161244E4,3.83688E3,1.3653422E4,1.6326398E4,2.5516742E4,1.511809E4,6.634245E1,7.938828E2,2.076904E4,1.4673666E4,1.0578448E4,1.1467418E4,3.6434102E3,2.495192E4,6.5499316E3,2.9748941E4,7.780907E1,3.4867058E1,3.1811987E2,8.981377E2,1.54060625E4,1.0490777E4,0E0,6.1741895E3,4.937017E3,5.023756E3,1.2778225E4,1.6354184E4,7.055996E2,1.8362778E3,1.6492809E4,1.4433232E4,1.2828095E4,1.0980495E4,1.260277E4,1.9445018E4,5.2912262E1,7.079063E1,0E0,5.5446625E0,0E0,3.0806055E2,5.727871E2,5.766968E0,9.998086E3,1.5330031E4,3.8199512E2,3.2176472E3,0E0,6.350253E3,1.4485713E3,6.9000723E3,0E0,1.7161602E3,8.432588E3,6.535861E4,2.4882766E4,1.533959E4,0E0,0E0,0E0,0E0,0E0,0E0,0E0,0E0,0E0,0E0,0E0,0E0,0E0,0E0,0E0,0E0,0E0,0E0,0E0,0E0,0E0,0E0,0E0,0E0,0E0,0E0,0E0,0E0,0E0,0E0,0E0,0E0,0E0,0E0,0E0,0E0,0E0,0E0,0E0,0E0,0E0,0E0,0E0,0E0,0E0,0E0,0E0,0E0,0E0,0E0,0E0,0E0],"parents":[2147483647,0,0,1,1,2,2,3,3,4,4,5,5,6,6,7,7,8,8,9,9,10,10,11,11,12,12,13,13,14,14,15,15,16,16,17,17,18,18,19,19,20,20,21,21,22,22,23,23,24,24,26,26,27,27,28,28,29,29,30,30,31,31,32,32,33,33,34,34,35,35,36,36,37,37,38,38,39,39,40,40,42,42,44,44,45,45,46,46,47,47,48,48,49,49,50,50,52,52,53,53,54,54,56,56,57,57,58,58,59,59,60,60],"right_children":[2,4,6,8,10,12,14,16,18,20,22,24,26,28,30,32,34,36,38,40,42,44,46,48,50,-1,52,54,56,58,60,62,64,66,68,70,72,74,76,78,80,-1,82,-1,84,86,88,90,92,94,96,-1,98,100,102,-1,104,106,108,110,112,-1,-1,-1,-1,-1,-1,-1,-1,-1,-1,-1,-1,-1,-1,-1,-1,-1,-1,-1,-1,-1,-1,-1,-1,-1,-1,-1,-1,-1,-1,-1,-1,-1,-1,-1,-1,-1,-1,-1,-1,-1,-1,-1,-1,-1,-1,-1,-1,-1,-1,-1,-1],"split_conditions":[1.4416492E4,7.2003914E1,1.145E0,2.45E-1,2.4850001E0,2.4545E1,1.155E0,4.95E0,1.794E2,1.3465E1,1.3185E1,1.0105775E2,2.4595E1,2.636E1,4.737715E5,1E-2,1.00968094E2,1.024264E2,1.8379999E2,1.975E0,1.92E0,1.2370001E1,1.975E0,2.3291849E2,1.2465E1,-2.5099257E1,7.4E0,1.929E1,1.365E0,1.6263335E4,1.325E0,2.7375E1,2.461E1,3.740305E5,5.45E0,1.0236877E2,2.315E0,2.7895E1,1.895E0,1.92E0,1.296E1,4.8175052E-1,1.3655E1,-3.676758E-2,1.292E1,2.8249998E0,1.4299999E1,1.0674999E1,1.675E0,1.1809999E1,2.085E0,1.2406183E1,3.4385002E1,7.4558014E1,2.0985E1,3.2777345E0,4.81049E5,6.65E0,1.6165E1,2.3123499E2,9.999739E1,-1.212321E1,-1.7706116E0,-6.3935347E0,1.7078065E0,-1.6873851E0,-1.1754921E1,2.7529714E0,-6.1051736E0,5.344757E-1,-2.4143393E0,4.0020604E0,6.653031E-1,3.749995E0,1.0703449E1,5.319907E-3,2.886792E0,-5.2324224E-1,1.4424133E0,-1.1439424E0,1.0753784E0,-1.6452394E0,-5.7187504E-1,-4.9378324E0,-1.3864014E0,-9.366879E0,-3.1329255E0,-3.964741E0,-1.5548584E0,1.1429093E0,6.040099E0,2.2197575E1,-4.800684E0,9.258545E-1,8.086327E0,-6.6806726E0,-5.5614465E-1,-2.2600323E-1,1.3847412E1,2.7002199E0,-7.369565E0,1.1568809E1,-4.373438E0,-7.2631717E0,-2.0633629E1,-2.3023583E-2,2.1591346E0,2.802345E1,-1.5282754E1,9.014223E0,-1.0042543E0,2.6164422E0,-7.6139283E0],"split_indices":[4,2,1,8,8,7,1,0,5,7,7,6,7,7,3,8,9,9,5,1,1,7,1,5,7,0,0,7,8,4,1,7,7,3,0,9,8,7,1,1,7,0,7,0,7,8,7,7,8,7,8,0,7,2,7,0,3,0,7,5,6,0,0,0,0,0,0,0,0,0,0,0,0,0,0,0,0,0,0,0,0,0,0,0,0,0,0,0,0,0,0,0,0,0,0,0,0,0,0,0,0,0,0,0,0,0,0,0,0,0,0,0,0],"split_type":[0,0,0,0,0,0,0,0,0,0,0,0,0,0,0,0,0,0,0,0,0,0,0,0,0,0,0,0,0,0,0,0,0,0,0,0,0,0,0,0,0,0,0,0,0,0,0,0,0,0,0,0,0,0,0,0,0,0,0,0,0,0,0,0,0,0,0,0,0,0,0,0,0,0,0,0,0,0,0,0,0,0,0,0,0,0,0,0,0,0,0,0,0,0,0,0,0,0,0,0,0,0,0,0,0,0,0,0,0,0,0,0,0],"sum_hessian":[6.299E3,4.62E3,1.679E3,4.567E3,5.3E1,4.55E2,1.224E3,4.56E2,4.111E3,1.5E1,3.8E1,3.74E2,8.1E1,2.4E1,1.2E3,2.9E1,4.27E2,2.851E3,1.26E3,1E1,5E0,1.6E1,2.2E1,2.97E2,7.7E1,1E0,8E1,1.6E1,8E0,8.33E2,3.67E2,1.8E1,1.1E1,1.96E2,2.31E2,2.419E3,4.32E2,3.12E2,9.48E2,6E0,4E0,1E0,4E0,2E0,1.4E1,1.4E1,8E0,2.87E2,1E1,1.3E1,6.4E1,3E0,7.7E1,8E0,8E0,1E0,7E0,8.16E2,1.7E1,1.14E2,2.53E2,1.7E1,1E0,8E0,3E0,1.81E2,1.5E1,2.14E2,1.7E1,2.279E3,1.4E2,1.24E2,3.08E2,2.87E2,2.5E1,6.33E2,3.15E2,1E0,5E0,3E0,1E0,1E0,3E0,1E1,4E0,1.1E1,3E0,6E0,2E0,4.5E1,2.42E2,8E0,2E0,1E0,1.2E1,8E0,5.6E1,7.5E1,2E0,1E0,7E0,4E0,4E0,3E0,4E0,2.17E2,5.99E2,3E0,1.4E1,8.4E1,3E1,2.4E2,1.3E1],"tree_param":{"num_deleted":"0","num_feature":"10","num_nodes":"113","size_leaf_vector":"0"}},{"base_weights":[2.73348E0,1.4784778E0,5.491186E0,1.7190905E0,-1.915716E1,8.9871E0,4.435326E0,2.0507896E0,-5.4750667E0,-1.949481E0,-3.7717587E1,1.6775293E1,6.3419847E0,-1.4253193E1,4.745707E0,1.4744859E0,1.0613684E1,-8.323043E0,1.6521984E1,-5.082866E0,2.481189E1,-1.0346191E1,-4.113511E1,1.0533048E1,3.3349987E1,3.482008E0,2.25924E1,-7.6204357E0,-6.035327E1,4.109129E0,1.1609356E1,2.5080326E0,-2.699614E0,2.4897903E1,4.2855334E0,3.4241558E1,-1.0110878E1,1.0917053E1,3.3395336E1,-7.050331E-1,-1.6239431E1,1.54584E1,-6.247266E0,-4.6651E0,4.46321E1,9.024776E0,-2.277398E0,3.5344336E0,3.940191E1,-1.2860327E1,2.048413E1,4.695628E0,-1.1421445E1,4.570913E0,2.557741E1,1.9320077E0,9.431672E0,-1.8138177E0,-2.352875E1,-3.3996625E0,3.0523176E1,-2.0947332E0,1.2469099E1,-4.544452E0,-1.7738811E1,-2.2562704E1,1.6512192E1,4.1653793E1,1.8075562E-1,6.5180665E-1,-1.9913696E0,3.0289917E0,-1.9955667E1,3.114192E1,6.908869E0,2.1876709E1,-1.2497185E1,-2.3376465E1,6.3157227E1,1.0485962E1,5.3066032E1,-1.2838359E1,1.3117558E1,1.2849564E1,-9.739427E0,2.2429993E1,-5.05995E0,5.0051357E1,1.9361683E1,-4.388232E0,-1.939311E1,3.556999E1,-1.2386719E1,4.3614793E0,2.0498978E1,7.1447914E1,-1.6362833E1,-6.02394E-1,2.5299576E1,1.6246926E0,6.439903E1],"categories":[],"categories_nodes":[],"categories_segments":[],"categories_sizes":[],"default_left":[1,1,1,1,1,1,1,1,1,1,1,1,1,1,1,1,1,1,1,1,0,0,0,1,1,1,1,1,0,1,1,1,1,1,1,0,1,1,1,1,1,1,1,1,1,1,1,1,1,1,1,1,1,1,1,0,0,0,0,0,0,0,0,0,0,0,0,0,0,0,0,0,0,0,0,0,0,0,0,0,0,0,0,0,0,0,0,0,0,0,0,0,0,0,0,0,0,0,0,0,0],"id":18,"left_children":[1,3,5,7,9,11,13,15,17,19,21,23,25,27,29,31,33,35,37,39,-1,-1,-1,41,43,45,47,49,-1,51,53,55,57,59,61,-1,63,65,67,69,71,73,75,77,79,81,83,85,87,89,91,93,95,97,99,-1,-1,-1,-1,-1,-1,-1,-1,-1,-1,-1,-1,-1,-1,-1,-1,-1,-1,-1,-1,-1,-1,-1,-1,-1,-1,-1,-1,-1,-1,-1,-1,-1,-1,-1,-1,-1,-1,-1,-1,-1,-1,-1,-1,-1,-1],"loss_changes":[2.1795723E4,2.1537195E4,7.231789E3,1.022935E4,1.58955625E4,9.28752E3,8.855484E3,2.0187535E4,1.19778125E4,2.390165E3,1.8194297E3,1.1547E4,1.5816058E4,7.1843477E3,6.46684E3,1.6560078E4,2.3214613E4,1.3130753E4,1.7160488E3,1.2095901E3,0E0,0E0,0E0,7.1217324E3,1.3503816E4,9.342084E3,1.6198844E4,3.650525E3,0E0,1.2496078E4,1.227057E4,1.2249449E4,1.4016505E4,1.2679105E4,9.42452E3,0E0,6.797961E3,3.7443892E3,1.3639766E3,3.4459686E1,5.616876E2,8.63457E3,3.7888486E3,1.1628778E4,6.3552227E3,1.350108E4,1.6379552E4,4.1733867E3,4.7931875E3,1.0218257E3,2.4241353E3,6.8652383E3,2.1643576E4,9.130277E3,3.8950477E4,0E0,0E0,0E0,0E0,0E0,0E0,0E0,0E0,0E0,0E0,0E0,0E0,0E0,0E0,0E0,0E0,0E0,0E0,0E0,0E0,0E0,0E0,0E0,0E0,0E0,0E0,0E0,0E0,0E0,0E0,0E0,0E0,0E0,0E0,0E0,0E0,0E0,0E0,0E0,0E0,0E0,0E0,0E0,0E0,0E0,0E0],"parents":[2147483647,0,0,1,1,2,2,3,3,4,4,5,5,6,6,7,7,8,8,9,9,10,10,11,11,12,12,13,13,14,14,15,15,16,16,17,17,18,18,19,19,23,23,24,24,25,25,26,26,27,27,29,29,30,30,31,31,32,32,33,33,34,34,36,36,37,37,38,38,39,39,40,40,41,41,42,42,43,43,44,44,45,45,46,46,47,47,48,48,49,49,50,50,51,51,52,52,53,53,54,54],"right_children":[2,4,6,8,10,12,14,16,18,20,22,24,26,28,30,32,34,36,38,40,-1,-1,-1,42,44,46,48,50,-1,52,54,56,58,60,62,-1,64,66,68,70,72,74,76,78,80,82,84,86,88,90,92,94,96,98,100,-1,-1,-1,-1,-1,-1,-1,-1,-1,-1,-1,-1,-1,-1,-1,-1,-1,-1,-1,-1,-1,-1,-1,-1,-1,-1,-1,-1,-1,-1,-1,-1,-1,-1,-1,-1,-1,-1,-1,-1,-1,-1,-1,-1,-1,-1],"split_conditions":[1.3954874E4,4.289485E5,1.145E0,3.6825E1,4.75E0,1.685E0,1.155E0,2.9994999E1,2.645E0,2.4099998E1,1.7725E1,1.595E0,1.115E0,3.223E1,2.2876001E2,2.3095001E1,1.1949999E0,1.25E-1,6.8104996E1,2.755E0,7.4435673E0,-3.1038575E0,-1.2340533E1,1.555E0,9.6500003E-1,1.86E1,1.6220001E1,9.215051E1,-1.8105982E1,2.280855E2,2.4505001E1,1.935E0,2.1950002E0,8.19559E3,2.105E0,1.0272468E1,4.3495E1,1.7E-1,7.5009995E1,1.975E0,1.88E0,7.75E0,1.1645E1,2.9685001E1,1.854E1,1.1059999E1,8.95E-1,4.10078E5,8.799999E0,8.456069E1,4.90413E5,1.5955545E4,1.56E1,2.91E0,1.685E0,5.796023E-1,2.8295016E0,-5.4414535E-1,-7.058625E0,-1.0198988E0,9.156953E0,-6.2842E-1,3.7407298E0,-1.3633357E0,-5.321644E0,-6.7688117E0,4.9536576E0,1.2496139E1,5.4226685E-2,1.9554201E-1,-5.974109E-1,9.0869755E-1,-5.9867005E0,9.342576E0,2.0726607E0,6.563013E0,-3.7491555E0,-7.01294E0,1.8947168E1,3.1457887E0,1.591981E1,-3.851508E0,3.9352674E0,3.8548691E0,-2.921828E0,6.728998E0,-1.517985E0,1.5015408E1,5.808505E0,-1.3164697E0,-5.817933E0,1.0670997E1,-3.7160158E0,1.3084438E0,6.1496935E0,2.1434376E1,-4.90885E0,-1.807182E-1,7.589873E0,4.8740777E-1,1.931971E1],"split_indices":[4,3,1,7,0,8,1,7,1,7,7,8,1,7,5,7,8,8,7,8,0,0,0,8,1,7,7,2,0,5,7,1,1,4,1,0,7,8,7,1,1,0,7,7,7,7,1,3,0,2,3,4,7,8,8,0,0,0,0,0,0,0,0,0,0,0,0,0,0,0,0,0,0,0,0,0,0,0,0,0,0,0,0,0,0,0,0,0,0,0,0,0,0,0,0,0,0,0,0,0,0],"split_type":[0,0,0,0,0,0,0,0,0,0,0,0,0,0,0,0,0,0,0,0,0,0,0,0,0,0,0,0,0,0,0,0,0,0,0,0,0,0,0,0,0,0,0,0,0,0,0,0,0,0,0,0,0,0,0,0,0,0,0,0,0,0,0,0,0,0,0,0,0,0,0,0,0,0,0,0,0,0,0,0,0,0,0,0,0,0,0,0,0,0,0,0,0,0,0,0,0,0,0,0,0],"sum_hessian":[6.299E3,4.33E3,1.969E3,4.281E3,4.9E1,4.55E2,1.514E3,4.093E3,1.88E2,2.6E1,2.3E1,1.14E2,3.41E2,2.4E1,1.49E3,3.836E3,2.57E2,1.67E2,2.1E1,2.4E1,2E0,3E0,2E1,8.4E1,3E1,2.91E2,5E1,2.2E1,2E0,1.365E3,1.25E2,3.075E3,7.61E2,7.8E1,1.79E2,6E0,1.61E2,1.7E1,4E0,1.8E1,6E0,6.5E1,1.9E1,7E0,2.3E1,1.48E2,1.43E2,2.4E1,2.6E1,1.9E1,3E0,1.316E3,4.9E1,8.4E1,4.1E1,2.84E3,2.35E2,7.31E2,3E1,1.3E1,6.5E1,1.01E2,7.8E1,9.4E1,6.7E1,2E0,1.5E1,3E0,1E0,9E0,9E0,1E0,5E0,2.2E1,4.3E1,3E0,1.6E1,6E0,1E0,5E0,1.8E1,2.3E1,1.25E2,4.7E1,9.6E1,7E0,1.7E1,1.6E1,1E1,9E0,1E1,2E0,1E0,1.29E3,2.6E1,2E0,4.7E1,6.8E1,1.6E1,2.6E1,1.5E1],"tree_param":{"num_deleted":"0","num_feature":"10","num_nodes":"101","size_leaf_vector":"0"}},{"base_weights":[1.9314065E0,7.9451323E0,1.6357055E0,8.899388E0,-8.183249E0,1.0958614E0,5.25659E0,2.711762E0,1.0998473E1,-1.92187E1,4.972176E1,-9.295474E0,1.1878748E0,5.295105E1,5.0039682E0,1.0165751E0,1.1102982E1,-2.8082683E0,1.2009312E1,-4.8939648E1,-3.962025E0,5.886333E0,-2.6125006E1,1.664955E1,1.0522525E0,1.2195801E1,6.2470867E1,2.3378418E1,4.486948E0,-4.154034E0,2.3676229E0,-3.256195E0,1.2704379E1,-1.0671234E1,5.405731E0,1.36881695E1,4.2607627E0,-1.4316437E1,1.7737305E1,-1.9907608E1,1.7023289E1,-3.17543E1,-6.345459E-1,1.9614738E1,5.7012606E0,5.888288E-1,4.110937E0,4.919157E1,3.709435E0,9.807409E0,2.770627E0,-8.02475E0,-2.1903443E0,6.584241E0,4.9285454E-1,-1.003418E0,-1.1909005E1,3.7076822E-1,1.3673747E1,1.6729778E1,6.5186443E0,7.4309487E0,-9.934431E0,3.3397217E0,-2.5578075E1,6.4335938E0,2.5824219E1,-2.3224752E1,-6.637451E0,5.3114014E0,2.1119291E1,-7.6066895E0,-3.2727295E1,2.2328694E0,-3.290446E0,1.4313293E1,2.5015625E1,-3.6216125E0,9.65004E0,8.319588E-1,-1.3650229E1,1.0234206E1,4.2436215E-1,1.732373E1,5.5821846E1,-4.1693006E0,3.1361654E1,1.5313118E1,2.128969E0,3.6700811E0,-1.3631827E1],"categories":[],"categories_nodes":[],"categories_segments":[],"categories_sizes":[],"default_left":[1,1,1,1,1,1,1,1,1,1,0,1,1,1,1,1,1,1,1,0,1,1,1,1,1,0,0,1,1,1,1,0,0,1,1,1,1,1,1,1,1,1,1,1,1,1,1,1,1,1,1,0,0,0,0,0,0,0,0,0,0,0,0,0,0,0,0,0,0,0,0,0,0,0,0,0,0,0,0,0,0,0,0,0,0,0,0,0,0,0,0],"id":19,"left_children":[1,3,5,7,9,11,13,15,17,19,-1,21,23,25,27,29,31,33,35,-1,37,39,41,43,45,-1,-1,47,49,51,53,-1,-1,55,57,59,61,63,65,67,69,71,73,75,77,79,81,83,85,87,89,-1,-1,-1,-1,-1,-1,-1,-1,-1,-1,-1,-1,-1,-1,-1,-1,-1,-1,-1,-1,-1,-1,-1,-1,-1,-1,-1,-1,-1,-1,-1,-1,-1,-1,-1,-1,-1,-1,-1,-1],"loss_changes":[1.1190072E4,4.6130527E3,1.1734245E4,3.5939238E3,1.1818722E4,5.009754E3,9.120936E3,1.0128904E3,2.9366543E3,6.607743E3,0E0,1.1906904E4,1.0850965E4,7.9004785E2,7.267074E3,4.3596533E2,3.173048E2,1.0264818E3,2.4653672E3,0E0,2.7254568E3,7.520543E3,3.1367031E3,1.3490391E3,7.2819414E3,0E0,0E0,1.0479613E4,6.876331E3,8.123453E1,3.8410883E2,0E0,0E0,8.378265E1,3.2796344E2,3.3582422E3,1.6938728E3,1.6761221E3,1.9950598E2,1.9799902E2,7.513218E2,1.7397266E2,4.5424984E1,6.4408203E2,4.3990234E2,1.5465464E4,