{"learner":{"attributes":{"best_iteration":"99","best_ntree_limit":"100","scikit_learn":"{\"n_estimators\": 100, \"objective\": \"reg:squarederror\", \"max_depth\": null, \"max_leaves\": null, \"max_bin\": null, \"grow_policy\": null, \"learning_rate\": null, \"verbosity\": null, \"booster\": null, \"tree_method\": null, \"gamma\": null, \"min_child_weight\": null, \"max_delta_step\": null, \"subsample\": null, \"sampling_method\": null, \"colsample_bytree\": null, \"colsample_bylevel\": null, \"colsample_bynode\": null, \"reg_alpha\": null, \"reg_lambda\": null, \"scale_pos_weight\": null, \"base_score\": null, \"missing\": NaN, \"num_parallel_tree\": null, \"random_state\": null, \"n_jobs\": null, \"monotone_constraints\": null, \"interaction_constraints\": null, \"importance_type\": null, \"gpu_id\": null, \"validate_parameters\": null, \"predictor\": null, \"enable_categorical\": false, \"feature_types\": null, \"max_cat_to_onehot\": null, \"max_cat_threshold\": null, \"eval_metric\": null, \"early_stopping_rounds\": null, \"callbacks\": null, \"_estimator_type\": \"regressor\"}"},"feature_names":["vix","AAAvstreasury","t10y3m","unemp_rate","oil_prices","bus_confidence"],"feature_types":["float","float","float","float","float","float"],"gradient_booster":{"model":{"gbtree_model_param":{"num_parallel_tree":"1","num_trees":"100","size_leaf_vector":"0"},"tree_info":[0,0,0,0,0,0,0,0,0,0,0,0,0,0,0,0,0,0,0,0,0,0,0,0,0,0,0,0,0,0,0,0,0,0,0,0,0,0,0,0,0,0,0,0,0,0,0,0,0,0,0,0,0,0,0,0,0,0,0,0,0,0,0,0,0,0,0,0,0,0,0,0,0,0,0,0,0,0,0,0,0,0,0,0,0,0,0,0,0,0,0,0,0,0,0,0,0,0,0,0],"trees":[{"base_weights":[1.5887166E3,1.1532893E3,3.10076E3,9.821636E2,1.6469774E3,2.0285729E3,3.4455005E3,1.1075004E3,4.4638297E2,1.4285123E3,2.3249077E3,4.127942E3,2.896499E3,1.1742999E3,8.0427045E2,4.6498438E2,4.241299E2,1.7618086E3,1.2676409E3,2.1634077E3,2.4672407E3,4.4671157E3,3.9942505E3,3.0840176E3,2.715364E3,1.2706737E3,1.0331492E3,6.0133124E2,9.419342E2,1.8702828E3,1.6411896E3,1.3329236E3,1.1451184E3,1.2913754E3,9.4832935E2,8.232849E2,1.0800679E3,9.895097E2,8.288003E2,1.3633262E3,1.1903531E3],"categories":[],"categories_nodes":[],"categories_segments":[],"categories_sizes":[],"default_left":[1,1,1,1,1,0,1,1,1,1,1,1,1,1,1,0,0,1,1,0,0,0,0,0,0,1,1,0,1,0,0,1,0,0,0,0,0,0,0,0,0],"id":0,"left_children":[1,3,5,7,9,-1,11,13,15,17,19,21,23,25,27,-1,-1,29,31,-1,-1,-1,-1,-1,-1,33,35,-1,37,-1,-1,39,-1,-1,-1,-1,-1,-1,-1,-1,-1],"loss_changes":[4.1442499E9,4.1175654E8,5.1344486E8,2.4367411E8,1.8299392E8,0E0,3.866839E8,5.872845E7,8.8832E4,4.8918144E7,1.673472E6,3.559936E6,1.1767808E7,3.1497984E7,1.4380064E7,0E0,0E0,9.6032E5,3.648768E6,0E0,0E0,0E0,0E0,0E0,0E0,8.311296E6,8.799808E6,0E0,8.86112E5,0E0,0E0,1.80352E5,0E0,0E0,0E0,0E0,0E0,0E0,0E0,0E0,0E0],"parents":[2147483647,0,0,1,1,2,2,3,3,4,4,6,6,7,7,8,8,9,9,10,10,11,11,12,12,13,13,14,14,17,17,18,18,25,25,26,26,28,28,31,31],"right_children":[2,4,6,8,10,-1,12,14,16,18,20,22,24,26,28,-1,-1,30,32,-1,-1,-1,-1,-1,-1,34,36,-1,38,-1,-1,40,-1,-1,-1,-1,-1,-1,-1,-1,-1],"split_conditions":[7.449354E1,3.855993E1,6.9E0,6.3500004E0,6.2E0,6.085719E2,8.55E0,1.00701454E2,7.2E0,9.9946144E1,9.2E0,9.943286E1,9.35E0,1.795E0,1.27E0,1.3949532E2,1.27238976E2,1.705E0,5.25E0,6.4902234E2,7.4017224E2,1.3401348E3,1.1982751E3,9.252053E2,8.1460925E2,3.4095E1,9.85E-1,1.8039938E2,3.021E1,5.610849E2,4.923569E2,2.4855E1,3.4353552E2,3.8741263E2,2.844988E2,2.4698549E2,3.240204E2,2.9685294E2,2.4864009E2,4.0899786E2,3.5710596E2],"split_indices":[4,4,3,3,3,0,3,5,3,5,3,5,3,2,1,0,0,1,3,0,0,0,0,0,0,0,1,0,0,0,0,0,0,0,0,0,0,0,0,0,0],"split_type":[0,0,0,0,0,0,0,0,0,0,0,0,0,0,0,0,0,0,0,0,0,0,0,0,0,0,0,0,0,0,0,0,0,0,0,0,0,0,0,0,0],"sum_hessian":[6.299E3,4.892E3,1.407E3,3.635E3,1.257E3,3.44E2,1.063E3,2.945E3,6.9E2,9.53E2,3.04E2,4.71E2,5.92E2,2.411E3,5.34E2,3.65E2,3.25E2,3.07E2,6.46E2,1.5E2,1.54E2,1.24E2,3.47E2,2.83E2,3.09E2,1.428E3,9.83E2,2.18E2,3.16E2,1.54E2,1.53E2,4.15E2,2.31E2,1.339E3,8.9E1,1.83E2,8E2,2.17E2,9.9E1,3.35E2,8E1],"tree_param":{"num_deleted":"0","num_feature":"6","num_nodes":"41","size_leaf_vector":"0"}},{"base_weights":[1.113796E3,7.976465E2,2.1410637E3,6.8812933E2,1.133294E3,1.3965266E3,2.4094011E3,7.759186E2,3.128541E2,1.4077408E3,8.7966174E2,1.42086E3,1.0531088E3,2.861528E3,1.9980453E3,8.2252527E2,5.643461E2,3.2587018E2,2.9728122E2,1.5808947E3,1.2114164E3,9.231695E2,7.861697E2,2.953563E3,2.5366738E3,1.8927194E3,2.0812969E3,9.2098224E2,7.421381E2,4.2175558E2,6.6107477E2,2.6925457E3,3.0408857E3,2.1062617E3,1.5880844E3,9.443929E2,6.711857E2,9.318584E2,7.1435284E2,4.5596927E2,3.7804022E2,6.269124E2,7.647847E2],"categories":[],"categories_nodes":[],"categories_segments":[],"categories_sizes":[],"default_left":[1,1,1,1,1,1,1,1,1,1,1,0,0,1,1,1,1,0,0,0,0,0,0,1,0,0,1,1,1,1,1,0,0,0,0,0,0,0,0,0,0,0,0],"id":1,"left_children":[1,3,5,7,9,11,13,15,17,19,21,-1,-1,23,25,27,29,-1,-1,-1,-1,-1,-1,31,-1,-1,33,35,37,39,41,-1,-1,-1,-1,-1,-1,-1,-1,-1,-1,-1,-1],"loss_changes":[2.0443443E9,1.7636275E8,2.927196E8,1.1954547E8,8.117811E7,1.80448E6,1.9663462E8,2.8585472E7,4.3184E4,1.7359744E7,1.788E6,0E0,0E0,7.93472E6,1.085184E6,1.8406656E7,7.100224E6,0E0,0E0,0E0,0E0,0E0,0E0,8.38656E5,0E0,0E0,4.72064E5,5.681792E6,6.361152E6,1.55176E5,6.4368E5,0E0,0E0,0E0,0E0,0E0,0E0,0E0,0E0,0E0,0E0,0E0,0E0],"parents":[2147483647,0,0,1,1,2,2,3,3,4,4,5,5,6,6,7,7,8,8,9,9,10,10,13,13,14,14,15,15,16,16,23,23,26,26,27,27,28,28,29,29,30,30],"right_children":[2,4,6,8,10,12,14,16,18,20,22,-1,-1,24,26,28,30,-1,-1,-1,-1,-1,-1,32,-1,-1,34,36,38,40,42,-1,-1,-1,-1,-1,-1,-1,-1,-1,-1,-1,-1],"split_conditions":[7.344554E1,3.855993E1,6.9E0,6.3500004E0,9.997172E1,9.988153E1,8.9E0,1.00701454E2,7.2E0,2.21E0,1.0086517E2,4.2625803E2,3.1593265E2,8.25E0,8.157228E1,1.365E0,1.27E0,9.7761055E1,8.918437E1,4.742684E2,3.6342493E2,2.7695087E2,2.358509E2,7.6499996E0,7.610022E2,5.6781586E2,4.196E1,3.2255E1,1.3690001E1,2.045E0,3.5720543E1,8.0776373E2,9.1226575E2,6.3187854E2,4.7642532E2,2.8331787E2,2.0135573E2,2.7955753E2,2.1430586E2,1.3679079E2,1.1341207E2,1.8807373E2,2.2943542E2],"split_indices":[4,4,3,3,5,5,3,5,3,2,5,0,0,3,4,2,1,0,0,0,0,0,0,3,0,0,0,0,0,2,4,0,0,0,0,0,0,0,0,0,0,0,0],"split_type":[0,0,0,0,0,0,0,0,0,0,0,0,0,0,0,0,0,0,0,0,0,0,0,0,0,0,0,0,0,0,0,0,0,0,0,0,0,0,0,0,0,0,0],"sum_hessian":[6.299E3,4.818E3,1.481E3,3.635E3,1.183E3,3.94E2,1.087E3,2.945E3,6.9E2,5.66E2,6.17E2,3.65E2,2.9E1,5.15E2,5.72E2,2.411E3,5.34E2,3.65E2,3.25E2,2.97E2,2.69E2,4.15E2,2.02E2,3.95E2,1.2E2,2.63E2,3.09E2,1.079E3,1.332E3,2.18E2,3.16E2,1.07E2,2.88E2,2.91E2,1.8E1,9.84E2,9.5E1,1.66E2,1.166E3,1.17E2,1.01E2,2.43E2,7.3E1],"tree_param":{"num_deleted":"0","num_feature":"6","num_nodes":"43","size_leaf_vector":"0"}},{"base_weights":[7.809402E2,5.590132E2,1.5020505E3,4.239959E2,6.948098E2,9.794476E2,1.6904017E3,5.308677E2,2.2858801E2,6.384809E2,1.1175103E3,9.957666E2,7.4770715E2,2.0200145E3,1.4118547E3,5.97501E2,4.269059E2,2.1597903E2,2.7084912E2,5.98579E2,7.680011E2,1.0081003E3,1.1733008E3,2.2327344E3,1.943106E3,1.5482244E3,1.3543058E3,6.7781903E2,4.5597476E2,2.874211E2,5.3340454E2,1.9108748E2,2.1944414E2,6.4169147E2,5.171446E2,8.498932E2,6.533607E2,2.1099492E3,1.8511764E3,1.196377E3,1.3967518E3,5.9075006E2,7.3399774E2,5.6277136E2,3.7652786E2,3.4356506E2,1.13861374E2,6.473914E2,4.6382593E2,5.864321E2,7.2306696E2,5.509882E2,4.208951E2,9.150026E2,7.599526E2,6.934506E2,5.906144E2],"categories":[],"categories_nodes":[],"categories_segments":[],"categories_sizes":[],"default_left":[1,1,1,1,1,1,1,1,1,1,1,0,0,1,1,1,1,1,0,1,1,0,0,0,1,0,1,1,1,1,1,0,0,1,1,1,1,0,0,0,0,0,0,0,0,0,0,0,0,0,0,0,0,0,0,0,0],"id":2,"left_children":[1,3,5,7,9,11,13,15,17,19,21,-1,-1,23,25,27,29,31,-1,33,35,-1,-1,-1,37,-1,39,41,43,45,47,-1,-1,49,51,53,55,-1,-1,-1,-1,-1,-1,-1,-1,-1,-1,-1,-1,-1,-1,-1,-1,-1,-1,-1,-1],"loss_changes":[1.0073738E9,8.806118E7,1.4422195E8,5.039603E7,5.645491E7,7.49248E5,9.704013E7,1.0572352E7,3.98176E5,1.0501952E7,5.32416E5,0E0,0E0,3.776128E6,2.557056E6,1.0489632E7,8.967624E6,1.5424E4,0E0,5.376704E6,4.101216E6,0E0,0E0,0E0,1.799808E6,0E0,1.177984E6,2.520832E6,2.732272E6,2.572362E6,2.451792E6,0E0,0E0,4.338048E6,1.618304E6,9.7944E5,1.21208E5,0E0,0E0,0E0,0E0,0E0,0E0,0E0,0E0,0E0,0E0,0E0,0E0,0E0,0E0,0E0,0E0,0E0,0E0,0E0,0E0],"parents":[2147483647,0,0,1,1,2,2,3,3,4,4,5,5,6,6,7,7,8,8,9,9,10,10,13,13,14,14,15,15,16,16,17,17,19,19,20,20,24,24,26,26,27,27,28,28,29,29,30,30,33,33,34,34,35,35,36,36],"right_children":[2,4,6,8,10,12,14,16,18,20,22,-1,-1,24,26,28,30,32,-1,34,36,-1,-1,-1,38,-1,40,42,44,46,48,-1,-1,50,52,54,56,-1,-1,-1,-1,-1,-1,-1,-1,-1,-1,-1,-1,-1,-1,-1,-1,-1,-1,-1,-1],"split_conditions":[7.344554E1,2.5137756E1,6.9E0,5.75E0,6.55E0,9.988153E1,8.700001E0,5.3500004E0,1.00784424E2,5.8791946E1,8.5E0,2.9872998E2,2.2431215E2,9.943286E1,9.05E0,2.605E0,1.8721436E1,1.46E0,8.125474E1,1.00406296E2,4.6499996E0,3.0243008E2,3.5199023E2,6.698203E2,2.055E1,4.6446732E2,1.0043451E2,9.96543E1,1.6120909E1,1.8316038E1,8.55E-1,5.7326244E1,6.5833244E1,5.55E0,5.6499996E0,1.785E0,2.0970001E1,6.329848E2,5.5535297E2,3.589131E2,4.1902557E2,1.7722502E2,2.2019933E2,1.6883142E2,1.1295837E2,1.0306953E2,3.4158413E1,1.9421744E2,1.3914778E2,1.7592964E2,2.1692009E2,1.6529648E2,1.2626854E2,2.745008E2,2.2798578E2,2.080352E2,1.7718433E2],"split_indices":[4,4,3,3,3,5,3,3,5,4,3,0,0,5,3,2,4,2,0,5,3,0,0,0,0,0,5,5,4,4,1,0,0,3,3,1,0,0,0,0,0,0,0,0,0,0,0,0,0,0,0,0,0,0,0,0,0],"split_type":[0,0,0,0,0,0,0,0,0,0,0,0,0,0,0,0,0,0,0,0,0,0,0,0,0,0,0,0,0,0,0,0,0,0,0,0,0,0,0,0,0,0,0,0,0,0,0,0,0,0,0,0,0,0,0,0,0],"sum_hessian":[6.299E3,4.818E3,1.481E3,2.418E3,2.4E3,3.94E2,1.087E3,1.562E3,8.56E2,2.12E3,2.8E2,3.65E2,2.9E1,4.95E2,5.92E2,9.49E2,6.13E2,6.64E2,1.92E2,1.625E3,4.95E2,1.01E2,1.79E2,1.24E2,3.71E2,1.68E2,4.24E2,6.03E2,3.46E2,2.67E2,3.46E2,8.8E1,5.76E2,1.058E3,5.67E2,2.85E2,2.1E2,1.24E2,2.47E2,9.6E1,3.28E2,2.41E2,3.62E2,1.45E2,2.01E2,2.01E2,6.6E1,1.28E2,2.18E2,6.35E2,4.23E2,4.16E2,1.51E2,1.6E2,1.25E2,1.22E2,8.8E1],"tree_param":{"num_deleted":"0","num_feature":"6","num_nodes":"57","size_leaf_vector":"0"}},{"base_weights":[5.478017E2,3.9205228E2,1.0538804E3,3.368164E2,5.613474E2,6.8693744E2,1.186131E3,3.8716492E2,1.7987192E2,6.969175E2,4.360569E2,6.978528E2,5.308721E2,1.4454708E3,1.0057696E3,4.0580466E2,2.9413644E2,1.5579619E2,3.2775745E2,6.135328E2,7.9653503E2,4.7425598E2,3.9317416E2,7.1956775E2,5.9020605E2,1.5024049E3,1.2995177E3,9.6399927E2,1.1718223E3,4.6284134E2,3.664613E2,2.2238922E2,3.2647937E2,1.5064746E2,1.7583298E2,3.8965482E2,2.2959418E2,6.279949E2,4.7638797E2,7.311942E2,8.360016E2,4.1836942E2,4.8597366E2,4.1631378E2,3.6271982E2,1.6162317E3,1.3932135E3,1.163868E3,9.2987805E2,3.6767438E2,4.9229694E2,4.496823E2,3.4010638E2,3.440901E2,2.4011313E2,1.562402E2,1.418218E2,3.9662592E2,2.1412827E2,2.3984583E2,1.14441124E2,4.284856E2,3.2847235E2,8.420218E2,9.603499E2],"categories":[],"categories_nodes":[],"categories_segments":[],"categories_sizes":[],"default_left":[1,1,1,1,1,1,1,1,1,1,1,1,0,1,1,1,1,1,1,1,1,1,1,0,0,1,0,1,0,1,1,0,1,1,0,1,1,0,0,0,0,0,0,1,0,0,0,0,1,0,0,0,0,0,0,0,0,0,0,0,0,0,0,0,0],"id":3,"left_children":[1,3,5,7,9,11,13,15,17,19,21,23,-1,25,27,29,31,33,35,37,39,41,43,-1,-1,45,-1,47,-1,49,51,-1,53,55,-1,57,59,-1,-1,-1,-1,-1,-1,61,-1,-1,-1,-1,63,-1,-1,-1,-1,-1,-1,-1,-1,-1,-1,-1,-1,-1,-1,-1,-1],"loss_changes":[4.9616192E8,4.487424E7,7.110451E7,2.866176E7,1.9807104E7,3.02416E5,4.9437184E7,4.652704E6,3.099938E6,4.22112E6,8.25872E5,4.30848E5,0E0,1.737152E6,3.344128E6,4.969184E6,1.001792E6,5.2226E4,6.57891E5,3.21632E5,4.632E4,7.544E3,5.8292E4,0E0,0E0,1.638528E6,0E0,2.470816E6,0E0,2.428752E6,2.82992E6,0E0,3.99528E5,8.148E3,0E0,5.619E3,3.1577E4,0E0,0E0,0E0,0E0,0E0,0E0,3.2462E4,0E0,0E0,0E0,0E0,3.96096E5,0E0,0E0,0E0,0E0,0E0,0E0,0E0,0E0,0E0,0E0,0E0,0E0,0E0,0E0,0E0,0E0],"parents":[2147483647,0,0,1,1,2,2,3,3,4,4,5,5,6,6,7,7,8,8,9,9,10,10,11,11,13,13,14,14,15,15,16,16,17,17,18,18,19,19,20,20,21,21,22,22,25,25,27,27,29,29,30,30,32,32,33,33,35,35,36,36,43,43,48,48],"right_children":[2,4,6,8,10,12,14,16,18,20,22,24,-1,26,28,30,32,34,36,38,40,42,44,-1,-1,46,-1,48,-1,50,52,-1,54,56,-1,58,60,-1,-1,-1,-1,-1,-1,62,-1,-1,-1,-1,64,-1,-1,-1,-1,-1,-1,-1,-1,-1,-1,-1,-1,-1,-1,-1,-1],"split_conditions":[7.344554E1,3.855993E1,6.9E0,6.05E0,9.997172E1,9.988153E1,8.4E0,1.00701454E2,2.5314545E1,7.05E0,1.9555E1,2.011E1,1.5926163E2,2.4435001E1,9.70936E1,1.335E0,1.27E0,1.00666985E2,1.0000398E2,1.945E0,8.85E0,4.7491203E1,5.3500004E0,2.1587033E2,1.7706183E2,9.471703E1,3.8985532E2,9.997659E1,3.515467E2,9.864319E1,1.7028864E1,6.671677E1,1.985E0,7.3500004E0,5.2749897E1,5.4335E1,7.15E1,1.8839847E2,1.429164E2,2.1935828E2,2.5080049E2,1.25510826E2,1.457921E2,3.618E1,1.0881595E2,4.8486954E2,4.1796408E2,3.4916043E2,1.0043451E2,1.10302315E2,1.4768909E2,1.349047E2,1.0203192E2,1.0322703E2,7.203394E1,4.6872063E1,4.254654E1,1.1898778E2,6.423848E1,7.195375E1,3.433234E1,1.2854568E2,9.854171E1,2.5260655E2,2.8810498E2],"split_indices":[4,4,3,3,5,5,3,5,4,3,0,0,0,0,4,2,1,5,5,1,3,4,3,0,0,4,0,5,0,5,4,0,1,3,0,0,0,0,0,0,0,0,0,0,0,0,0,0,5,0,0,0,0,0,0,0,0,0,0,0,0,0,0,0,0],"split_type":[0,0,0,0,0,0,0,0,0,0,0,0,0,0,0,0,0,0,0,0,0,0,0,0,0,0,0,0,0,0,0,0,0,0,0,0,0,0,0,0,0,0,0,0,0,0,0,0,0,0,0,0,0,0,0,0,0,0,0,0,0,0,0,0,0],"sum_hessian":[6.299E3,4.818E3,1.481E3,3.635E3,1.183E3,3.94E2,1.087E3,2.751E3,8.84E2,5.66E2,6.17E2,3.65E2,2.9E1,4.43E2,6.44E2,2.289E3,4.62E2,7.62E2,1.22E2,3.12E2,2.54E2,3.21E2,2.96E2,2.99E2,6.6E1,3.12E2,1.31E2,5.2E2,1.24E2,9.3E2,1.359E3,1.46E2,3.16E2,6.13E2,1.49E2,7.3E1,4.9E1,2.79E2,3.3E1,1.03E2,1.51E2,6.2E1,2.59E2,1.61E2,1.35E2,1.46E2,1.66E2,7.1E1,4.49E2,2.23E2,7.07E2,3.23E2,1.036E3,2.6E2,5.6E1,3.65E2,2.48E2,6.9E1,4E0,4.4E1,5E0,1.38E2,2.3E1,1.23E2,3.26E2],"tree_param":{"num_deleted":"0","num_feature":"6","num_nodes":"65","size_leaf_vector":"0"}},{"base_weights":[3.8436014E2,2.749714E2,7.3979877E2,2.0269812E2,3.4767197E2,4.8225412E2,8.326207E2,2.8864282E2,1.4701772E2,3.2044077E2,5.5197705E2,4.9834988E2,4.1045013E2,1.014741E3,7.059634E2,3.3642767E2,2.0463509E2,1.978103E2,1.1045569E2,3.466982E2,2.6440933E2,5.236977E2,6.2009766E2,5.1267474E2,4.0250125E2,1.0745061E3,9.3849524E2,8.503706E2,6.791629E2,3.7313116E2,2.5572475E2,2.5965018E2,1.550562E2,1.08839226E2,2.6595566E2,1.0449526E2,1.3500497E2,2.779287E2,3.7396265E2,2.1317538E2,2.9127704E2,1.1597856E3,9.8815234E2,9.993154E2,8.55812E2,6.5641956E2,8.1847003E2,2.241265E2,3.8094183E2,2.883966E2,1.5716869E2,2.8013654E2,2.1184567E2,1.426763E2,2.285805E2,1.5294069E2,-2.5747854E1,2.0356363E2,3.2753165E2,4.8688587E1,1.06507935E2,2.4535464E2,3.053898E2,4.3441583E2,3.4202536E2,2.2855833E2,1.729912E2,3.188172E2,2.699976E2,9.0731055E2,7.108734E2,8.137093E2,6.4629004E2,8.8532837E2,6.635597E2],"categories":[],"categories_nodes":[],"categories_segments":[],"categories_sizes":[],"default_left":[1,1,1,1,1,1,1,1,1,1,1,1,0,1,1,1,1,1,1,1,1,0,0,0,0,1,1,0,1,1,1,1,1,1,1,1,0,1,1,1,1,0,0,0,1,1,1,0,0,0,0,0,0,0,0,0,0,0,0,0,0,0,0,0,0,0,0,0,0,0,0,0,0,0,0],"id":4,"left_children":[1,3,5,7,9,11,13,15,17,19,21,23,-1,25,27,29,31,33,35,37,39,-1,-1,-1,-1,41,43,-1,45,47,49,51,53,55,57,59,-1,61,63,65,67,-1,-1,-1,69,71,73,-1,-1,-1,-1,-1,-1,-1,-1,-1,-1,-1,-1,-1,-1,-1,-1,-1,-1,-1,-1,-1,-1,-1,-1,-1,-1,-1,-1],"loss_changes":[2.4474675E8,2.525008E7,3.502688E7,1.1533536E7,1.3181024E7,2.51968E5,2.4380416E7,3.744736E6,2.708058E6,3.028832E6,2.16576E5,2.30272E5,0E0,1.01488E6,1.918752E6,1.693672E6,9.06211E5,3.693714E6,1.11292E5,2.597872E6,8.75328E5,0E0,0E0,0E0,0E0,6.36064E5,1.65616E5,0E0,1.202128E6,3.9528E5,5.72915E5,1.00288E5,1.357785E5,1.5946482E6,1.266448E6,7.2765E4,0E0,2.94508E5,1.838128E6,1.07582E5,1.74124E5,0E0,0E0,0E0,4.9184E4,2.34096E5,1.68592E5,0E0,0E0,0E0,0E0,0E0,0E0,0E0,0E0,0E0,0E0,0E0,0E0,0E0,0E0,0E0,0E0,0E0,0E0,0E0,0E0,0E0,0E0,0E0,0E0,0E0,0E0,0E0,0E0],"parents":[2147483647,0,0,1,1,2,2,3,3,4,4,5,5,6,6,7,7,8,8,9,9,10,10,11,11,13,13,14,14,15,15,16,16,17,17,18,18,19,19,20,20,25,25,26,26,28,28,29,29,30,30,31,31,32,32,33,33,34,34,35,35,37,37,38,38,39,39,40,40,44,44,45,45,46,46],"right_children":[2,4,6,8,10,12,14,16,18,20,22,24,-1,26,28,30,32,34,36,38,40,-1,-1,-1,-1,42,44,-1,46,48,50,52,54,56,58,60,-1,62,64,66,68,-1,-1,-1,70,72,74,-1,-1,-1,-1,-1,-1,-1,-1,-1,-1,-1,-1,-1,-1,-1,-1,-1,-1,-1,-1,-1,-1,-1,-1,-1,-1,-1,-1],"split_conditions":[7.344554E1,2.5137756E1,6.9E0,5.3500004E0,6.55E0,9.93721E1,8.4E0,2.605E0,5.75E0,1.00406296E2,9.870195E1,2.156E1,1.2313505E2,2.2119999E1,9.984247E1,5.05E0,1.775E0,1.8721436E1,1.0089816E2,9.9270355E1,3.5720543E1,1.5710931E2,1.860293E2,1.5380243E2,1.2075038E2,9.473573E1,9.975775E1,2.5511119E2,9.918859E1,9.8994644E1,2.30635E1,1.635E0,4.4E0,1.8316038E1,9.8927246E1,6.15E0,4.0501495E1,9.825055E1,1.4725E1,3.9445E1,2.1145E1,3.479357E2,2.964457E2,2.9979465E2,2.779E1,7.423402E1,1.01186134E2,6.723795E1,1.14282555E2,8.651898E1,4.7150608E1,8.404096E1,6.3553703E1,4.280289E1,6.857416E1,4.588221E1,-7.7243567E0,6.106909E1,9.82595E1,1.4606577E1,3.1952381E1,7.36064E1,9.161694E1,1.3032475E2,1.0260761E2,6.8567505E1,5.189736E1,9.5645164E1,8.099928E1,2.7219318E2,2.1326204E2,2.441128E2,1.9388702E2,2.655985E2,1.9906792E2],"split_indices":[4,4,3,3,3,5,3,2,3,5,5,0,0,0,5,3,1,4,5,5,4,0,0,0,0,4,5,0,4,5,4,1,3,4,5,3,0,5,0,0,0,0,0,0,0,4,5,0,0,0,0,0,0,0,0,0,0,0,0,0,0,0,0,0,0,0,0,0,0,0,0,0,0,0,0],"split_type":[0,0,0,0,0,0,0,0,0,0,0,0,0,0,0,0,0,0,0,0,0,0,0,0,0,0,0,0,0,0,0,0,0,0,0,0,0,0,0,0,0,0,0,0,0,0,0,0,0,0,0,0,0,0,0,0,0,0,0,0,0,0,0,0,0,0,0,0,0,0,0,0,0,0,0],"sum_hessian":[6.299E3,4.818E3,1.481E3,2.418E3,2.4E3,3.94E2,1.087E3,9.49E2,1.469E3,2.12E3,2.8E2,3.17E2,7.7E1,4.43E2,6.44E2,6.03E2,3.46E2,6.13E2,8.56E2,1.44E3,6.8E2,2.04E2,7.6E1,2.72E2,4.5E1,2.41E2,2.02E2,9.6E1,5.48E2,4.12E2,1.91E2,1.62E2,1.84E2,2.67E2,3.46E2,6.93E2,1.63E2,4.12E2,1.028E3,2.37E2,4.43E2,1.15E2,1.26E2,1.1E2,9.2E1,4.76E2,7.2E1,2.2E1,3.9E2,1.42E2,4.9E1,1.1E2,5.2E1,1.6E2,2.4E1,2.01E2,6.6E1,1.74E2,1.72E2,2.5E1,6.68E2,1.93E2,2.19E2,3.51E2,6.77E2,1.68E2,6.9E1,1.87E2,2.56E2,6.4E1,2.8E1,2.4E1,4.52E2,4.7E1,2.5E1],"tree_param":{"num_deleted":"0","num_feature":"6","num_nodes":"75","size_leaf_vector":"0"}},{"base_weights":[2.6982706E2,1.9287364E2,5.1987335E2,1.4224365E2,2.4380287E2,3.3858472E2,5.8521265E2,2.0265436E2,1.03105965E2,2.2463634E2,3.8760504E2,3.5023508E2,2.8984335E2,7.135385E2,4.9596942E2,2.360212E2,1.4399086E2,1.9586137E2,8.851365E1,2.363863E2,1.4355206E2,3.5105447E2,4.1631534E2,3.737794E2,3.1114474E2,8.0844006E2,6.8468005E2,5.840336E2,4.740998E2,2.5531317E2,1.5690273E2,1.9833168E2,1.1584425E2,2.794292E2,1.643991E2,-1.1084915E1,9.8993675E1,1.8291362E2,2.5090746E2,1.5905827E2,6.819909E1,3.2829657E2,2.5157405E2,6.9605756E2,8.8364716E2,7.132949E2,5.732601E2,4.394934E2,5.33745E2,2.0765793E2,2.67028E2,2.2108723E2,1.15989685E2,1.6490312E2,1.0341916E2,1.868332E2,1.2875574E2,6.0766422E1,-1.1936887E2,1.6132982E2,7.742056E1,1.5154538E2,1.8924167E2,2.670471E2,1.960353E2,1.7691376E2,1.4121681E2,1.235065E2,2.7704351E1,8.69651E2,6.974347E2,5.0670996E2,4.1615518E2,4.986242E2,6.466476E2],"categories":[],"categories_nodes":[],"categories_segments":[],"categories_sizes":[],"default_left":[1,1,1,1,1,1,1,1,1,1,1,1,0,1,1,1,1,1,1,1,1,0,0,0,1,1,1,0,1,1,1,0,1,0,1,1,1,1,1,1,1,0,0,0,0,1,0,1,1,0,0,0,0,0,0,0,0,0,0,0,0,0,0,0,0,0,0,0,0,0,0,0,0,0,0],"id":5,"left_children":[1,3,5,7,9,11,13,15,17,19,21,23,-1,25,27,29,31,33,35,37,39,-1,-1,-1,41,43,45,-1,47,49,51,-1,53,-1,55,57,59,61,63,65,67,-1,-1,-1,-1,69,-1,71,73,-1,-1,-1,-1,-1,-1,-1,-1,-1,-1,-1,-1,-1,-1,-1,-1,-1,-1,-1,-1,-1,-1,-1,-1,-1,-1],"loss_changes":[1.211239E8,1.2391344E7,1.7356512E7,5.698432E6,6.530544E6,1.22792E5,1.2106144E7,1.825556E6,1.972333E6,1.986824E6,1.4872E5,1.72692E5,0E0,6.6248E5,9.65328E5,8.8186E5,5.077655E5,4.772795E5,1.328806E6,1.391376E6,3.05799E5,0E0,0E0,0E0,4.4105E4,2.13224E5,6.97424E5,0E0,8.42888E5,2.14754E5,2.921E5,0E0,1.237545E5,0E0,9.34895E4,9.56456E5,1.535357E6,5.0523E4,1.234456E6,4.63755E4,1.0408197E5,0E0,0E0,0E0,0E0,6.7984E4,0E0,3.16216E5,4.19064E5,0E0,0E0,0E0,0E0,0E0,0E0,0E0,0E0,0E0,0E0,0E0,0E0,0E0,0E0,0E0,0E0,0E0,0E0,0E0,0E0,0E0,0E0,0E0,0E0,0E0,0E0],"parents":[2147483647,0,0,1,1,2,2,3,3,4,4,5,5,6,6,7,7,8,8,9,9,10,10,11,11,13,13,14,14,15,15,16,16,17,17,18,18,19,19,20,20,24,24,25,25,26,26,28,28,29,29,30,30,32,32,34,34,35,35,36,36,37,37,38,38,39,39,40,40,45,45,47,47,48,48],"right_children":[2,4,6,8,10,12,14,16,18,20,22,24,-1,26,28,30,32,34,36,38,40,-1,-1,-1,42,44,46,-1,48,50,52,-1,54,-1,56,58,60,62,64,66,68,-1,-1,-1,-1,70,-1,72,74,-1,-1,-1,-1,-1,-1,-1,-1,-1,-1,-1,-1,-1,-1,-1,-1,-1,-1,-1,-1,-1,-1,-1,-1,-1,-1],"split_conditions":[7.344554E1,2.5137756E1,6.9E0,5.3500004E0,6.55E0,1.84E0,8.4E0,2.605E0,9.8680565E1,2.8515E1,8.85E0,1.6695E1,8.695301E1,9.941985E1,9.997659E1,2.159582E1,1.4524299E1,8.7E-1,9.8927246E1,4.3500004E0,4.9235E1,1.05316345E2,1.2489461E2,1.1213382E2,5.95E0,1.785E0,2.5735E1,1.752101E2,3.275E0,3.5500002E-1,1.415E0,5.9499508E1,2.2335E1,8.3828766E1,9.85E-1,9.881938E1,5.75E0,9.761876E1,1.00682724E2,1.00872765E2,3.0854946E1,9.8488976E1,7.547222E1,2.0881728E2,2.6509415E2,8.515978E1,1.7197803E2,7.5586365E1,1.45E0,6.2297382E1,8.0108406E1,6.632617E1,3.4796906E1,4.947094E1,3.102575E1,5.6049965E1,3.8626724E1,1.8229927E1,-3.5810665E1,4.839895E1,2.322617E1,4.5463615E1,5.6772503E1,8.011413E1,5.881059E1,5.307413E1,4.2365044E1,3.7051952E1,8.311306E0,2.6089532E2,2.0923042E2,1.52013E2,1.2484656E2,1.4958727E2,1.9399428E2],"split_indices":[4,4,3,3,3,2,3,2,5,0,3,0,0,5,5,4,4,1,5,3,0,0,0,0,3,2,0,0,2,2,1,0,0,0,1,5,3,5,5,5,4,0,0,0,0,4,0,4,1,0,0,0,0,0,0,0,0,0,0,0,0,0,0,0,0,0,0,0,0,0,0,0,0,0,0],"split_type":[0,0,0,0,0,0,0,0,0,0,0,0,0,0,0,0,0,0,0,0,0,0,0,0,0,0,0,0,0,0,0,0,0,0,0,0,0,0,0,0,0,0,0,0,0,0,0,0,0,0,0,0,0,0,0,0,0,0,0,0,0,0,0,0,0,0,0,0,0,0,0,0,0,0,0],"sum_hessian":[6.299E3,4.818E3,1.481E3,2.418E3,2.4E3,3.94E2,1.087E3,9.49E2,1.469E3,2.12E3,2.8E2,3.13E2,8.1E1,4.43E2,6.44E2,6.03E2,3.46E2,1.98E2,1.271E3,1.85E3,2.7E2,1.29E2,1.51E2,1.9E2,1.23E2,9.7E1,3.46E2,1.23E2,5.21E2,4.83E2,1.2E2,1.16E2,2.3E2,5.2E1,1.46E2,1.21E2,1.15E3,3.98E2,1.452E3,2.23E2,4.7E1,9.2E1,3.1E1,4.3E1,5.4E1,2.71E2,7.5E1,3.35E2,1.86E2,9.9E1,3.84E2,4.5E1,7.5E1,4.4E1,1.86E2,8.7E1,5.9E1,7.3E1,4.8E1,2.94E2,8.56E2,7.1E1,3.27E2,1.119E3,3.33E2,1.07E2,1.16E2,1.9E1,2.8E1,2E1,2.51E2,8.1E1,2.54E2,1.46E2,4E1],"tree_param":{"num_deleted":"0","num_feature":"6","num_nodes":"75","size_leaf_vector":"0"}},{"base_weights":[1.8943655E2,1.2988805E2,3.5036166E2,9.8327286E1,1.6240909E2,2.3198146E2,4.0477594E2,1.4431735E2,6.968275E1,1.5280176E2,2.5815884E2,2.4314221E2,1.812845E2,5.0199048E2,3.4434872E2,1.6903673E2,9.286742E1,1.3799997E2,5.8698174E1,2.2617836E2,1.4582698E2,2.6929367E2,2.1721335E2,3.0087967E2,2.3526457E2,4.2834027E2,5.2410394E2,3.72956E2,3.111948E2,1.8351762E2,1.2476777E2,1.27292656E2,7.17824E1,1.971821E2,1.1572342E2,-7.903538E0,6.5881355E1,1.4069772E2,2.3678345E2,1.3499486E2,1.9997159E2,1.1905916E2,2.425593E2,3.8349374E2,4.94992E2,5.63461E2,4.6677008E2,4.4691284E2,3.555166E2,2.9249075E2,3.7793973E2,1.5618126E2,2.0649895E2,1.4989185E2,9.965448E1,1.611464E2,8.4968796E1,8.25007E1,3.358003E1,1.05918434E2,2.0448209E2,1.3142015E2,9.077281E1,2.7245232E1,-1.4537057E2,6.063089E1,1.5040993E2,4.0073486E1,1.4358109E2,2.682314E2,2.0273631E2,1.4058014E2,7.682139E1,2.2565973E2,1.7144684E2,2.60892E2,2.1649289E2,4.8641492E2,5.949043E2,3.526382E2,4.879621E2,4.5229407E2,1.7776106E2,3.962061E2,3.2500226E2,2.9976614E2,2.1268466E2],"categories":[],"categories_nodes":[],"categories_segments":[],"categories_sizes":[],"default_left":[1,1,1,1,1,1,1,1,1,1,1,1,0,1,1,1,1,1,1,1,1,0,0,0,1,1,1,1,1,1,1,1,1,1,1,1,1,1,1,1,1,0,1,0,0,1,1,1,1,1,0,0,0,0,0,0,0,0,0,0,0,0,0,0,0,0,0,0,0,0,0,0,0,0,0,0,0,0,0,0,0,0,0,0,0,0,0],"id":6,"left_children":[1,3,5,7,9,11,13,15,17,19,21,23,-1,25,27,29,31,33,35,37,39,-1,-1,-1,41,43,45,47,49,51,53,55,57,59,61,63,65,67,69,71,73,-1,75,-1,-1,77,79,81,83,85,-1,-1,-1,-1,-1,-1,-1,-1,-1,-1,-1,-1,-1,-1,-1,-1,-1,-1,-1,-1,-1,-1,-1,-1,-1,-1,-1,-1,-1,-1,-1,-1,-1,-1,-1,-1,-1],"loss_changes":[6.032643E7,4.705416E6,1.0863216E7,3.068622E6,2.043204E6,2.60334E5,6.664944E6,1.123844E6,1.0740275E6,1.021296E6,3.4968E4,1.2843E5,0E0,4.98632E5,5.67768E5,3.643E5,2.035385E5,2.3953775E5,5.95665E5,1.27141E5,1.077976E6,0E0,0E0,0E0,3.01718E5,1.32996E5,4.9744E5,3.33804E5,3.13912E5,2.52334E5,8.096675E4,1.43918E5,7.2571125E4,1.3651375E4,4.5642125E4,5.9344E5,4.89284E5,6.291875E2,1.12651E5,5.00292E5,1.89929E5,0E0,1.18418E5,0E0,0E0,1.83028E5,1.73794E5,1.9538E4,2.61096E5,9.3012E4,0E0,0E0,0E0,0E0,0E0,0E0,0E0,0E0,0E0,0E0,0E0,0E0,0E0,0E0,0E0,0E0,0E0,0E0,0E0,0E0,0E0,0E0,0E0,0E0,0E0,0E0,0E0,0E0,0E0,0E0,0E0,0E0,0E0,0E0,0E0,0E0,0E0],"parents":[2147483647,0,0,1,1,2,2,3,3,4,4,5,5,6,6,7,7,8,8,9,9,10,10,11,11,13,13,14,14,15,15,16,16,17,17,18,18,19,19,20,20,24,24,25,25,26,26,27,27,28,28,29,29,30,30,31,31,32,32,33,33,34,34,35,35,36,36,37,37,38,38,39,39,40,40,42,42,45,45,46,46,47,47,48,48,49,49],"right_children":[2,4,6,8,10,12,14,16,18,20,22,24,-1,26,28,30,32,34,36,38,40,-1,-1,-1,42,44,46,48,50,52,54,56,58,60,62,64,66,68,70,72,74,-1,76,-1,-1,78,80,82,84,86,-1,-1,-1,-1,-1,-1,-1,-1,-1,-1,-1,-1,-1,-1,-1,-1,-1,-1,-1,-1,-1,-1,-1,-1,-1,-1,-1,-1,-1,-1,-1,-1,-1,-1,-1,-1,-1],"split_conditions":[6.6568146E1,2.4209047E1,6.9E0,5.3500004E0,6.55E0,9.9946144E1,8.4E0,2.723E1,9.8680565E1,7.95E-1,1.4045E1,4.6499996E0,5.4385353E1,7.6499996E0,9.45E0,2.83E0,2.4250002E0,8.7E-1,9.8927246E1,5.35E0,3.025E0,8.07881E1,6.516401E1,9.02639E1,7.354753E1,9.5268234E1,9.471703E1,9.9779724E1,2.935E0,1.515E0,9.93804E1,2.159582E1,3.548E1,1.36E0,9.85E-1,1.905492E1,2.055E1,4.65E0,1.0022414E2,3.5755E1,1.6244999E1,3.571775E1,1.5940001E1,1.1504813E2,1.484976E2,1.685E0,9.501953E1,3.5595E1,1.5754999E1,2.0915E1,1.1338192E2,4.6854378E1,6.1949688E1,4.4967556E1,2.9896345E1,4.834392E1,2.549064E1,2.4750212E1,1.0074009E1,3.1775532E1,6.1344627E1,3.942605E1,2.7231844E1,8.17357E0,-4.3611176E1,1.8189268E1,4.512298E1,1.2022046E1,4.3074326E1,8.046943E1,6.0820896E1,4.217404E1,2.3046417E1,6.769792E1,5.1434055E1,7.82676E1,6.494787E1,1.4592448E2,1.784713E2,1.05791466E2,1.4638864E2,1.3568823E2,5.332832E1,1.1886183E2,9.750068E1,8.992985E1,6.38054E1],"split_indices":[4,4,3,3,3,5,3,0,5,1,0,3,0,3,3,2,2,1,5,3,2,0,0,0,4,4,4,5,2,1,5,4,0,2,1,4,0,3,5,0,0,0,0,0,0,2,4,0,0,0,0,0,0,0,0,0,0,0,0,0,0,0,0,0,0,0,0,0,0,0,0,0,0,0,0,0,0,0,0,0,0,0,0,0,0,0,0],"split_type":[0,0,0,0,0,0,0,0,0,0,0,0,0,0,0,0,0,0,0,0,0,0,0,0,0,0,0,0,0,0,0,0,0,0,0,0,0,0,0,0,0,0,0,0,0,0,0,0,0,0,0,0,0,0,0,0,0,0,0,0,0,0,0,0,0,0,0,0,0,0,0,0,0,0,0,0,0,0,0,0,0,0,0,0,0,0,0],"sum_hessian":[6.299E3,4.599E3,1.7E3,2.336E3,2.263E3,5.37E2,1.163E3,8.95E2,1.441E3,2.059E3,2.04E2,4.37E2,1E2,4.43E2,7.2E2,6.03E2,2.92E2,1.98E2,1.243E3,1.76E2,1.883E3,1.56E2,4.8E1,4.8E1,3.89E2,1.07E2,3.36E2,3.81E2,3.39E2,4.52E2,1.51E2,1.09E2,1.83E2,5.2E1,1.46E2,1.21E2,1.122E3,2.1E1,1.55E2,1.572E3,3.11E2,2.4E1,3.65E2,6.8E1,3.9E1,1.94E2,1.42E2,6.8E1,3.13E2,2.69E2,7E1,2.1E2,2.42E2,7.3E1,7.8E1,5.9E1,5E1,1.42E2,4.1E1,5E0,4.7E1,8.7E1,5.9E1,9.7E1,2.4E1,1.058E3,6.4E1,1E0,2E1,7.7E1,7.8E1,1.433E3,1.39E2,1.6E2,1.51E2,2.09E2,1.56E2,6.1E1,1.33E2,2.5E1,1.17E2,6.6E1,2E0,1.29E2,1.84E2,2.44E2,2.5E1],"tree_param":{"num_deleted":"0","num_feature":"6","num_nodes":"87","size_leaf_vector":"0"}},{"base_weights":[1.3305682E2,9.114047E1,2.4633264E2,7.014172E1,1.1547949E2,1.6298848E2,2.846426E2,8.819274E1,3.6022022E1,1.3660397E2,9.176239E1,1.7081416E2,1.274376E2,3.6097018E2,2.4496725E2,1.4720737E2,8.420285E1,4.143123E1,2.064402E1,1.0925482E2,1.6748903E2,1.5570139E2,8.629521E1,1.7842815E2,1.4105202E2,3.8172903E2,2.9821225E2,2.3114807E2,2.912394E2,3.8019043E1,1.4791905E2,3.418001E1,9.6260635E1,3.796335E1,6.193228E1,3.3441723E1,1.5349022E1,8.281451E1,1.5609326E2,2.0432484E2,1.24731514E2,9.556355E1,1.6625874E2,6.4179855E1,9.721371E1,2.1245789E2,1.7221304E2,1.5113718E2,1.0533959E2,3.174962E2,4.0345435E2,2.8355618E2,4.587016E2,2.3510483E2,1.4554317E2,1.9045715E2,3.017144E2,-9.933407E1,5.851255E1,1.118342E2,6.745566E1,4.031022E1,2.62995E1,4.2703255E1,2.8050917E1,-5.1787534E0,1.916059E1,6.640072E1,9.456697E1,1.6567972E2,8.003482E1,1.7997595E2,2.1761472E2,1.7188792E2,9.876764E1,7.946086E1,4.0301735E1,1.1129582E2,8.9570496E1,8.455522E1,1.7926259E2,1.5847517E2,8.297827E1,2.7727173E2,3.4801468E2,4.1093997E2,3.1876562E2,3.135101E2,2.3686627E2,2.3732983E2,8.699392E1,2.847731E2,3.5362982E2],"categories":[],"categories_nodes":[],"categories_segments":[],"categories_sizes":[],"default_left":[1,1,1,1,1,1,1,1,1,1,1,1,0,1,1,1,1,1,1,1,1,1,1,1,1,1,1,1,1,0,0,1,1,1,0,1,1,1,1,1,1,0,0,1,1,0,1,1,0,1,1,1,0,1,0,0,1,0,0,0,0,0,0,0,0,0,0,0,0,0,0,0,0,0,0,0,0,0,0,0,0,0,0,0,0,0,0,0,0,0,0,0,0],"id":7,"left_children":[1,3,5,7,9,11,13,15,17,19,21,23,-1,25,27,29,31,33,35,37,39,41,43,45,47,49,51,53,55,-1,-1,57,59,61,-1,63,65,67,69,71,73,-1,-1,75,77,-1,79,81,-1,83,85,87,-1,89,-1,-1,91,-1,-1,-1,-1,-1,-1,-1,-1,-1,-1,-1,-1,-1,-1,-1,-1,-1,-1,-1,-1,-1,-1,-1,-1,-1,-1,-1,-1,-1,-1,-1,-1,-1,-1,-1,-1],"loss_changes":[2.9890632E7,2.342904E6,5.38476E6,1.519317E6,1.054118E6,1.27908E5,3.436544E6,3.68111E5,7.043225E4,9.31122E5,3.38227E5,7.4087E4,0E0,4.0206E5,4.24412E5,2.225E3,9.11107E5,4.2652125E4,1.47335625E4,7.288885E5,8.02969E5,3.36335E4,2.18083E5,3.6378E4,1.7934875E4,2.82176E5,1.12202E5,1.67996E5,1.25172E5,0E0,0E0,9.674384E5,5.40192E5,1.38310625E4,0E0,2.0473906E3,1.2696352E4,6.7988E4,1.43503E5,5.1764E4,2.8421625E5,0E0,0E0,1.09910875E5,5.6764E4,0E0,1.68374E5,2.23605E4,0E0,4.85E2,5.944E3,6.1399E4,0E0,1.6687E5,0E0,0E0,3.562E4,0E0,0E0,0E0,0E0,0E0,0E0,0E0,0E0,0E0,0E0,0E0,0E0,0E0,0E0,0E0,0E0,0E0,0E0,0E0,0E0,0E0,0E0,0E0,0E0,0E0,0E0,0E0,0E0,0E0,0E0,0E0,0E0,0E0,0E0,0E0,0E0],"parents":[2147483647,0,0,1,1,2,2,3,3,4,4,5,5,6,6,7,7,8,8,9,9,10,10,11,11,13,13,14,14,15,15,16,16,17,17,18,18,19,19,20,20,21,21,22,22,23,23,24,24,25,25,26,26,27,27,28,28,31,31,32,32,33,33,35,35,36,36,37,37,38,38,39,39,40,40,43,43,44,44,46,46,47,47,49,49,50,50,51,51,53,53,56,56],"right_children":[2,4,6,8,10,12,14,16,18,20,22,24,-1,26,28,30,32,34,36,38,40,42,44,46,48,50,52,54,56,-1,-1,58,60,62,-1,64,66,68,70,72,74,-1,-1,76,78,-1,80,82,-1,84,86,88,-1,90,-1,-1,92,-1,-1,-1,-1,-1,-1,-1,-1,-1,-1,-1,-1,-1,-1,-1,-1,-1,-1,-1,-1,-1,-1,-1,-1,-1,-1,-1,-1,-1,-1,-1,-1,-1,-1,-1,-1],"split_conditions":[6.6568146E1,2.551868E1,6.9E0,5.75E0,9.993974E1,9.9946144E1,8.25E0,1.3440001E1,1.479E1,5.35E0,1.05E0,1.856E1,3.823128E1,2.5715E1,9.70936E1,1.9450855E1,9.35E-1,1.011676E2,1.8594349E1,1.45E0,1.605E0,1.3199999E0,3.5720543E1,4.6499996E0,5.95E0,7.6499996E0,8.05E0,9.95E0,1.205E0,1.1405713E1,4.4375717E1,5.45E0,2.5994999E1,7.5E0,1.8579685E1,6.55E0,6.4E0,1.005E0,6.4046906E1,9.889719E1,1.8705E1,2.8669067E1,4.9877625E1,3.0646685E1,1.87E1,6.373737E1,7.354753E1,1.9300001E0,3.160188E1,9.9658264E1,2.645E0,9.965844E1,1.3761049E2,5.5480003E1,4.3662952E1,5.713715E1,1.585E0,-2.9800222E1,1.7553766E1,3.3550262E1,2.0236698E1,1.2093066E1,7.88985E0,1.2810977E1,8.415276E0,-1.5536261E0,5.748177E0,1.9920216E1,2.8370092E1,4.970392E1,2.4010447E1,5.3992786E1,6.528442E1,5.156638E1,2.9630293E1,2.3838259E1,1.2090521E1,3.338875E1,2.687115E1,2.5366568E1,5.3778778E1,4.7542553E1,2.4893482E1,8.318152E1,1.0440441E2,1.23282E2,9.562969E1,9.405303E1,7.105988E1,7.119895E1,2.6098177E1,8.543193E1,1.0608895E2],"split_indices":[4,4,3,3,5,5,3,0,0,3,1,0,0,0,4,4,1,5,4,1,1,2,4,3,3,3,3,3,1,0,0,3,0,3,0,3,3,2,4,5,0,0,0,4,0,0,4,2,0,5,2,5,0,0,0,0,1,0,0,0,0,0,0,0,0,0,0,0,0,0,0,0,0,0,0,0,0,0,0,0,0,0,0,0,0,0,0,0,0,0,0,0,0],"split_type":[0,0,0,0,0,0,0,0,0,0,0,0,0,0,0,0,0,0,0,0,0,0,0,0,0,0,0,0,0,0,0,0,0,0,0,0,0,0,0,0,0,0,0,0,0,0,0,0,0,0,0,0,0,0,0,0,0,0,0,0,0,0,0,0,0,0,0,0,0,0,0,0,0,0,0,0,0,0,0,0,0,0,0,0,0,0,0,0,0,0,0,0,0],"sum_hessian":[6.299E3,4.599E3,1.7E3,2.471E3,2.128E3,5.37E2,1.163E3,1.615E3,8.56E2,1.123E3,1.005E3,4.37E2,1E2,3.95E2,7.68E2,1E2,1.515E3,6.32E2,2.24E2,5.98E2,5.25E2,7.7E1,9.28E2,3.44E2,9.3E1,2.93E2,1.02E2,5.96E2,1.72E2,1E0,9.9E1,2.95E2,1.22E3,5.43E2,8.9E1,6.4E1,1.6E2,3.84E2,2.14E2,2.8E2,2.45E2,1.3E1,6.4E1,3.09E2,6.19E2,4.8E1,2.96E2,7E1,2.3E1,7.8E1,2.15E2,9.6E1,6E0,5.68E2,2.8E1,1.8E1,1.54E2,4.5E1,2.5E2,7.9E2,4.3E2,4.5E2,9.3E1,2.1E1,4.3E1,2.5E1,1.35E2,1.63E2,2.21E2,1.89E2,2.5E1,1.04E2,1.76E2,8.5E1,1.6E2,1.87E2,1.22E2,2.13E2,4.06E2,2.3E1,2.73E2,6.2E1,8E0,3.8E1,4E1,1.94E2,2.1E1,5.5E1,4.1E1,5.59E2,9E0,1.21E2,3.3E1],"tree_param":{"num_deleted":"0","num_feature":"6","num_nodes":"93","size_leaf_vector":"0"}},{"base_weights":[9.3463974E1,6.3941486E1,1.7324646E2,4.9164448E1,8.10692E1,1.1462192E2,2.0019385E2,7.090887E1,3.4930847E1,9.564395E1,6.3980377E1,1.2013362E2,8.958481E1,2.4457692E2,1.6459775E2,9.069685E1,5.0648277E1,6.8426605E1,2.9009418E1,7.690299E1,1.17623474E2,1.0999801E2,5.9947975E1,1.2384084E2,8.665777E1,1.0838376E2,8.2651985E1,2.8454276E2,2.2952457E2,1.610245E2,2.5094182E2,1.158693E2,6.117111E1,7.1610504E1,3.0159939E1,1.1016077E2,5.4847237E1,-4.416717E1,3.5015465E1,5.8713364E1,1.085153E2,1.3697125E2,7.700669E1,7.044032E1,1.1755062E2,6.359114E1,1.812761E1,1.5002122E2,1.19751656E2,8.883997E1,2.5038858E1,5.0156853E1,8.780024E1,3.6698886E2,2.6731274E2,2.68916E2,2.186267E2,1.6662833E2,1.0101012E2,1.5673154E2,1.02349236E2,1.1563473E2,5.3625843E1,7.836494E1,5.4855568E1,3.7477234E1,6.7297454E0,1.3403963E2,9.2172035E1,7.8279564E1,4.5066494E1,-1.6593744E1,-1.2291489E2,6.0871086E1,2.5290066E1,3.336999E1,6.40365E1,1.3079315E2,9.105786E1,1.1780314E2,1.5414487E2,3.2246376E1,1.0457211E2,7.6459175E1,3.477368E1,1.2821481E2,9.2965965E1,5.893626E1,8.6408066E1,4.877286E1,-1.0625127E1,1.2903505E2,8.8516464E1,9.608663E1,6.3610756E1,1.2157471E1,5.2310345E1,8.247941E1,2.6981E2,2.3626653E2,3.187805E2,9.880024E1,2.215413E2,1.5957176E2,2.4751999E2,1.5849055E2,7.994648E1],"categories":[],"categories_nodes":[],"categories_segments":[],"categories_sizes":[],"default_left":[1,1,1,1,1,1,1,1,1,1,1,1,1,1,1,1,1,1,1,1,1,1,1,1,1,0,1,1,1,1,0,1,1,1,1,1,1,1,1,1,1,1,1,1,1,1,1,0,1,1,0,1,0,0,1,1,1,1,1,0,0,0,0,0,0,0,0,0,0,0,0,0,0,0,0,0,0,0,0,0,0,0,0,0,0,0,0,0,0,0,0,0,0,0,0,0,0,0,0,0,0,0,0,0,0,0,0],"id":8,"left_children":[1,3,5,7,9,11,13,15,17,19,21,23,25,27,29,31,33,35,37,39,41,43,45,47,49,-1,51,53,55,57,-1,59,61,63,65,67,69,71,73,75,77,79,81,83,85,87,89,-1,91,93,-1,95,-1,-1,97,99,101,103,105,-1,-1,-1,-1,-1,-1,-1,-1,-1,-1,-1,-1,-1,-1,-1,-1,-1,-1,-1,-1,-1,-1,-1,-1,-1,-1,-1,-1,-1,-1,-1,-1,-1,-1,-1,-1,-1,-1,-1,-1,-1,-1,-1,-1,-1,-1,-1,-1],"loss_changes":[1.4827796E7,1.16026E6,2.664256E6,7.626105E5,5.24141E5,6.348E4,1.798704E6,3.871015E5,2.947355E5,4.63423E5,1.7581275E5,4.36255E4,4.205125E3,2.45104E5,1.59828E5,3.593275E5,2.061385E5,1.20904E5,5.610329E5,3.512885E5,4.02807E5,1.5023375E4,1.3688425E5,2.4001E4,4.095375E3,0E0,8.645125E3,9.6514E4,1.04336E5,1.93699E5,0E0,1.3036025E5,8.790475E4,2.2748875E4,4.209489E4,1.0841E4,3.5662906E4,2.0858077E5,2.9442462E5,5.142075E4,7.598525E4,9.8702E4,2.0884794E5,5.613125E2,4.859625E3,8.33805E4,6.5722195E4,0E0,8.83275E4,2.115125E3,0E0,4.2784766E2,0E0,0E0,3.1752E4,5.1671E4,8.3934E4,2.86438E5,5.5131062E4,0E0,0E0,0E0,0E0,0E0,0E0,0E0,0E0,0E0,0E0,0E0,0E0,0E0,0E0,0E0,0E0,0E0,0E0,0E0,0E0,0E0,0E0,0E0,0E0,0E0,0E0,0E0,0E0,0E0,0E0,0E0,0E0,0E0,0E0,0E0,0E0,0E0,0E0,0E0,0E0,0E0,0E0,0E0,0E0,0E0,0E0,0E0,0E0],"parents":[2147483647,0,0,1,1,2,2,3,3,4,4,5,5,6,6,7,7,8,8,9,9,10,10,11,11,12,12,13,13,14,14,15,15,16,16,17,17,18,18,19,19,20,20,21,21,22,22,23,23,24,24,26,26,27,27,28,28,29,29,31,31,32,32,33,33,34,34,35,35,36,36,37,37,38,38,39,39,40,40,41,41,42,42,43,43,44,44,45,45,46,46,48,48,49,49,51,51,54,54,55,55,56,56,57,57,58,58],"right_children":[2,4,6,8,10,12,14,16,18,20,22,24,26,28,30,32,34,36,38,40,42,44,46,48,50,-1,52,54,56,58,-1,60,62,64,66,68,70,72,74,76,78,80,82,84,86,88,90,-1,92,94,-1,96,-1,-1,98,100,102,104,106,-1,-1,-1,-1,-1,-1,-1,-1,-1,-1,-1,-1,-1,-1,-1,-1,-1,-1,-1,-1,-1,-1,-1,-1,-1,-1,-1,-1,-1,-1,-1,-1,-1,-1,-1,-1,-1,-1,-1,-1,-1,-1,-1,-1,-1,-1,-1,-1],"split_conditions":[6.6568146E1,2.551868E1,6.9E0,5.3500004E0,9.998363E1,9.9946144E1,8.9E0,2.1350002E0,9.871781E1,5.35E0,1.05E0,2.1985E1,7.031561E1,1.9535E1,1.795E0,2.02545E1,1.4889027E1,2.255E0,9.8927246E1,1.495E0,1.715E0,1.335E0,4.35E1,4.6499996E0,2.9375E1,3.251513E1,1.885E0,9.941985E1,9.941985E1,2.9744999E1,7.528255E1,2.095E1,4.8E0,9.932655E1,3.392E1,7.65E-1,1.809763E1,1.905492E1,5.75E0,9.756137E1,1.705E0,9.904003E1,3.1829565E1,7.45E-1,5.8500004E0,2.7649999E0,3.0646685E1,4.500637E1,1.765E0,5.95E0,7.5116577E0,2.79E0,2.6340073E1,1.10096664E2,7.4E0,9.185739E1,9.943286E1,1.555E0,9.997659E1,4.7019463E1,3.0704771E1,3.469042E1,1.6087753E1,2.3509481E1,1.645667E1,1.1243171E1,2.0189238E0,4.021189E1,2.7651611E1,2.348387E1,1.3519949E1,-4.9781237E0,-3.6874466E1,1.8261326E1,7.58702E0,1.0010998E1,1.921095E1,3.9237946E1,2.731736E1,3.5340942E1,4.624346E1,9.673913E0,3.1371635E1,2.2937754E1,1.0432105E1,3.8464447E1,2.7889791E1,1.768088E1,2.592242E1,1.4631859E1,-3.1875381E0,3.8710518E1,2.6554941E1,2.882599E1,1.9083227E1,3.6472414E0,1.5693104E1,2.4743824E1,8.0943E1,7.087996E1,9.563415E1,2.9640074E1,6.6462395E1,4.787153E1,7.4256E1,4.754717E1,2.3983944E1],"split_indices":[4,4,3,3,5,5,3,2,5,3,1,0,4,0,1,4,4,2,5,1,1,2,0,3,0,0,1,5,5,0,0,0,3,5,0,1,4,4,3,5,1,5,4,1,3,2,4,0,2,3,0,2,0,0,3,4,5,1,5,0,0,0,0,0,0,0,0,0,0,0,0,0,0,0,0,0,0,0,0,0,0,0,0,0,0,0,0,0,0,0,0,0,0,0,0,0,0,0,0,0,0,0,0,0,0,0,0],"split_type":[0,0,0,0,0,0,0,0,0,0,0,0,0,0,0,0,0,0,0,0,0,0,0,0,0,0,0,0,0,0,0,0,0,0,0,0,0,0,0,0,0,0,0,0,0,0,0,0,0,0,0,0,0,0,0,0,0,0,0,0,0,0,0,0,0,0,0,0,0,0,0,0,0,0,0,0,0,0,0,0,0,0,0,0,0,0,0,0,0,0,0,0,0,0,0,0,0,0,0,0,0,0,0,0,0,0,0],"sum_hessian":[6.299E3,4.599E3,1.7E3,2.471E3,2.128E3,5.37E2,1.163E3,9.76E2,1.495E3,1.146E3,9.82E2,4.37E2,1E2,5.15E2,6.48E2,4.92E2,4.84E2,2.23E2,1.272E3,6.21E2,5.25E2,7.7E1,9.05E2,3.91E2,4.6E1,2.3E1,7.7E1,1.36E2,3.79E2,6.25E2,2.3E1,2.64E2,2.28E2,2.38E2,2.46E2,5.3E1,1.7E2,9.6E1,1.176E3,3.96E2,2.25E2,3.54E2,1.71E2,1.4E1,6.3E1,8.32E2,7.3E1,4.8E1,3.43E2,4.4E1,2E0,1.2E1,6.5E1,2E1,1.16E2,7.7E1,3.02E2,5.7E2,5.5E1,6.3E1,2.01E2,2.6E1,2.02E2,1.67E2,7.1E1,1.87E2,5.9E1,2E1,3.3E1,4.8E1,1.22E2,7.2E1,2.4E1,3.2E2,8.56E2,7E1,3.26E2,9.6E1,1.29E2,1.71E2,1.83E2,6.6E1,1.05E2,1.1E1,3E0,4.1E1,2.2E1,6.94E2,1.38E2,3.5E1,3.8E1,2.62E2,8.1E1,3.2E1,1.2E1,1E0,1.1E1,2E0,1.14E2,5E1,2.7E1,8E0,2.94E2,5.27E2,4.3E1,1.3E1,4.2E1],"tree_param":{"num_deleted":"0","num_feature":"6","num_nodes":"107","size_leaf_vector":"0"}},{"base_weights":[6.56843E1,4.6671883E1,1.27462425E2,3.452458E1,5.944082E1,8.278374E1,1.4356593E2,4.9822224E1,2.4510992E1,5.4806274E1,9.7265526E1,9.436775E1,7.474568E1,1.8032062E2,1.2235609E2,6.0273727E1,2.9612852E1,-2.7312134E1,2.8044546E1,6.0376633E1,3.3298786E1,1.2687362E2,9.181911E1,1.08515656E2,7.353231E1,7.989125E1,5.5277367E1,1.8658435E2,7.9903656E1,2.14641E2,1.1872458E2,1.0221287E2,5.3961388E1,4.765547E1,1.9964867E1,9.008355E0,-1.7497981E2,5.8563267E1,2.1685324E1,5.4171608E1,8.4343895E1,8.668386E1,2.9675453E1,9.6684944E1,6.609803E1,8.4628654E1,1.161656E2,9.480808E1,6.3781864E1,8.488721E1,5.3195465E1,1.6065704E1,5.7308754E1,1.5329756E2,1.9793036E2,1.3445578E2,5.121917E1,1.3390096E2,9.103889E1,7.546937E1,1.220833E2,3.3958405E1,6.592331E1,3.5274193E1,5.500594E1,1.445367E1,4.297771E1,-2.591075E1,2.8002995E1,-2.0962389E2,-1.2283776E2,1.6946766E1,1.025248E2,-4.031081E0,2.853247E1,4.3392776E1,7.083872E1,9.54247E1,4.024046E1,2.2253357E1,8.830606E1,3.23939E1,-9.783949E0,9.950204E1,8.0950096E1,7.448963E1,3.5152588E1,8.688583E1,5.0824673E1,4.436126E1,6.8194595E1,2.0316E1,1.6574097E0,6.0145885E1,2.64788E1,1.4444629E2,2.489933E2,2.6015448E2,1.9200659E2,2.1577393E1,1.4749878E2,7.4919464E1,-5.046173E1,1.756968E2,1.25564445E2,7.3314255E1,1.07864655E2],"categories":[],"categories_nodes":[],"categories_segments":[],"categories_sizes":[],"default_left":[1,1,1,1,1,1,1,1,1,1,1,1,1,1,1,1,1,1,1,1,1,0,1,1,1,1,1,1,1,0,1,1,1,1,1,1,1,1,1,1,1,1,1,1,1,0,0,0,0,1,1,1,1,1,1,1,1,1,1,0,0,0,0,0,0,0,0,0,0,0,0,0,0,0,0,0,0,0,0,0,0,0,0,0,0,0,0,0,0,0,0,0,0,0,0,0,0,0,0,0,0,0,0,0,0,0,0],"id":9,"left_children":[1,3,5,7,9,11,13,15,17,19,21,23,25,27,29,31,33,35,37,39,41,-1,43,45,47,49,51,53,55,-1,57,59,61,63,65,67,69,71,73,75,77,79,81,83,85,-1,-1,-1,-1,87,89,91,93,95,97,99,101,103,105,-1,-1,-1,-1,-1,-1,-1,-1,-1,-1,-1,-1,-1,-1,-1,-1,-1,-1,-1,-1,-1,-1,-1,-1,-1,-1,-1,-1,-1,-1,-1,-1,-1,-1,-1,-1,-1,-1,-1,-1,-1,-1,-1,-1,-1,-1,-1,-1],"loss_changes":[7.393726E6,7.45414E5,1.05439E6,3.7745025E5,4.062745E5,2.9726E4,8.261E5,2.0457525E5,2.7471325E5,2.4886E5,2.9471E4,3.85955E4,1.94255E4,2.34168E5,2.06765E5,1.647085E5,5.7363656E4,5.1645912E5,2.7062962E5,2.42599E5,8.1183625E4,0E0,2.101825E4,6.980625E3,7.8520312E3,2.0291375E4,3.3009531E3,1.10152E5,3.2233281E4,0E0,2.68902E5,3.4893062E4,1.3199412E5,8.616656E3,2.7281047E4,5.246109E4,8.5720625E3,4.391782E5,2.045485E5,2.3460575E5,1.6231875E5,8.5690625E2,4.3975125E4,1.2875E1,7.2494062E3,0E0,0E0,0E0,0E0,6.136125E3,1.2149766E3,2.1128613E2,2.7808438E3,4.788975E4,5.1045E4,8.595547E3,4.7158184E4,1.277635E5,6.366725E4,0E0,0E0,0E0,0E0,0E0,0E0,0E0,0E0,0E0,0E0,0E0,0E0,0E0,0E0,0E0,0E0,0E0,0E0,0E0,0E0,0E0,0E0,0E0,0E0,0E0,0E0,0E0,0E0,0E0,0E0,0E0,0E0,0E0,0E0,0E0,0E0,0E0,0E0,0E0,0E0,0E0,0E0,0E0,0E0,0E0,0E0,0E0,0E0],"parents":[2147483647,0,0,1,1,2,2,3,3,4,4,5,5,6,6,7,7,8,8,9,9,10,10,11,11,12,12,13,13,14,14,15,15,16,16,17,17,18,18,19,19,20,20,22,22,23,23,24,24,25,25,26,26,27,27,28,28,30,30,31,31,32,32,33,33,34,34,35,35,36,36,37,37,38,38,39,39,40,40,41,41,42,42,43,43,44,44,49,49,50,50,51,51,52,52,53,53,54,54,55,55,56,56,57,57,58,58],"right_children":[2,4,6,8,10,12,14,16,18,20,22,24,26,28,30,32,34,36,38,40,42,-1,44,46,48,50,52,54,56,-1,58,60,62,64,66,68,70,72,74,76,78,80,82,84,86,-1,-1,-1,-1,88,90,92,94,96,98,100,102,104,106,-1,-1,-1,-1,-1,-1,-1,-1,-1,-1,-1,-1,-1,-1,-1,-1,-1,-1,-1,-1,-1,-1,-1,-1,-1,-1,-1,-1,-1,-1,-1,-1,-1,-1,-1,-1,-1,-1,-1,-1,-1,-1,-1,-1,-1,-1,-1,-1],"split_conditions":[7.344554E1,2.551868E1,6.9E0,5.3500004E0,7.05E0,1.4389999E1,8.25E0,2.6750002E0,5.45E0,2.4314999E1,1.34E0,9.930994E1,5.95E0,3.128E1,7.423402E1,1.9925E1,9.9649765E1,1.0022215E2,8.15E-1,5.6499996E0,1.475E0,3.8062088E1,1.4045E1,3.8E-1,7.4203896E1,1.89E0,1.725E0,7.6499996E0,1.475E0,6.43923E1,9.45E0,9.9828835E1,9.96543E1,1.2219857E1,2.3193874E1,2.1905E1,1.365E0,1.9194561E1,1.665E0,5.4436523E1,6.05E0,2.55E-1,5.9370003E1,6.694048E1,-8.9999996E-2,2.5388597E1,3.484968E1,2.8442427E1,1.913456E1,2.607E1,2.085E0,1.715E0,2.4775E1,2.185E0,8.456069E1,3.1685001E1,7.8500004E0,9.9779724E1,7.729528E1,2.2640812E1,3.6624992E1,1.0187522E1,1.9776993E1,1.0582258E1,1.6501783E1,4.336101E0,1.2893313E1,-7.7732253E0,8.400899E0,-6.288717E1,-3.685133E1,5.08403E0,3.0757442E1,-1.2093244E0,8.559742E0,1.3017834E1,2.1251617E1,2.862741E1,1.2072139E1,6.6760073E0,2.649182E1,9.718171E0,-2.9351847E0,2.9850613E1,2.428503E1,2.234689E1,1.0545776E1,2.6065752E1,1.5247402E1,1.3308378E1,2.045838E1,6.0948005E0,4.9722293E-1,1.8043766E1,7.94364E0,4.333389E1,7.469799E1,7.804635E1,5.760198E1,6.473218E0,4.4249634E1,2.247584E1,-1.513852E1,5.270904E1,3.7669334E1,2.1994278E1,3.2359398E1],"split_indices":[4,4,3,3,3,0,3,2,3,0,1,5,3,0,4,0,5,5,1,3,1,0,0,2,4,2,1,3,2,0,3,5,5,4,4,0,2,4,2,4,3,2,0,4,2,0,0,0,0,0,2,1,0,2,4,0,3,5,4,0,0,0,0,0,0,0,0,0,0,0,0,0,0,0,0,0,0,0,0,0,0,0,0,0,0,0,0,0,0,0,0,0,0,0,0,0,0,0,0,0,0,0,0,0,0,0,0],"split_type":[0,0,0,0,0,0,0,0,0,0,0,0,0,0,0,0,0,0,0,0,0,0,0,0,0,0,0,0,0,0,0,0,0,0,0,0,0,0,0,0,0,0,0,0,0,0,0,0,0,0,0,0,0,0,0,0,0,0,0,0,0,0,0,0,0,0,0,0,0,0,0,0,0,0,0,0,0,0,0,0,0,0,0,0,0,0,0,0,0,0,0,0,0,0,0,0,0,0,0,0,0,0,0,0,0,0,0],"sum_hessian":[6.299E3,4.818E3,1.481E3,2.471E3,2.347E3,3.94E2,1.087E3,9.76E2,1.495E3,2.093E3,2.54E2,1.57E2,2.37E2,3.95E2,6.92E2,6.42E2,3.34E2,9.5E1,1.4E3,1.661E3,4.32E2,3.6E1,2.18E2,9.1E1,6.6E1,1.85E2,5.2E1,3.71E2,2.4E1,2.4E1,6.68E2,8.2E1,5.6E2,1.15E2,2.19E2,7.7E1,1.8E1,2.4E2,1.16E3,1.322E3,3.39E2,2.6E1,4.06E2,1.81E2,3.7E1,2.5E1,6.6E1,1.8E1,4.8E1,1.54E2,3.1E1,3E0,4.9E1,9.8E1,2.73E2,7E0,1.7E1,4.29E2,2.39E2,3.7E1,4.5E1,2.11E2,3.49E2,4.5E1,7E1,1.78E2,4.1E1,2.7E1,5E1,9E0,9E0,1.24E2,1.16E2,2.44E2,9.16E2,8.05E2,5.17E2,2.7E2,6.9E1,1E0,2.5E1,3.8E2,2.6E1,1.49E2,3.2E1,2.8E1,9E0,1.44E2,1E1,2.2E1,9E0,2E0,1E0,4.4E1,5E0,9.2E1,6E0,2E1,2.53E2,1E0,6E0,1.4E1,3E0,6.8E1,3.61E2,1.19E2,1.2E2],"tree_param":{"num_deleted":"0","num_feature":"6","num_nodes":"107","size_leaf_vector":"0"}},{"base_weights":[4.61463E1,3.2736233E1,8.97205E1,2.7408932E1,4.781057E1,5.8494102E1,1.0097482E2,3.303413E1,1.0349825E1,6.263131E1,3.4606873E1,6.669611E1,5.274468E1,1.2701159E2,8.5950966E1,2.8540882E1,4.6305477E1,7.6701746E0,1.7279202E1,6.963482E1,3.569362E1,6.472575E1,3.3185818E1,7.2021164E1,3.7995064E1,4.86095E1,7.2492256E1,1.3438506E2,7.5648964E1,9.359595E1,5.9686703E1,1.431875E1,3.364496E1,-3.9766487E1,4.9534763E1,8.647693E0,-1.4843397E1,1.5614529E1,3.5309288E1,6.4668304E1,8.1162186E1,2.5465115E1,4.9366447E1,1.5433261E1,8.985689E1,3.4968304E1,1.3227993E1,3.6301235E1,7.342289E1,7.442322E0,4.150406E1,5.746111E1,3.811078E1,3.0531168E1,7.393526E1,1.6892513E2,1.2366202E2,2.2688513E2,6.1759296E1,8.0822235E1,1.2101934E2,9.297577E1,4.0172462E1,3.119604E1,-2.915991E1,4.1298206E1,2.4065048E1,-4.495162E1,4.233835E1,6.0767097E1,2.7202328E1,7.114351E0,7.898803E1,-2.0599685E0,-5.10732E1,1.0237883E1,1.7153658E1,6.6533676E1,-2.050061E0,9.112092E1,5.3801228E1,1.5940991E1,3.592099E1,5.5679478E1,3.434853E1,2.1508518E1,-7.93693E0,5.9675465E1,1.1105263E2,5.557941E0,3.6269016E1,-1.0366974E1,1.6962711E1,7.6042564E1,5.901167E1,9.934285E0,-1.6784668E-2,1.1878174E1,4.22757E1,3.738674E1,6.489327E1,5.1628998E1,2.7586422E1,1.3199825E2,1.9831314E2,1.8582458E2,1.1787628E2,4.956825E1,1.4086711E2,1.0585684E2,5.8554344E1,1.388102E2,8.295888E1,9.5588615E1,3.3805237E1,2.0865635E1,5.762848E1],"categories":[],"categories_nodes":[],"categories_segments":[],"categories_sizes":[],"default_left":[1,1,1,1,1,1,1,1,1,1,1,1,1,1,1,1,1,1,1,1,1,1,1,1,1,1,1,1,1,1,1,1,1,1,1,1,1,1,0,1,1,1,1,1,1,1,1,0,1,1,1,1,1,0,0,1,1,0,1,1,1,1,1,0,0,0,0,0,0,0,0,0,0,0,0,0,0,0,0,0,0,0,0,0,0,0,0,0,0,0,0,0,0,0,0,0,0,0,0,0,0,0,0,0,0,0,0,0,0,0,0,0,0,0,0,0,0],"id":10,"left_children":[1,3,5,7,9,11,13,15,17,19,21,23,25,27,29,31,33,35,37,39,41,43,45,47,49,51,53,55,57,59,61,63,65,67,69,71,73,75,-1,77,79,81,83,85,87,89,91,-1,93,95,97,99,101,-1,-1,103,105,-1,107,109,111,113,115,-1,-1,-1,-1,-1,-1,-1,-1,-1,-1,-1,-1,-1,-1,-1,-1,-1,-1,-1,-1,-1,-1,-1,-1,-1,-1,-1,-1,-1,-1,-1,-1,-1,-1,-1,-1,-1,-1,-1,-1,-1,-1,-1,-1,-1,-1,-1,-1,-1,-1,-1,-1,-1,-1],"loss_changes":[3.67836E6,3.85682E5,5.14915E5,3.4156675E5,2.43813E5,1.5109E4,4.1468E5,1.58431E5,1.6300422E4,1.090115E5,2.64E4,2.1564312E4,1.58295625E4,1.39807E5,1.33561E5,1.4499025E5,1.8986475E5,1.4213117E4,6.8321562E3,2.154475E4,1.6084609E4,3.4537742E4,2.2269562E4,3.9938125E3,2.5857656E3,1.6303281E4,1.04109375E2,1.068895E5,9.521997E4,1.77628E5,9.9553125E4,3.905585E5,1.07076125E5,1.2546285E4,1.6189812E5,6.5661516E4,1.23996E4,1.7028906E3,0E0,4.145525E4,3.2427438E4,6.6969453E3,3.0175312E3,1.7324902E3,5.5275156E3,2.2215625E4,4.9343613E3,0E0,3.071875E2,7.4518036E1,4.6496094E1,1.3388625E4,1.1949172E4,0E0,0E0,5.955425E4,7.4124E4,0E0,4.027342E4,1.9895E5,1.02242E5,5.735625E3,3.317361E4,0E0,0E0,0E0,0E0,0E0,0E0,0E0,0E0,0E0,0E0,0E0,0E0,0E0,0E0,0E0,0E0,0E0,0E0,0E0,0E0,0E0,0E0,0E0,0E0,0E0,0E0,0E0,0E0,0E0,0E0,0E0,0E0,0E0,0E0,0E0,0E0,0E0,0E0,0E0,0E0,0E0,0E0,0E0,0E0,0E0,0E0,0E0,0E0,0E0,0E0,0E0,0E0,0E0,0E0],"parents":[2147483647,0,0,1,1,2,2,3,3,4,4,5,5,6,6,7,7,8,8,9,9,10,10,11,11,12,12,13,13,14,14,15,15,16,16,17,17,18,18,19,19,20,20,21,21,22,22,23,23,24,24,25,25,26,26,27,27,28,28,29,29,30,30,31,31,32,32,33,33,34,34,35,35,36,36,37,37,39,39,40,40,41,41,42,42,43,43,44,44,45,45,46,46,48,48,49,49,50,50,51,51,52,52,55,55,56,56,58,58,59,59,60,60,61,61,62,62],"right_children":[2,4,6,8,10,12,14,16,18,20,22,24,26,28,30,32,34,36,38,40,42,44,46,48,50,52,54,56,58,60,62,64,66,68,70,72,74,76,-1,78,80,82,84,86,88,90,92,-1,94,96,98,100,102,-1,-1,104,106,-1,108,110,112,114,116,-1,-1,-1,-1,-1,-1,-1,-1,-1,-1,-1,-1,-1,-1,-1,-1,-1,-1,-1,-1,-1,-1,-1,-1,-1,-1,-1,-1,-1,-1,-1,-1,-1,-1,-1,-1,-1,-1,-1,-1,-1,-1,-1,-1,-1,-1,-1,-1,-1,-1,-1,-1,-1,-1],"split_conditions":[7.344554E1,3.6317047E1,6.9E0,6.05E0,1.6255001E1,1.4415E1,8.25E0,5.6499996E0,1.0034689E2,1.845E0,9.9348595E1,9.988153E1,1.955E0,2.934E1,1.0109333E2,1.015E0,1.7381342E1,5.4739998E1,2.355E0,9.974596E1,2.8249998E0,1.695E0,3.283E1,1.555E0,2.68E0,5.25E0,1.4965E1,9.941985E1,1.37E0,1.0059079E2,1.3325E1,9.871781E1,2.34E1,1.8E0,1.0030917E2,3.3475E1,2.9500002E-1,7.55E-1,1.0592787E1,9.966641E1,1.00137085E2,9.994025E1,3.375E0,-1.95E-1,1.81E0,1.475E0,-1.4E-1,1.0890371E1,5.85E0,1.3665001E1,1.945E0,8.277976E1,2.35E-1,9.15935E0,2.2180578E1,9.185739E1,8.515978E1,6.8065544E1,1.28E0,1.0006195E2,1.5955E1,3.6350002E0,1.16E0,9.358812E0,-8.747973E0,1.2389462E1,7.219515E0,-1.3485486E1,1.2701505E1,1.823013E1,8.160699E0,2.1343052E0,2.369641E1,-6.1799055E-1,-1.532196E1,3.0713649E0,5.1460977E0,1.9960104E1,-6.150183E-1,2.7336277E1,1.614037E1,4.7822976E0,1.0776298E1,1.6703844E1,1.030456E1,6.4525557E0,-2.3810792E0,1.790264E1,3.331579E1,1.6673824E0,1.0880705E1,-3.1100924E0,5.088814E0,2.281277E1,1.77035E1,2.9802856E0,-5.0354004E-3,3.5634522E0,1.2682711E1,1.12160225E1,1.9467983E1,1.54887E1,8.275927E0,3.9599476E1,5.9493946E1,5.574738E1,3.5362885E1,1.4870475E1,4.2260136E1,3.1757053E1,1.7566303E1,4.164306E1,2.4887665E1,2.8676586E1,1.0141571E1,6.2596908E0,1.7288544E1],"split_indices":[4,4,3,3,0,0,3,3,5,1,5,5,1,0,5,1,4,0,1,5,2,1,0,1,2,3,0,5,2,5,0,5,0,2,5,0,2,1,0,5,5,5,2,2,1,1,2,0,3,0,1,4,2,0,0,4,4,0,1,5,0,2,1,0,0,0,0,0,0,0,0,0,0,0,0,0,0,0,0,0,0,0,0,0,0,0,0,0,0,0,0,0,0,0,0,0,0,0,0,0,0,0,0,0,0,0,0,0,0,0,0,0,0,0,0,0,0],"split_type":[0,0,0,0,0,0,0,0,0,0,0,0,0,0,0,0,0,0,0,0,0,0,0,0,0,0,0,0,0,0,0,0,0,0,0,0,0,0,0,0,0,0,0,0,0,0,0,0,0,0,0,0,0,0,0,0,0,0,0,0,0,0,0,0,0,0,0,0,0,0,0,0,0,0,0,0,0,0,0,0,0,0,0,0,0,0,0,0,0,0,0,0,0,0,0,0,0,0,0,0,0,0,0,0,0,0,0,0,0,0,0,0,0,0,0,0,0],"sum_hessian":[6.299E3,4.818E3,1.481E3,3.562E3,1.256E3,3.94E2,1.087E3,2.678E3,8.84E2,5.9E2,6.66E2,1.58E2,2.36E2,3.95E2,6.92E2,2.003E3,6.75E2,6.39E2,2.45E2,4.67E2,1.23E2,2.8E1,6.38E2,1.32E2,2.6E1,1.98E2,3.8E1,3.44E2,5.1E1,5.34E2,1.58E2,5.3E2,1.473E3,2.4E1,6.51E2,6.13E2,2.6E1,2.26E2,1.9E1,3.31E2,1.36E2,7.2E1,5.1E1,1E1,1.8E1,5.85E2,5.3E1,6E0,1.26E2,3E0,2.3E1,1.05E2,9.3E1,2E0,3.6E1,7.8E1,2.66E2,3E0,4.8E1,3.67E2,1.67E2,5.7E1,1.01E2,3.82E2,1.48E2,8.17E2,6.56E2,2.3E1,1E0,4.32E2,2.19E2,6.01E2,1.2E1,2E1,6E0,5.2E1,1.74E2,3.22E2,9E0,9.8E1,3.8E1,3.9E1,3.3E1,3.4E1,1.7E1,8E0,2E0,9E0,9E0,2.5E1,5.6E2,7E0,4.6E1,1.03E2,2.3E1,2E0,1E0,1E0,2.2E1,3E1,7.5E1,3.9E1,5.4E1,3.7E1,4.1E1,2E1,2.46E2,4.3E1,5E0,1.71E2,1.96E2,1.12E2,5.5E1,5.4E1,3E0,4.9E1,5.2E1],"tree_param":{"num_deleted":"0","num_feature":"6","num_nodes":"117","size_leaf_vector":"0"}},{"base_weights":[3.2445232E1,2.2046144E1,6.054832E1,1.9207188E1,3.1769798E1,4.0653576E1,6.969164E1,2.314102E1,7.2773085E0,5.1308544E1,2.617563E1,5.515092E1,3.7811577E1,8.970458E1,5.929526E1,1.3923893E1,2.6905882E1,-7.437803E0,8.375682E0,4.7110428E1,8.537945E1,3.7404278E1,2.1086962E1,5.8013664E1,1.9987473E1,4.1466415E1,2.6961218E1,8.133498E1,1.18928314E2,5.7545696E1,1.1120695E2,2.1721014E1,-9.395017E-1,4.7676357E1,2.1478643E1,-4.989607E0,-3.4349316E1,4.6333538E1,7.5186596E0,5.614625E1,4.1211662E1,5.986813E1,9.932552E1,4.250357E1,4.7199464E0,3.2370358E0,2.4281069E1,7.0307076E1,5.17091E1,3.5657158E1,4.67035E1,7.375628E0,3.0923445E1,7.631755E1,1.2932124E2,1.3474353E2,6.974997E1,6.0114613E1,2.1985973E-1,7.967055E1,1.5491534E2,3.3994058E-1,2.6046738E1,-3.1316975E1,1.6098385E1,4.0153557E1,9.967001E1,2.6147577E1,9.853643E0,-1.3485175E1,4.594402E0,3.80542E0,-6.105428E1,4.9687286E1,-5.340088E0,8.605927E0,-8.433126E0,5.473999E0,5.6725716E1,3.6165623E1,4.871202E1,6.180035E0,4.720101E1,2.680276E1,-3.9549794E0,2.3871176E1,-1.6093428E1,1.7751265E1,3.882918E1,8.453611E1,3.7199123E1,6.664636E1,4.461873E1,4.4990948E1,2.4257627E1,5.518915E1,3.8540318E1,-1.5458033E1,1.365755E1,4.2308357E1,2.615843E1,1.1910524E2,6.8608086E1,-2.0908203E0,1.342658E2,1.76064E2,1.2182218E2,3.223075E1,1.07749954E2,6.51373E1,4.2172924E1,9.465489E0,-9.53916E1],"categories":[],"categories_nodes":[],"categories_segments":[],"categories_sizes":[],"default_left":[1,1,1,1,1,1,1,1,1,1,1,1,1,1,1,1,1,1,1,1,1,1,1,1,0,1,1,1,1,1,1,1,1,1,1,1,1,1,1,1,1,0,0,1,1,1,1,1,1,1,1,1,1,1,1,1,1,1,1,0,0,0,0,0,0,0,0,0,0,0,0,0,0,0,0,0,0,0,0,0,0,0,0,0,0,0,0,0,0,0,0,0,0,0,0,0,0,0,0,0,0,0,0,0,0,0,0,0,0,0,0,0,0],"id":11,"left_children":[1,3,5,7,9,11,13,15,17,19,21,23,25,27,29,31,33,35,37,39,41,43,45,47,-1,49,51,53,55,57,59,61,63,65,67,69,71,73,75,77,79,-1,-1,81,83,85,87,89,91,93,95,97,99,101,103,105,107,109,111,-1,-1,-1,-1,-1,-1,-1,-1,-1,-1,-1,-1,-1,-1,-1,-1,-1,-1,-1,-1,-1,-1,-1,-1,-1,-1,-1,-1,-1,-1,-1,-1,-1,-1,-1,-1,-1,-1,-1,-1,-1,-1,-1,-1,-1,-1,-1,-1,-1,-1,-1,-1,-1,-1],"loss_changes":[1.839818E6,1.26373E5,3.06585E5,1.6704375E5,1.1211356E5,2.0081062E4,2.368655E5,9.2589875E4,1.436627E4,2.8875438E4,4.5436625E4,7.497578E3,1.684625E4,8.718475E4,6.34435E4,9.030003E4,2.1326875E5,3.9134595E3,2.6456965E4,8.719219E3,2.5923594E3,4.1632812E4,3.1792547E4,2.4873125E3,0E0,8.5875E3,8.851414E3,6.5009125E4,5.74895E4,1.098465E5,2.0739531E4,4.7252844E4,1.3972992E5,1.4971506E5,8.1645375E4,4.784409E3,5.3269404E3,3.3847383E3,1.4069066E4,2.0091562E3,3.1205938E3,0E0,0E0,3.673447E4,6.8108413E3,3.4686777E4,4.4339E4,8.1616016E3,2.9573438E3,1.6358359E4,9.925969E3,3.2233438E3,4.155461E3,8.5511625E4,1.8474406E4,1.2722125E4,2.9318914E4,6.15955E4,3.0074537E4,0E0,0E0,0E0,0E0,0E0,0E0,0E0,0E0,0E0,0E0,0E0,0E0,0E0,0E0,0E0,0E0,0E0,0E0,0E0,0E0,0E0,0E0,0E0,0E0,0E0,0E0,0E0,0E0,0E0,0E0,0E0,0E0,0E0,0E0,0E0,0E0,0E0,0E0,0E0,0E0,0E0,0E0,0E0,0E0,0E0,0E0,0E0,0E0,0E0,0E0,0E0,0E0,0E0,0E0],"parents":[2147483647,0,0,1,1,2,2,3,3,4,4,5,5,6,6,7,7,8,8,9,9,10,10,11,11,12,12,13,13,14,14,15,15,16,16,17,17,18,18,19,19,20,20,21,21,22,22,23,23,25,25,26,26,27,27,28,28,29,29,30,30,31,31,32,32,33,33,34,34,35,35,36,36,37,37,38,38,39,39,40,40,43,43,44,44,45,45,46,46,47,47,48,48,49,49,50,50,51,51,52,52,53,53,54,54,55,55,56,56,57,57,58,58],"right_children":[2,4,6,8,10,12,14,16,18,20,22,24,26,28,30,32,34,36,38,40,42,44,46,48,-1,50,52,54,56,58,60,62,64,66,68,70,72,74,76,78,80,-1,-1,82,84,86,88,90,92,94,96,98,100,102,104,106,108,110,112,-1,-1,-1,-1,-1,-1,-1,-1,-1,-1,-1,-1,-1,-1,-1,-1,-1,-1,-1,-1,-1,-1,-1,-1,-1,-1,-1,-1,-1,-1,-1,-1,-1,-1,-1,-1,-1,-1,-1,-1,-1,-1,-1,-1,-1,-1,-1,-1,-1,-1,-1,-1,-1,-1],"split_conditions":[6.6568146E1,3.6317047E1,6.9E0,6.05E0,9.9348595E1,1.2665E1,8.25E0,9.897299E1,2.25E-1,3.145E0,1.705E0,1.965E0,9.983685E1,2.085E0,1.795E0,9.871781E1,9.951715E1,2.15E-1,9.903749E1,1.2005E1,1.685E0,1.0199686E2,-9.5E-2,6.993537E1,5.996242E0,6.35E-1,9.990146E1,1.265E0,2.645E0,3.533E1,1.7255001E1,6.15E-1,1.11E0,9.9430336E1,2.3E0,2.025E0,2.545E0,2.446E1,7.6499996E0,1.355E0,1.695E0,1.796044E1,2.9797659E1,1.495E0,3.851686E1,2.3880001E1,1.00535324E2,3.005E0,1.0799999E0,2.25E-1,1.485E0,1.94E0,7.031561E1,8.732E1,1.535E0,9.9504875E1,1.8255001E1,1.0109333E2,1.775E0,2.3901165E1,4.6474606E1,1.0198218E-1,7.8140216E0,-9.395093E0,4.8295155E0,1.2046067E1,2.9901005E1,7.8442736E0,2.956093E0,-4.0455527E0,1.3783206E0,1.141626E0,-1.8316284E1,1.4906186E1,-1.6020265E0,2.5817783E0,-2.529938E0,1.6421998E0,1.7017715E1,1.0849688E1,1.4613606E1,1.8540106E0,1.4160304E1,8.040828E0,-1.1864939E0,7.161353E0,-4.8280287E0,5.3253794E0,1.1648755E1,2.5360834E1,1.1159738E1,1.999391E1,1.3385619E1,1.3497285E1,7.2772884E0,1.6556746E1,1.1562096E1,-4.63741E0,4.0972652E0,1.2692508E1,7.8475294E0,3.5731575E1,2.0582426E1,-6.2724614E-1,4.027974E1,5.2819202E1,3.6546658E1,9.669226E0,3.232499E1,1.9541191E1,1.2651877E1,2.8396468E0,-2.8617481E1],"split_indices":[4,4,3,3,5,0,3,5,2,2,1,1,5,2,1,5,5,2,5,0,1,5,2,4,0,2,5,1,2,0,0,2,1,5,2,1,1,0,3,1,1,0,0,1,4,0,5,2,2,2,2,1,4,4,2,5,0,5,1,0,0,0,0,0,0,0,0,0,0,0,0,0,0,0,0,0,0,0,0,0,0,0,0,0,0,0,0,0,0,0,0,0,0,0,0,0,0,0,0,0,0,0,0,0,0,0,0,0,0,0,0,0,0],"split_type":[0,0,0,0,0,0,0,0,0,0,0,0,0,0,0,0,0,0,0,0,0,0,0,0,0,0,0,0,0,0,0,0,0,0,0,0,0,0,0,0,0,0,0,0,0,0,0,0,0,0,0,0,0,0,0,0,0,0,0,0,0,0,0,0,0,0,0,0,0,0,0,0,0,0,0,0,0,0,0,0,0,0,0,0,0,0,0,0,0,0,0,0,0,0,0,0,0,0,0,0,0,0,0,0,0,0,0,0,0,0,0,0,0],"sum_hessian":[6.299E3,4.599E3,1.7E3,3.562E3,1.037E3,5.37E2,1.163E3,2.678E3,8.84E2,2.29E2,8.08E2,8.5E1,4.52E2,3.95E2,7.68E2,7.78E2,1.9E3,6.1E1,8.23E2,2.06E2,2.3E1,2.5E2,5.58E2,7.8E1,7E0,3.36E2,1.16E2,3.1E2,8.5E1,7.45E2,2.3E1,5.1E2,2.68E2,3.92E2,1.508E3,5.7E1,4E0,1.7E1,8.06E2,7.8E1,1.28E2,1E1,1.3E1,2.16E2,3.4E1,8.5E1,4.73E2,2.3E1,5.5E1,1.63E2,1.73E2,2E1,9.6E1,2.83E2,2.7E1,6.3E1,2.2E1,7.13E2,3.2E1,1.5E1,8E0,8.6E1,4.24E2,9.6E1,1.72E2,3.44E2,4.8E1,1.075E3,4.33E2,3E1,2.7E1,2E0,2E0,1.6E1,1E0,7.55E2,5.1E1,1E0,7.7E1,8E1,4.8E1,2.5E1,1.91E2,9E0,2.5E1,4.1E1,4.4E1,3.28E2,1.45E2,1.5E1,8E0,1.5E1,4E1,8.8E1,7.5E1,8.2E1,9.1E1,4E0,1.6E1,2.6E1,7E1,4.1E1,2.42E2,1E0,2.6E1,1.2E1,5.1E1,1.2E1,1E1,5.55E2,1.58E2,3E1,2E0],"tree_param":{"num_deleted":"0","num_feature":"6","num_nodes":"113","size_leaf_vector":"0"}},{"base_weights":[2.2812065E1,1.5854478E1,4.410525E1,1.352095E1,2.323212E1,2.8509264E1,5.0256218E1,1.6253153E1,5.086781E0,3.1715515E1,1.604058E1,3.032519E1,1.49335575E1,6.682741E1,4.3198997E1,1.9077145E1,7.200064E0,6.3073378E0,-2.115141E0,3.3672108E1,1.6376812E1,4.5551235E1,1.4721865E1,3.6420277E1,2.6372938E1,-1.1748072E1,1.730305E1,5.8004963E1,8.281715E1,3.746142E1,6.5096985E1,1.6391863E1,3.9966537E1,1.1874307E1,-1.272814E0,-5.526485E0,7.3524375E0,4.270371E0,-6.3450317E0,3.7688553E1,2.3453314E1,8.225077E0,3.8789497E1,2.8304735E1,5.8312187E1,1.753406E1,8.2141054E-1,4.060278E1,2.9999947E1,7.523538E1,2.5433012E1,1.0973575E1,2.1156914E1,6.035041E1,2.2552605E1,9.799758E1,2.1174753E1,7.1268E1,3.10795E1,5.3203255E1,1.049168E2,1.1400978E1,2.9664997E1,1.4251985E2,3.5743088E1,6.5110264E0,4.448905E1,-2.7367756E1,3.6597657E0,-3.328194E0,-2.9921362E1,3.317265E1,6.6571264E0,7.131917E0,-4.862875E0,-5.252633E0,-1.5246941E1,5.1734737E1,3.5172985E1,2.4653465E1,-3.6771076E1,3.8986592E0,2.5578274E1,4.1518333E1,1.5096667E1,-4.0100718E0,1.83531E1,3.0485628E1,4.351326E1,2.4728485E1,3.9365322E1,2.2431986E1,3.7023693E1,1.8633095E1,-1.3094618E0,6.781006E-2,2.3497635E1,7.4379425E1,5.2995304E1,5.710791E1,-1.4821777E1,1.0314855E2,4.544475E1,6.3061348E1,3.7091472E0,4.256068E1,1.00284775E2,4.23736E0,3.6772892E1,-1.0801921E1,5.941942E1,1.1811429E2,7.248169E1],"categories":[],"categories_nodes":[],"categories_segments":[],"categories_sizes":[],"default_left":[1,1,1,1,1,1,1,1,1,1,1,1,1,1,1,1,1,1,1,1,1,1,1,1,1,0,1,1,1,1,1,1,1,1,1,1,1,1,1,1,1,1,0,0,0,1,1,1,1,0,1,1,1,1,1,1,1,1,1,1,1,0,0,0,0,0,0,0,0,0,0,0,0,0,0,0,0,0,0,0,0,0,0,0,0,0,0,0,0,0,0,0,0,0,0,0,0,0,0,0,0,0,0,0,0,0,0,0,0,0,0,0,0],"id":12,"left_children":[1,3,5,7,9,11,13,15,17,19,21,23,25,27,29,31,33,35,37,39,41,43,45,47,49,-1,51,53,55,57,59,61,63,65,67,69,71,73,75,77,79,81,-1,-1,-1,83,85,87,89,-1,91,93,95,97,99,101,103,105,107,109,111,-1,-1,-1,-1,-1,-1,-1,-1,-1,-1,-1,-1,-1,-1,-1,-1,-1,-1,-1,-1,-1,-1,-1,-1,-1,-1,-1,-1,-1,-1,-1,-1,-1,-1,-1,-1,-1,-1,-1,-1,-1,-1,-1,-1,-1,-1,-1,-1,-1,-1,-1,-1],"loss_changes":[9.3264075E5,8.14615E4,1.473555E5,8.312869E4,6.9041125E4,1.0418875E4,1.2704075E5,6.958075E4,7.792801E3,1.51145625E4,2.3418531E4,8.386125E3,3.6172607E3,4.1748875E4,9.5813125E4,1.1590794E5,2.5757898E4,9.40285E3,3.5113882E3,1.8078062E4,1.0825792E4,4.0716133E3,2.3205508E4,2.809875E3,9.063125E3,0E0,9.874795E2,1.6599688E4,1.05537125E5,1.3198206E5,7.066869E4,1.2175078E5,9.712431E4,7.3002664E4,2.9962127E4,3.2252925E3,1.2274512E4,1.3937122E3,6.784192E2,9.840594E3,1.05195625E4,3.353829E3,0E0,0E0,0E0,2.8251984E4,8.628705E3,1.2647031E3,2.1368164E3,0E0,7.3785E3,2.0001245E3,1.4793193E3,1.6901562E4,2.021869E4,2.0216625E4,1.7323893E4,7.736522E4,8.007616E4,5.0773062E4,6.849125E3,0E0,0E0,0E0,0E0,0E0,0E0,0E0,0E0,0E0,0E0,0E0,0E0,0E0,0E0,0E0,0E0,0E0,0E0,0E0,0E0,0E0,0E0,0E0,0E0,0E0,0E0,0E0,0E0,0E0,0E0,0E0,0E0,0E0,0E0,0E0,0E0,0E0,0E0,0E0,0E0,0E0,0E0,0E0,0E0,0E0,0E0,0E0,0E0,0E0,0E0,0E0,0E0],"parents":[2147483647,0,0,1,1,2,2,3,3,4,4,5,5,6,6,7,7,8,8,9,9,10,10,11,11,12,12,13,13,14,14,15,15,16,16,17,17,18,18,19,19,20,20,21,21,22,22,23,23,24,24,26,26,27,27,28,28,29,29,30,30,31,31,32,32,33,33,34,34,35,35,36,36,37,37,38,38,39,39,40,40,41,41,45,45,46,46,47,47,48,48,50,50,51,51,52,52,53,53,54,54,55,55,56,56,57,57,58,58,59,59,60,60],"right_children":[2,4,6,8,10,12,14,16,18,20,22,24,26,28,30,32,34,36,38,40,42,44,46,48,50,-1,52,54,56,58,60,62,64,66,68,70,72,74,76,78,80,82,-1,-1,-1,84,86,88,90,-1,92,94,96,98,100,102,104,106,108,110,112,-1,-1,-1,-1,-1,-1,-1,-1,-1,-1,-1,-1,-1,-1,-1,-1,-1,-1,-1,-1,-1,-1,-1,-1,-1,-1,-1,-1,-1,-1,-1,-1,-1,-1,-1,-1,-1,-1,-1,-1,-1,-1,-1,-1,-1,-1,-1,-1,-1,-1,-1,-1],"split_conditions":[7.10117E1,3.7401115E1,6.9E0,6.05E0,1.6224998E1,9.983685E1,9.975775E1,2.5384998E1,7.5E0,6.9535E1,3.855993E1,1.435E1,1.935E0,1.965E0,1.0070068E2,1.725E0,2.3853638E1,2.25E-1,9.9919426E1,1.765E0,1.905E0,1.545E0,5.45E0,9.921359E1,4.6499996E0,-3.5244217E0,7.370506E1,3.1400002E1,2.7240002E1,7.5586365E1,2.059E1,5.6499996E0,1.761E1,1.0048914E2,5.25E0,7.15E1,9.903749E1,1.388E1,1.7845001E1,1.1215E1,3.5349998E0,1.0024625E2,1.1636849E1,8.491421E0,1.7493656E1,4.5398407E1,6.2E0,3.8E-1,2.22E0,2.2570616E1,1.92E0,2.5949998E0,2.68E0,9.941082E1,1.475E0,1.565E0,9.967169E1,1.0059634E2,7.729528E1,1.13E0,1.325E0,3.4202936E0,8.8995E0,4.275596E1,1.0722927E1,1.953308E0,1.3346716E1,-8.210327E0,1.0979297E0,-9.984582E-1,-8.976409E0,9.951796E0,1.997138E0,2.1395752E0,-1.4588625E0,-1.57579E0,-4.5740824E0,1.5520422E1,1.0551896E1,7.39604E0,-1.1031323E1,1.1695979E0,7.6734824E0,1.2455501E1,4.5290003E0,-1.2030215E0,5.50593E0,9.145689E0,1.3053979E1,7.4185457E0,1.1809597E1,6.729596E0,1.1107108E1,5.5899286E0,-3.9283857E-1,2.0343019E-2,7.0492907E0,2.2313828E1,1.5898592E1,1.7132374E1,-4.446533E0,3.0944567E1,1.3633426E1,1.8918406E1,1.1127442E0,1.2768205E1,3.0085434E1,1.271208E0,1.1031868E1,-3.2405765E0,1.7825827E1,3.5434288E1,2.1744507E1],"split_indices":[4,4,3,3,0,5,5,0,3,4,4,0,1,2,4,1,4,2,5,1,1,1,3,5,3,0,4,0,0,4,0,3,0,5,3,0,5,0,0,0,2,5,0,0,0,4,3,2,2,0,1,2,2,5,2,1,5,5,4,1,1,0,0,0,0,0,0,0,0,0,0,0,0,0,0,0,0,0,0,0,0,0,0,0,0,0,0,0,0,0,0,0,0,0,0,0,0,0,0,0,0,0,0,0,0,0,0,0,0,0,0,0,0],"split_type":[0,0,0,0,0,0,0,0,0,0,0,0,0,0,0,0,0,0,0,0,0,0,0,0,0,0,0,0,0,0,0,0,0,0,0,0,0,0,0,0,0,0,0,0,0,0,0,0,0,0,0,0,0,0,0,0,0,0,0,0,0,0,0,0,0,0,0,0,0,0,0,0,0,0,0,0,0,0,0,0,0,0,0,0,0,0,0,0,0,0,0,0,0,0,0,0,0,0,0,0,0,0,0,0,0,0,0,0,0,0,0,0,0],"sum_hessian":[6.299E3,4.749E3,1.55E3,3.61E3,1.139E3,4.4E2,1.11E3,2.726E3,8.84E2,5.21E2,6.18E2,3.87E2,5.3E1,3.29E2,7.81E2,2.077E3,6.49E2,7.56E2,1.28E2,4.61E2,6E1,2.5E1,5.93E2,1.49E2,2.38E2,4E0,4.9E1,2.15E2,1.14E2,6.21E2,1.6E2,1.842E3,2.35E2,4.18E2,2.31E2,6.1E1,6.95E2,5.1E1,7.7E1,3.29E2,1.32E2,4.5E1,1.5E1,1.2E1,1.3E1,4.93E2,1E2,8.7E1,6.2E1,3E0,2.35E2,2E1,2.9E1,2.01E2,1.4E1,9.1E1,2.3E1,9.7E1,5.24E2,1.25E2,3.5E1,1.34E3,5.02E2,8E0,2.27E2,3.6E2,5.8E1,3.6E1,1.95E2,5.7E1,4E0,1.7E1,6.78E2,3.9E1,1.2E1,7E1,7E0,4.7E1,2.82E2,1.3E2,2E0,3.7E1,8E0,4.4E1,4.49E2,7.9E1,2.1E1,2.2E1,6.5E1,4.2E1,2E1,1.89E2,4.6E1,1.2E1,8E0,3E0,2.6E1,6.6E1,1.35E2,7E0,7E0,8.2E1,9E0,6E0,1.7E1,5E1,4.7E1,9.2E1,4.32E2,1.1E1,1.14E2,2.3E1,1.2E1],"tree_param":{"num_deleted":"0","num_feature":"6","num_nodes":"113","size_leaf_vector":"0"}},{"base_weights":[1.6046797E1,1.0671074E1,3.0039715E1,1.3752963E1,7.2383094E0,2.0712555E1,3.4442036E1,6.806525E0,1.7167913E1,1.1325876E1,3.8667722E0,2.193971E1,8.490114E0,3.924932E1,2.2364944E1,2.6768911E1,-7.736605E-1,1.980266E1,8.895377E0,2.2110308E1,4.2390904E0,-5.4793577E0,7.7053275E0,3.6737667E1,2.050157E1,2.7486166E-2,1.0705863E1,4.696678E1,2.765987E1,2.5118341E1,-2.828574E1,-1.7133697E0,3.298412E1,1.0861629E1,-1.6490015E1,2.5793047E1,1.5332929E1,5.3386936E0,3.2974052E1,7.7762623E0,3.526465E1,5.3382015E0,-3.3056778E1,1.7794824E0,-1.3011943E2,8.978555E0,-1.1737137E1,3.726404E1,7.051758E0,2.8723392E1,1.8302595E1,8.356393E0,-9.694153E0,2.4944787E0,1.3907268E1,6.590232E1,4.0664143E1,1.907881E1,4.4357616E1,1.8191912E1,4.1550278E1,-3.653886E1,5.6008667E1,1.8853246E0,-4.6725708E1,2.0376047E1,5.3265297E1,-1.3737999E0,2.1386316E1,-2.02663E1,6.568427E1,1.5749196E1,4.631984E1,1.434608E1,4.1404E1,1.6560938E1,2.755727E-1,2.5004366E1,7.835864E1,-2.4858318E1,1.5774283E1,3.0766247E1,7.2357315E1,1.347525E1,1.4236932E0,-1.1508947E1,-5.5859467E1,2.186835E1,-3.0972865E0,-1.5937875E2,-9.4350945E1,2.1873636E1,4.929879E0,6.595057E0,-2.0067974E1,3.7738255E1,8.673584E0,3.476413E1,1.9624723E1,4.4387573E1,1.7384806E1,7.1121216E-1,1.3912476E1,-1.9311707E1,6.360636E0,-9.940877E0,1.1509186E1,1.5039563E1,-9.464661E0,4.8866512E1,8.6695786E1,1.4755151E2,3.9146725E1,1.5727491E1,1.08855225E2,1.6619879E1,5.678722E1,2.3361883E1,6.3578653E0,4.6048885E1,-2.1582066E1,-1.7067174E0,-5.5383057E1],"categories":[],"categories_nodes":[],"categories_segments":[],"categories_sizes":[],"default_left":[1,1,1,1,1,1,1,1,1,1,1,1,1,1,1,1,1,1,1,1,1,1,1,1,1,1,1,1,1,1,1,1,1,1,1,1,1,1,1,1,1,1,1,1,1,1,1,1,0,1,1,1,1,1,1,1,1,1,1,1,1,1,0,0,0,0,0,0,0,0,0,0,0,0,0,0,0,0,0,0,0,0,0,0,0,0,0,0,0,0,0,0,0,0,0,0,0,0,0,0,0,0,0,0,0,0,0,0,0,0,0,0,0,0,0,0,0,0,0,0,0,0,0],"id":13,"left_children":[1,3,5,7,9,11,13,15,17,19,21,23,25,27,29,31,33,35,37,39,41,43,45,47,49,51,53,55,57,59,61,63,65,67,69,71,73,75,77,79,81,83,85,87,89,91,93,95,-1,97,99,101,103,105,107,109,111,113,115,117,119,121,-1,-1,-1,-1,-1,-1,-1,-1,-1,-1,-1,-1,-1,-1,-1,-1,-1,-1,-1,-1,-1,-1,-1,-1,-1,-1,-1,-1,-1,-1,-1,-1,-1,-1,-1,-1,-1,-1,-1,-1,-1,-1,-1,-1,-1,-1,-1,-1,-1,-1,-1,-1,-1,-1,-1,-1,-1,-1,-1,-1,-1],"loss_changes":[4.7357825E5,4.806847E4,7.10615E4,5.6767906E4,2.9668875E4,8.258078E3,6.7979E4,1.1986504E5,3.4850062E4,7.434613E4,4.2483098E4,1.01216875E4,9.935115E2,7.44575E4,4.812739E4,3.8647594E4,1.053261E5,3.2217E4,3.3223656E4,7.250797E4,2.4320932E4,3.1236766E5,2.087455E4,4.2476562E2,7.935547E3,1.0526556E3,1.0694033E3,5.7827625E4,4.8013703E4,3.6006266E4,1.4568948E4,6.567519E3,4.4686156E4,4.265359E4,7.7358016E4,1.0627169E5,1.7415766E4,1.9370912E4,1.6125738E4,4.8940367E4,3.1312203E4,1.8232324E4,7.710039E3,3.2103516E4,4.8471562E3,4.1032082E4,8.0739214E3,2.5566016E2,0E0,4.6491484E3,8.1342188E3,2.8744608E2,1.0492815E3,1.5717257E3,9.362627E2,4.0042625E4,5.6343625E4,6.6585336E4,3.870464E4,1.3862078E4,2.7974562E4,1.1064002E4,0E0,0E0,0E0,0E0,0E0,0E0,0E0,0E0,0E0,0E0,0E0,0E0,0E0,0E0,0E0,0E0,0E0,0E0,0E0,0E0,0E0,0E0,0E0,0E0,0E0,0E0,0E0,0E0,0E0,0E0,0E0,0E0,0E0,0E0,0E0,0E0,0E0,0E0,0E0,0E0,0E0,0E0,0E0,0E0,0E0,0E0,0E0,0E0,0E0,0E0,0E0,0E0,0E0,0E0,0E0,0E0,0E0,0E0,0E0,0E0,0E0],"parents":[2147483647,0,0,1,1,2,2,3,3,4,4,5,5,6,6,7,7,8,8,9,9,10,10,11,11,12,12,13,13,14,14,15,15,16,16,17,17,18,18,19,19,20,20,21,21,22,22,23,23,24,24,25,25,26,26,27,27,28,28,29,29,30,30,31,31,32,32,33,33,34,34,35,35,36,36,37,37,38,38,39,39,40,40,41,41,42,42,43,43,44,44,45,45,46,46,47,47,49,49,50,50,51,51,52,52,53,53,54,54,55,55,56,56,57,57,58,58,59,59,60,60,61,61],"right_children":[2,4,6,8,10,12,14,16,18,20,22,24,26,28,30,32,34,36,38,40,42,44,46,48,50,52,54,56,58,60,62,64,66,68,70,72,74,76,78,80,82,84,86,88,90,92,94,96,-1,98,100,102,104,106,108,110,112,114,116,118,120,122,-1,-1,-1,-1,-1,-1,-1,-1,-1,-1,-1,-1,-1,-1,-1,-1,-1,-1,-1,-1,-1,-1,-1,-1,-1,-1,-1,-1,-1,-1,-1,-1,-1,-1,-1,-1,-1,-1,-1,-1,-1,-1,-1,-1,-1,-1,-1,-1,-1,-1,-1,-1,-1,-1,-1,-1,-1,-1,-1,-1,-1],"split_conditions":[6.5100494E1,9.9927864E1,6.3E0,1.015E0,5.3500004E0,5.95E0,9.45E0,8.15E-1,2.3715E1,1.475E0,1.0035943E2,9.9034454E1,1.805E0,2.7849998E0,2.2685001E1,1.9194561E1,9.871781E1,2.1350002E0,9.9828064E1,3.9499998E-1,3.6550002E0,1.00315E2,4.8261387E1,9.55E-1,7.031561E1,1.72E1,1.5299999E1,1.834E1,1.0070068E2,2.645E0,3.6695E1,1.9795E1,1.3565001E1,4.75E0,2.0852978E1,9.940661E1,9.984648E1,4.55E0,1.8E0,4.95E0,1.375E0,1.8314999E1,4.25E0,7.95E-1,1.3299999E0,7.05E-1,2.268E1,1.9814999E1,2.1155274E0,3.04E0,5E-3,1.4105E1,1.9955E1,2.25E-1,1.935E0,2.0749998E0,1.385E0,1.795E0,1.245E0,1.3795E1,1.315E0,2.49E0,1.68026E1,5.655974E-1,-1.4017713E1,6.1128144E0,1.5979589E1,-4.1213998E-1,6.415895E0,-6.0798903E0,1.9705282E1,4.724759E0,1.3895952E1,4.303824E0,1.2421201E1,4.9682817E0,8.2671806E-2,7.50131E0,2.3507593E1,-7.4574957E0,4.732285E0,9.229875E0,2.1707195E1,4.0425754E0,4.2710796E-1,-3.4526844E0,-1.6757841E1,6.560505E0,-9.29186E-1,-4.781363E1,-2.8305285E1,6.5620914E0,1.4789639E0,1.9785172E0,-6.0203924E0,1.1321477E1,2.6020753E0,1.0429239E1,5.8874173E0,1.3316273E1,5.2154417E0,2.1336366E-1,4.173743E0,-5.7935123E0,1.908191E0,-2.982263E0,3.452756E0,4.511869E0,-2.8393984E0,1.4659954E1,2.6008738E1,4.4265457E1,1.1744018E1,4.7182474E0,3.265657E1,4.985964E0,1.7036167E1,7.0085654E0,1.9073597E0,1.3814666E1,-6.47462E0,-5.120152E-1,-1.6614918E1],"split_indices":[4,5,3,1,3,3,3,1,0,2,5,5,1,2,0,4,5,2,5,2,2,5,4,2,4,0,0,0,4,2,0,0,0,3,4,5,5,3,2,3,2,0,3,1,2,2,0,0,0,2,2,0,0,2,1,2,2,1,1,0,1,2,0,0,0,0,0,0,0,0,0,0,0,0,0,0,0,0,0,0,0,0,0,0,0,0,0,0,0,0,0,0,0,0,0,0,0,0,0,0,0,0,0,0,0,0,0,0,0,0,0,0,0,0,0,0,0,0,0,0,0,0,0],"split_type":[0,0,0,0,0,0,0,0,0,0,0,0,0,0,0,0,0,0,0,0,0,0,0,0,0,0,0,0,0,0,0,0,0,0,0,0,0,0,0,0,0,0,0,0,0,0,0,0,0,0,0,0,0,0,0,0,0,0,0,0,0,0,0,0,0,0,0,0,0,0,0,0,0,0,0,0,0,0,0,0,0,0,0,0,0,0,0,0,0,0,0,0,0,0,0,0,0,0,0,0,0,0,0,0,0,0,0,0,0,0,0,0,0,0,0,0,0,0,0,0,0,0,0],"sum_hessian":[6.299E3,4.552E3,1.747E3,2.397E3,2.155E3,5.62E2,1.185E3,7.91E2,1.606E3,9.73E2,1.182E3,5.1E2,5.2E1,8.46E2,3.39E2,2.17E2,5.74E2,1.217E3,3.89E2,3.85E2,5.88E2,3.44E2,8.38E2,4.3E1,4.67E2,1.1E1,4.1E1,5.06E2,3.4E2,3.22E2,1.7E1,3.9E1,1.78E2,3.3E2,2.44E2,5.18E2,6.99E2,3.4E2,4.9E1,1.85E2,2E2,5.72E2,1.6E1,3.26E2,1.8E1,7.87E2,5.1E1,4.2E1,1E0,9.6E1,3.71E2,6E0,5E0,1.2E1,2.9E1,1.24E2,3.82E2,2.26E2,1.14E2,2.28E2,9.4E1,1.6E1,1E0,3.7E1,2E0,1.11E2,6.7E1,1.53E2,1.77E2,2.34E2,1E1,3.49E2,1.69E2,6.75E2,2.4E1,1.05E2,2.35E2,4.3E1,6E0,3.6E1,1.49E2,1.8E2,2E1,1.85E2,3.87E2,9E0,7E0,6.3E1,2.63E2,8E0,1E1,1.87E2,6E2,1.6E1,3.5E1,4.1E1,1E0,5.6E1,4E1,1.1E1,3.6E2,3E0,3E0,3E0,2E0,5E0,7E0,2.8E1,1E0,7E1,5.4E1,4E0,3.78E2,2.19E2,7E0,3.6E1,7.8E1,1.58E2,7E1,8.8E1,6E0,6E0,1E1],"tree_param":{"num_deleted":"0","num_feature":"6","num_nodes":"123","size_leaf_vector":"0"}},{"base_weights":[1.12758E1,7.074099E0,2.0345734E1,7.69711E0,-2.343952E0,1.4474929E1,2.4291815E1,1.8692114E1,7.268333E0,-8.090792E0,8.2065115E0,2.0907965E1,1.1749113E1,2.692695E1,8.307115E0,3.1331226E1,1.5430922E1,8.618501E0,2.3106203E0,4.447243E0,-1.5608402E1,-3.3996513E1,1.1433642E1,2.8259743E1,1.4259878E1,7.673325E1,1.115112E1,3.5121807E1,1.8199745E1,1.1496771E2,5.7026267E0,4.5378582E1,1.6203629E1,9.469062E0,2.228831E1,2.619219E0,1.0512971E1,5.0983396E0,-1.2679341E0,-3.5976665E1,1.4096569E1,-1.3448478E1,-4.119638E1,1.89401E1,-8.540493E0,2.5732372E1,4.9126286E1,2.233728E1,9.708758E0,8.402344E0,9.171539E1,8.056057E0,1.44800005E1,3.1450987E1,6.477379E1,2.479308E1,6.4504085E0,1.9380767E0,8.028079E1,4.093506E0,4.8035122E1,5.3459473E0,1.8298021E1,2.2669167E1,3.369673E0,2.3927612E1,7.39495E0,6.062982E0,-1.7214346E1,2.1397564E1,8.007983E0,1.3585189E1,3.938045E0,-2.7382976E-1,-1.1291053E1,-5.107107E1,-1.6114013E0,1.8782887E1,-8.40152E0,-4.098946E1,-1.1300193E1,-4.539984E1,-5.886078E0,-3.9933014E1,2.0483946E1,4.438306E0,-5.037974E1,3.3861286E1,1.757807E1,1.9741852E1,3.9152344E1,5.629277E0,1.6370169E1,2.3631514E1,6.3925033E0,9.119869E0,1.9617064E1,3.6533936E1,3.7566445E0,4.0697952E1,7.768753E1,8.354468E0,3.8008583E1,1.0473527E1,-1.3224373E1,2.3386545E1,-7.462932E0,8.712176E1,1.6197021E1],"categories":[],"categories_nodes":[],"categories_segments":[],"categories_sizes":[],"default_left":[1,1,1,1,1,1,1,1,1,1,1,1,1,1,1,1,1,1,1,1,1,0,1,1,1,1,1,1,1,0,1,1,1,1,1,1,1,1,1,1,1,1,1,1,1,1,0,1,1,0,0,1,1,1,1,1,1,1,1,0,0,0,0,0,0,0,0,0,0,0,0,0,0,0,0,0,0,0,0,0,0,0,0,0,0,0,0,0,0,0,0,0,0,0,0,0,0,0,0,0,0,0,0,0,0,0,0,0,0],"id":14,"left_children":[1,3,5,7,9,11,13,15,17,19,21,23,25,27,29,31,33,35,37,39,41,-1,43,45,47,49,51,53,55,-1,57,59,61,63,65,67,69,71,73,75,77,79,81,83,85,87,-1,89,91,-1,-1,93,95,97,99,101,103,105,107,-1,-1,-1,-1,-1,-1,-1,-1,-1,-1,-1,-1,-1,-1,-1,-1,-1,-1,-1,-1,-1,-1,-1,-1,-1,-1,-1,-1,-1,-1,-1,-1,-1,-1,-1,-1,-1,-1,-1,-1,-1,-1,-1,-1,-1,-1,-1,-1,-1,-1],"loss_changes":[2.3994381E5,2.5289578E4,4.5842625E4,1.8910328E4,1.6315725E4,1.3852703E4,4.99435E4,5.7405312E3,2.601875E4,1.6469969E4,1.3327199E4,1.1229336E4,2.1177977E4,7.245225E4,4.6569746E4,5.6397812E3,4.7766504E3,3.471667E4,8.326451E3,2.6251338E4,5.4701914E3,0E0,1.3505973E4,4.642461E3,4.4518105E3,4.348092E3,5.6839844E3,5.5216375E4,3.8341312E4,0E0,4.6730195E4,1.448502E3,2.6602344E2,5.317954E3,1.1902832E3,5.0306406E4,6.3167047E4,4.5648584E3,3.6437422E3,6.6611055E3,5.8511963E3,5.5717305E3,9.2017676E2,6.7259004E3,1.379918E4,6.165914E3,0E0,1.1909629E3,2.1633809E3,0E0,0E0,7.4666543E3,7.255633E3,6.602409E4,1.4560094E4,6.8766234E4,1.4386223E4,3.243649E4,2.0960469E3,0E0,0E0,0E0,0E0,0E0,0E0,0E0,0E0,0E0,0E0,0E0,0E0,0E0,0E0,0E0,0E0,0E0,0E0,0E0,0E0,0E0,0E0,0E0,0E0,0E0,0E0,0E0,0E0,0E0,0E0,0E0,0E0,0E0,0E0,0E0,0E0,0E0,0E0,0E0,0E0,0E0,0E0,0E0,0E0,0E0,0E0,0E0,0E0,0E0,0E0],"parents":[2147483647,0,0,1,1,2,2,3,3,4,4,5,5,6,6,7,7,8,8,9,9,10,10,11,11,12,12,13,13,14,14,15,15,16,16,17,17,18,18,19,19,20,20,22,22,23,23,24,24,25,25,26,26,27,27,28,28,30,30,31,31,32,32,33,33,34,34,35,35,36,36,37,37,38,38,39,39,40,40,41,41,42,42,43,43,44,44,45,45,47,47,48,48,51,51,52,52,53,53,54,54,55,55,56,56,57,57,58,58],"right_children":[2,4,6,8,10,12,14,16,18,20,22,24,26,28,30,32,34,36,38,40,42,-1,44,46,48,50,52,54,56,-1,58,60,62,64,66,68,70,72,74,76,78,80,82,84,86,88,-1,90,92,-1,-1,94,96,98,100,102,104,106,108,-1,-1,-1,-1,-1,-1,-1,-1,-1,-1,-1,-1,-1,-1,-1,-1,-1,-1,-1,-1,-1,-1,-1,-1,-1,-1,-1,-1,-1,-1,-1,-1,-1,-1,-1,-1,-1,-1,-1,-1,-1,-1,-1,-1,-1,-1,-1,-1,-1,-1],"split_conditions":[5.9965225E1,2.165E0,6.9E0,9.720429E1,2.4850001E0,1.695E0,2.7605E1,-4.85E-1,6.05E0,1.7816212E1,1.3875292E1,4.6499996E0,6.1054047E1,9.05E0,1.37E0,1.535E0,1.695E0,9.896878E1,1.3565001E1,2.605E0,3.635E0,-1.0198955E1,3.0854946E1,3.63E0,9.925762E1,1.705E0,4.95E0,1.505E0,1.4895E1,3.4490314E1,1.795E0,1.1375E1,-5.55E-1,1.2065001E1,-1.6499999E-1,9.884308E1,9.9484245E1,1.745E0,1.735E0,3.8309998E1,3.67E0,4.25E0,3.835E0,1.3499999E-1,2.9500002E-1,3.005E0,1.4737886E1,2.1035E1,2.085E0,2.5207033E0,2.751462E1,2.105E0,1.855E0,3.335E0,2.43E0,1.725E0,2.0915E1,9.967169E1,3.35E0,1.2280518E0,1.4410537E1,1.6037842E0,5.4894066E0,6.8007503E0,1.0109019E0,7.178284E0,2.218485E0,1.8188947E0,-5.164304E0,6.4192696E0,2.402395E0,4.0755568E0,1.1814135E0,-8.214893E-2,-3.387316E0,-1.5321322E1,-4.834204E-1,5.634866E0,-2.520456E0,-1.2296839E1,-3.390058E0,-1.3619953E1,-1.7658235E0,-1.1979904E1,6.145184E0,1.3314918E0,-1.5113923E1,1.0158386E1,5.2734213E0,5.922556E0,1.1745704E1,1.6887833E0,4.911051E0,7.089454E0,1.9177511E0,2.735961E0,5.8851194E0,1.0960181E1,1.1269934E0,1.2209386E1,2.330626E1,2.5063405E0,1.14025755E1,3.1420581E0,-3.967312E0,7.015964E0,-2.2388797E0,2.6136528E1,4.8591065E0],"split_indices":[4,1,3,5,1,1,0,2,3,4,4,3,4,3,2,1,1,5,0,2,2,0,4,2,5,1,3,1,0,0,1,0,2,0,2,5,5,2,1,0,2,3,2,2,2,2,0,0,2,0,0,2,1,2,2,2,0,5,2,0,0,0,0,0,0,0,0,0,0,0,0,0,0,0,0,0,0,0,0,0,0,0,0,0,0,0,0,0,0,0,0,0,0,0,0,0,0,0,0,0,0,0,0,0,0,0,0,0,0],"split_type":[0,0,0,0,0,0,0,0,0,0,0,0,0,0,0,0,0,0,0,0,0,0,0,0,0,0,0,0,0,0,0,0,0,0,0,0,0,0,0,0,0,0,0,0,0,0,0,0,0,0,0,0,0,0,0,0,0,0,0,0,0,0,0,0,0,0,0,0,0,0,0,0,0,0,0,0,0,0,0,0,0,0,0,0,0,0,0,0,0,0,0,0,0,0,0,0,0,0,0,0,0,0,0,0,0,0,0,0,0],"sum_hessian":[6.299E3,4.306E3,1.993E3,4.039E3,2.67E2,8.03E2,1.19E3,1.5E2,3.889E3,1.73E2,9.4E1,2.37E2,5.66E2,1.021E3,1.69E2,2.9E1,1.21E2,3.056E3,8.33E2,6.5E1,1.08E2,6E0,8.8E1,1.11E2,1.26E2,4E0,5.62E2,5.25E2,4.96E2,3E0,1.66E2,1.4E1,1.5E1,6.6E1,5.5E1,7.34E2,2.322E3,4.68E2,3.65E2,1.2E1,5.3E1,1.01E2,7E0,6.4E1,2.4E1,1.01E2,1E1,4.4E1,8.2E1,1E0,3E0,2.93E2,2.69E2,4.69E2,5.6E1,3.17E2,1.79E2,1.59E2,7E0,1E0,1.3E1,3E0,1.2E1,2E1,4.6E1,4.9E1,6E0,6.26E2,1.08E2,4.33E2,1.889E3,5.5E1,4.13E2,3.33E2,3.2E1,8E0,4E0,4.4E1,9E0,6E0,9.5E1,6E0,1E0,1E0,6.3E1,1.9E1,5E0,4.9E1,5.2E1,4E1,4E0,5.2E1,3E1,2.7E1,2.66E2,1.33E2,1.36E2,3.96E2,7.3E1,2.1E1,3.5E1,1.42E2,1.75E2,1.49E2,3E1,4.8E1,1.11E2,6E0,1E0],"tree_param":{"num_deleted":"0","num_feature":"6","num_nodes":"109","size_leaf_vector":"0"}},{"base_weights":[7.9258814E0,4.9457607E0,1.4358909E1,5.8111973E0,-3.5945955E-1,1.6788067E1,9.1216135E0,4.756183E0,1.3005573E1,6.308723E0,-2.3806515E0,8.043584E0,1.8662512E1,1.0293064E1,-1.3237946E1,5.9182267E0,-8.545161E0,5.935136E1,1.0613203E1,-5.625208E0,1.471587E1,-1.3356435E0,-3.364185E1,1.1122849E1,-3.6146225E1,2.1019096E1,1.0667365E1,8.698339E0,3.3775196E1,6.1488733E0,-4.6061718E1,1.6149668E1,4.9684873E0,-9.736582E1,-1.5363274E0,9.6135414E1,3.332417E1,-8.624731E0,1.2925971E1,-2.2512665E1,-2.1352124E0,-1.264733E0,2.1625868E1,-7.6958137E0,3.2817914E0,-4.2322838E1,1.5189717E1,2.632045E1,2.9904113E0,-1.2009721E1,-7.437211E1,1.2372154E1,2.4823885E1,2.4064919E1,6.374939E0,4.814026E1,8.189782E0,1.152288E1,4.4885487E1,-3.4013474E1,6.3477947E1,-1.418246E1,-7.557723E1,2.018623E0,2.4979944E1,-2.4228802E0,6.5607433E0,-1.1901325E2,-7.080286E1,-4.4615295E1,2.7590284E0,-3.597119E1,4.084321E1,1.3856812E1,-1.629055E1,1.5527988E1,2.5506618E0,-5.600891E0,-2.896044E1,-4.5524507E0,4.4057183E0,-9.554581E0,2.2922943E0,2.4659866E1,-4.1911316E-1,-9.660857E0,7.749107E0,1.6236204E1,1.6623052E0,8.901326E0,-5.2445534E1,7.0977783E-1,2.2074799E1,7.5969666E1,1.7171759E1,1.052835E1,-2.3825624E1,1.1762153E0,-4.756429E1,-1.7464722E1,-8.226064E1,5.760344E0,2.767261E1,8.165062E1,2.3324354E1,4.1966106E1,1.6926111E1,-4.3661438E1,7.3789315E0,1.3166046E1,7.107941E1,-4.3332977E0,8.734222E0,-3.8768718E0,1.4412578E1,5.658703E1,1.7795301E1,-1.0847953E1,-5.2319927E1,1.5219177E1,8.50708E1,-4.746109E1,2.2641785E1,-8.621997E1,-1.1181763E1],"categories":[],"categories_nodes":[],"categories_segments":[],"categories_sizes":[],"default_left":[1,1,1,1,1,1,1,1,1,1,1,1,1,1,1,1,1,1,1,1,1,1,1,1,1,1,1,1,1,1,1,1,1,1,1,0,1,1,1,1,1,1,1,1,1,1,1,1,1,1,1,1,1,1,1,1,1,1,1,1,1,1,1,0,0,0,0,0,0,0,0,0,0,0,0,0,0,0,0,0,0,0,0,0,0,0,0,0,0,0,0,0,0,0,0,0,0,0,0,0,0,0,0,0,0,0,0,0,0,0,0,0,0,0,0,0,0,0,0,0,0,0,0,0,0],"id":15,"left_children":[1,3,5,7,9,11,13,15,17,19,21,23,25,27,29,31,33,35,37,39,41,43,45,47,49,51,53,55,57,59,61,63,65,67,69,-1,71,73,75,77,79,81,83,85,87,89,91,93,95,97,99,101,103,105,107,109,111,113,115,117,119,121,123,-1,-1,-1,-1,-1,-1,-1,-1,-1,-1,-1,-1,-1,-1,-1,-1,-1,-1,-1,-1,-1,-1,-1,-1,-1,-1,-1,-1,-1,-1,-1,-1,-1,-1,-1,-1,-1,-1,-1,-1,-1,-1,-1,-1,-1,-1,-1,-1,-1,-1,-1,-1,-1,-1,-1,-1,-1,-1,-1,-1,-1,-1],"loss_changes":[1.207075E5,1.977696E4,2.5215E4,2.804454E4,8.1690137E3,2.2158094E4,1.6742688E4,4.9991305E4,5.181458E4,1.4229355E4,1.5145781E4,3.333151E4,2.0877938E4,2.2287082E4,2.0646379E4,2.8799297E4,1.6170802E5,1.8816234E4,2.0177773E4,3.4292224E3,9.192701E3,1.3270075E4,7.001465E3,2.7977025E4,1.3869039E4,2.8118344E4,1.4626146E4,1.0958824E4,8.87752E3,5.051098E4,1.021932E4,3.1394398E4,3.203921E4,2.4989062E3,4.4902652E4,0E0,9.284697E3,8.670368E3,1.0840078E4,9.28229E2,8.1060614E2,7.8856946E2,3.8896328E3,5.8413535E3,5.4696377E3,7.2076816E3,2.8341846E2,3.457927E4,3.0369348E4,5.212969E3,1.2568359E3,2.675014E4,4.9138344E4,7.2128516E3,1.0168461E4,4.680116E3,3.8559648E3,6.788844E2,6.9179414E3,4.945458E3,8.0836914E3,9.652827E3,3.1479727E3,0E0,0E0,0E0,0E0,0E0,0E0,0E0,0E0,0E0,0E0,0E0,0E0,0E0,0E0,0E0,0E0,0E0,0E0,0E0,0E0,0E0,0E0,0E0,0E0,0E0,0E0,0E0,0E0,0E0,0E0,0E0,0E0,0E0,0E0,0E0,0E0,0E0,0E0,0E0,0E0,0E0,0E0,0E0,0E0,0E0,0E0,0E0,0E0,0E0,0E0,0E0,0E0,0E0,0E0,0E0,0E0,0E0,0E0,0E0,0E0,0E0,0E0],"parents":[2147483647,0,0,1,1,2,2,3,3,4,4,5,5,6,6,7,7,8,8,9,9,10,10,11,11,12,12,13,13,14,14,15,15,16,16,17,17,18,18,19,19,20,20,21,21,22,22,23,23,24,24,25,25,26,26,27,27,28,28,29,29,30,30,31,31,32,32,33,33,34,34,36,36,37,37,38,38,39,39,40,40,41,41,42,42,43,43,44,44,45,45,46,46,47,47,48,48,49,49,50,50,51,51,52,52,53,53,54,54,55,55,56,56,57,57,58,58,59,59,60,60,61,61,62,62],"right_children":[2,4,6,8,10,12,14,16,18,20,22,24,26,28,30,32,34,36,38,40,42,44,46,48,50,52,54,56,58,60,62,64,66,68,70,-1,72,74,76,78,80,82,84,86,88,90,92,94,96,98,100,102,104,106,108,110,112,114,116,118,120,122,124,-1,-1,-1,-1,-1,-1,-1,-1,-1,-1,-1,-1,-1,-1,-1,-1,-1,-1,-1,-1,-1,-1,-1,-1,-1,-1,-1,-1,-1,-1,-1,-1,-1,-1,-1,-1,-1,-1,-1,-1,-1,-1,-1,-1,-1,-1,-1,-1,-1,-1,-1,-1,-1,-1,-1,-1,-1,-1,-1,-1,-1,-1],"split_conditions":[5.9965225E1,1.0089708E2,1.685E0,1.0048914E2,7.05E-1,1.585E0,3.754E1,1.003251E2,1.00514015E2,1.4500001E-1,4.411E1,1.565E0,3.2649999E0,7.75E0,3.085E0,8.05E-1,1.0032772E2,1.545E0,4.1499996E0,-4.95E-1,1.525E0,5.6499996E0,2.62E0,7.95E0,9.216304E1,7.6499996E0,7.858801E1,6.1054047E1,1.4085E1,4.1805E1,5.7445E1,1.335E0,9.25E-1,1.3299999E0,6.5E-2,2.8840626E1,2.1130001E1,2.315E0,6.3E0,2.4935E1,3.0705E1,2.65E-1,2.525E0,1.0212534E2,1.0104401E2,2.3249998E0,4.56E1,1.075E0,9.9E-1,2.6775E1,1.025E0,2.1950002E0,7.75E0,1.2149999E0,1.04E0,1.705E0,6.1786285E1,1.9649999E0,3.605E0,9.6683365E1,3.005E0,3.145E0,7.618E1,6.0558695E-1,7.4939837E0,-7.268641E-1,1.9682231E0,-3.5703976E1,-2.1240858E1,-1.3384589E1,8.2770854E-1,-1.0791358E1,1.2252963E1,4.1570435E0,-4.887165E0,4.6583967E0,7.651986E-1,-1.6802675E0,-8.688132E0,-1.3657353E0,1.3217156E0,-2.8663743E0,6.876883E-1,7.39796E0,-1.2573396E-1,-2.8982573E0,2.324732E0,4.8708615E0,4.986916E-1,2.670398E0,-1.5733661E1,2.1293336E-1,6.62244E0,2.2790901E1,5.151528E0,3.1585052E0,-7.1476874E0,3.528646E-1,-1.4269287E1,-5.2394166E0,-2.4678194E1,1.7281033E0,8.301784E0,2.4495188E1,6.9973063E0,1.2589832E1,5.0778337E0,-1.3098432E1,2.2136796E0,3.949814E0,2.1323822E1,-1.2999893E0,2.620267E0,-1.1630616E0,4.3237734E0,1.6976109E1,5.3385906E0,-3.254386E0,-1.5695979E1,4.5657535E0,2.5521242E1,-1.4238328E1,6.792536E0,-2.5865992E1,-3.354529E0],"split_indices":[4,5,1,5,2,2,0,5,5,2,0,2,2,3,2,1,5,1,3,2,1,3,1,3,4,3,4,4,0,0,0,2,1,2,2,0,0,2,3,0,0,2,1,5,5,1,0,1,2,0,1,2,3,1,1,1,4,1,2,4,2,2,0,0,0,0,0,0,0,0,0,0,0,0,0,0,0,0,0,0,0,0,0,0,0,0,0,0,0,0,0,0,0,0,0,0,0,0,0,0,0,0,0,0,0,0,0,0,0,0,0,0,0,0,0,0,0,0,0,0,0,0,0,0,0],"split_type":[0,0,0,0,0,0,0,0,0,0,0,0,0,0,0,0,0,0,0,0,0,0,0,0,0,0,0,0,0,0,0,0,0,0,0,0,0,0,0,0,0,0,0,0,0,0,0,0,0,0,0,0,0,0,0,0,0,0,0,0,0,0,0,0,0,0,0,0,0,0,0,0,0,0,0,0,0,0,0,0,0,0,0,0,0,0,0,0,0,0,0,0,0,0,0,0,0,0,0,0,0,0,0,0,0,0,0,0,0,0,0,0,0,0,0,0,0,0,0,0,0,0,0,0,0],"sum_hessian":[6.299E3,4.306E3,1.993E3,3.702E3,6.04E2,1.36E3,6.33E2,3.23E3,4.72E2,1.4E2,4.64E2,2.41E2,1.119E3,6.02E2,3.1E1,2.971E3,2.59E2,2.2E1,4.5E2,5.8E1,8.2E1,4.5E2,1.4E1,2.26E2,1.5E1,8.63E2,2.56E2,5.65E2,3.7E1,2E1,1.1E1,2.51E2,2.72E3,1.8E1,2.41E2,8E0,1.4E1,4.8E1,4.02E2,9E0,4.9E1,2.5E1,5.7E1,1.89E2,2.61E2,1.2E1,2E0,7.8E1,1.48E2,1E1,5E0,2.65E2,5.98E2,6.1E1,1.95E2,6E0,5.59E2,1.3E1,2.4E1,1.2E1,8E0,6E0,5E0,9.7E1,1.54E2,4.82E2,2.238E3,8E0,1E1,2.1E1,2.2E2,1E0,1.3E1,1.2E1,3.6E1,3.21E2,8.1E1,3E0,6E0,3.6E1,1.3E1,7E0,1.8E1,5E1,7E0,1.68E2,2.1E1,2.8E1,2.33E2,2E0,1E1,1E0,1E0,1.1E1,6.7E1,1.16E2,3.2E1,8E0,2E0,1E0,4E0,1.86E2,7.9E1,1.4E1,5.84E2,1.6E1,4.5E1,3E0,1.92E2,3E0,3E0,2.3E1,5.36E2,2E0,1.1E1,1.6E1,8E0,6E0,6E0,3E0,5E0,3E0,3E0,4E0,1E0],"tree_param":{"num_deleted":"0","num_feature":"6","num_nodes":"125","size_leaf_vector":"0"}},{"base_weights":[5.5517707E0,4.0217085E0,1.2444236E1,5.17167E0,-4.7046235E-1,1.3524537E1,-4.582546E0,2.045493E0,6.8775854E0,5.0854117E-2,-3.422888E1,1.4978124E1,2.2439535E0,3.1444376E1,-1.1957383E1,1.5851752E1,-1.8435118E0,2.5970081E1,5.9243917E0,1.5062969E1,-6.2950444E-1,3.927816E-1,-3.920289E1,8.3282995E0,1.8686653E1,-1.4288255E1,1.3989582E1,1.3561945E1,1.1407556E2,-1.653092E1,5.391809E1,-2.891418E0,2.4931665E1,-2.9734661E1,3.608733E-1,4.4683933E1,-5.3708396E0,2.5773613E0,9.147383E0,2.748266E1,3.0506287E0,-1.0813936E1,6.644705E-1,7.4020996E0,-6.8129272E0,-2.2294294E1,-4.909755E1,3.3586452E0,1.1739102E1,4.5590893E1,1.6467073E1,-9.745619E-1,-4.164147E1,1.9908432E1,2.5693148E-1,-7.094879E0,5.1485107E1,-2.9026907E1,5.082915E0,6.497665E1,1.0371216E1,4.0662265E0,-2.042107E1,8.13842E1,2.2070223E1,-6.3929077E1,3.5608222E0,4.4160933E0,-1.7575928E1,3.5938526E1,8.272057E1,-1.4082947E1,2.5213789E1,-2.3302612E1,3.2585344E0,-4.8445144E0,1.0747879E1,1.6086605E1,4.5414932E1,-1.9063263E1,7.1175303E0,-1.3795445E1,1.5181595E1,2.339626E1,-4.1493163E-1,-4.4326416E1,-4.6161623E0,-5.1992085E1,-1.4417908E1,2.969656E1,1.5511273E0,1.3001819E1,-9.442627E0,1.137295E1,6.020584E1,-2.0466082E1,1.8355127E1,8.53177E0,-1.6522495E1,-1.8553564E1,-4.7318245E1,2.844104E1,2.685262E0,-1.1734599E1,1.2227051E1,1.5912761E1,-1.741622E1,1.5226685E1,5.8495686E1,2.3443676E1,-3.6553555E1,5.7641823E1,-3.913975E1],"categories":[],"categories_nodes":[],"categories_segments":[],"categories_sizes":[],"default_left":[1,1,1,1,1,1,1,1,1,1,1,1,1,1,1,1,1,1,1,1,1,1,1,1,1,1,1,1,0,1,1,1,1,1,1,1,1,1,1,1,1,1,1,0,0,1,1,1,1,1,1,1,1,1,1,1,1,1,1,0,0,0,0,0,0,0,0,0,0,0,0,0,0,0,0,0,0,0,0,0,0,0,0,0,0,0,0,0,0,0,0,0,0,0,0,0,0,0,0,0,0,0,0,0,0,0,0,0,0,0,0,0,0],"id":16,"left_children":[1,3,5,7,9,11,13,15,17,19,21,23,25,27,29,31,33,35,37,39,41,43,45,47,49,51,53,55,-1,57,59,61,63,65,67,69,71,73,75,77,79,81,83,-1,-1,85,87,89,91,93,95,97,99,101,103,105,107,109,111,-1,-1,-1,-1,-1,-1,-1,-1,-1,-1,-1,-1,-1,-1,-1,-1,-1,-1,-1,-1,-1,-1,-1,-1,-1,-1,-1,-1,-1,-1,-1,-1,-1,-1,-1,-1,-1,-1,-1,-1,-1,-1,-1,-1,-1,-1,-1,-1,-1,-1,-1,-1,-1,-1],"loss_changes":[6.638916E4,2.6642578E4,2.1104766E4,2.1883203E4,1.85157E4,1.760989E4,1.8708787E4,7.793719E4,4.8182258E4,1.0601007E4,2.7707324E3,2.334636E4,2.4278354E4,1.6184671E4,1.8365781E4,5.436154E4,6.967079E4,7.4140164E4,2.727946E4,6.6296904E3,1.3093337E4,2.019513E2,1.2476719E3,5.7745996E3,3.5735797E4,1.8896379E4,5.9284346E3,8.982373E3,0E0,1.5002283E4,1.252376E3,1.288937E4,3.2934E4,9.4724766E4,7.6524914E4,2.3306188E4,1.3145E4,2.1988457E4,2.8917914E4,3.765287E3,2.294124E3,8.890099E3,2.1651113E4,0E0,0E0,2.5217898E3,5.3433594E1,6.666419E3,5.5523145E3,2.2319578E4,3.9843844E4,5.461904E3,1.3501816E3,7.4185137E3,3.4449006E3,2.1768975E3,1.26075195E2,1.4679414E4,5.106628E4,0E0,0E0,0E0,0E0,0E0,0E0,0E0,0E0,0E0,0E0,0E0,0E0,0E0,0E0,0E0,0E0,0E0,0E0,0E0,0E0,0E0,0E0,0E0,0E0,0E0,0E0,0E0,0E0,0E0,0E0,0E0,0E0,0E0,0E0,0E0,0E0,0E0,0E0,0E0,0E0,0E0,0E0,0E0,0E0,0E0,0E0,0E0,0E0,0E0,0E0,0E0,0E0,0E0,0E0],"parents":[2147483647,0,0,1,1,2,2,3,3,4,4,5,5,6,6,7,7,8,8,9,9,10,10,11,11,12,12,13,13,14,14,15,15,16,16,17,17,18,18,19,19,20,20,21,21,22,22,23,23,24,24,25,25,26,26,27,27,29,29,30,30,31,31,32,32,33,33,34,34,35,35,36,36,37,37,38,38,39,39,40,40,41,41,42,42,45,45,46,46,47,47,48,48,49,49,50,50,51,51,52,52,53,53,54,54,55,55,56,56,57,57,58,58],"right_children":[2,4,6,8,10,12,14,16,18,20,22,24,26,28,30,32,34,36,38,40,42,44,46,48,50,52,54,56,-1,58,60,62,64,66,68,70,72,74,76,78,80,82,84,-1,-1,86,88,90,92,94,96,98,100,102,104,106,108,110,112,-1,-1,-1,-1,-1,-1,-1,-1,-1,-1,-1,-1,-1,-1,-1,-1,-1,-1,-1,-1,-1,-1,-1,-1,-1,-1,-1,-1,-1,-1,-1,-1,-1,-1,-1,-1,-1,-1,-1,-1,-1,-1,-1,-1,-1,-1,-1,-1,-1,-1,-1,-1,-1,-1],"split_conditions":[8.043759E1,2.4224998E1,3.2205E1,2.060725E1,7.576318E1,3.455E0,8.749188E1,5.05E0,2.1321468E1,1.4524299E1,2.02E0,9.93645E1,9.933455E1,2.705E0,3.295E0,1.3511202E1,5.45E0,1.0020027E2,5.25E0,1.87E0,9.923396E1,2.5445E1,1.14E0,6.35E-1,9.941985E1,1.385E0,3.685E0,1.675E0,3.422267E1,4.1525E1,3.8465E1,1.67E0,1.7785E1,1.76E0,1.9655312E1,2.1288044E1,1.47E0,4.05E-1,2.205158E1,1.645E0,2.44E0,2.4650002E0,1.305E0,2.22063E0,-2.0438783E0,9.5E-1,1.405E0,-5E-3,2.9130001E1,1.1E0,9.943286E1,1.698E1,3.505E0,9.05E0,1.76E0,1.36E0,3.3205E1,1.475E0,3.09E0,1.9492994E1,3.1113648E0,1.219868E0,-6.1263213E0,2.4415262E1,6.621067E0,-1.9178724E1,1.0682467E0,1.324828E0,-5.2727785E0,1.0781558E1,2.4816174E1,-4.224884E0,7.564137E0,-6.990784E0,9.7756034E-1,-1.4533544E0,3.2243638E0,4.8259816E0,1.362448E1,-5.718979E0,2.1352592E0,-4.1386337E0,4.5544786E0,7.018878E0,-1.24479495E-1,-1.3297925E1,-1.3848487E0,-1.5597626E1,-4.3253727E0,8.908968E0,4.653382E-1,3.9005458E0,-2.8327882E0,3.411885E0,1.8061752E1,-6.139825E0,5.5065384E0,2.559531E0,-4.956749E0,-5.5660696E0,-1.4195474E1,8.532312E0,8.0557865E-1,-3.5203798E0,3.6681154E0,4.7738285E0,-5.224866E0,4.5680056E0,1.7548706E1,7.033103E0,-1.0966066E1,1.7292547E1,-1.1741926E1],"split_indices":[4,0,0,4,4,2,4,3,4,4,2,5,4,2,2,4,3,5,3,1,5,0,1,2,5,1,2,1,0,0,0,1,0,2,4,4,1,2,4,1,2,1,1,0,0,1,1,2,0,1,5,0,2,3,1,1,0,2,2,0,0,0,0,0,0,0,0,0,0,0,0,0,0,0,0,0,0,0,0,0,0,0,0,0,0,0,0,0,0,0,0,0,0,0,0,0,0,0,0,0,0,0,0,0,0,0,0,0,0,0,0,0,0],"split_type":[0,0,0,0,0,0,0,0,0,0,0,0,0,0,0,0,0,0,0,0,0,0,0,0,0,0,0,0,0,0,0,0,0,0,0,0,0,0,0,0,0,0,0,0,0,0,0,0,0,0,0,0,0,0,0,0,0,0,0,0,0,0,0,0,0,0,0,0,0,0,0,0,0,0,0,0,0,0,0,0,0,0,0,0,0,0,0,0,0,0,0,0,0,0,0,0,0,0,0,0,0,0,0,0,0,0,0,0,0,0,0,0,0],"sum_hessian":[6.299E3,5.156E3,1.143E3,4.105E3,1.051E3,1.075E3,6.8E1,1.45E3,2.655E3,1.036E3,1.5E1,9.52E2,1.23E2,1.1E1,5.7E1,3.18E2,1.132E3,1.25E2,2.53E3,4.4E1,9.92E2,2E0,1.3E1,3.42E2,6.1E2,5.1E1,7.2E1,1E1,1E0,5.4E1,3E0,1.04E2,2.14E2,8.2E1,1.05E3,7.8E1,4.7E1,1.242E3,1.288E3,2.1E1,2.3E1,1.11E2,8.81E2,1E0,1E0,6E0,7E0,1.4E2,2.02E2,4.5E1,5.65E2,3.5E1,1.6E1,5E1,2.2E1,7E0,3E0,3.4E1,2E1,2E0,1E0,7.5E1,2.9E1,9E0,2.05E2,4E1,4.2E1,8.57E2,1.93E2,6.5E1,1.3E1,3.7E1,1E1,3.1E1,1.211E3,1.32E2,1.156E3,1.4E1,7E0,3E0,2E1,1E2,1.1E1,3.9E1,8.42E2,2E0,4E0,6E0,1E0,8E0,1.32E2,1.91E2,1.1E1,1.4E1,3.1E1,2.7E1,5.38E2,2.2E1,1.3E1,4E0,1.2E1,3.3E1,1.7E1,1.1E1,1.1E1,2E0,5E0,1E0,2E0,4E0,3E1,9E0,1.1E1],"tree_param":{"num_deleted":"0","num_feature":"6","num_nodes":"113","size_leaf_vector":"0"}},{"base_weights":[3.9061213E0,2.8203416E0,8.797256E0,5.293319E0,1.1723765E0,1.0435633E1,1.2417885E0,3.0659137E0,8.098638E0,-8.3788395E0,2.2343445E0,5.8987703E0,1.418428E1,-1.8316797E1,8.357553E0,-1.4926367E1,3.7945378E0,6.684367E0,3.723509E1,-4.6481827E1,-3.9785726E0,-3.5724926E0,3.1890895E0,4.2588105E0,4.7759064E1,4.0905525E1,8.869187E0,2.172342E0,-3.2042053E1,2.4325417E1,-2.9311523E-2,-1.2031365E1,-2.2780794E1,1.339049E1,1.27647E0,1.1587546E1,3.7732093E0,-2.8717215E0,4.3999325E1,-7.569679E1,1.6173723E1,8.461544E-1,-2.9085957E1,-2.8004688E1,-1.7702053E0,9.953283E0,1.777989E0,8.543937E0,-9.558269E0,6.785592E1,-2.9495483E1,4.5833134E1,-6.3486326E-1,3.277118E1,6.3336725E0,-2.63555E1,1.6300491E1,1.0223755E1,-4.381453E1,1.305427E0,6.773509E1,-3.0128267E0,3.4657715E1,2.0588746E0,-1.6987944E1,2.5645947E1,1.5408542E0,-4.589507E1,1.8178265E0,3.9178717E0,1.7045156E1,-3.88243E1,4.2369514E0,9.605408E0,-1.463092E1,6.0314873E1,3.215511E1,-1.0612166E2,-5.4423748E1,7.2928224E0,2.0206692E1,-4.5693117E-1,4.335479E1,-5.570451E1,3.383402E1,-3.2353104E1,-1.5713067E1,6.8114076E0,-5.4554334E0,-7.2418385E0,1.4973247E1,5.3651066E0,-7.109242E-1,2.8424372E1,5.6317587E0,-2.147628E1,1.8171764E1,2.5784374E1,8.368945E1,6.010742E-1,-3.9728027E1,3.1768652E1,7.891101E1,-5.0660267E0,1.9622803E1,-3.73042E1,4.35401E1,-5.9336113E1,7.514284E0,3.1764282E1,-3.919608E1,2.2486294E1,-1.8000082E1,-3.4275585E1,6.3291992E1,-5.022765E1,-1.9232107E1,3.219418E1,-1.2337842E1,8.1796425E1,2.5979696E1,8.727624E0,-1.572992E1,1.6247742E1,4.245415E1],"categories":[],"categories_nodes":[],"categories_segments":[],"categories_sizes":[],"default_left":[1,1,1,1,1,1,1,1,1,1,1,1,1,1,1,1,1,1,1,1,1,1,1,1,1,1,1,1,1,1,1,1,0,1,1,1,1,1,1,1,1,1,1,1,1,1,1,1,1,1,1,1,1,1,1,1,1,1,1,1,1,1,1,0,0,0,0,0,0,0,0,0,0,0,0,0,0,0,0,0,0,0,0,0,0,0,0,0,0,0,0,0,0,0,0,0,0,0,0,0,0,0,0,0,0,0,0,0,0,0,0,0,0,0,0,0,0,0,0,0,0,0,0,0,0],"id":17,"left_children":[1,3,5,7,9,11,13,15,17,19,21,23,25,27,29,31,33,35,37,39,41,43,45,47,49,51,53,55,57,59,61,63,-1,65,67,69,71,73,75,77,79,81,83,85,87,89,91,93,95,97,99,101,103,105,107,109,111,113,115,117,119,121,123,-1,-1,-1,-1,-1,-1,-1,-1,-1,-1,-1,-1,-1,-1,-1,-1,-1,-1,-1,-1,-1,-1,-1,-1,-1,-1,-1,-1,-1,-1,-1,-1,-1,-1,-1,-1,-1,-1,-1,-1,-1,-1,-1,-1,-1,-1,-1,-1,-1,-1,-1,-1,-1,-1,-1,-1,-1,-1,-1,-1,-1,-1],"loss_changes":[3.3432555E4,2.1010535E4,1.4148273E4,1.2859738E4,3.1421713E4,1.5903E4,2.8683812E4,1.5145797E4,3.7331723E4,5.17907E4,1.5462658E4,2.9109812E4,7.263852E4,1.5536633E4,2.022268E4,7.4915234E2,2.673163E4,1.2388871E4,1.1520617E4,5.9799656E4,3.3821633E4,1.7299758E4,2.283293E4,2.4475332E4,2.6842617E4,1.742814E4,2.5852098E4,9.699656E3,1.6867867E4,5.1874676E4,1.0453345E4,2.479354E3,0E0,3.33617E4,2.2504588E4,1.3495246E4,1.0989826E4,1.1675833E3,5.0173906E3,8.463523E3,2.4661646E2,1.3037021E4,7.7252445E4,9.347578E2,1.1675232E4,3.5758125E4,1.7699158E4,1.8076969E4,3.2777973E4,6.501957E3,1.2557373E3,3.2850094E4,9.970599E2,3.2564312E4,3.0682766E4,7.2153696E3,3.7995796E3,2.1061383E4,3.132918E3,1.5147032E4,8.443406E3,1.4022595E4,4.5847266E2,0E0,0E0,0E0,0E0,0E0,0E0,0E0,0E0,0E0,0E0,0E0,0E0,0E0,0E0,0E0,0E0,0E0,0E0,0E0,0E0,0E0,0E0,0E0,0E0,0E0,0E0,0E0,0E0,0E0,0E0,0E0,0E0,0E0,0E0,0E0,0E0,0E0,0E0,0E0,0E0,0E0,0E0,0E0,0E0,0E0,0E0,0E0,0E0,0E0,0E0,0E0,0E0,0E0,0E0,0E0,0E0,0E0,0E0,0E0,0E0,0E0,0E0],"parents":[2147483647,0,0,1,1,2,2,3,3,4,4,5,5,6,6,7,7,8,8,9,9,10,10,11,11,12,12,13,13,14,14,15,15,16,16,17,17,18,18,19,19,20,20,21,21,22,22,23,23,24,24,25,25,26,26,27,27,28,28,29,29,30,30,31,31,33,33,34,34,35,35,36,36,37,37,38,38,39,39,40,40,41,41,42,42,43,43,44,44,45,45,46,46,47,47,48,48,49,49,50,50,51,51,52,52,53,53,54,54,55,55,56,56,57,57,58,58,59,59,60,60,61,61,62,62],"right_children":[2,4,6,8,10,12,14,16,18,20,22,24,26,28,30,32,34,36,38,40,42,44,46,48,50,52,54,56,58,60,62,64,-1,66,68,70,72,74,76,78,80,82,84,86,88,90,92,94,96,98,100,102,104,106,108,110,112,114,116,118,120,122,124,-1,-1,-1,-1,-1,-1,-1,-1,-1,-1,-1,-1,-1,-1,-1,-1,-1,-1,-1,-1,-1,-1,-1,-1,-1,-1,-1,-1,-1,-1,-1,-1,-1,-1,-1,-1,-1,-1,-1,-1,-1,-1,-1,-1,-1,-1,-1,-1,-1,-1,-1,-1,-1,-1,-1,-1,-1,-1,-1,-1,-1,-1],"split_conditions":[8.043759E1,1.5635E1,2.653E1,2.8499266E1,9.15E-1,9.957793E1,1.155E0,9.7741776E1,1.0062988E2,5.45E0,2.25E-1,2.03E0,9.975775E1,8.95E-1,8.450001E0,1.423E1,9.9306854E1,5.7923088E1,9.55E-1,1.76E0,1.9650434E1,4.95E0,6.05E-1,1.775E0,1.3499999E0,1.565E0,7.85E0,8.45E-1,1.425E0,1.69E0,1.795E0,5.55E-1,-6.8342385E0,8.65E-1,9.936228E1,4.25E0,5.906766E1,3.585E0,1.0076511E2,1.8541218E1,8.15E-1,1.9462505E1,2.0004272E1,1E-2,2.5357529E1,9.941348E1,2.1321468E1,1.205E0,1.255E0,1.0899999E0,1.8294998E1,1.395E0,2.596E1,1.9665E1,1.62E0,1.615E0,3.2525E1,7.8500004E0,1.845E0,8.892969E1,1.35E0,2.855E0,1.86E0,6.1766243E-1,-5.096383E0,7.693784E0,4.6225628E-1,-1.3768521E1,5.45348E-1,1.1753615E0,5.1135473E0,-1.164729E1,1.2710855E0,2.8816223E0,-4.3892765E0,1.8094463E1,9.646533E0,-3.1836498E1,-1.6327126E1,2.187847E0,6.062008E0,-1.3707936E-1,1.3006437E1,-1.6711353E1,1.0150206E1,-9.705932E0,-4.71392E0,2.0434225E0,-1.63663E0,-2.1725516E0,4.4919744E0,1.609532E0,-2.1327727E-1,8.527312E0,1.6895276E0,-6.4428844E0,5.4515295E0,7.7353125E0,2.5106836E1,1.8032227E-1,-1.1918408E1,9.530596E0,2.3673304E1,-1.519808E0,5.886841E0,-1.119126E1,1.3062031E1,-1.7800835E1,2.2542853E0,9.529285E0,-1.1758824E1,6.745888E0,-5.400025E0,-1.0282676E1,1.8987598E1,-1.50682955E1,-5.7696323E0,9.658255E0,-3.7013528E0,2.4538929E1,7.793909E0,2.6182873E0,-4.7189765E0,4.874323E0,1.2736246E1],"split_indices":[4,0,0,4,1,5,1,5,5,3,2,2,5,1,3,0,5,4,1,2,4,3,2,2,1,1,3,1,2,2,1,2,0,1,5,3,4,2,5,4,1,4,4,2,4,5,4,1,1,1,0,1,0,0,2,2,0,3,2,4,1,2,1,0,0,0,0,0,0,0,0,0,0,0,0,0,0,0,0,0,0,0,0,0,0,0,0,0,0,0,0,0,0,0,0,0,0,0,0,0,0,0,0,0,0,0,0,0,0,0,0,0,0,0,0,0,0,0,0,0,0,0,0,0,0],"split_type":[0,0,0,0,0,0,0,0,0,0,0,0,0,0,0,0,0,0,0,0,0,0,0,0,0,0,0,0,0,0,0,0,0,0,0,0,0,0,0,0,0,0,0,0,0,0,0,0,0,0,0,0,0,0,0,0,0,0,0,0,0,0,0,0,0,0,0,0,0,0,0,0,0,0,0,0,0,0,0,0,0,0,0,0,0,0,0,0,0,0,0,0,0,0,0,0,0,0,0,0,0,0,0,0,0,0,0,0,0,0,0,0,0,0,0,0,0,0,0,0,0,0,0,0,0],"sum_hessian":[6.299E3,5.156E3,1.143E3,2.061E3,3.095E3,9.39E2,2.04E2,1.15E3,9.11E2,3.09E2,2.786E3,4.26E2,5.13E2,5.4E1,1.5E2,4.4E1,1.106E3,8.7E2,4.1E1,3.1E1,2.78E2,3.93E2,2.393E3,4.11E2,1.5E1,8.4E1,4.29E2,2.2E1,3.2E1,5.1E1,9.9E1,3.4E1,1E1,2.29E2,8.77E2,3.23E2,5.47E2,6E0,3.5E1,2.1E1,1E1,2.34E2,4.4E1,2.6E1,3.67E2,4.12E2,1.981E3,3.14E2,9.7E1,1.2E1,3E0,7.5E1,9E0,4E1,3.89E2,7E0,1.5E1,7E0,2.5E1,3.4E1,1.7E1,9.2E1,7E0,9E0,2.5E1,1.12E2,1.17E2,9E0,8.68E2,1.35E2,1.88E2,5E0,5.42E2,3E0,3E0,1.3E1,2.2E1,7E0,1.4E1,4E0,6E0,2.28E2,6E0,3.1E1,1.3E1,1.8E1,8E0,1.1E2,2.57E2,9.3E1,3.19E2,8.11E2,1.17E3,3.9E1,2.75E2,6.8E1,2.9E1,4E0,8E0,1E0,2E0,5.4E1,2.1E1,8E0,1E0,5E0,3.5E1,6E0,3.83E2,1E0,6E0,1.3E1,2E0,4E0,3E0,1.9E1,6E0,1E1,2.4E1,1.2E1,5E0,4.8E1,4.4E1,3E0,4E0],"tree_param":{"num_deleted":"0","num_feature":"6","num_nodes":"125","size_leaf_vector":"0"}},{"base_weights":[2.7433095E0,1.5449615E0,5.3303413E0,9.380828E0,1.0761644E0,5.5992413E0,-1.3083025E1,4.4822285E-1,1.2242651E1,1.659839E0,-4.2611017E0,6.275548E0,-2.126302E0,8.314112E0,-2.3127441E1,-5.7871056E0,2.655268E0,1.7206879E1,9.114489E0,2.0337641E0,-9.12452E0,-8.676557E-2,-8.414238E0,5.1224275E0,1.38607435E1,9.785027E0,-1.4938172E1,1.8417114E1,1.3532366E0,-1.4761335E1,-3.6555733E1,2.0151367E0,-9.516773E0,-3.771778E0,3.9384549E0,8.184386E0,3.9353893E1,5.991679E0,1.4017392E1,1.646628E0,1.7955868E1,7.362592E0,-2.394937E1,-1.0412962E1,5.2710867E0,-1.0898545E1,1.2294378E1,5.752133E0,-7.340231E0,-2.882651E1,1.6254873E1,6.459089E-1,2.7713797E1,-2.4279202E1,-6.5759044E0,3.9463868E0,-3.419759E0,-2.125765E1,-1.19071455E1,-9.1656494E-1,3.7101288E0,-1.1220375E1,-3.7303772E0,2.8796998E-1,-7.9035187E0,4.474055E0,-1.7326584E0,1.3910674E1,2.5791423E0,2.1571112E1,5.4979565E1,-1.7105541E1,7.6018915E0,-2.2714112E0,1.5703058E1,9.762568E-1,7.4165573E0,-4.3159623E0,3.174461E1,3.2123383E1,-6.158926E0,-3.806344E1,1.7481436E0,1.9743164E1,-1.2572465E1,1.9652056E1,-1.3514332E0,-2.82379E1,-9.0347185E0,5.652839E0,2.906301E1,-4.14133E0,6.4714026E0,-3.2499023E1,-3.902446E0,-5.1178123E1,-1.3206E1,2.7985083E1,5.6599813E0,2.2932932E1,-6.625352E0,4.1854958E1,1.8812462E1,1.5179769E1,-2.7046782E1,-4.0348306E-1,-2.0314116E1,5.353678E0,1.2236328E0],"categories":[],"categories_nodes":[],"categories_segments":[],"categories_sizes":[],"default_left":[1,1,1,1,1,1,1,1,1,1,1,1,1,1,1,1,1,1,1,1,1,1,1,1,1,1,1,0,1,1,0,1,1,1,1,1,1,1,1,1,1,1,1,1,1,1,1,1,1,1,1,1,1,1,1,1,0,0,0,0,0,0,0,0,0,0,0,0,0,0,0,0,0,0,0,0,0,0,0,0,0,0,0,0,0,0,0,0,0,0,0,0,0,0,0,0,0,0,0,0,0,0,0,0,0,0,0,0,0],"id":18,"left_children":[1,3,5,7,9,11,13,15,17,19,21,23,25,27,29,31,33,35,37,39,41,43,45,47,49,51,53,-1,55,57,-1,59,61,63,65,67,69,71,73,75,77,79,81,83,85,87,89,91,93,95,97,99,101,103,105,107,-1,-1,-1,-1,-1,-1,-1,-1,-1,-1,-1,-1,-1,-1,-1,-1,-1,-1,-1,-1,-1,-1,-1,-1,-1,-1,-1,-1,-1,-1,-1,-1,-1,-1,-1,-1,-1,-1,-1,-1,-1,-1,-1,-1,-1,-1,-1,-1,-1,-1,-1,-1,-1],"loss_changes":[1.95228E4,1.5811375E4,9.946254E3,6.206453E3,1.2670471E4,1.0285375E4,6.4250146E3,8.410654E2,2.7004863E3,1.4797821E4,6.951241E3,1.574293E4,2.4410588E4,6.783346E2,1.7072393E3,4.8477405E2,3.8597452E2,1.36654E4,1.6767568E3,2.1809555E4,3.0239857E4,1.1175461E4,1.0474751E4,1.2371125E4,2.4791898E4,1.3581912E4,5.8549805E3,0E0,1.0013535E2,6.4660645E0,0E0,3.3215843E1,6.657861E1,1.3646658E2,1.2317505E2,1.6010818E3,4.3713906E3,2.807817E3,1.2437979E3,1.33760205E4,2.593345E4,1.9951252E4,2.3641816E4,4.741654E3,1.2693246E4,5.562039E3,2.2858406E3,1.06724375E4,6.446454E3,3.8630088E3,2.7928953E4,9.227005E3,2.7371094E3,4.3419727E3,3.5533206E3,1.2607605E1,0E0,0E0,0E0,0E0,0E0,0E0,0E0,0E0,0E0,0E0,0E0,0E0,0E0,0E0,0E0,0E0,0E0,0E0,0E0,0E0,0E0,0E0,0E0,0E0,0E0,0E0,0E0,0E0,0E0,0E0,0E0,0E0,0E0,0E0,0E0,0E0,0E0,0E0,0E0,0E0,0E0,0E0,0E0,0E0,0E0,0E0,0E0,0E0,0E0,0E0,0E0,0E0,0E0],"parents":[2147483647,0,0,1,1,2,2,3,3,4,4,5,5,6,6,7,7,8,8,9,9,10,10,11,11,12,12,13,13,14,14,15,15,16,16,17,17,18,18,19,19,20,20,21,21,22,22,23,23,24,24,25,25,26,26,28,28,29,29,31,31,32,32,33,33,34,34,35,35,36,36,37,37,38,38,39,39,40,40,41,41,42,42,43,43,44,44,45,45,46,46,47,47,48,48,49,49,50,50,51,51,52,52,53,53,54,54,55,55],"right_children":[2,4,6,8,10,12,14,16,18,20,22,24,26,28,30,32,34,36,38,40,42,44,46,48,50,52,54,-1,56,58,-1,60,62,64,66,68,70,72,74,76,78,80,82,84,86,88,90,92,94,96,98,100,102,104,106,108,-1,-1,-1,-1,-1,-1,-1,-1,-1,-1,-1,-1,-1,-1,-1,-1,-1,-1,-1,-1,-1,-1,-1,-1,-1,-1,-1,-1,-1,-1,-1,-1,-1,-1,-1,-1,-1,-1,-1,-1,-1,-1,-1,-1,-1,-1,-1,-1,-1,-1,-1,-1,-1],"split_conditions":[5.9965225E1,1.1465E1,9.95E0,1.9107155E1,2.065E0,1.0109333E2,1.055E0,6.3E0,5.75E0,5.8508537E1,1.0018376E2,1.00545166E2,1.4690001E1,9.91E0,1.14E0,1.109E1,8.05E-1,1.34E0,2.663514E1,5.4436523E1,3.185E0,2.4605E1,2.6350002E0,1.0044597E2,1.066E1,1.205E0,1.16E0,5.5251346E0,1.1115E1,9.629999E0,-1.0966721E1,1.1E0,1.175E0,7.55E-1,1.1440001E1,1.1030001E1,5.4E0,1.325E0,6.65E-1,1.805E0,2.35E0,4.7E0,1.835E0,4.45E0,2.335E0,4.25E0,6.8104996E1,9.888124E1,1.115E0,2.17E0,1.265E0,2.2E0,3.245E0,9.5E-1,1.7875E1,1.025E0,-1.0259278E0,-6.3772955E0,-3.5721438E0,-2.749695E-1,1.1130387E0,-3.3661127E0,-1.1191132E0,8.6390994E-2,-2.3710556E0,1.3422165E0,-5.1979756E-1,4.1732025E0,7.7374274E-1,6.471334E0,1.649387E1,-5.1316624E0,2.2805676E0,-6.8142337E-1,4.7109175E0,2.9287705E-1,2.2249672E0,-1.2947887E0,9.523383E0,9.637015E0,-1.8476778E0,-1.1419032E1,5.244431E-1,5.9229493E0,-3.7717397E0,5.895617E0,-4.0542996E-1,-8.471371E0,-2.7104156E0,1.6958518E0,8.718904E0,-1.242399E0,1.9414209E0,-9.749707E0,-1.1707338E0,-1.5353437E1,-3.9618003E0,8.395525E0,1.6979945E0,6.87988E0,-1.9876057E0,1.2556488E1,5.6437387E0,4.5539308E0,-8.114035E0,-1.2104493E-1,-6.094235E0,1.6061035E0,3.6708987E-1],"split_indices":[4,0,3,4,1,5,1,3,3,4,5,5,0,0,1,0,1,2,4,4,2,0,1,5,0,1,1,0,0,0,0,1,1,1,0,0,3,2,1,1,2,3,1,3,2,3,0,5,1,2,1,2,2,1,0,1,0,0,0,0,0,0,0,0,0,0,0,0,0,0,0,0,0,0,0,0,0,0,0,0,0,0,0,0,0,0,0,0,0,0,0,0,0,0,0,0,0,0,0,0,0,0,0,0,0,0,0,0,0],"split_type":[0,0,0,0,0,0,0,0,0,0,0,0,0,0,0,0,0,0,0,0,0,0,0,0,0,0,0,0,0,0,0,0,0,0,0,0,0,0,0,0,0,0,0,0,0,0,0,0,0,0,0,0,0,0,0,0,0,0,0,0,0,0,0,0,0,0,0,0,0,0,0,0,0,0,0,0,0,0,0,0,0,0,0,0,0,0,0,0,0,0,0,0,0,0,0,0,0,0,0,0,0,0,0,0,0,0,0,0,0],"sum_hessian":[6.299E3,4.306E3,1.993E3,2.42E2,4.064E3,1.965E3,2.8E1,5.9E1,1.83E2,3.664E3,4E2,1.807E3,1.58E2,9E0,1.9E1,1.5E1,4.4E1,6.9E1,1.14E2,3.542E3,1.22E2,2E2,2E2,1.57E3,2.37E2,8.2E1,7.6E1,3E0,6E0,1.3E1,6E0,5E0,1E1,7E0,3.7E1,5E1,1.9E1,7.1E1,4.3E1,3.459E3,8.3E1,5.8E1,6.4E1,6.8E1,1.32E2,1.79E2,2.1E1,1.495E3,7.5E1,1.2E1,2.25E2,5.5E1,2.7E1,3.5E1,4.1E1,4E0,2E0,2E0,1.1E1,2E0,3E0,7E0,3E0,4E0,3E0,3.4E1,3E0,2.4E1,2.6E1,1E1,9E0,4E0,6.7E1,4E0,3.9E1,3.1E3,3.59E2,3.2E1,5.1E1,2E1,3.8E1,4.1E1,2.3E1,4E0,