{"learner":{"attributes":{"best_iteration":"99","best_ntree_limit":"100","scikit_learn":"{\"n_estimators\": 100, \"objective\": \"reg:squarederror\", \"max_depth\": null, \"max_leaves\": null, \"max_bin\": null, \"grow_policy\": null, \"learning_rate\": null, \"verbosity\": null, \"booster\": null, \"tree_method\": null, \"gamma\": null, \"min_child_weight\": null, \"max_delta_step\": null, \"subsample\": null, \"sampling_method\": null, \"colsample_bytree\": null, \"colsample_bylevel\": null, \"colsample_bynode\": null, \"reg_alpha\": null, \"reg_lambda\": null, \"scale_pos_weight\": null, \"base_score\": null, \"missing\": NaN, \"num_parallel_tree\": null, \"random_state\": null, \"n_jobs\": null, \"monotone_constraints\": null, \"interaction_constraints\": null, \"importance_type\": null, \"gpu_id\": null, \"validate_parameters\": null, \"predictor\": null, \"enable_categorical\": false, \"feature_types\": null, \"max_cat_to_onehot\": null, \"max_cat_threshold\": null, \"eval_metric\": null, \"early_stopping_rounds\": null, \"callbacks\": null, \"_estimator_type\": \"regressor\"}"},"feature_names":["vix","AAAvstreasury","t10y3m","unemp_rate","oil_prices","bus_confidence","mno"],"feature_types":["float","float","float","float","float","float","float"],"gradient_booster":{"model":{"gbtree_model_param":{"num_parallel_tree":"1","num_trees":"100","size_leaf_vector":"0"},"tree_info":[0,0,0,0,0,0,0,0,0,0,0,0,0,0,0,0,0,0,0,0,0,0,0,0,0,0,0,0,0,0,0,0,0,0,0,0,0,0,0,0,0,0,0,0,0,0,0,0,0,0,0,0,0,0,0,0,0,0,0,0,0,0,0,0,0,0,0,0,0,0,0,0,0,0,0,0,0,0,0,0,0,0,0,0,0,0,0,0,0,0,0,0,0,0,0,0,0,0,0,0],"trees":[{"base_weights":[1.5887166E3,1.1532893E3,3.10076E3,5.449922E2,1.3379186E3,2.0285729E3,3.4455005E3,7.3075366E2,4.6016257E2,1.2502498E3,2.3249077E3,4.127942E3,2.896499E3,8.449679E2,6.545769E2,4.4416904E2,5.4607434E2,1.2002001E3,1.7134371E3,2.1634077E3,2.4672407E3,4.3543267E3,3.9249526E3,3.0840176E3,2.715364E3,4.2000552E2,4.598061E2,1.234841E3,9.8443744E2,1.7766111E3,1.3449757E3,1.0970627E3,1.2805637E3,9.450781E2,1.1477726E3,1.6379631E3,1.8706385E3],"categories":[],"categories_nodes":[],"categories_segments":[],"categories_sizes":[],"default_left":[1,1,1,1,1,0,1,1,1,1,1,1,1,0,0,1,0,1,1,0,0,0,0,0,0,0,0,1,1,1,0,0,0,0,0,0,0],"id":0,"left_children":[1,3,5,7,9,-1,11,13,15,17,19,21,23,-1,-1,25,-1,27,29,-1,-1,-1,-1,-1,-1,-1,-1,31,33,35,-1,-1,-1,-1,-1,-1,-1],"loss_changes":[4.1442499E9,5.48801E8,5.1344486E8,1.7643744E7,3.2183347E8,0E0,3.866839E8,2.544272E6,8.3744E5,7.789926E7,1.673472E6,4.599296E6,1.1767808E7,0E0,0E0,5.9272E4,0E0,2.2074368E7,5.385088E6,0E0,0E0,0E0,0E0,0E0,0E0,0E0,0E0,1.548416E7,1.718208E6,6.12288E5,0E0,0E0,0E0,0E0,0E0,0E0,0E0],"parents":[2147483647,0,0,1,1,2,2,3,3,4,4,6,6,7,7,8,8,9,9,10,10,11,11,12,12,15,15,17,17,18,18,27,27,28,28,29,29],"right_children":[2,4,6,8,10,-1,12,14,16,18,20,22,24,-1,-1,26,-1,28,30,-1,-1,-1,-1,-1,-1,-1,-1,32,34,36,-1,-1,-1,-1,-1,-1,-1],"split_conditions":[7.449354E1,2.89012E5,6.9E0,5.95E0,6.55E0,6.085719E2,8.55E0,9.885711E1,2.617125E5,4.249615E5,9.2E0,4.794085E5,9.35E0,2.5349037E2,1.9637308E2,2.43488E5,1.6382231E2,2.9994999E1,1.0004209E2,6.4902234E2,7.4017224E2,1.3062981E3,1.1774858E3,9.252053E2,8.1460925E2,1.2600166E2,1.3794183E2,4.45E0,3.5432724E1,4.40026E5,4.0349274E2,3.2911884E2,3.8416913E2,2.8352344E2,3.443318E2,4.9138895E2,5.611916E2],"split_indices":[4,6,3,3,3,0,3,5,6,6,3,6,3,0,0,6,0,0,5,0,0,0,0,0,0,0,0,3,4,6,0,0,0,0,0,0,0],"split_type":[0,0,0,0,0,0,0,0,0,0,0,0,0,0,0,0,0,0,0,0,0,0,0,0,0,0,0,0,0,0,0,0,0,0,0,0,0],"sum_hessian":[6.299E3,4.892E3,1.407E3,1.14E3,3.752E3,3.44E2,1.063E3,3.55E2,7.85E2,3.448E3,3.04E2,4.71E2,5.92E2,1.38E2,2.17E2,6.67E2,1.18E2,3.115E3,3.33E2,1.5E2,1.54E2,2.13E2,2.58E2,2.83E2,3.09E2,2.73E2,3.94E2,2.68E3,4.35E2,2.81E2,5.2E1,6.74E2,2.006E3,3.56E2,7.9E1,1.21E2,1.6E2],"tree_param":{"num_deleted":"0","num_feature":"7","num_nodes":"37","size_leaf_vector":"0"}},{"base_weights":[1.1136724E3,7.973473E2,2.1415112E3,4.0625717E2,9.400411E2,1.3983439E3,2.4093508E3,3.2753964E2,5.475789E2,8.835475E2,1.5900908E3,1.4208539E3,1.0771099E3,2.861422E3,1.9980453E3,3.9893796E2,3.1249664E2,4.92707E2,6.216048E2,8.3932263E2,1.1256783E3,3.2001218E3,2.746119E3,1.8978119E3,2.090645E3,3.2579306E2,2.966102E2,5.7019116E2,4.6093896E2,5.0080228E2,6.531062E2,9.127518E2,7.392563E2,1.2330186E3,9.7576135E2,2.1182673E3,1.5880844E3,9.56824E2,7.6199457E2,6.982417E2,8.6895953E2],"categories":[],"categories_nodes":[],"categories_segments":[],"categories_sizes":[],"default_left":[1,1,1,1,1,1,1,1,1,1,0,0,0,1,1,0,1,1,1,1,1,0,0,0,1,0,0,0,0,0,0,1,1,0,0,0,0,0,0,0,0],"id":1,"left_children":[1,3,5,7,9,11,13,15,17,19,-1,-1,-1,21,23,-1,25,27,29,31,33,-1,-1,-1,35,-1,-1,-1,-1,-1,-1,37,39,-1,-1,-1,-1,-1,-1,-1,-1],"loss_changes":[2.0466191E9,2.685476E8,2.916224E8,1.4171248E7,1.2822963E8,1.32576E6,1.9658496E8,7.67872E5,1.562224E6,3.385677E7,0E0,0E0,0E0,1.1363328E7,1.350656E6,0E0,4.9328E4,3.99328E5,4.03568E5,1.9546368E7,6.826816E6,0E0,0E0,0E0,6.33984E5,0E0,0E0,0E0,0E0,0E0,0E0,9.7888E6,5.617344E6,0E0,0E0,0E0,0E0,0E0,0E0,0E0,0E0],"parents":[2147483647,0,0,1,1,2,2,3,3,4,4,5,5,6,6,7,7,8,8,9,9,13,13,14,14,16,16,17,17,18,18,19,19,20,20,24,24,31,31,32,32],"right_children":[2,4,6,8,10,12,14,16,18,20,-1,-1,-1,22,24,-1,26,28,30,32,34,-1,-1,-1,36,-1,-1,-1,-1,-1,-1,38,40,-1,-1,-1,-1,-1,-1,-1,-1],"split_conditions":[7.344554E1,2.988855E5,6.9E0,2.772085E5,6.55E0,9.988153E1,8.9E0,6.25E0,1.8721436E1,4.126425E5,4.7702725E2,4.262562E2,3.2313297E2,9.943286E1,4.24238E5,1.1968139E2,7.2E0,9.871781E1,9.25E-1,3.304925E5,9.997533E1,9.6003656E2,8.238357E2,5.6934357E2,4.196E1,9.773792E1,8.898306E1,1.7105736E2,1.382817E2,1.5024069E2,1.9593187E2,2.1350002E0,3.740305E5,3.6990558E2,2.9272842E2,6.354802E2,4.7642532E2,2.870472E2,2.2859837E2,2.0947252E2,2.6068787E2],"split_indices":[4,6,3,6,3,5,3,3,4,6,0,0,0,5,6,0,3,5,1,6,5,0,0,0,0,0,0,0,0,0,0,2,6,0,0,0,0,0,0,0,0],"split_type":[0,0,0,0,0,0,0,0,0,0,0,0,0,0,0,0,0,0,0,0,0,0,0,0,0,0,0,0,0,0,0,0,0,0,0,0,0,0,0,0,0],"sum_hessian":[6.299E3,4.818E3,1.481E3,1.289E3,3.529E3,3.94E2,1.087E3,8.3E2,4.59E2,3.249E3,2.8E2,3.65E2,2.9E1,5.15E2,5.72E2,1.4E2,6.9E2,2.68E2,1.91E2,2.751E3,4.98E2,1.24E2,3.91E2,2.85E2,2.87E2,3.65E2,3.25E2,7.3E1,1.95E2,4.3E1,1.48E2,1.582E3,1.169E3,2.86E2,2.12E2,2.69E2,1.8E1,1.22E3,3.62E2,8.93E2,2.76E2],"tree_param":{"num_deleted":"0","num_feature":"7","num_nodes":"41","size_leaf_vector":"0"}},{"base_weights":[7.807297E2,5.5878375E2,1.5019016E3,2.8512567E2,6.5863086E2,9.807378E2,1.6897305E3,2.2964645E2,3.8473026E2,6.189905E2,1.1147612E3,9.9576227E2,7.647479E2,2.060444E3,1.4319218E3,2.1641444E2,2.7255707E2,3.4604483E2,4.3692633E2,5.8788403E2,7.893027E2,1.0053686E3,1.1705574E3,2.2477654E3,1.9808329E3,1.5723014E3,1.355555E3,1.9594789E2,2.2090465E2,4.0144534E2,3.233628E2,3.584688E2,4.613036E2,6.195209E2,4.5833698E2,7.3172327E2,9.3172626E2,2.099621E3,1.8767776E3,1.1949886E3,1.398775E3,3.3418457E2,2.4324922E2,4.2986597E2,5.2021515E2,6.6218097E2,5.2814374E2,3.7710062E2,5.22667E2,8.154685E2,6.848197E2],"categories":[],"categories_nodes":[],"categories_segments":[],"categories_sizes":[],"default_left":[1,1,1,1,1,1,1,1,1,1,1,0,0,1,1,1,0,1,1,1,1,0,0,0,1,0,1,0,0,0,1,0,1,1,1,1,0,0,0,0,0,0,0,0,0,0,0,0,0,0,0],"id":2,"left_children":[1,3,5,7,9,11,13,15,17,19,21,-1,-1,23,25,27,-1,29,31,33,35,-1,-1,-1,37,-1,39,-1,-1,-1,41,-1,43,45,47,49,-1,-1,-1,-1,-1,-1,-1,-1,-1,-1,-1,-1,-1,-1,-1],"loss_changes":[1.0075456E9,1.3148646E8,1.4341504E8,7.040176E6,6.313651E7,5.2032E5,1.0103347E8,4.12848E5,7.7764E5,1.6753792E7,5.38304E5,0E0,0E0,2.16896E6,4.783232E6,1.553E4,0E0,2.08212E5,2.01856E5,1.0995072E7,3.410368E6,0E0,0E0,0E0,1.4976E4,0E0,1.277824E6,0E0,0E0,0E0,8.8636E4,0E0,4.1218E4,8.261312E6,2.645808E6,8.55616E5,0E0,0E0,0E0,0E0,0E0,0E0,0E0,0E0,0E0,0E0,0E0,0E0,0E0,0E0,0E0],"parents":[2147483647,0,0,1,1,2,2,3,3,4,4,5,5,6,6,7,7,8,8,9,9,10,10,13,13,14,14,15,15,17,17,18,18,19,19,20,20,24,24,26,26,30,30,32,32,33,33,34,34,35,35],"right_children":[2,4,6,8,10,12,14,16,18,20,22,-1,-1,24,26,28,-1,30,32,34,36,-1,-1,-1,38,-1,40,-1,-1,-1,42,-1,44,46,48,50,-1,-1,-1,-1,-1,-1,-1,-1,-1,-1,-1,-1,-1,-1,-1],"split_conditions":[7.344554E1,2.988855E5,6.9E0,2.772085E5,6.55E0,9.988153E1,8.4E0,1.00784424E2,1.8721436E1,4.126425E5,8.5E0,2.987287E2,2.294244E2,9.943286E1,9.05E0,2.388305E5,8.176712E1,9.871781E1,9.35E-1,1.00701454E2,4.40026E5,3.016106E2,3.5116724E2,6.7432965E2,4.79886E5,4.7169043E2,1.0043451E2,5.878437E1,6.62714E1,1.2043361E2,2.90447E5,1.0754065E2,9.8927246E1,2.1350002E0,3.5720543E1,9.9801926E1,2.7951788E2,6.2988635E2,5.630333E2,3.584966E2,4.1963254E2,1.0025538E2,7.297477E1,1.289598E2,1.5606454E2,1.986543E2,1.5844313E2,1.1313019E2,1.5680011E2,2.4464056E2,2.0544592E2],"split_indices":[4,6,3,6,3,5,3,5,4,6,3,0,0,5,3,6,0,5,1,5,6,0,0,0,6,0,5,0,0,0,6,0,5,2,4,5,0,0,0,0,0,0,0,0,0,0,0,0,0,0,0],"split_type":[0,0,0,0,0,0,0,0,0,0,0,0,0,0,0,0,0,0,0,0,0,0,0,0,0,0,0,0,0,0,0,0,0,0,0,0,0,0,0,0,0,0,0,0,0,0,0,0,0,0,0],"sum_hessian":[6.299E3,4.818E3,1.481E3,1.289E3,3.529E3,3.94E2,1.087E3,8.3E2,4.59E2,3.249E3,2.8E2,3.65E2,2.9E1,4.43E2,6.44E2,6.39E2,1.91E2,2.68E2,1.91E2,2.751E3,4.98E2,1.01E2,1.79E2,1.24E2,3.19E2,2.2E2,4.24E2,1.23E2,5.16E2,7.3E1,1.95E2,4.9E1,1.42E2,2.208E3,5.43E2,3.59E2,1.39E2,1.4E2,1.79E2,9.6E1,3.28E2,1.69E2,2.6E1,9.8E1,4.4E1,1.501E3,7.07E2,2.43E2,3E2,1.23E2,2.36E2],"tree_param":{"num_deleted":"0","num_feature":"7","num_nodes":"51","size_leaf_vector":"0"}},{"base_weights":[5.475501E2,3.9175095E2,1.0537908E3,2.132746E2,4.674467E2,6.878535E2,1.1856763E3,1.610014E2,2.8448672E2,4.3875146E2,7.826559E2,7.029148E2,5.724807E2,1.4465164E3,1.00428284E3,1.5352966E2,2.0484737E2,2.4332307E2,3.163113E2,4.6378058E2,3.117784E2,7.1651056E2,8.3407855E2,7.1587494E2,5.4297107E2,1.5230756E3,1.3523286E3,9.601663E2,1.1801262E3,1.4198537E2,1.5933148E2,2.7628702E2,2.2403793E2,3.8977612E2,3.0194852E2,4.8501257E2,3.5229523E2,3.727193E2,2.4938725E2,1.2244514E3,1.5811154E3,1.1367402E3,9.297808E2,3.223856E2,2.561638E2,2.3178694E2,1.729772E2,2.8364093E2,3.3507336E2,4.718089E2,6.4180756E2,3.011044E2,3.8319257E2,4.3521466E2,3.0584732E2,3.7798325E2,2.0830226E2,8.389593E2,9.6137744E2],"categories":[],"categories_nodes":[],"categories_segments":[],"categories_sizes":[],"default_left":[1,1,1,1,1,1,1,1,1,1,1,1,0,1,1,1,0,1,1,1,1,0,0,0,0,1,0,1,0,0,0,1,1,0,1,1,1,1,1,0,0,0,1,0,0,0,0,0,0,0,0,0,0,0,0,0,0,0,0],"id":3,"left_children":[1,3,5,7,9,11,13,15,17,19,21,23,-1,25,27,29,-1,31,33,35,37,-1,-1,-1,-1,39,-1,41,-1,-1,-1,43,45,-1,47,49,51,53,55,-1,-1,-1,57,-1,-1,-1,-1,-1,-1,-1,-1,-1,-1,-1,-1,-1,-1,-1,-1],"loss_changes":[4.9647974E8,6.5004544E7,7.070848E7,5.303412E6,3.0255872E7,2.83984E5,5.00256E7,2.4079E5,7.18216E5,9.7168E6,3.5816E5,3.26448E5,0E0,1.14208E6,3.870528E6,2.52E4,0E0,1.09108E5,2.40008E5,5.959808E6,1.861368E6,0E0,0E0,0E0,0E0,2.171648E6,0E0,1.738432E6,0E0,0E0,0E0,5.5435E3,2.9148E4,0E0,7.9612E4,4.195904E6,5.45752E5,9.4512E5,1.27909E6,0E0,0E0,0E0,4.84768E5,0E0,0E0,0E0,0E0,0E0,0E0,0E0,0E0,0E0,0E0,0E0,0E0,0E0,0E0,0E0,0E0],"parents":[2147483647,0,0,1,1,2,2,3,3,4,4,5,5,6,6,7,7,8,8,9,9,10,10,11,11,13,13,14,14,15,15,17,17,18,18,19,19,20,20,25,25,27,27,31,31,32,32,34,34,35,35,36,36,37,37,38,38,42,42],"right_children":[2,4,6,8,10,12,14,16,18,20,22,24,-1,26,28,30,-1,32,34,36,38,-1,-1,-1,-1,40,-1,42,-1,-1,-1,44,46,-1,48,50,52,54,56,-1,-1,-1,58,-1,-1,-1,-1,-1,-1,-1,-1,-1,-1,-1,-1,-1,-1,-1,-1],"split_conditions":[7.344554E1,3.0474E5,6.9E0,2.772085E5,6.55E0,2.156E1,8.4E0,1.0111714E2,1.8721436E1,2.7715E1,8.85E0,9.988153E1,1.7174422E2,9.471703E1,9.70936E1,2.423595E5,6.1454212E1,9.875932E1,5.65E-1,1.0071842E2,2.0749998E0,2.1495317E2,2.5022357E2,2.147625E2,1.6289133E2,7.6499996E0,4.056986E2,9.997659E1,3.5403787E2,4.259561E1,4.7799446E1,5.55E0,2.90447E5,1.1693284E2,2.5E0,4.36835E5,3.7401115E1,1.00618355E2,9.987562E1,3.6733545E2,4.7433463E2,3.410221E2,1.0043451E2,9.671568E1,7.684914E1,6.953609E1,5.189316E1,8.5092285E1,1.0052201E2,1.4154268E2,1.9254228E2,9.033132E1,1.1495777E2,1.305644E2,9.1754196E1,1.1339498E2,6.249068E1,2.5168779E2,2.8841324E2],"split_indices":[4,6,3,6,3,0,3,5,4,0,3,5,0,4,4,6,0,5,2,5,1,0,0,0,0,3,0,5,0,0,0,3,6,0,2,6,4,5,5,0,0,0,5,0,0,0,0,0,0,0,0,0,0,0,0,0,0,0,0],"split_type":[0,0,0,0,0,0,0,0,0,0,0,0,0,0,0,0,0,0,0,0,0,0,0,0,0,0,0,0,0,0,0,0,0,0,0,0,0,0,0,0,0,0,0,0,0,0,0,0,0,0,0,0,0,0,0,0,0,0,0],"sum_hessian":[6.299E3,4.818E3,1.481E3,1.436E3,3.382E3,3.94E2,1.087E3,8.3E2,6.06E2,3.102E3,2.8E2,3.44E2,5E1,4.43E2,6.44E2,7.13E2,1.17E2,2.68E2,3.38E2,2.589E3,5.13E2,1.29E2,1.51E2,3.15E2,2.9E1,2.36E2,2.07E2,5.2E2,1.24E2,2.47E2,4.66E2,9.4E1,1.74E2,5.1E1,2.87E2,2.172E3,4.17E2,2.57E2,2.56E2,4.2E1,1.94E2,7.1E1,4.49E2,2.4E1,7E1,1.48E2,2.6E1,1.91E2,9.6E1,2.007E3,1.65E2,1.61E2,2.56E2,1.3E2,1.27E2,6E1,1.96E2,1.23E2,3.26E2],"tree_param":{"num_deleted":"0","num_feature":"7","num_nodes":"59","size_leaf_vector":"0"}},{"base_weights":[3.8410794E2,2.7122968E2,7.295545E2,1.4981372E2,3.237956E2,4.7965515E2,8.2809283E2,2.0232452E2,1.140394E2,3.052544E2,5.4223236E2,4.9424442E2,3.6594623E2,9.9898785E2,6.891447E2,1.71574E2,2.2792584E2,1.0756754E2,1.4507657E2,2.3039348E2,3.2609018E2,5.2082605E2,6.134558E2,5.105967E2,4.1266406E2,1.0977224E3,9.4076294E2,6.5790546E2,7.542033E2,1.8876073E2,1.4977863E2,2.3783809E2,1.6655547E2,9.0583435E1,1.1006332E2,2.6382574E2,1.3879807E2,3.469948E2,2.2032425E2,1.1760033E3,9.982386E2,1.0127982E3,8.772499E2,6.2643494E2,7.021317E2,8.1563293E2,6.4205005E2,2.2918384E2,1.6662303E2,2.0541966E2,2.6352048E2,1.12453285E2,9.944457E1,2.8048544E2,2.180626E2,2.730775E2,1.3343173E2,2.718455E2,3.6867242E2,1.547693E2,2.4850316E2,8.569871E2,6.225532E2],"categories":[],"categories_nodes":[],"categories_segments":[],"categories_sizes":[],"default_left":[1,1,1,1,1,1,1,1,1,1,1,1,0,1,1,1,1,1,0,1,1,0,0,0,0,1,1,1,1,1,0,1,0,0,1,1,1,1,1,0,0,0,0,0,0,1,0,0,0,0,0,0,0,0,0,0,0,0,0,0,0,0,0],"id":4,"left_children":[1,3,5,7,9,11,13,15,17,19,21,23,-1,25,27,29,31,33,-1,35,37,-1,-1,-1,-1,39,41,43,45,47,-1,49,-1,-1,51,53,55,57,59,-1,-1,-1,-1,-1,-1,61,-1,-1,-1,-1,-1,-1,-1,-1,-1,-1,-1,-1,-1,-1,-1,-1,-1],"loss_changes":[2.454606E8,3.0267648E7,3.779565E7,2.676384E6,1.3256448E7,5.5072E5,2.5692864E7,4.1829E5,1.56538E5,4.693152E6,7.3848E4,3.06896E5,0E0,1.81872E6,7.55744E5,7.2118E4,1.51399E5,2.02535E4,0E0,2.01202E6,5.205632E6,0E0,0E0,0E0,0E0,2.12272E5,5.71008E5,1.50288E5,8.06E5,9.2464E4,0E0,1.69E5,0E0,0E0,4.476E3,3.11648E5,9.398925E4,3.146496E6,6.94904E5,0E0,0E0,0E0,0E0,0E0,0E0,4.32624E5,0E0,0E0,0E0,0E0,0E0,0E0,0E0,0E0,0E0,0E0,0E0,0E0,0E0,0E0,0E0,0E0,0E0],"parents":[2147483647,0,0,1,1,2,2,3,3,4,4,5,5,6,6,7,7,8,8,9,9,10,10,11,11,13,13,14,14,15,15,16,16,17,17,19,19,20,20,25,25,26,26,27,27,28,28,29,29,31,31,34,34,35,35,36,36,37,37,38,38,45,45],"right_children":[2,4,6,8,10,12,14,16,18,20,22,24,-1,26,28,30,32,34,-1,36,38,-1,-1,-1,-1,40,42,44,46,48,-1,50,-1,-1,52,54,56,58,60,-1,-1,-1,-1,-1,-1,62,-1,-1,-1,-1,-1,-1,-1,-1,-1,-1,-1,-1,-1,-1,-1,-1,-1],"split_conditions":[7.10117E1,3.0474E5,6.9E0,5.75E0,6.55E0,9.983685E1,8.700001E0,1.8721436E1,2.673605E5,4.3500004E0,9.870195E1,1.9974998E1,1.09783875E2,2.0575E1,4.545935E5,9.933659E1,3.0118E5,1.55E0,4.3522972E1,2.339E1,1.0086517E2,1.5624782E2,1.8403674E2,1.5317902E2,1.23799225E2,9.473573E1,9.963858E1,2.8649998E0,2.797E1,1.771159E1,4.493359E1,9.8927246E1,4.996664E1,2.7175032E1,7.5E0,1.0026902E2,2.4650002E0,9.916928E1,3.5720543E1,3.52801E2,2.994716E2,3.0383948E2,2.63175E2,1.8793048E2,2.1063953E2,1.01342606E2,1.9261502E2,6.875516E1,4.998691E1,6.16259E1,7.9056145E1,3.373599E1,2.9833372E1,8.414564E1,6.5418785E1,8.1923256E1,4.0029522E1,8.155365E1,1.1060173E2,4.6430794E1,7.455095E1,2.5709616E2,1.8676598E2],"split_indices":[4,6,3,3,3,5,3,4,6,3,5,0,0,0,6,5,6,2,0,0,5,0,0,0,0,4,5,2,0,4,0,5,0,0,3,5,2,5,4,0,0,0,0,0,0,5,0,0,0,0,0,0,0,0,0,0,0,0,0,0,0,0,0],"split_type":[0,0,0,0,0,0,0,0,0,0,0,0,0,0,0,0,0,0,0,0,0,0,0,0,0,0,0,0,0,0,0,0,0,0,0,0,0,0,0,0,0,0,0,0,0,0,0,0,0,0,0,0,0,0,0,0,0,0,0,0,0,0,0],"sum_hessian":[6.299E3,4.749E3,1.55E3,1.436E3,3.313E3,4.4E2,1.11E3,5.8E2,8.56E2,3.056E3,2.57E2,3.87E2,5.3E1,4.95E2,6.15E2,2.67E2,3.13E2,7.12E2,1.44E2,6.68E2,2.388E3,2.04E2,5.3E1,3.18E2,6.9E1,1.77E2,3.18E2,4.23E2,1.92E2,1.45E2,1.22E2,2.67E2,4.6E1,9.6E1,6.16E2,4.88E2,1.8E2,1.992E3,3.96E2,9.3E1,8.4E1,1.42E2,1.76E2,2.56E2,1.67E2,1.2E2,7.2E1,4.8E1,9.7E1,1.22E2,1.45E2,4.95E2,1.21E2,3.54E2,1.34E2,5E0,1.75E2,4.49E2,1.543E3,1.21E2,2.75E2,9.6E1,2.4E1],"tree_param":{"num_deleted":"0","num_feature":"7","num_nodes":"63","size_leaf_vector":"0"}},{"base_weights":[2.6951913E2,1.8477211E2,4.9854138E2,9.9746994E1,2.1874144E2,3.326811E2,5.747736E2,1.3164105E2,7.650039E1,2.0872528E2,3.682589E2,3.0787415E2,3.6130963E2,7.14225E2,4.8810068E2,1.964659E2,1.25511955E2,7.346608E1,8.841085E1,2.176254E2,8.962643E1,2.833556E2,3.7900827E2,3.3501398E2,2.7500488E2,3.682179E2,2.8922452E2,7.52656E2,6.089783E2,4.6804498E2,5.799818E2,1.9880112E2,4.5690643E1,1.1705362E2,1.7353712E2,6.3688572E1,7.5155174E1,1.6601259E2,2.3208675E2,1.071452E2,2.6078535E1,3.6731436E2,2.68433E2,8.2158636E2,6.865968E2,6.55298E2,5.410312E2,4.1489954E2,4.809606E2,6.0890515E2,4.4643124E2,1.08275E2,1.2959927E2,2.3800107E2,1.3979846E2,7.711552E1,6.8961975E1,1.851123E2,1.0013293E2,2.4374127E2,1.6518932E2,9.488346E1,1.5866895E2,3.1975883E1,-2.0532227E1,6.041015E2,4.6695523E2],"categories":[],"categories_nodes":[],"categories_segments":[],"categories_sizes":[],"default_left":[1,1,1,1,1,1,1,1,1,1,1,1,1,1,1,1,1,1,0,1,1,0,0,1,0,0,0,1,1,1,1,0,0,1,1,0,1,1,1,1,1,0,0,0,0,0,0,0,1,0,0,0,0,0,0,0,0,0,0,0,0,0,0,0,0,0,0],"id":5,"left_children":[1,3,5,7,9,11,13,15,17,19,21,23,25,27,29,31,33,35,-1,37,39,-1,-1,41,-1,-1,-1,43,45,47,49,-1,-1,51,53,-1,55,57,59,61,63,-1,-1,-1,-1,-1,-1,-1,65,-1,-1,-1,-1,-1,-1,-1,-1,-1,-1,-1,-1,-1,-1,-1,-1,-1,-1],"loss_changes":[1.2218435E8,1.3264128E7,2.1316064E7,9.64908E5,4.844224E6,2.70844E5,1.3720256E7,1.95058E5,2.10795E4,3.247408E6,7.97E4,1.71028E5,1.5012E4,1.33752E6,1.057152E6,7.112875E3,1.860435E5,5.35375E3,0E0,2.10136E6,2.376745E5,0E0,0E0,2.39044E5,0E0,0E0,0E0,8.97584E5,3.5728E4,2.1024E5,2.11008E5,0E0,0E0,3.38755E4,1.276725E5,0E0,9.7125E2,7.7544E5,1.703832E6,9.1714125E4,1.3850771E4,0E0,0E0,0E0,0E0,0E0,0E0,0E0,5.35392E5,0E0,0E0,0E0,0E0,0E0,0E0,0E0,0E0,0E0,0E0,0E0,0E0,0E0,0E0,0E0,0E0,0E0,0E0],"parents":[2147483647,0,0,1,1,2,2,3,3,4,4,5,5,6,6,7,7,8,8,9,9,10,10,11,11,12,12,13,13,14,14,15,15,16,16,17,17,19,19,20,20,23,23,27,27,28,28,29,29,30,30,33,33,34,34,36,36,37,37,38,38,39,39,40,40,48,48],"right_children":[2,4,6,8,10,12,14,16,18,20,22,24,26,28,30,32,34,36,-1,38,40,-1,-1,42,-1,-1,-1,44,46,48,50,-1,-1,52,54,-1,56,58,60,62,64,-1,-1,-1,-1,-1,-1,-1,66,-1,-1,-1,-1,-1,-1,-1,-1,-1,-1,-1,-1,-1,-1,-1,-1,-1,-1],"split_conditions":[6.6568146E1,2.992575E5,6.9E0,6.05E0,6.55E0,4.61418E5,8.4E0,9.8369896E1,1.00666985E2,3.5325E1,7.05E0,1.4725E1,4.83142E5,2.4895E1,9.70936E1,2.92342E5,2.0852978E1,1.55E0,2.6523256E1,4.3500004E0,4.9235E1,8.500668E1,1.13702484E2,1.895E0,8.2501465E1,1.1046537E2,8.676736E1,9.471703E1,9.967743E1,1.725E0,1.01186134E2,5.964034E1,1.3707193E1,2.85447E5,2.2199998E0,1.9106573E1,2.7350001E0,2.3310001E1,1.0086517E2,3.903263E1,7.15E1,1.1019431E2,8.052991E1,2.4647592E2,2.0597905E2,1.965894E2,1.6230936E2,1.24469864E2,9.982004E1,1.8267155E2,1.3392938E2,3.2482502E1,3.8879784E1,7.140032E1,4.193954E1,2.3134655E1,2.0688593E1,5.5533695E1,3.0039879E1,7.312238E1,4.9556797E1,2.846504E1,4.7600685E1,9.592766E0,-6.1596684E0,1.8123045E2,1.4008658E2],"split_indices":[4,6,3,3,3,6,3,5,5,0,3,0,6,0,4,6,4,2,0,3,0,0,0,1,0,0,0,4,5,2,5,0,0,6,2,0,2,0,5,4,0,0,0,0,0,0,0,0,5,0,0,0,0,0,0,0,0,0,0,0,0,0,0,0,0,0,0],"split_type":[0,0,0,0,0,0,0,0,0,0,0,0,0,0,0,0,0,0,0,0,0,0,0,0,0,0,0,0,0,0,0,0,0,0,0,0,0,0,0,0,0,0,0,0,0,0,0,0,0,0,0,0,0,0,0,0,0,0,0,0,0,0,0,0,0,0,0],"sum_hessian":[6.299E3,4.599E3,1.7E3,1.314E3,3.285E3,5.37E2,1.163E3,5.52E2,7.62E2,3.081E3,2.04E2,2.94E2,2.43E2,4.43E2,7.2E2,4.5E1,5.07E2,6.13E2,1.49E2,2.866E3,2.15E2,2.6E1,1.78E2,1.56E2,1.38E2,2.18E2,2.5E1,3.2E2,1.23E2,5.96E2,1.24E2,4.4E1,1E0,4.34E2,7.3E1,9.6E1,5.17E2,6.3E2,2.236E3,1.68E2,4.7E1,1.02E2,5.4E1,1.51E2,1.69E2,6.8E1,5.5E1,1.23E2,4.73E2,9.9E1,2.5E1,2.61E2,1.73E2,2.3E1,5E1,3.84E2,1.33E2,4.87E2,1.43E2,1.902E3,3.34E2,1.38E2,3E1,4.2E1,5E0,4.4E1,4.29E2],"tree_param":{"num_deleted":"0","num_feature":"7","num_nodes":"67","size_leaf_vector":"0"}},{"base_weights":[1.8912022E2,1.2952176E2,3.501807E2,7.434184E1,1.5792328E2,2.3375122E2,4.0369348E2,9.389373E1,5.366752E1,1.7460846E2,1.1351375E2,2.4855042E2,2.0729153E2,5.113631E2,3.477236E2,9.784105E1,-1.8856842E1,5.737884E1,4.8406418E1,1.5424734E2,2.2969759E2,1.9571251E2,9.745307E1,2.6907846E2,2.1331989E2,1.8278444E2,2.2792027E2,5.4111725E2,4.2029608E2,3.283781E2,4.1247232E2,8.040389E1,1.075225E2,-5.9273233E0,-4.1537243E1,5.3785534E1,6.1127434E1,5.1620686E1,4.487153E1,1.3936479E2,2.0914899E2,1.2169376E2,2.4581915E2,2.1341275E2,7.64156E1,1.472205E2,8.503711E1,2.7990836E2,1.9398135E2,2.2963745E2,9.356287E1,6.3696594E2,5.1126013E2,4.4187616E2,3.3615445E2,3.3062582E2,1.6337505E2,3.1341336E2,4.2943945E2,1.3516873E2,7.591649E1,9.239627E1,1.1794873E2,-1.0756978E1,4.0503235E1,-1.681832E1,-4.5614685E1,5.5960358E1,4.6386303E1,1.8147633E2,1.2228322E2,2.4144415E2,1.5326924E2,9.929522E1,1.5688797E2,2.6932272E2,1.9738281E2,1.47444E2,2.7576434E2,9.1000755E1,2.9647644E1,1.6450276E2,1.1639983E2,5.970491E1,1.1392582E2,4.542445E2,5.3436694E2,3.0227606E2,3.4711823E2,1.9244421E2,3.1398926E1,4.3167703E2,1.7963606E2],"categories":[],"categories_nodes":[],"categories_segments":[],"categories_sizes":[],"default_left":[1,1,1,1,1,1,1,1,1,1,1,1,1,1,1,1,1,1,1,1,1,1,1,0,1,0,1,1,1,1,1,1,1,1,1,1,0,0,0,1,1,1,1,1,1,1,1,0,0,0,0,0,1,0,0,1,1,0,1,0,0,0,0,0,0,0,0,0,0,0,0,0,0,0,0,0,0,0,0,0,0,0,0,0,0,0,0,0,0,0,0,0,0],"id":6,"left_children":[1,3,5,7,9,11,13,15,17,19,21,23,25,27,29,31,33,35,37,39,41,43,45,-1,47,-1,49,51,53,55,57,59,61,63,65,67,-1,-1,-1,69,71,73,75,77,79,81,83,-1,-1,-1,-1,-1,85,-1,-1,87,89,-1,91,-1,-1,-1,-1,-1,-1,-1,-1,-1,-1,-1,-1,-1,-1,-1,-1,-1,-1,-1,-1,-1,-1,-1,-1,-1,-1,-1,-1,-1,-1,-1,-1,-1,-1],"loss_changes":[6.0428064E7,7.197352E6,1.050368E7,6.27569E5,2.229792E6,1.59148E5,6.836736E6,3.59231E5,1.21205E4,2.437864E6,1.079306E6,1.88494E5,5.8944E4,8.45576E5,8.278E5,1.22357E5,7.964702E3,2.665875E3,1.3423125E3,1.288796E6,1.00261E6,2.687555E5,4.18783E5,0E0,1.13107E5,0E0,2.5095E3,5.18568E5,3.6672E4,1.674E5,1.56176E5,5.879475E4,6.73255E4,4.6963203E3,2.4073828E2,1.16975E3,0E0,0E0,0E0,8.92796E5,5.80183E5,4.669725E4,5.33132E5,4.405915E5,1.0262273E4,5.43575E4,4.03746E5,0E0,0E0,0E0,0E0,0E0,6.028E4,0E0,0E0,1.69996E5,3.2321844E4,0E0,3.504E3,0E0,0E0,0E0,0E0,0E0,0E0,0E0,0E0,0E0,0E0,0E0,0E0,0E0,0E0,0E0,0E0,0E0,0E0,0E0,0E0,0E0,0E0,0E0,0E0,0E0,0E0,0E0,0E0,0E0,0E0,0E0,0E0,0E0,0E0],"parents":[2147483647,0,0,1,1,2,2,3,3,4,4,5,5,6,6,7,7,8,8,9,9,10,10,11,11,12,12,13,13,14,14,15,15,16,16,17,17,18,18,19,19,20,20,21,21,22,22,24,24,26,26,27,27,28,28,29,29,30,30,31,31,32,32,33,33,34,34,35,35,39,39,40,40,41,41,42,42,43,43,44,44,45,45,46,46,52,52,55,55,56,56,58,58],"right_children":[2,4,6,8,10,12,14,16,18,20,22,24,26,28,30,32,34,36,38,40,42,44,46,-1,48,-1,50,52,54,56,58,60,62,64,66,68,-1,-1,-1,70,72,74,76,78,80,82,84,-1,-1,-1,-1,-1,86,-1,-1,88,90,-1,92,-1,-1,-1,-1,-1,-1,-1,-1,-1,-1,-1,-1,-1,-1,-1,-1,-1,-1,-1,-1,-1,-1,-1,-1,-1,-1,-1,-1,-1,-1,-1,-1,-1,-1],"split_conditions":[6.6568146E1,3.097725E5,6.9E0,6.05E0,2.4125E1,1.5965E1,8.25E0,3.09153E5,1.3565001E1,5.6499996E0,1.625E0,9.96856E1,4.61418E5,2.5735E1,9.70936E1,2.853685E5,1.5699999E0,2.48674E5,7.3500004E0,4.085425E5,2.5014547E1,1.0079524E2,3.21397E5,8.072354E1,6.8576035E1,5.4835335E1,2.9375E1,9.941985E1,3.128E1,5.5480003E1,1.23E0,9.851624E1,9.881938E1,3.0634998E1,2.231E1,1.00247574E2,1.833823E1,1.5486206E1,1.3461459E1,2.1737173E1,4.6499996E0,2.2641796E1,1.635E0,3.19428E5,1.565E0,2.335E0,3.1898129E1,8.397251E1,5.819441E1,6.8891235E1,2.8068861E1,1.9108978E2,9.957793E1,1.3256285E2,1.0084634E2,2.3249998E0,1.775E0,9.402401E1,3.547E1,4.055062E1,2.2774948E1,2.7718882E1,3.538462E1,-3.2270935E0,1.2150971E1,-5.045496E0,-1.3684406E1,1.6788109E1,1.3915892E1,5.44429E1,3.6684967E1,7.243325E1,4.5980774E1,2.9788567E1,4.706639E1,8.079682E1,5.9214848E1,4.42332E1,8.272931E1,2.7300228E1,8.894294E0,4.935083E1,3.4919952E1,1.7911474E1,3.4177746E1,1.3627336E2,1.6031009E2,9.068282E1,1.04135475E2,5.7733265E1,9.419678E0,1.2950311E2,5.389082E1],"split_indices":[4,6,3,3,0,0,3,6,0,3,1,5,6,0,4,6,1,6,3,6,4,5,6,0,4,0,0,5,0,0,1,5,5,0,0,5,0,0,0,4,3,4,1,6,1,2,4,0,0,0,0,0,5,0,0,2,1,0,0,0,0,0,0,0,0,0,0,0,0,0,0,0,0,0,0,0,0,0,0,0,0,0,0,0,0,0,0,0,0,0,0,0,0],"split_type":[0,0,0,0,0,0,0,0,0,0,0,0,0,0,0,0,0,0,0,0,0,0,0,0,0,0,0,0,0,0,0,0,0,0,0,0,0,0,0,0,0,0,0,0,0,0,0,0,0,0,0,0,0,0,0,0,0,0,0,0,0,0,0,0,0,0,0,0,0,0,0,0,0,0,0,0,0,0,0,0,0,0,0,0,0,0,0,0,0,0,0,0,0],"sum_hessian":[6.299E3,4.599E3,1.7E3,1.564E3,3.035E3,5.37E2,1.163E3,8.02E2,7.62E2,2.204E3,8.31E2,3.39E2,1.98E2,3.95E2,7.68E2,7.75E2,2.7E1,4.41E2,3.21E2,1.612E3,5.92E2,1.34E2,6.97E2,2.1E2,1.29E2,9.5E1,1.03E2,2.94E2,1.01E2,5.96E2,1.72E2,2.8E2,4.95E2,1.8E1,9E0,2.33E2,2.08E2,1.61E2,1.6E2,1.271E3,3.41E2,7.8E1,5.14E2,1.16E2,1.8E1,1.37E2,5.6E2,2.6E1,1.03E2,1.01E2,2E0,6.5E1,2.29E2,7.7E1,2.4E1,5.87E2,9E0,2.8E1,1.44E2,1.9E1,2.61E2,2.06E2,2.89E2,1.7E1,1E0,2E0,7E0,1.75E2,5.8E1,3.64E2,9.07E2,2.14E2,1.27E2,5E1,2.8E1,3.43E2,1.71E2,5.8E1,5.8E1,1.3E1,5E0,8.5E1,5.2E1,3E2,2.6E2,7.2E1,1.57E2,2.23E2,3.64E2,7E0,2E0,1.42E2,2E0],"tree_param":{"num_deleted":"0","num_feature":"7","num_nodes":"93","size_leaf_vector":"0"}},{"base_weights":[1.3278983E2,9.086535E1,2.4608777E2,5.2163635E1,1.1078541E2,1.643223E2,2.836683E2,6.940244E1,4.0473953E1,1.0525239E2,1.8668164E2,1.5315866E2,1.836424E2,3.597751E2,2.441079E2,7.313301E1,-1.3550018E1,3.7134136E1,5.2639652E1,1.1099262E2,4.4458748E1,1.982628E2,1.4576482E2,1.846869E2,1.4481241E2,1.9764398E2,1.5520357E2,3.7445264E2,2.659129E2,2.3030347E2,2.9033414E2,6.913709E1,1.0039573E2,-3.6794884E0,-3.0949024E1,3.912124E1,3.3033722E1,8.2363E1,4.809266E1,1.1897812E2,8.0429955E1,6.906807E1,2.1968365E1,2.1641711E2,1.4123582E2,1.6171223E2,1.3123245E2,4.435385E2,3.521922E2,3.440399E2,2.3501083E2,2.3440894E2,1.3850267E2,2.3105054E2,3.053099E2,1.067043E2,6.5431465E1,1.014395E2,4.1532063E1,-7.709208E0,3.4427734E1,-1.7098194E1,-3.733321E1,4.0952587E1,3.5870724E1,3.3955734E1,2.5777813E1,5.3856075E1,2.0654402E1,8.545969E1,1.3316052E2,5.7923306E1,1.02972404E2,-3.170047E1,7.384971E1,3.706833E1,-2.9329493E0,7.680481E1,1.4769722E2,1.04480965E2,1.4079189E2,4.5836673E2,3.4152338E2,3.609184E2,6.2309692E1,2.5775754E2,1.4333824E2,2.838052E2,2.2430797E2,1.5488264E2,7.819238E1,3.2707578E2,2.5450978E2],"categories":[],"categories_nodes":[],"categories_segments":[],"categories_sizes":[],"default_left":[1,1,1,1,1,1,1,1,1,1,1,1,1,1,1,1,1,1,1,1,1,0,0,1,1,0,0,1,1,1,1,1,1,1,1,1,1,0,1,1,1,1,1,0,1,0,1,0,1,1,1,1,1,0,1,0,0,0,0,0,0,0,0,0,0,0,0,0,0,0,0,0,0,0,0,0,0,0,0,0,0,0,0,0,0,0,0,0,0,0,0,0,0],"id":7,"left_children":[1,3,5,7,9,11,13,15,17,19,21,23,25,27,29,31,33,35,37,39,41,-1,-1,43,45,-1,-1,47,49,51,53,55,57,59,61,63,65,-1,67,69,71,73,75,-1,77,-1,79,-1,81,83,85,87,89,-1,91,-1,-1,-1,-1,-1,-1,-1,-1,-1,-1,-1,-1,-1,-1,-1,-1,-1,-1,-1,-1,-1,-1,-1,-1,-1,-1,-1,-1,-1,-1,-1,-1,-1,-1,-1,-1,-1,-1],"loss_changes":[2.9902376E7,3.540552E6,5.180208E6,3.125635E5,1.255272E6,8.7911E4,3.41676E6,1.962605E5,3.6035375E4,9.83348E5,6.8242E4,6.45655E4,4.5777E4,4.45984E5,4.23852E5,5.88585E4,4.6947705E3,4.71275E3,2.2934188E4,6.21808E5,1.3463712E5,0E0,0E0,6.45655E4,4.28085E4,0E0,0E0,3.66672E5,5.676125E4,1.92538E5,8.305E4,6.67995E4,3.95E2,3.1830776E3,2.459336E2,1.4538125E3,7.7715625E2,0E0,2.6561781E4,9.6266E5,2.674995E5,5.8716188E4,4.898989E4,0E0,1.9781875E3,0E0,2.62065E4,0E0,1.40242E5,4.4084E4,5.48045E4,2.2074E5,1.55500625E4,0E0,6.6026E4,0E0,0E0,0E0,0E0,0E0,0E0,0E0,0E0,0E0,0E0,0E0,0E0,0E0,0E0,0E0,0E0,0E0,0E0,0E0,0E0,0E0,0E0,0E0,0E0,0E0,0E0,0E0,0E0,0E0,0E0,0E0,0E0,0E0,0E0,0E0,0E0,0E0,0E0],"parents":[2147483647,0,0,1,1,2,2,3,3,4,4,5,5,6,6,7,7,8,8,9,9,10,10,11,11,12,12,13,13,14,14,15,15,16,16,17,17,18,18,19,19,20,20,23,23,24,24,27,27,28,28,29,29,30,30,31,31,32,32,33,33,34,34,35,35,36,36,38,38,39,39,40,40,41,41,42,42,44,44,46,46,48,48,49,49,50,50,51,51,52,52,54,54],"right_children":[2,4,6,8,10,12,14,16,18,20,22,24,26,28,30,32,34,36,38,40,42,-1,-1,44,46,-1,-1,48,50,52,54,56,58,60,62,64,66,-1,68,70,72,74,76,-1,78,-1,80,-1,82,84,86,88,90,-1,92,-1,-1,-1,-1,-1,-1,-1,-1,-1,-1,-1,-1,-1,-1,-1,-1,-1,-1,-1,-1,-1,-1,-1,-1,-1,-1,-1,-1,-1,-1,-1,-1,-1,-1,-1,-1,-1,-1],"split_conditions":[6.6568146E1,3.097725E5,6.9E0,5.6499996E0,6.55E0,4.69312E5,8.25E0,3.09153E5,2.68844E5,2.185E0,1.4045E1,1.2665E1,1.6695E1,2.886E1,9.70936E1,3.0474E5,1.5699999E0,1.4285E1,1.7381342E1,1.00701454E2,1.0018376E2,5.9478844E1,4.3729446E1,4.6499996E0,4.25456E5,5.9293198E1,4.6561073E1,9.941985E1,1.475E0,9.6683365E1,1.265E0,9.8369896E1,1.945E0,3.0634998E1,6.65E-1,2.003506E1,1.7985E1,2.47089E1,1.8185001E1,9.928342E1,3.55132E5,2.25E-1,6.05E0,6.492514E1,7.354753E1,4.851367E1,4.422045E5,1.3306155E2,8.515978E1,8.892969E1,3.214E1,9.05E0,1.685E0,6.931516E1,4.808405E5,3.201129E1,1.962944E1,3.043185E1,1.24596195E1,-2.3127625E0,1.03283205E1,-5.1294584E0,-1.1199964E1,1.2285777E1,1.0761217E1,1.0186721E1,7.733344E0,1.6156824E1,6.196321E0,2.5637907E1,3.994816E1,1.7376993E1,3.0891722E1,-9.510141E0,2.2154913E1,1.1120499E1,-8.7988484E-1,2.3041443E1,4.4309166E1,3.134429E1,4.2237568E1,1.3751003E2,1.02457016E2,1.0827552E2,1.869291E1,7.732726E1,4.3001472E1,8.514156E1,6.72924E1,4.6464794E1,2.3457716E1,9.8122734E1,7.6352936E1],"split_indices":[4,6,3,3,3,6,3,6,6,1,0,0,0,0,4,6,1,0,4,5,5,0,0,3,6,0,0,5,2,4,1,5,1,0,2,4,0,0,0,5,6,2,3,0,4,0,6,0,4,4,0,3,1,0,6,0,0,0,0,0,0,0,0,0,0,0,0,0,0,0,0,0,0,0,0,0,0,0,0,0,0,0,0,0,0,0,0,0,0,0,0,0,0],"split_type":[0,0,0,0,0,0,0,0,0,0,0,0,0,0,0,0,0,0,0,0,0,0,0,0,0,0,0,0,0,0,0,0,0,0,0,0,0,0,0,0,0,0,0,0,0,0,0,0,0,0,0,0,0,0,0,0,0,0,0,0,0,0,0,0,0,0,0,0,0,0,0,0,0,0,0,0,0,0,0,0,0,0,0,0,0,0,0,0,0,0,0,0,0],"sum_hessian":[6.299E3,4.599E3,1.7E3,1.564E3,3.035E3,5.37E2,1.163E3,6.3E2,9.34E2,2.831E3,2.04E2,3.46E2,1.91E2,3.95E2,7.68E2,6.03E2,2.7E1,7.36E2,1.98E2,2.586E3,2.45E2,1.56E2,4.8E1,6.8E1,2.78E2,1.24E2,6.7E1,3.39E2,5.6E1,5.96E2,1.72E2,5.29E2,7.4E1,1.8E1,9E0,4.9E2,2.46E2,2.4E1,1.74E2,2.048E3,5.38E2,1.16E2,1.29E2,3.7E1,3.1E1,1.19E2,1.59E2,7.8E1,2.61E2,1.3E1,4.3E1,5.69E2,2.7E1,3.8E1,1.34E2,4.5E1,4.84E2,7.2E1,2E0,1.7E1,1E0,4E0,5E0,3.06E2,1.84E2,2.15E2,3.1E1,1.43E2,3.1E1,6.11E2,1.437E3,2.71E2,2.67E2,5E0,1.11E2,8E1,4.9E1,4E0,2.7E1,4.5E1,1.14E2,2E1,2.41E2,1.2E1,1E0,3.3E1,1E1,9.2E1,4.77E2,2E1,7E0,9E1,4.4E1],"tree_param":{"num_deleted":"0","num_feature":"7","num_nodes":"93","size_leaf_vector":"0"}},{"base_weights":[9.324825E1,6.146975E1,1.682697E2,3.8483955E1,7.61998E1,1.14995094E2,1.987244E2,2.9363415E1,5.223466E1,5.288239E1,8.9392654E1,1.2720287E2,8.417077E1,2.5340903E2,1.7126984E2,5.9036083E1,2.8121199E1,7.285612E1,4.6458633E1,3.834519E1,8.192826E1,1.0528121E2,5.867768E1,1.5334807E2,1.1998321E2,4.1220562E1,9.849927E1,2.6920563E2,2.0523837E2,1.6174286E2,2.0464304E2,2.4984E1,3.254242E1,6.389736E1,1.16853905E2,8.285483E1,4.2746925E1,5.7467655E1,1.9569048E1,1.0467075E2,6.083461E1,1.17562035E2,5.8105526E1,1.01152626E2,4.533286E1,1.31601E2,9.5447205E1,7.612495E1,3.0850592E1,1.03842995E2,7.0903305E1,2.7832858E2,1.8253493E2,1.9245483E2,3.512358E2,1.88772E2,1.4854803E2,1.9169727E2,2.519302E2,2.8057259E1,2.33998E1,3.3173466E1,1.0573796E1,8.461657E1,5.0062252E1,1.2332093E2,3.0477743E1,1.0707624E2,7.551709E1,3.2608948E1,6.147764E1,6.2380643E0,6.750073E1,4.410081E1,1.0641325E1,9.730501E1,1.3747366E2,1.6319214E1,6.695797E1,8.321003E1,1.3173509E2,3.7820984E1,8.305271E1,1.3603296E2,8.633711E1,5.865765E1,1.8823349E1,1.5082843E2,1.2253194E2,1.0280587E2,7.906235E1,2.2923832E1,4.3062054E1,9.85303E1,1.2876955E2,7.665922E1,3.798108E1,2.848841E2,2.0400044E2,2.150916E2,1.3856981E2,1.5569272E2,2.181644E2,1.5441788E2,2.9505872E2,2.4332217E2,1.3693387E2,2.1636383E2,1.6467816E2],"categories":[],"categories_nodes":[],"categories_segments":[],"categories_sizes":[],"default_left":[1,1,1,1,1,1,1,1,1,1,1,1,1,1,1,0,1,1,1,1,1,1,1,0,1,1,1,1,1,1,1,1,1,1,1,1,1,1,1,1,1,1,1,1,1,1,1,0,1,1,1,1,1,1,0,1,1,1,0,0,0,0,0,0,0,0,0,0,0,0,0,0,0,0,0,0,0,0,0,0,0,0,0,0,0,0,0,0,0,0,0,0,0,0,0,0,0,0,0,0,0,0,0,0,0,0,0,0,0],"id":8,"left_children":[1,3,5,7,9,11,13,15,17,19,21,23,25,27,29,-1,31,33,35,37,39,41,43,-1,45,47,49,51,53,55,57,59,61,63,65,67,69,71,73,75,77,79,81,83,85,87,89,-1,91,93,95,97,99,101,-1,103,105,107,-1,-1,-1,-1,-1,-1,-1,-1,-1,-1,-1,-1,-1,-1,-1,-1,-1,-1,-1,-1,-1,-1,-1,-1,-1,-1,-1,-1,-1,-1,-1,-1,-1,-1,-1,-1,-1,-1,-1,-1,-1,-1,-1,-1,-1,-1,-1,-1,-1,-1,-1],"loss_changes":[1.5009296E7,1.495969E6,3.01764E6,2.1555775E5,8.24934E5,2.4668E5,1.744696E6,3.6784625E4,7.8682125E4,4.0939225E5,8.33697E5,7.37155E4,1.17176E5,2.46078E5,2.19986E5,0E0,1.30988125E4,5.1264E4,6.9543E4,2.3333256E5,1.49542E5,6.4958E5,3.2927162E5,0E0,9.7755E4,1.611132E4,1.4314625E4,1.82448E5,1.22772E5,1.94505E5,5.7611E4,2.2208438E3,5.37475E3,3.1882156E4,9.647781E3,6.2271875E2,9.1611875E4,1.6559775E5,7.202393E4,2.4074E4,4.5519062E4,4.2625E5,1.16284875E5,6.0603125E4,1.5785094E5,2.6856E4,7.304875E3,0E0,2.9815469E3,3.336E3,2.2048281E3,7.1008E4,1.4566875E4,5.676675E4,0E0,6.88367E5,4.33387E5,5.7675E4,0E0,0E0,0E0,0E0,0E0,0E0,0E0,0E0,0E0,0E0,0E0,0E0,0E0,0E0,0E0,0E0,0E0,0E0,0E0,0E0,0E0,0E0,0E0,0E0,0E0,0E0,0E0,0E0,0E0,0E0,0E0,0E0,0E0,0E0,0E0,0E0,0E0,0E0,0E0,0E0,0E0,0E0,0E0,0E0,0E0,0E0,0E0,0E0,0E0,0E0,0E0],"parents":[2147483647,0,0,1,1,2,2,3,3,4,4,5,5,6,6,7,7,8,8,9,9,10,10,11,11,12,12,13,13,14,14,16,16,17,17,18,18,19,19,20,20,21,21,22,22,24,24,25,25,26,26,27,27,28,28,29,29,30,30,31,31,32,32,33,33,34,34,35,35,36,36,37,37,38,38,39,39,40,40,41,41,42,42,43,43,44,44,45,45,46,46,48,48,49,49,50,50,51,51,52,52,53,53,55,55,56,56,57,57],"right_children":[2,4,6,8,10,12,14,16,18,20,22,24,26,28,30,-1,32,34,36,38,40,42,44,-1,46,48,50,52,54,56,58,60,62,64,66,68,70,72,74,76,78,80,82,84,86,88,90,-1,92,94,96,98,100,102,-1,104,106,108,-1,-1,-1,-1,-1,-1,-1,-1,-1,-1,-1,-1,-1,-1,-1,-1,-1,-1,-1,-1,-1,-1,-1,-1,-1,-1,-1,-1,-1,-1,-1,-1,-1,-1,-1,-1,-1,-1,-1,-1,-1,-1,-1,-1,-1,-1,-1,-1,-1,-1,-1],"split_conditions":[6.320652E1,3.151055E5,6.9E0,2.853685E5,4.55E0,1.7685001E1,8.25E0,9.879705E1,2.932785E5,2.9422277E1,1.0052768E2,6.8576035E1,6.544523E1,2.5735E1,9.70936E1,1.7710825E1,2.568745E5,9.918004E1,4.7E0,2.8049998E0,1.4535E1,1.885E0,5.15E0,4.600442E1,9.96856E1,2.0555E1,5.95E0,4.9758E5,8.05E0,7.5586365E1,1.585E0,9.958737E1,1.882E1,9.860237E1,1.435E0,2.255E0,9.9767715E1,6.45E-1,9.93804E1,5.992659E1,2.9937992E1,9.6000004E-1,3.2251823E1,1.285E0,5.6499996E0,1.3530001E1,4.31608E5,2.2837484E1,1.925E0,1.97E0,2.4775E1,2.5549998E0,1.775E0,4.83918E5,1.0537075E2,1.0059634E2,9.982004E1,3.355E0,7.557906E1,8.417178E0,7.01994E0,9.95204E0,3.172139E0,2.5384972E1,1.5018676E1,3.699628E1,9.143323E0,3.2122875E1,2.2655128E1,9.782684E0,1.8443293E1,1.8714193E0,2.0250221E1,1.3230244E1,3.1923976E0,2.9191504E1,4.12421E1,4.8957644E0,2.008739E1,2.496301E1,3.952053E1,1.1346295E1,2.4915815E1,4.080989E1,2.5901134E1,1.7597296E1,5.647005E0,4.524853E1,3.6759583E1,3.0841763E1,2.3718704E1,6.87715E0,1.2918616E1,2.955909E1,3.8630867E1,2.2997766E1,1.1394324E1,8.546523E1,6.1200134E1,6.452748E1,4.1570946E1,4.6707817E1,6.5449326E1,4.6325363E1,8.851762E1,7.299666E1,4.1080162E1,6.490915E1,4.940345E1],"split_indices":[4,6,3,6,3,0,3,5,6,4,5,4,4,0,4,0,6,5,3,2,0,1,3,0,5,0,3,6,3,4,1,5,0,5,1,2,5,2,5,4,4,1,4,1,3,0,6,0,1,1,0,2,2,6,0,5,5,2,0,0,0,0,0,0,0,0,0,0,0,0,0,0,0,0,0,0,0,0,0,0,0,0,0,0,0,0,0,0,0,0,0,0,0,0,0,0,0,0,0,0,0,0,0,0,0,0,0,0,0],"split_type":[0,0,0,0,0,0,0,0,0,0,0,0,0,0,0,0,0,0,0,0,0,0,0,0,0,0,0,0,0,0,0,0,0,0,0,0,0,0,0,0,0,0,0,0,0,0,0,0,0,0,0,0,0,0,0,0,0,0,0,0,0,0,0,0,0,0,0,0,0,0,0,0,0,0,0,0,0,0,0,0,0,0,0,0,0,0,0,0,0,0,0,0,0,0,0,0,0,0,0,0,0,0,0,0,0,0,0,0,0],"sum_hessian":[6.299E3,4.426E3,1.873E3,1.73E3,2.696E3,6.83E2,1.19E3,1.042E3,6.88E2,9.76E2,1.72E3,4.87E2,1.96E2,3.95E2,7.95E2,4E1,1.002E3,1.48E2,5.4E2,6.52E2,3.24E2,1.132E3,5.88E2,1.01E2,3.86E2,5E1,1.46E2,2.94E2,1.01E2,6.23E2,1.72E2,5.9E2,4.12E2,1.25E2,2.3E1,4.8E1,4.92E2,3.22E2,3.3E2,1.54E2,1.7E2,8.97E2,2.35E2,1.39E2,4.49E2,2.59E2,1.27E2,1E1,4E1,1.2E2,2.6E1,2.64E2,3E1,9.5E1,6E0,2E2,4.23E2,1.39E2,3.3E1,1.95E2,3.95E2,4E2,1.2E1,4.8E1,7.7E1,2.1E1,2E0,8E0,4E1,3.21E2,1.71E2,5.3E1,2.69E2,8.7E1,2.43E2,1.29E2,2.5E1,2.1E1,1.49E2,2.64E2,6.33E2,1.31E2,1.04E2,3.9E1,1E2,2.98E2,1.51E2,7.8E1,1.81E2,8.4E1,4.3E1,2.6E1,1.4E1,1.03E2,1.7E1,2.1E1,5E0,2.4E2,2.4E1,1.5E1,1.5E1,4.2E1,5.3E1,1.53E2,4.7E1,4.4E1,3.79E2,6.9E1,7E1],"tree_param":{"num_deleted":"0","num_feature":"7","num_nodes":"109","size_leaf_vector":"0"}},{"base_weights":[6.555589E1,4.3150913E1,1.184488E2,2.5675755E1,5.268828E1,8.097577E1,1.3987038E2,2.03406E1,3.548456E1,6.091325E1,3.642258E1,8.918835E1,5.899474E1,1.7537965E2,1.1860569E2,4.175724E1,1.9420084E1,3.8345192E1,-1.9215275E1,7.2150345E1,4.3043514E1,7.116911E1,2.6944046E1,1.13935326E2,8.471731E1,2.7809328E1,6.9711E1,2.1607089E2,1.6338219E2,1.2136095E2,4.610951E1,3.6297874E1,5.9739883E1,2.2529894E1,1.7598112E1,5.644666E1,3.542345E1,-2.17323E1,2.4372192E1,4.232079E1,9.571941E1,7.892111E1,2.856972E1,4.7010086E1,8.878762E1,-1.6243658E1,2.9688711E1,1.353302E2,1.0205263E2,9.686062E1,7.472719E1,1.6301346E1,3.9597088E1,5.953046E1,7.849914E1,1.7217377E2,2.619508E2,2.4600928E2,1.5757622E2,1.3694579E2,1.05395706E2,5.880186E1,1.9994585E1,2.3523975E1,1.4294442E1,1.8885197E1,1.40800295E1,4.4762875E1,6.6562485E1,3.738859E1,4.2601166E0,4.691699E0,-2.6531765E1,1.4320735E1,6.8582794E1,1.4551945E2,8.035804E1,6.1398922E1,9.8124E1,1.3852875E1,3.8941208E1,1.2033052E2,7.106908E1,9.715288E0,-4.5004112E1,4.526967E1,2.061167E1,9.798498E1,5.3790215E1,9.417261E1,6.343576E1,1.9529152E1,4.289167E0,4.8335606E1,2.9902744E1,4.928742E1,9.625045E1,8.29173E1,4.6460506E1,2.1551846E2,1.188728E2,1.6748459E2,1.3123438E2,1.12133446E2,1.5592117E2,1.4910028E2,8.093398E1,-1.7619629E0,2.5025146E1],"categories":[],"categories_nodes":[],"categories_segments":[],"categories_sizes":[],"default_left":[1,1,1,1,1,1,1,1,1,1,1,1,1,1,1,1,1,1,1,1,1,1,1,1,1,1,1,1,1,1,1,0,0,1,1,1,1,1,0,1,1,1,1,0,1,1,1,0,0,1,1,1,1,1,1,1,0,0,1,1,1,0,1,0,0,0,0,0,0,0,0,0,0,0,0,0,0,0,0,0,0,0,0,0,0,0,0,0,0,0,0,0,0,0,0,0,0,0,0,0,0,0,0,0,0,0,0,0,0],"id":9,"left_children":[1,3,5,7,9,11,13,15,17,19,21,23,25,27,29,31,33,35,37,39,41,43,45,47,49,51,53,55,57,59,61,-1,-1,63,65,67,69,71,-1,73,75,77,79,-1,81,83,85,-1,-1,87,89,91,93,95,97,99,-1,-1,101,103,105,-1,107,-1,-1,-1,-1,-1,-1,-1,-1,-1,-1,-1,-1,-1,-1,-1,-1,-1,-1,-1,-1,-1,-1,-1,-1,-1,-1,-1,-1,-1,-1,-1,-1,-1,-1,-1,-1,-1,-1,-1,-1,-1,-1,-1,-1,-1,-1],"loss_changes":[7.460794E6,7.36482E5,1.492996E6,8.117706E4,3.808075E5,1.18215E5,8.78514E5,1.9218812E4,8.679869E4,3.784215E5,3.1557212E5,4.522725E4,6.1223438E4,1.81456E5,1.43815E5,1.8567031E3,5.1335312E3,2.5660812E4,3.6015645E3,8.15008E5,3.79939E5,8.3509125E4,9.0450875E4,4.748E3,4.4199E4,6.1371797E3,7.8524375E3,1.5227E5,1.27701E5,1.64713E5,8.436617E3,0E0,0E0,2.5863906E3,2.5415E3,5.412047E3,2.7582625E4,3.5486475E3,0E0,3.7845206E5,4.855545E5,6.4971875E4,7.9746875E4,0E0,5.739775E4,3.4780418E4,1.0004719E5,0E0,0E0,3.8335E3,4.6063375E4,9.6310645E2,5.8777344E2,2.120864E4,6.3393438E3,9.68275E4,0E0,0E0,6.3369E4,1.524835E5,3.7280525E5,0E0,1.2480176E3,0E0,0E0,0E0,0E0,0E0,0E0,0E0,0E0,0E0,0E0,0E0,0E0,0E0,0E0,0E0,0E0,0E0,0E0,0E0,0E0,0E0,0E0,0E0,0E0,0E0,0E0,0E0,0E0,0E0,0E0,0E0,0E0,0E0,0E0,0E0,0E0,0E0,0E0,0E0,0E0,0E0,0E0,0E0,0E0,0E0,0E0],"parents":[2147483647,0,0,1,1,2,2,3,3,4,4,5,5,6,6,7,7,8,8,9,9,10,10,11,11,12,12,13,13,14,14,15,15,16,16,17,17,18,18,19,19,20,20,21,21,22,22,23,23,24,24,25,25,26,26,27,27,28,28,29,29,30,30,33,33,34,34,35,35,36,36,37,37,39,39,40,40,41,41,42,42,44,44,45,45,46,46,49,49,50,50,51,51,52,52,53,53,54,54,55,55,58,58,59,59,60,60,62,62],"right_children":[2,4,6,8,10,12,14,16,18,20,22,24,26,28,30,32,34,36,38,40,42,44,46,48,50,52,54,56,58,60,62,-1,-1,64,66,68,70,72,-1,74,76,78,80,-1,82,84,86,-1,-1,88,90,92,94,96,98,100,-1,-1,102,104,106,-1,108,-1,-1,-1,-1,-1,-1,-1,-1,-1,-1,-1,-1,-1,-1,-1,-1,-1,-1,-1,-1,-1,-1,-1,-1,-1,-1,-1,-1,-1,-1,-1,-1,-1,-1,-1,-1,-1,-1,-1,-1,-1,-1,-1,-1,-1,-1],"split_conditions":[6.320652E1,3.097725E5,6.9E0,2.841425E5,2.185E0,1.789E1,8.4E0,9.879705E1,3.09153E5,3.356265E5,1.5889999E1,4.55E0,6.544523E1,9.941985E1,9.95E0,9.95E-1,6.55E0,1.7709772E1,3.0634998E1,9.940661E1,1.7134998E1,3.42075E1,1.2219857E1,1.3455E1,1.52E0,1.925E0,4.61418E5,9.185739E1,8.515978E1,1.5565001E1,1.115E0,1.0889362E1,1.7921967E1,1.7175E1,1.491E1,2.4850001E0,1.675E0,4.25E-1,7.311658E0,2.8290682E1,9.973323E1,7.05E0,3.7401115E1,1.4103026E1,9.936568E1,1.1635478E1,9.97632E1,4.059906E1,3.061579E1,4.81843E5,4.6499996E0,3.893E1,2.207E1,2.991E1,2.607E1,7.75E0,7.858524E1,7.380279E1,4.864295E5,1.0059079E2,9.997659E1,1.7640558E1,1.0699999E0,7.057193E0,4.288333E0,5.6655593E0,4.224009E0,1.3428863E1,1.9968746E1,1.1216578E1,1.278035E0,1.4075098E0,-7.95953E0,4.296221E0,2.0574839E1,4.3655838E1,2.4107412E1,1.8419678E1,2.94372E1,4.155863E0,1.1682363E1,3.609916E1,2.1320724E1,2.9145865E0,-1.3501234E1,1.3580901E1,6.1835012E0,2.9395494E1,1.6137066E1,2.8251783E1,1.903073E1,5.8587456E0,1.2867501E0,1.4500682E1,8.970823E0,1.4786226E1,2.8875135E1,2.487519E1,1.3938152E1,6.465554E1,3.5661842E1,5.024538E1,3.9370316E1,3.3640034E1,4.6776352E1,4.4730087E1,2.4280195E1,-5.285889E-1,7.507544E0],"split_indices":[4,6,3,6,2,0,3,5,6,6,0,3,4,5,3,1,3,4,0,5,0,4,4,0,2,1,6,4,4,0,1,0,0,0,0,2,1,2,0,4,5,3,4,0,5,4,5,0,0,6,3,0,0,0,0,3,0,0,6,5,5,0,2,0,0,0,0,0,0,0,0,0,0,0,0,0,0,0,0,0,0,0,0,0,0,0,0,0,0,0,0,0,0,0,0,0,0,0,0,0,0,0,0,0,0,0,0,0,0],"split_type":[0,0,0,0,0,0,0,0,0,0,0,0,0,0,0,0,0,0,0,0,0,0,0,0,0,0,0,0,0,0,0,0,0,0,0,0,0,0,0,0,0,0,0,0,0,0,0,0,0,0,0,0,0,0,0,0,0,0,0,0,0,0,0,0,0,0,0,0,0,0,0,0,0,0,0,0,0,0,0,0,0,0,0,0,0,0,0,0,0,0,0,0,0,0,0,0,0,0,0,0,0,0,0,0,0,0,0,0,0],"sum_hessian":[6.299E3,4.426E3,1.873E3,1.564E3,2.862E3,6.83E2,1.19E3,1.015E3,5.49E2,1.899E3,9.63E2,4.95E2,1.88E2,4.43E2,7.47E2,4E1,9.75E2,5.22E2,2.7E1,1.164E3,7.35E2,2.05E2,7.58E2,7.2E1,4.23E2,4.9E1,1.39E2,9.7E1,3.46E2,7.19E2,2.8E1,3.3E1,7E0,3.56E2,6.19E2,7E1,4.52E2,2.6E1,1E0,5.15E2,6.49E2,2.1E2,5.25E2,8.8E1,1.17E2,4.5E1,7.13E2,2.2E1,5E1,1.87E2,2.36E2,2.6E1,2.3E1,6.8E1,7.1E1,5.2E1,4.5E1,2E1,3.26E2,3.6E2,3.59E2,1.8E1,1E1,3.16E2,4E1,4.5E2,1.69E2,3.5E1,3.5E1,4.25E2,2.7E1,4E0,2.2E1,2.5E2,2.65E2,1.51E2,4.98E2,1.12E2,9.8E1,2.18E2,3.07E2,4E1,7.7E1,2.4E1,2.1E1,2.61E2,4.52E2,1.81E2,6E0,8.4E1,1.52E2,2E1,6E0,1E1,1.3E1,5.5E1,1.3E1,6.1E1,1E1,2.7E1,2.5E1,2.33E2,9.3E1,1.59E2,2.01E2,1.27E2,2.32E2,2E0,8E0],"tree_param":{"num_deleted":"0","num_feature":"7","num_nodes":"109","size_leaf_vector":"0"}},{"base_weights":[4.606804E1,3.0281021E1,8.333754E1,1.8744617E1,3.7674137E1,5.7088158E1,9.834279E1,4.5160175E1,1.7234312E1,4.22761E1,1.6912003E1,6.9723076E1,4.8264927E1,1.2587817E2,8.452073E1,5.0817204E1,2.3344776E1,1.786437E1,-2.590777E1,2.743682E1,5.0303947E1,2.3076515E1,-1.1191485E1,7.620578E1,4.8073235E1,5.670113E1,3.9378746E1,1.4156322E2,1.070369E2,8.210355E1,1.5885228E2,4.1752274E1,5.49435E1,3.0453491E0,2.5321276E1,1.3964682E1,2.456828E1,-3.0185652E1,3.0280457E0,1.8298525E1,4.008977E1,6.604316E1,3.7557842E1,4.469118E1,1.5603469E1,-3.643531E1,-1.9505964E-1,8.735286E1,6.796955E1,5.712182E1,3.3429787E1,5.8960938E1,3.273684E1,3.363363E1,5.970654E1,1.8944771E2,1.2869423E2,2.350123E2,1.02887375E2,8.5080795E1,1.2762977E1,1.17709045E2,2.2642511E2,2.6897757E1,-1.5276794E0,1.2544064E1,1.7551592E1,2.839328E1,1.0309666E1,-3.1650879E1,-4.4055176E-1,-7.0495605E0,8.737102E0,4.361076E1,9.046037E0,2.6158838E1,5.3606365E1,1.2488877E1,7.9433495E1,7.154896E1,2.8097988E1,9.6215836E1,3.55051E1,-3.5129678E0,2.7778122E1,-4.0628033E1,-2.1399094E1,2.7093159E1,-2.2799725E1,1.044599E2,7.601753E1,5.546779E1,8.01816E1,6.0238117E1,1.969455E1,2.5190674E1,5.9750282E1,-1.0821533E0,3.4573742E1,1.2830296E1,3.7603977E1,2.092633E1,6.935641E1,5.0986816E1,1.9153043E2,9.007061E1,1.386868E2,1.1389528E2,7.113369E1,9.185719E1,5.9698895E1,3.771322E1,-2.379187E1],"categories":[],"categories_nodes":[],"categories_segments":[],"categories_sizes":[],"default_left":[1,1,1,1,1,1,1,1,1,1,1,1,1,1,1,1,1,1,1,1,1,1,1,1,1,1,1,1,1,1,1,0,0,0,1,1,1,1,1,1,1,1,1,1,1,1,1,1,1,0,1,1,1,1,1,1,1,0,1,1,1,0,0,0,0,0,0,0,0,0,0,0,0,0,0,0,0,0,0,0,0,0,0,0,0,0,0,0,0,0,0,0,0,0,0,0,0,0,0,0,0,0,0,0,0,0,0,0,0,0,0,0,0],"id":10,"left_children":[1,3,5,7,9,11,13,15,17,19,21,23,25,27,29,31,33,35,37,39,41,43,45,47,49,51,53,55,57,59,61,-1,-1,-1,63,65,67,69,71,73,75,77,79,81,83,85,87,89,91,-1,93,95,97,99,101,103,105,-1,107,109,111,-1,-1,-1,-1,-1,-1,-1,-1,-1,-1,-1,-1,-1,-1,-1,-1,-1,-1,-1,-1,-1,-1,-1,-1,-1,-1,-1,-1,-1,-1,-1,-1,-1,-1,-1,-1,-1,-1,-1,-1,-1,-1,-1,-1,-1,-1,-1,-1,-1,-1,-1,-1],"loss_changes":[3.704233E6,3.7687225E5,7.32514E5,6.828094E4,2.5697425E5,7.28875E4,4.4265E5,1.0290844E4,4.501425E4,2.6153425E5,8.53212E4,3.5494125E4,2.8203188E4,1.01876E5,1.299765E5,4.3651562E2,7.654463E2,4.190425E4,3.0622188E3,8.910806E4,2.84598E5,6.4398203E4,2.469857E4,1.3618125E4,6.9680938E3,9.2256875E3,2.146575E4,1.06875E5,7.3531E4,1.58495E5,4.0071688E4,0E0,0E0,0E0,8.4530176E2,4.99775E3,3.2049031E4,9.0130664E2,2.917272E2,1.05698625E5,5.9794812E4,4.57241E5,2.5297962E5,4.5334734E4,7.015111E4,8.3275E2,3.9478703E4,8.92975E3,1.4941875E4,0E0,9.123764E3,3.479625E3,1.2798574E3,1.2650375E4,1.464025E4,2.6345E3,5.350575E4,0E0,5.481575E4,1.21967E5,3.0994996E4,0E0,0E0,0E0,0E0,0E0,0E0,0E0,0E0,0E0,0E0,0E0,0E0,0E0,0E0,0E0,0E0,0E0,0E0,0E0,0E0,0E0,0E0,0E0,0E0,0E0,0E0,0E0,0E0,0E0,0E0,0E0,0E0,0E0,0E0,0E0,0E0,0E0,0E0,0E0,0E0,0E0,0E0,0E0,0E0,0E0,0E0,0E0,0E0,0E0,0E0,0E0,0E0],"parents":[2147483647,0,0,1,1,2,2,3,3,4,4,5,5,6,6,7,7,8,8,9,9,10,10,11,11,12,12,13,13,14,14,15,15,16,16,17,17,18,18,19,19,20,20,21,21,22,22,23,23,24,24,25,25,26,26,27,27,28,28,29,29,30,30,34,34,35,35,36,36,37,37,38,38,39,39,40,40,41,41,42,42,43,43,44,44,45,45,46,46,47,47,48,48,50,50,51,51,52,52,53,53,54,54,55,55,56,56,58,58,59,59,60,60],"right_children":[2,4,6,8,10,12,14,16,18,20,22,24,26,28,30,32,34,36,38,40,42,44,46,48,50,52,54,56,58,60,62,-1,-1,-1,64,66,68,70,72,74,76,78,80,82,84,86,88,90,92,-1,94,96,98,100,102,104,106,-1,108,110,112,-1,-1,-1,-1,-1,-1,-1,-1,-1,-1,-1,-1,-1,-1,-1,-1,-1,-1,-1,-1,-1,-1,-1,-1,-1,-1,-1,-1,-1,-1,-1,-1,-1,-1,-1,-1,-1,-1,-1,-1,-1,-1,-1,-1,-1,-1,-1,-1,-1,-1,-1,-1],"split_conditions":[6.320652E1,3.151055E5,6.9E0,9.8369896E1,1.985E0,1.4375E1,8.25E0,2.4465E1,3.14392E5,4.55E0,6.05E0,1.905E0,1.8399999E0,2.192E1,1.795E0,1.61E0,2.75E0,2.85447E5,6.5E-2,2.9422277E1,3.017881E1,2.2994999E1,2.44E0,4.6499996E0,4.29624E5,2.4445E1,3.315E0,9.941985E1,1.385E0,3.533E1,2.511E1,1.2525682E1,1.6483051E1,9.136048E-1,2.92342E5,2.68844E5,2.3808334E1,1.48E0,2.461E1,4.05E0,4.1499996E0,9.9255356E1,1.5055E1,4.4E0,2.957E1,5.25E-1,5.4739998E1,9.974596E1,4.69312E5,1.7136547E1,1.5E0,1.4465E1,2.47E1,2.225E0,4.068205E5,1.465E0,9.954477E1,7.050369E1,2.934E1,1.0109333E2,3.0749998E0,3.5312714E1,6.7927536E1,8.069327E0,-4.5830384E-1,3.763219E0,5.2654777E0,8.517984E0,3.0928998E0,-9.495264E0,-1.3216554E-1,-2.1148682E0,2.6211305E0,1.3083228E1,2.7138112E0,7.847652E0,1.6081911E1,3.7466633E0,2.383005E1,2.1464687E1,8.429397E0,2.8864752E1,1.065153E1,-1.0538903E0,8.333437E0,-1.2188411E1,-6.4197283E0,8.127948E0,-6.8399177E0,3.133797E1,2.280526E1,1.6640337E1,2.4054482E1,1.8071436E1,5.9083652E0,7.5572023E0,1.7925085E1,-3.24646E-1,1.0372123E1,3.849089E0,1.1281194E1,6.2778993E0,2.0806923E1,1.5296045E1,5.745913E1,2.7021185E1,4.160604E1,3.4168587E1,2.1340107E1,2.755716E1,1.790967E1,1.1313966E1,-7.1375613E0],"split_indices":[4,6,3,5,1,0,3,0,6,3,3,1,2,0,1,2,2,6,2,4,4,0,1,3,6,0,2,5,2,0,0,0,0,0,6,6,4,1,0,3,3,5,0,3,0,2,0,5,6,0,2,0,0,2,6,2,5,0,0,5,2,0,0,0,0,0,0,0,0,0,0,0,0,0,0,0,0,0,0,0,0,0,0,0,0,0,0,0,0,0,0,0,0,0,0,0,0,0,0,0,0,0,0,0,0,0,0,0,0,0,0,0,0],"split_type":[0,0,0,0,0,0,0,0,0,0,0,0,0,0,0,0,0,0,0,0,0,0,0,0,0,0,0,0,0,0,0,0,0,0,0,0,0,0,0,0,0,0,0,0,0,0,0,0,0,0,0,0,0,0,0,0,0,0,0,0,0,0,0,0,0,0,0,0,0,0,0,0,0,0,0,0,0,0,0,0,0,0,0,0,0,0,0,0,0,0,0,0,0,0,0,0,0,0,0,0,0,0,0,0,0,0,0,0,0,0,0,0,0],"sum_hessian":[6.299E3,4.426E3,1.873E3,1.73E3,2.696E3,6.83E2,1.19E3,9.2E1,1.638E3,2.206E3,4.9E2,2.78E2,4.05E2,3.95E2,7.95E2,7.2E1,2E1,1.615E3,2.3E1,7.76E2,1.43E3,4.02E2,8.8E1,2.12E2,6.6E1,2.05E2,2E2,2.12E2,1.83E2,7.72E2,2.3E1,2.6E1,4.6E1,2E0,1.8E1,1.023E3,5.92E2,2E1,3E0,4.52E2,3.24E2,6.38E2,7.92E2,1.02E2,3E2,2.6E1,6.2E1,8.6E1,1.26E2,3.9E1,2.7E1,1.86E2,1.9E1,1.58E2,4.2E1,4.2E1,1.7E2,4E0,1.79E2,7.4E2,3.2E1,1.6E1,7E0,1.7E1,1E0,7.36E2,2.87E2,4.66E2,1.26E2,1.9E1,1E0,1E0,2E0,1.2E2,3.32E2,1.61E2,1.63E2,1.28E2,5.1E2,1.71E2,6.21E2,1.4E1,8.8E1,1.17E2,1.83E2,1.9E1,7E0,2.8E1,3.4E1,3.1E1,5.5E1,6.5E1,6.1E1,8E0,1.9E1,5E0,1.81E2,1E0,1.8E1,2.6E1,1.32E2,9E0,3.3E1,1E0,4.1E1,3.7E1,1.33E2,1.31E2,4.8E1,5.82E2,1.58E2,1.9E1,1.3E1],"tree_param":{"num_deleted":"0","num_feature":"7","num_nodes":"113","size_leaf_vector":"0"}},{"base_weights":[3.2376144E1,2.2553663E1,6.243701E1,1.3149571E1,2.7936422E1,4.0088562E1,7.064669E1,3.2015724E1,1.2071047E1,3.397582E1,1.8722939E1,7.377283E1,3.8036102E1,9.1744705E1,6.1059544E1,3.6774113E1,1.8339344E1,1.2517833E1,-1.8515503E1,1.8315002E1,3.808725E1,3.5733116E1,9.694945E0,2.6118689E1,4.5401863E1,5.7973427E1,1.002217E2,1.5557568E2,5.7861706E1,3.0834282E1,4.149354E1,1.91768E1,-1.298523E0,2.5339806E1,1.1071822E1,-2.1588425E1,2.2462158E0,5.6216736E0,6.453066E1,8.4659584E1,3.402863E1,5.0188366E1,4.706275E0,1.12604475E1,-5.7551434E1,3.769344E1,1.8533386E1,6.1256535E1,4.170531E1,7.192863E1,-1.8959555E1,1.5746414E2,9.448614E1,5.0625286E1,8.438044E1,3.297228E1,1.7877407E1,2.011971E1,5.555542E0,2.2535627E1,9.495986E1,1.2048631E1,-7.844819E0,-1.0425619E0,-2.3696276E1,-5.9921265E0,6.9897056E0,-1.029271E1,3.6615208E1,3.81846E1,1.0249346E2,9.475583E1,2.0883854E1,5.113301E1,2.676632E1,1.0259954E2,4.1640514E1,3.0117804E1,2.0682888E-1,2.256382E1,2.7184987E0,5.6209106E0,-7.056063E1,3.8086193E1,7.260498E0,2.1075443E1,-2.2686361E1,4.3920395E1,2.5106844E1,5.3913227E1,1.1644508E2,1.3107129E1,-3.6631287E1,8.5128975E1,1.3152219E2,4.896449E1,1.6698856E2,1.7148682E2,7.93075E1],"categories":[],"categories_nodes":[],"categories_segments":[],"categories_sizes":[],"default_left":[1,1,1,1,1,1,1,1,1,1,1,0,1,1,1,1,1,1,1,1,1,1,1,1,1,1,1,0,1,1,0,1,0,1,1,1,1,1,1,1,1,1,1,1,1,1,1,0,1,1,1,0,1,1,1,0,0,0,0,0,0,0,0,0,0,0,0,0,0,0,0,0,0,0,0,0,0,0,0,0,0,0,0,0,0,0,0,0,0,0,0,0,0,0,0,0,0,0,0],"id":11,"left_children":[1,3,5,7,9,11,13,15,17,19,21,-1,23,25,27,29,31,33,35,37,39,41,43,45,47,49,51,-1,53,55,-1,57,-1,59,61,63,65,67,69,71,73,75,77,79,81,83,85,-1,87,89,91,-1,93,95,97,-1,-1,-1,-1,-1,-1,-1,-1,-1,-1,-1,-1,-1,-1,-1,-1,-1,-1,-1,-1,-1,-1,-1,-1,-1,-1,-1,-1,-1,-1,-1,-1,-1,-1,-1,-1,-1,-1,-1,-1,-1,-1,-1,-1],"loss_changes":[1.858807E6,2.4007725E5,2.81735E5,3.483525E4,1.6740825E5,2.6161812E4,2.2357E5,5.377797E3,2.2629766E4,1.166825E5,1.8362769E5,0E0,3.3663125E4,9.496E4,2.2735575E5,6.2678906E2,4.5249316E2,2.9681219E4,1.5796719E3,2.2314348E5,2.6987412E5,1.8589162E5,8.318314E4,1.2822297E4,1.1745531E4,7.973761E4,7.705075E4,0E0,1.41189E5,3.5240234E2,0E0,2.0931543E2,0E0,2.9682023E4,2.6961453E4,8.847549E2,1.9819716E2,1.4834977E5,7.810028E4,7.206906E4,1.6371612E5,1.2251256E5,1.5200699E4,7.399468E4,1.5189391E4,4.406328E2,1.0432504E4,0E0,6.2874375E3,4.344497E4,7.280218E3,0E0,7.78675E4,1.07390375E5,5.754325E4,0E0,0E0,0E0,0E0,0E0,0E0,0E0,0E0,0E0,0E0,0E0,0E0,0E0,0E0,0E0,0E0,0E0,0E0,0E0,0E0,0E0,0E0,0E0,0E0,0E0,0E0,0E0,0E0,0E0,0E0,0E0,0E0,0E0,0E0,0E0,0E0,0E0,0E0,0E0,0E0,0E0,0E0,0E0,0E0],"parents":[2147483647,0,0,1,1,2,2,3,3,4,4,5,5,6,6,7,7,8,8,9,9,10,10,12,12,13,13,14,14,15,15,16,16,17,17,18,18,19,19,20,20,21,21,22,22,23,23,24,24,25,25,26,26,28,28,29,29,31,31,33,33,34,34,35,35,36,36,37,37,38,38,39,39,40,40,41,41,42,42,43,43,44,44,45,45,46,46,48,48,49,49,50,50,52,52,53,53,54,54],"right_children":[2,4,6,8,10,12,14,16,18,20,22,-1,24,26,28,30,32,34,36,38,40,42,44,46,48,50,52,-1,54,56,-1,58,-1,60,62,64,66,68,70,72,74,76,78,80,82,84,86,-1,88,90,92,-1,94,96,98,-1,-1,-1,-1,-1,-1,-1,-1,-1,-1,-1,-1,-1,-1,-1,-1,-1,-1,-1,-1,-1,-1,-1,-1,-1,-1,-1,-1,-1,-1,-1,-1,-1,-1,-1,-1,-1,-1,-1,-1,-1,-1,-1,-1],"split_conditions":[7.10117E1,3.151055E5,6.3E0,9.8369896E1,2.0965E1,4.6499996E0,9.975775E1,2.308E1,3.14392E5,9.75E-1,1.735E0,2.213185E1,4.61418E5,4.598965E5,7.423402E1,1.6949999E0,2.92342E5,3.75E-1,6.5E-2,2.7991158E1,3.207225E5,1.095E0,6.25E0,4.277455E5,9.9034454E1,1.8189999E1,1.807E1,4.6672707E1,1.0070068E2,1.2535E1,1.2448063E1,3.375E0,-3.895569E-1,2.9935001E1,2.3808334E1,2.0985E1,2.461E1,5.75E0,5E0,1.885E0,1.3965E1,4.75E0,9.886626E1,3.31529E5,2.106E1,1.1057039E2,2.755E0,1.837696E1,4.83142E5,1.37E0,1.205E0,4.7239243E1,1.395E0,1.795E0,8.9E-1,9.891684E0,5.363222E0,6.0359135E0,1.6666627E0,6.7606883E0,2.8487959E1,3.6145895E0,-2.3534458E0,-3.1276858E-1,-7.108883E0,-1.797638E0,2.0969117E0,-3.0878131E0,1.0984563E1,1.145538E1,3.074804E1,2.842675E1,6.2651563E0,1.5339904E1,8.029896E0,3.0779863E1,1.2492155E1,9.035341E0,6.2048666E-2,6.7691464E0,8.155497E-1,1.6862732E0,-2.116819E1,1.14258585E1,2.1781495E0,6.3226333E0,-6.8059087E0,1.3176119E1,7.5320535E0,1.617397E1,3.4933525E1,3.932139E0,-1.0989387E1,2.5538694E1,3.9456657E1,1.4689347E1,5.009657E1,5.144605E1,2.3792252E1],"split_indices":[4,6,3,5,0,3,5,0,6,1,1,0,6,6,4,2,6,2,2,4,6,2,3,6,5,0,0,0,4,0,0,2,0,0,4,0,0,3,3,1,0,3,5,6,0,4,2,0,6,2,1,0,1,1,1,0,0,0,0,0,0,0,0,0,0,0,0,0,0,0,0,0,0,0,0,0,0,0,0,0,0,0,0,0,0,0,0,0,0,0,0,0,0,0,0,0,0,0,0],"split_type":[0,0,0,0,0,0,0,0,0,0,0,0,0,0,0,0,0,0,0,0,0,0,0,0,0,0,0,0,0,0,0,0,0,0,0,0,0,0,0,0,0,0,0,0,0,0,0,0,0,0,0,0,0,0,0,0,0,0,0,0,0,0,0,0,0,0,0,0,0,0,0,0,0,0,0,0,0,0,0,0,0,0,0,0,0,0,0,0,0,0,0,0,0,0,0,0,0,0,0],"sum_hessian":[6.299E3,4.749E3,1.55E3,1.73E3,3.019E3,4.18E2,1.132E3,9.2E1,1.638E3,1.822E3,1.197E3,2.2E1,3.96E2,3.51E2,7.81E2,6.7E1,2.5E1,1.615E3,2.3E1,3.8E2,1.442E3,4.14E2,7.83E2,1.53E2,2.43E2,7.2E1,2.79E2,2.4E1,7.57E2,3.3E1,3.4E1,2.4E1,1E0,1.62E2,1.453E3,2E1,3E0,2.99E2,8.1E1,1.14E2,1.328E3,2.82E2,1.32E2,7.66E2,1.7E1,5.9E1,9.4E1,4.3E1,2E2,6.1E1,1.1E1,2.3E1,2.56E2,5.97E2,1.6E2,2.7E1,6E0,2.2E1,2E0,1.57E2,5E0,1.382E3,7.1E1,2E0,1.8E1,1E0,2E0,1.98E2,1.01E2,4.9E1,3.2E1,9.8E1,1.6E1,3.94E2,9.34E2,3.8E1,2.44E2,1.9E1,1.13E2,3.29E2,4.37E2,3E0,1.4E1,5.8E1,1E0,8.9E1,5E0,1.75E2,2.5E1,4.5E1,1.6E1,4E0,7E0,2.07E2,4.9E1,5.9E2,7E0,7E0,1.53E2],"tree_param":{"num_deleted":"0","num_feature":"7","num_nodes":"99","size_leaf_vector":"0"}},{"base_weights":[2.276335E1,1.473032E1,4.172784E1,6.3692636E0,1.7302212E1,2.9204678E1,4.852801E1,1.668618E1,5.941185E0,2.0971651E1,1.0264227E1,4.7113064E1,2.6939396E1,6.2642605E1,3.9669815E1,9.985544E0,1.9114527E1,6.88934E0,2.0515196E0,2.2438107E1,-1.7077322E0,6.013893E0,2.6482248E1,2.3496399E1,5.0067024E1,8.778756E0,2.8715439E1,4.2137074E1,7.036687E1,4.152123E1,-7.6642475E0,1.2795765E1,-3.647115E0,2.1534708E1,8.431859E0,5.7418694E0,1.0791975E1,5.2094913E0,-9.7176254E-1,2.461564E1,6.4668956E0,-7.8717055E0,3.0590662E1,1.299692E1,-1.5988884E0,4.1372562E1,2.756197E0,2.673624E1,1.1952576E1,5.9409836E1,4.4470066E1,1.1053241E-1,1.6823874E1,3.656467E1,2.6722998E1,3.614228E1,1.4231096E2,8.041606E1,5.6171345E1,5.3664223E1,3.110879E1,1.1836792E1,-1.7031555E1,1.7128008E1,4.171472E0,-9.5336914E-2,-5.3753357E0,6.3246765E0,2.1938587E1,1.0549792E1,2.0913494E0,1.425601E1,5.1664124E0,2.730207E0,1.2365151E1,1.8910532E1,3.2371426E0,-1.5603516E1,-5.6687504E-2,1.4431009E1,2.8908503E1,-4.5539575E0,2.006382E1,1.613863E0,-2.0235222E1,-2.5133087E1,4.0711945E1,1.484852E1,-3.2807728E1,-3.9836765E1,4.030882E-1,8.536004E1,3.2595985E1,1.8918571E1,-4.0242268E1,6.333374E0,2.9081156E1,6.188873E1,2.39069E1,3.33716E1,5.232831E1,1.2859334E1,-3.3714378E0,7.895874E0,1.889988E1,3.9382996E1,1.8134902E0,2.326188E1,3.2128994E1,4.3849854E1,-3.749628E0,7.273852E1,1.1868633E2,7.055446E1,3.731477E1,-4.187856E0,5.799794E1,1.6305983E0,4.1268063E1,1.668982E1,3.6458008E0,-9.785767E0,-2.9090054E1],"categories":[],"categories_nodes":[],"categories_segments":[],"categories_sizes":[],"default_left":[1,1,1,1,1,1,1,1,1,1,1,1,1,1,1,1,1,1,1,1,1,1,1,1,1,1,1,1,1,1,1,1,1,1,1,1,1,1,1,1,1,1,1,1,1,1,1,1,0,1,1,1,1,1,1,1,0,1,1,1,1,1,1,0,0,0,0,0,0,0,0,0,0,0,0,0,0,0,0,0,0,0,0,0,0,0,0,0,0,0,0,0,0,0,0,0,0,0,0,0,0,0,0,0,0,0,0,0,0,0,0,0,0,0,0,0,0,0,0,0,0,0,0],"id":12,"left_children":[1,3,5,7,9,11,13,15,17,19,21,23,25,27,29,31,33,35,37,39,41,43,45,47,49,51,53,55,57,59,61,63,65,67,69,71,73,75,77,79,81,83,85,87,89,91,93,95,-1,97,99,101,103,105,107,109,-1,111,113,115,117,119,121,-1,-1,-1,-1,-1,-1,-1,-1,-1,-1,-1,-1,-1,-1,-1,-1,-1,-1,-1,-1,-1,-1,-1,-1,-1,-1,-1,-1,-1,-1,-1,-1,-1,-1,-1,-1,-1,-1,-1,-1,-1,-1,-1,-1,-1,-1,-1,-1,-1,-1,-1,-1,-1,-1,-1,-1,-1,-1,-1,-1],"loss_changes":[9.5914225E5,9.508681E4,1.58172E5,4.5072266E3,8.720394E4,2.55865E4,1.49176E5,4.7626172E2,3.6849336E3,7.400475E4,7.993971E4,3.9162969E3,1.8777844E4,7.084475E4,6.586925E4,5.447079E2,5.681875E2,3.5474297E3,1.8954552E3,7.2491875E4,2.7316559E4,4.903453E4,8.502847E4,5.443457E1,7.046719E2,3.7639321E3,7.4210938E3,7.292441E4,4.3557125E4,8.9366E4,5.499094E3,3.395387E2,1.7902298E1,2.5351562E0,7.193814E1,2.9885488E3,2.2744707E3,2.560037E3,1.3648091E3,7.9942375E4,3.78535E4,1.3519279E4,1.3431123E4,4.1281688E4,3.3851746E4,5.4354406E4,6.6087305E4,1.5071875E2,0E0,3.6860156E2,2.0911562E3,1.24191E3,3.697378E2,1.0310219E4,7.3356875E3,3.829067E4,0E0,4.866225E4,3.615122E4,8.322944E4,1.1672872E5,3.3666333E2,1.4627979E3,0E0,0E0,0E0,0E0,0E0,0E0,0E0,0E0,0E0,0E0,0E0,0E0,0E0,0E0,0E0,0E0,0E0,0E0,0E0,0E0,0E0,0E0,0E0,0E0,0E0,0E0,0E0,0E0,0E0,0E0,0E0,0E0,0E0,0E0,0E0,0E0,0E0,0E0,0E0,0E0,0E0,0E0,0E0,0E0,0E0,0E0,0E0,0E0,0E0,0E0,0E0,0E0,0E0,0E0,0E0,0E0,0E0,0E0,0E0,0E0],"parents":[2147483647,0,0,1,1,2,2,3,3,4,4,5,5,6,6,7,7,8,8,9,9,10,10,11,11,12,12,13,13,14,14,15,15,16,16,17,17,18,18,19,19,20,20,21,21,22,22,23,23,24,24,25,25,26,26,27,27,28,28,29,29,30,30,31,31,32,32,33,33,34,34,35,35,36,36,37,37,38,38,39,39,40,40,41,41,42,42,43,43,44,44,45,45,46,46,47,47,49,49,50,50,51,51,52,52,53,53,54,54,55,55,57,57,58,58,59,59,60,60,61,61,62,62],"right_children":[2,4,6,8,10,12,14,16,18,20,22,24,26,28,30,32,34,36,38,40,42,44,46,48,50,52,54,56,58,60,62,64,66,68,70,72,74,76,78,80,82,84,86,88,90,92,94,96,-1,98,100,102,104,106,108,110,-1,112,114,116,118,120,122,-1,-1,-1,-1,-1,-1,-1,-1,-1,-1,-1,-1,-1,-1,-1,-1,-1,-1,-1,-1,-1,-1,-1,-1,-1,-1,-1,-1,-1,-1,-1,-1,-1,-1,-1,-1,-1,-1,-1,-1,-1,-1,-1,-1,-1,-1,-1,-1,-1,-1,-1,-1,-1,-1,-1,-1,-1,-1,-1,-1],"split_conditions":[6.320652E1,2.853685E5,6.3E0,9.879705E1,2.275E0,4.55E0,8.4E0,8.55E-1,1.6244999E1,2.23E0,4.085555E5,2.605E0,6.544523E1,7.6499996E0,9.95E0,1.555E0,3.11E0,2.68844E5,8.95E-1,3.693335E5,2.665E0,9.9480995E1,4.304335E5,2.4650002E0,1.3475E1,1.925E0,1.2885E1,2.185E0,9.471703E1,1.4895E1,1.055E0,1.9595001E1,2.0705E1,1.8384998E1,9.85E-1,9.933525E1,1.7549675E1,9.907457E1,9.895643E1,1.025E0,1.865E0,3.39868E5,1.0000398E2,5.6499996E0,1.3332435E1,5.654568E1,4.55E0,1.9449999E0,3.5857728E0,1.8299999E0,3.495E0,2.7E0,3.02E0,3.005E0,4.69312E5,2.7689999E1,4.269329E1,2.0749998E0,2.2085E1,9.870195E1,7.751837E1,1.025E0,1.14E0,5.1384025E0,1.2514417E0,-2.8601075E-2,-1.6126008E0,1.897403E0,6.5815763E0,3.1649377E0,6.274048E-1,4.276803E0,1.5499238E0,8.190621E-1,3.7095456E0,5.6731596E0,9.711428E-1,-4.681055E0,-1.7006252E-2,4.329303E0,8.672551E0,-1.3661873E0,6.0191464E0,4.841589E-1,-6.0705667E0,-7.5399265E0,1.2213584E1,4.4545565E0,-9.842319E0,-1.195103E1,1.2092647E-1,2.5608013E1,9.778796E0,5.6755714E0,-1.207268E1,1.9000123E0,8.724347E0,1.856662E1,7.1720705E0,1.001148E1,1.5698493E1,3.8578002E0,-1.0114313E0,2.3687623E0,5.669964E0,1.1814899E1,5.4404706E-1,6.9785647E0,9.638699E0,1.3154957E1,-1.1248884E0,2.1821556E1,3.56059E1,2.1166338E1,1.1194431E1,-1.256357E0,1.7399384E1,4.8917952E-1,1.238042E1,5.006946E0,1.0937403E0,-2.93573E0,-8.727016E0],"split_indices":[4,6,3,5,2,3,3,1,0,1,6,2,4,3,3,2,2,6,1,6,1,5,6,2,0,1,0,2,4,0,1,0,0,0,1,5,4,5,5,1,1,6,5,3,4,4,3,1,0,1,2,2,2,2,6,0,0,2,0,5,4,1,1,0,0,0,0,0,0,0,0,0,0,0,0,0,0,0,0,0,0,0,0,0,0,0,0,0,0,0,0,0,0,0,0,0,0,0,0,0,0,0,0,0,0,0,0,0,0,0,0,0,0,0,0,0,0,0,0,0,0,0,0],"split_type":[0,0,0,0,0,0,0,0,0,0,0,0,0,0,0,0,0,0,0,0,0,0,0,0,0,0,0,0,0,0,0,0,0,0,0,0,0,0,0,0,0,0,0,0,0,0,0,0,0,0,0,0,0,0,0,0,0,0,0,0,0,0,0,0,0,0,0,0,0,0,0,0,0,0,0,0,0,0,0,0,0,0,0,0,0,0,0,0,0,0,0,0,0,0,0,0,0,0,0,0,0,0,0,0,0,0,0,0,0,0,0,0,0,0,0,0,0,0,0,0,0,0,0],"sum_hessian":[6.299E3,4.426E3,1.873E3,1.042E3,3.384E3,6.61E2,1.212E3,4E1,1.002E3,2.223E3,1.161E3,7.2E1,5.89E2,4.65E2,7.47E2,1.2E1,2.8E1,8.05E2,1.97E2,2.088E3,1.35E2,9.21E2,2.4E2,9E0,6.3E1,5.3E1,5.36E2,1.29E2,3.36E2,7.19E2,2.8E1,1E1,2E0,2.2E1,6E0,6.24E2,1.81E2,9.6E1,1.01E2,1.837E3,2.51E2,1.14E2,2.1E1,4.8E2,4.41E2,1.47E2,9.3E1,6E0,3E0,2E1,4.3E1,2.6E1,2.7E1,1.05E2,4.31E2,1.23E2,6E0,1.94E2,1.42E2,3.3E2,3.89E2,9E0,1.9E1,6E0,4E0,1E0,1E0,1E0,2.1E1,4E0,2E0,3.8E1,5.86E2,3E1,1.51E2,1.1E1,8.5E1,5E0,9.6E1,5.46E2,1.291E3,1.39E2,1.12E2,6.5E1,4.9E1,3E0,1.8E1,4.62E2,1.8E1,2.1E1,4.2E2,2.3E1,1.24E2,6.8E1,2.5E1,1E0,5E0,1.8E1,2E0,2E1,2.3E1,5E0,2.1E1,6E0,2.1E1,9.7E1,8E0,2.66E2,1.65E2,1.03E2,2E1,1.64E2,3E1,7.9E1,6.3E1,2.3E1,3.07E2,1E2,2.89E2,5E0,4E0,1.3E1,6E0],"tree_param":{"num_deleted":"0","num_feature":"7","num_nodes":"123","size_leaf_vector":"0"}},{"base_weights":[1.5986916E1,1.014449E1,2.9014814E1,5.767075E0,1.3031618E1,2.0604109E1,3.4108044E1,1.0547846E1,3.015062E0,1.6350092E1,5.3889966E0,3.3576103E1,1.8588728E1,3.9658344E1,2.1205557E1,8.856246E0,5.303269E1,-6.630671E0,4.7608924E0,2.2693785E1,9.345946E0,1.0732297E1,-5.7741213E0,1.786847E1,3.4963745E1,1.0402409E1,2.0154789E1,4.8908215E1,2.612339E1,2.7250542E1,-5.912485E1,2.224638E1,6.307125E0,6.2922546E1,2.002553E1,1.2456151E0,-2.5401144E1,4.162212E0,7.3388214E1,9.067461E0,3.2785553E1,-5.0008366E1,1.1016734E1,8.207434E0,3.821118E1,-2.8129381E1,1.4486696E1,1.2287888E1,2.6793863E1,4.1952404E1,2.9657164E1,5.486168E0,2.3097172E1,2.6433634E1,1.7874004E1,3.963127E1,6.2834255E1,2.1272486E1,5.8934765E1,1.8244196E1,6.136992E1,-3.70179E1,-1.0423825E2,1.90221E1,3.7380417E1,1.8284578E1,3.646293E0,-8.457959E0,6.0822834E1,-2.1568869E1,6.8775945E0,-4.9110207E1,-1.8246122E1,3.724192E0,1.9781963E1,-4.8303738E1,1.45655775E1,-6.153576E0,3.8384212E1,-7.399829E1,-3.0681192E1,2.095707E1,4.2433643E0,-1.3782672E1,1.0442039E1,5.60348E1,8.362708E0,-3.809723E1,-3.9312167E0,-1.0345938E1,2.0172838E1,1.5305761E1,5.443573E0,4.9305443E1,3.36047E1,2.2661535E1,3.880255E1,1.6740612E1,6.80016E-1,2.868845E1,1.4262346E0,6.126589E1,2.470255E1,2.1745789E1,8.071714E0,2.585905E1,4.74181E1,9.332249E1,5.1976982E1,2.6831575E1,-8.091602E0,7.537353E1,-3.872349E1,2.0635883E1,-1.6651598E1,7.2267044E1,1.1841117E1,-4.3134872E1,3.6543823E1],"categories":[],"categories_nodes":[],"categories_segments":[],"categories_sizes":[],"default_left":[1,1,1,1,1,1,1,1,1,1,1,1,1,1,1,1,1,1,1,1,1,1,1,1,1,1,1,1,1,1,1,1,1,0,1,1,1,1,0,1,1,1,1,1,1,1,1,1,0,1,1,1,1,1,1,1,1,1,1,1,1,1,0,0,0,0,0,0,0,0,0,0,0,0,0,0,0,0,0,0,0,0,0,0,0,0,0,0,0,0,0,0,0,0,0,0,0,0,0,0,0,0,0,0,0,0,0,0,0,0,0,0,0,0,0,0,0,0,0],"id":13,"left_children":[1,3,5,7,9,11,13,15,17,19,21,23,25,27,29,31,33,35,37,39,41,43,45,47,49,51,53,55,57,59,61,63,65,-1,67,69,71,73,-1,75,77,79,81,83,85,87,89,91,-1,93,95,97,99,101,103,105,107,109,111,113,115,117,-1,-1,-1,-1,-1,-1,-1,-1,-1,-1,-1,-1,-1,-1,-1,-1,-1,-1,-1,-1,-1,-1,-1,-1,-1,-1,-1,-1,-1,-1,-1,-1,-1,-1,-1,-1,-1,-1,-1,-1,-1,-1,-1,-1,-1,-1,-1,-1,-1,-1,-1,-1,-1,-1,-1,-1,-1],"loss_changes":[4.7922712E5,5.49135E4,8.2830625E4,2.2742516E4,6.638525E4,1.8669812E4,8.602525E4,4.4950492E4,1.8555363E4,8.096544E4,4.748204E4,1.5113125E3,8.0081406E3,1.04763875E5,1.7982497E5,2.0646727E4,6.574414E3,2.5016871E4,3.7986547E4,1.3144088E5,8.68275E4,3.7013043E4,1.1726495E5,1.6884912E2,2.0564531E3,6.4263896E3,7.2177188E3,6.2363625E4,5.381733E4,1.0397383E5,2.2071633E4,4.0221953E3,1.6282637E4,0E0,8.648783E3,1.5567227E4,7.585873E3,6.254959E3,0E0,1.297159E5,1.20139875E5,8.857418E3,5.6939203E4,2.441868E4,2.3471758E4,2.9518273E4,1.9412162E4,8.1924194E1,0E0,5.528242E2,2.5754727E3,4.153589E3,3.472961E3,6.9885234E3,1.48915625E4,3.1375344E4,6.1022125E4,4.967811E4,7.35555E4,2.3044688E4,3.74645E4,1.012584E4,0E0,0E0,0E0,0E0,0E0,0E0,0E0,0E0,0E0,0E0,0E0,0E0,0E0,0E0,0E0,0E0,0E0,0E0,0E0,0E0,0E0,0E0,0E0,0E0,0E0,0E0,0E0,0E0,0E0,0E0,0E0,0E0,0E0,0E0,0E0,0E0,0E0,0E0,0E0,0E0,0E0,0E0,0E0,0E0,0E0,0E0,0E0,0E0,0E0,0E0,0E0,0E0,0E0,0E0,0E0,0E0,0E0],"parents":[2147483647,0,0,1,1,2,2,3,3,4,4,5,5,6,6,7,7,8,8,9,9,10,10,11,11,12,12,13,13,14,14,15,15,16,16,17,17,18,18,19,19,20,20,21,21,22,22,23,23,24,24,25,25,26,26,27,27,28,28,29,29,30,30,31,31,32,32,34,34,35,35,36,36,37,37,39,39,40,40,41,41,42,42,43,43,44,44,45,45,46,46,47,47,49,49,50,50,51,51,52,52,53,53,54,54,55,55,56,56,57,57,58,58,59,59,60,60,61,61],"right_children":[2,4,6,8,10,12,14,16,18,20,22,24,26,28,30,32,34,36,38,40,42,44,46,48,50,52,54,56,58,60,62,64,66,-1,68,70,72,74,-1,76,78,80,82,84,86,88,90,92,-1,94,96,98,100,102,104,106,108,110,112,114,116,118,-1,-1,-1,-1,-1,-1,-1,-1,-1,-1,-1,-1,-1,-1,-1,-1,-1,-1,-1,-1,-1,-1,-1,-1,-1,-1,-1,-1,-1,-1,-1,-1,-1,-1,-1,-1,-1,-1,-1,-1,-1,-1,-1,-1,-1,-1,-1,-1,-1,-1,-1,-1,-1,-1,-1,-1,-1],"split_conditions":[6.1786285E1,3.151055E5,6.3E0,9.951715E1,2.375E0,4.55E0,9.45E0,9.947115E1,5.25E0,3.0527817E1,1.0030982E2,2.605E0,6.544523E1,2.745E0,2.0915E1,1.7663181E1,1.245E0,2.30635E1,2.9935001E1,1.025E0,3.0736076E1,4.55E0,1.0061162E2,1.574E1,3.355E0,3.165E0,7.2720436E1,1.995E0,1.725E0,2.935E0,1.14E0,2.585E0,9.8369896E1,1.8876764E1,3.0915E1,5E0,1.5E0,2.5357529E1,2.2016464E1,4.95E-1,1.5136591E1,1.905E0,1.8695E1,1.2219857E1,2.576E1,2.771E1,2.3193874E1,1.379E1,8.038159E0,1.78E0,3.5349998E0,1.775E0,1.985E0,1.545E0,1.79E0,7.6499996E0,1.742E1,2.761E1,5.7445E1,1.475E0,1.275E0,3.539E1,-3.1271477E1,5.70663E0,1.1214126E1,5.4853735E0,1.0938879E0,-2.5373878E0,1.8246851E1,-6.4706607E0,2.0632784E0,-1.4733063E1,-5.473837E0,1.1172576E0,5.9345894E0,-1.4491122E1,4.3696733E0,-1.8460728E0,1.15152645E1,-2.2199488E1,-9.204358E0,6.2871213E0,1.2730093E0,-4.134802E0,3.1326118E0,1.6810442E1,2.5088124E0,-1.1429169E1,-1.179365E0,-3.1037815E0,6.0518517E0,4.5917287E0,1.633072E0,1.4791634E1,1.0081409E1,6.798461E0,1.1640766E1,5.022184E0,2.0400481E-1,8.606535E0,4.278704E-1,1.8379766E1,7.4107656E0,6.523737E0,2.4215145E0,7.7577157E0,1.42254305E1,2.7996748E1,1.5593095E1,8.049473E0,-2.4274807E0,2.2612059E1,-1.1617048E1,6.1907654E0,-4.9954796E0,2.1680115E1,3.5523353E0,-1.2940462E1,1.0963147E1],"split_indices":[4,6,3,5,2,3,3,5,3,4,5,2,4,2,0,4,1,4,0,1,4,3,5,0,2,2,4,2,1,2,1,2,5,0,0,3,1,4,0,2,4,1,0,4,0,0,4,0,0,1,2,1,1,1,2,3,0,0,0,1,1,0,0,0,0,0,0,0,0,0,0,0,0,0,0,0,0,0,0,0,0,0,0,0,0,0,0,0,0,0,0,0,0,0,0,0,0,0,0,0,0,0,0,0,0,0,0,0,0,0,0,0,0,0,0,0,0,0,0],"split_type":[0,0,0,0,0,0,0,0,0,0,0,0,0,0,0,0,0,0,0,0,0,0,0,0,0,0,0,0,0,0,0,0,0,0,0,0,0,0,0,0,0,0,0,0,0,0,0,0,0,0,0,0,0,0,0,0,0,0,0,0,0,0,0,0,0,0,0,0,0,0,0,0,0,0,0,0,0,0,0,0,0,0,0,0,0,0,0,0,0,0,0,0,0,0,0,0,0,0,0,0,0,0,0,0,0,0,0,0,0,0,0,0,0,0,0,0,0,0,0],"sum_hessian":[6.299E3,4.35E3,1.949E3,1.73E3,2.62E3,7.37E2,1.212E3,6.31E2,1.099E3,1.826E3,7.94E2,9.7E1,6.4E2,8.46E2,3.66E2,6.08E2,2.3E1,1.68E2,9.31E2,9.57E2,8.69E2,5.37E2,2.57E2,9E0,8.8E1,1.04E2,5.36E2,5.01E2,3.45E2,3.41E2,2.5E1,9.6E1,5.12E2,1.7E1,6E0,1.19E2,4.9E1,9.24E2,7E0,4.08E2,5.49E2,2.3E1,8.46E2,4.93E2,4.4E1,1.22E2,1.35E2,7E0,2E0,3.5E1,5.3E1,7.6E1,2.8E1,1.4E2,3.96E2,3.03E2,1.98E2,3.02E2,4.3E1,2.71E2,7E1,1.8E1,7E0,8.1E1,1.5E1,9.2E1,4.2E2,4E0,2E0,2.3E1,9.6E1,1E1,3.9E1,9E2,2.4E1,3.5E1,3.73E2,6.9E1,4.8E2,9E0,1.4E1,3.42E2,5.04E2,4.5E1,4.48E2,2.7E1,1.7E1,8.6E1,3.6E1,2.5E1,1.1E2,4E0,3E0,1.6E1,1.9E1,3.2E1,2.1E1,2.2E1,5.4E1,2.2E1,6E0,5E0,1.35E2,2.83E2,1.13E2,1.11E2,1.92E2,5E1,1.48E2,2.54E2,4.8E1,3.7E1,6E0,2.54E2,1.7E1,5.7E1,1.3E1,1.7E1,1E0],"tree_param":{"num_deleted":"0","num_feature":"7","num_nodes":"119","size_leaf_vector":"0"}},{"base_weights":[1.1227175E1,7.111939E0,2.040367E1,8.726038E0,2.674685E0,1.6576233E1,2.7928253E1,6.219123E0,1.4525611E1,-2.5904016E0,1.2447979E1,2.0431643E1,6.5830593E0,1.8666544E1,3.5585583E1,3.7335746E0,1.308586E1,-1.3110623E1,1.6055132E1,6.217283E0,-8.495358E0,2.8786217E1,-4.1125474E0,1.572772E1,3.0567505E1,-1.54706545E1,1.7582714E1,1.6842451E1,9.235121E1,1.2934102E2,3.4160828E1,4.630195E0,-4.9936287E1,5.3026586E0,3.7263443E1,2.193544E1,-1.9184666E1,2.221348E1,7.9022417E0,-1.6301551E0,2.9373108E1,-2.187795E0,-2.0727655E1,5.7069893E1,2.2008675E1,-6.9071097E0,1.9193037E1,1.6993832E1,-1.1533918E1,5.15489E1,1.2048516E1,-4.9164234E1,-9.868164E0,5.880552E1,1.3604058E1,2.1471006E1,5.977062E-1,4.3558964E1,2.3496468E1,3.75787E0,5.7697506E1,-1.8850708E1,-5.6144344E1,6.984401E0,-1.16030855E1,5.2839737E0,4.598981E1,2.468729E1,1.3362427E0,-9.907004E0,-2.982251E1,1.4834519E1,4.00984E1,1.950004E0,1.6875046E1,1.0193149E0,-2.9235607E1,-1.6222334E1,3.8888153E1,-5.4546742E0,3.1046007E1,-3.1668434E1,-9.661406E0,8.443673E1,2.9591812E1,4.1184753E1,1.6612104E1,3.388099E1,-8.977143E0,-8.012645E0,2.766604E1,-8.79718E0,1.8199223E1,-8.4418947E-1,-2.145472E1,-1.0173002E1,5.7507915E1,2.9243103E1,-1.2678738E0,-5.4161232E1,-7.791178E0,-5.343469E-1,-3.0216663E1,1.0033936E2,3.0843506E0,1.555433E1,-2.18219E1,4.2323082E1,1.6944265E1,4.222464E1,-2.2649832E1,5.473473E1,2.825815E1,1.1019263E0,3.297634E1],"categories":[],"categories_nodes":[],"categories_segments":[],"categories_sizes":[],"default_left":[1,1,1,1,1,1,1,1,1,1,1,1,1,1,1,1,1,1,1,1,1,1,1,1,1,1,1,1,0,0,1,1,1,1,1,1,1,1,1,1,1,1,1,1,1,1,1,1,1,1,1,1,1,1,1,1,1,1,1,0,0,0,0,0,0,0,0,0,0,0,0,0,0,0,0,0,0,0,0,0,0,0,0,0,0,0,0,0,0,0,0,0,0,0,0,0,0,0,0,0,0,0,0,0,0,0,0,0,0,0,0,0,0,0,0],"id":14,"left_children":[1,3,5,7,9,11,13,15,17,19,21,23,25,27,29,31,33,35,37,39,41,43,45,47,49,51,53,55,-1,-1,57,59,61,63,65,67,69,71,73,75,77,79,81,83,85,87,89,91,93,95,97,99,101,103,105,107,109,111,113,-1,-1,-1,-1,-1,-1,-1,-1,-1,-1,-1,-1,-1,-1,-1,-1,-1,-1,-1,-1,-1,-1,-1,-1,-1,-1,-1,-1,-1,-1,-1,-1,-1,-1,-1,-1,-1,-1,-1,-1,-1,-1,-1,-1,-1,-1,-1,-1,-1,-1,-1,-1,-1,-1,-1,-1],"loss_changes":[2.3776462E5,3.1139266E4,5.5696812E4,4.6289188E4,5.982556E4,4.975897E4,4.585922E4,3.7994844E4,4.087439E4,3.937162E4,1.1024029E5,4.4050812E4,8.808715E4,3.8632477E4,4.3402688E4,7.905425E4,1.1120438E5,1.127726E4,4.561447E4,5.5288906E4,3.490632E4,3.8041203E4,1.3353735E4,2.2286406E4,1.1400241E5,2.2355762E4,3.889075E4,2.201775E4,0E0,0E0,3.445622E4,7.440581E4,4.152125E3,1.284661E4,3.9942297E4,4.2049927E2,4.0470996E3,6.789869E4,2.1009951E4,1.670568E4,3.403675E4,3.274059E4,1.8339344E4,2.6828906E4,1.6597836E4,1.5670911E4,5.292983E3,1.918614E4,3.0573582E3,5.1341656E4,3.6214305E4,3.0926133E3,1.9926418E4,4.8291133E4,1.5677461E4,2.0804227E4,6.482615E4,3.043E4,3.5629633E4,0E0,0E0,0E0,0E0,0E0,0E0,0E0,0E0,0E0,0E0,0E0,0E0,0E0,0E0,0E0,0E0,0E0,0E0,0E0,0E0,0E0,0E0,0E0,0E0,0E0,0E0,0E0,0E0,0E0,0E0,0E0,0E0,0E0,0E0,0E0,0E0,0E0,0E0,0E0,0E0,0E0,0E0,0E0,0E0,0E0,0E0,0E0,0E0,0E0,0E0,0E0,0E0,0E0,0E0,0E0,0E0],"parents":[2147483647,0,0,1,1,2,2,3,3,4,4,5,5,6,6,7,7,8,8,9,9,10,10,11,11,12,12,13,13,14,14,15,15,16,16,17,17,18,18,19,19,20,20,21,21,22,22,23,23,24,24,25,25,26,26,27,27,30,30,31,31,32,32,33,33,34,34,35,35,36,36,37,37,38,38,39,39,40,40,41,41,42,42,43,43,44,44,45,45,46,46,47,47,48,48,49,49,50,50,51,51,52,52,53,53,54,54,55,55,56,56,57,57,58,58],"right_children":[2,4,6,8,10,12,14,16,18,20,22,24,26,28,30,32,34,36,38,40,42,44,46,48,50,52,54,56,-1,-1,58,60,62,64,66,68,70,72,74,76,78,80,82,84,86,88,90,92,94,96,98,100,102,104,106,108,110,112,114,-1,-1,-1,-1,-1,-1,-1,-1,-1,-1,-1,-1,-1,-1,-1,-1,-1,-1,-1,-1,-1,-1,-1,-1,-1,-1,-1,-1,-1,-1,-1,-1,-1,-1,-1,-1,-1,-1,-1,-1,-1,-1,-1,-1,-1,-1,-1,-1,-1,-1,-1,-1,-1,-1,-1,-1],"split_conditions":[6.1786285E1,2.3055E1,4.701825E5,1.515E0,2.9994999E1,1.839E1,7.6499996E0,2.6682955E1,4.25E0,5.55E-1,3.548E1,1.00545166E2,1.505E0,2.185E0,1.385E0,2.6380337E1,5.6499996E0,2.6750002E0,3.63266E5,3.9499998E-1,3.249295E5,7.45E-1,2.645E0,9.95E0,1.0103865E2,9.9883865E1,1.565E0,1.775E0,2.7705364E1,3.8802307E1,2.3095001E1,2.6295563E1,1.263E1,1.9305E1,9.999998E-3,2.6550002E0,1.645E0,1.0009228E2,2.775E0,6.05E0,3.188965E5,1.0015086E2,3.443418E1,1.7E0,3.1075E1,1.25E-1,1.7E-1,3.523425E5,1.075E0,1.066E1,1.3325E1,2.7925E1,2.309E1,2.452E1,4.669285E5,1.355E0,8.75E-1,2.3049998E0,1.595E0,1.127361E0,1.7309252E1,-5.6552124E0,-1.6843304E1,2.0953205E0,-3.4809258E0,1.5851922E0,1.3796944E1,7.4061875E0,4.0087283E-1,-2.9721014E0,-8.9467535E0,4.450356E0,1.2029521E1,5.8500123E-1,5.062514E0,3.0579448E-1,-8.770682E0,-4.8667E0,1.1666447E1,-1.6364024E0,9.313803E0,-9.50053E0,-2.8984218E0,2.533102E1,8.877544E0,1.2355427E1,4.9836316E0,1.0164297E1,-2.6931431E0,-2.4037936E0,8.299812E0,-2.6391542E0,5.459767E0,-2.5325686E-1,-6.436416E0,-3.0519009E0,1.7252375E1,8.772931E0,-3.8036215E-1,-1.6248371E1,-2.3373535E0,-1.6030407E-1,-9.065E0,3.010181E1,9.253052E-1,4.6662993E0,-6.5465703E0,1.2696925E1,5.0832796E0,1.2667393E1,-6.79495E0,1.642042E1,8.477446E0,3.305779E-1,9.892902E0],"split_indices":[4,0,6,1,0,0,3,4,3,2,0,5,1,2,2,4,3,2,6,2,6,2,1,3,5,5,1,2,0,0,0,4,0,0,2,2,1,5,2,3,6,5,4,1,0,2,2,6,1,0,0,0,0,0,6,1,1,2,2,0,0,0,0,0,0,0,0,0,0,0,0,0,0,0,0,0,0,0,0,0,0,0,0,0,0,0,0,0,0,0,0,0,0,0,0,0,0,0,0,0,0,0,0,0,0,0,0,0,0,0,0,0,0,0,0],"split_type":[0,0,0,0,0,0,0,0,0,0,0,0,0,0,0,0,0,0,0,0,0,0,0,0,0,0,0,0,0,0,0,0,0,0,0,0,0,0,0,0,0,0,0,0,0,0,0,0,0,0,0,0,0,0,0,0,0,0,0,0,0,0,0,0,0,0,0,0,0,0,0,0,0,0,0,0,0,0,0,0,0,0,0,0,0,0,0,0,0,0,0,0,0,0,0,0,0,0,0,0,0,0,0,0,0,0,0,0,0,0,0,0,0,0,0],"sum_hessian":[6.299E3,4.35E3,1.949E3,3.189E3,1.161E3,1.294E3,6.55E2,2.228E3,9.61E2,7.55E2,4.06E2,9.33E2,3.61E2,2.98E2,3.57E2,1.637E3,5.91E2,5E1,9.11E2,3.03E2,4.52E2,2.04E2,2.02E2,6.39E2,2.94E2,1.2E2,2.41E2,2.92E2,6E0,4E0,3.53E2,1.611E3,2.6E1,4.48E2,1.43E2,7E0,4.3E1,5.18E2,3.93E2,2.27E2,7.6E1,2.99E2,1.53E2,3.8E1,1.66E2,1.81E2,2.1E1,6.11E2,2.8E1,1.37E2,1.57E2,1.6E1,1.04E2,2E1,2.21E2,2.27E2,6.5E1,1.86E2,1.67E2,1.586E3,2.5E1,5E0,2.1E1,4.08E2,4E1,3.1E1,1.12E2,6E0,1E0,2.4E1,1.9E1,3.68E2,1.5E2,2.37E2,1.56E2,2.08E2,1.9E1,1.3E1,6.3E1,2.73E2,2.6E1,7.6E1,7.7E1,1.8E1,2E1,3.5E1,1.31E2,8E0,1.73E2,5E0,1.6E1,2.7E1,5.84E2,1.4E1,1.4E1,1.2E1,1.25E2,6.8E1,8.9E1,1.4E1,2E0,7.2E1,3.2E1,1.1E1,9E0,2.1E2,1.1E1,3.9E1,1.88E2,2.3E1,4.2E1,1.06E2,8E1,5E1,1.17E2],"tree_param":{"num_deleted":"0","num_feature":"7","num_nodes":"115","size_leaf_vector":"0"}},{"base_weights":[7.8958216E0,5.850764E0,1.7600777E1,7.7418995E0,1.8571305E0,3.651792E1,1.58720875E1,3.9398558E0,1.1907143E1,3.7952805E0,-1.7435165E1,4.1178337E1,-5.3492675E0,1.8103079E0,1.7756577E1,2.842629E0,3.3064007E1,4.5020508E1,1.0699032E1,1.0643232E0,1.2028578E1,-1.1339099E1,-4.2051067E1,4.601866E1,1.64903E1,8.585986E0,-1.6070435E1,6.2251096E0,-4.7375023E1,1.9811798E1,7.1028776E0,-7.5686855E0,3.7763824E0,3.946659E1,-7.3773804E0,4.656329E1,7.0080566E-1,1.7684616E1,6.843445E0,5.627312E0,-5.90842E0,4.0346188E1,8.474234E0,-2.6539522E1,-1.0542948E0,1.4655029E1,-4.8894524E1,3.612197E1,7.857884E1,-7.162793E0,2.5742586E1,-2.6497803E0,1.2057373E1,-2.0180225E1,2.2392578E0,2.3511848E1,-1.3899442E0,2.3332722E1,1.14969425E1,2.6704838E0,2.0956959E1,-1.7136568E1,1.2522082E1,2.3659844E0,2.110619E1,4.1837887E1,-1.7953125E1,-1.390421E1,5.888916E0,1.7912027E1,4.897376E1,-1.3425293E1,1.4476501E1,1.455337E1,4.77998E1,7.9316688E0,-1.8825697E1,8.934568E0,-1.8520794E0,3.8864741E0,-1.1218878E1,8.597753E0,5.4281773E1,1.8538504E1,5.0602764E-2,-4.3433186E1,9.726318E-1,-1.1441792E1,1.6790495E1,2.130306E1,-2.6445312E0,-2.0290558E1,-5.789138E1,3.8865513E1,-2.3473389E1,4.8233913E1,1.063682E2,-2.2424398E1,1.0486409E1,2.7732006E1,2.9241943E0,3.2922363E-1,1.5857015E1,8.088401E0,4.7804462E1,-2.0845524E1,3.1916752E0,3.4195717E1,1.868123E1,8.593506E0,8.845261E1,4.117865E0,-1.9421736E1,1.637127E1,4.039258E1],"categories":[],"categories_nodes":[],"categories_segments":[],"categories_sizes":[],"default_left":[1,1,1,1,1,1,1,1,1,1,1,1,1,1,1,1,1,1,1,1,1,1,1,1,1,1,1,1,0,1,1,1,1,1,1,1,1,1,1,1,1,1,1,1,1,1,1,1,1,1,1,0,1,0,0,1,1,1,1,1,1,0,0,0,0,0,0,0,0,0,0,0,0,0,0,0,0,0,0,0,0,0,0,0,0,0,0,0,0,0,0,0,0,0,0,0,0,0,0,0,0,0,0,0,0,0,0,0,0,0,0,0,0,0,0],"id":15,"left_children":[1,3,5,7,9,11,13,15,17,19,21,23,25,27,29,31,33,35,37,39,41,43,45,47,49,51,53,55,-1,57,59,61,63,65,67,69,71,73,75,77,79,81,83,85,87,89,91,93,95,97,99,-1,101,-1,-1,103,105,107,109,111,113,-1,-1,-1,-1,-1,-1,-1,-1,-1,-1,-1,-1,-1,-1,-1,-1,-1,-1,-1,-1,-1,-1,-1,-1,-1,-1,-1,-1,-1,-1,-1,-1,-1,-1,-1,-1,-1,-1,-1,-1,-1,-1,-1,-1,-1,-1,-1,-1,-1,-1,-1,-1,-1,-1],"loss_changes":[1.2493431E5,3.929639E4,3.5261656E4,5.5887406E4,6.2659312E4,1.797604E4,2.6626125E4,5.896032E4,6.692605E4,3.420904E4,2.2482383E4,9.04E3,1.6320024E3,2.6352135E4,1.9280781E4,1.7352479E4,1.763943E4,4.001539E3,4.3699844E4,3.643138E4,3.7804645E4,1.935736E4,1.235852E4,1.9073766E4,3.467067E3,2.2696786E2,4.9668274E2,1.4644658E4,0E0,2.1483781E4,8.848012E3,2.8471824E4,3.9937062E4,8.648352E3,9.4774915E2,3.0593594E3,7.781418E2,5.3808625E4,2.9479781E4,1.7134047E4,2.360657E4,1.8115484E4,2.8653922E4,2.3281305E4,1.4094316E4,5.163686E2,5.7736914E3,9.741422E3,7.5184375E3,1.5819272E3,4.1825537E2,0E0,1.7303058E2,0E0,0E0,1.2352318E4,7.019301E3,2.5686875E4,4.9066086E4,3.6292974E3,2.458123E3,0E0,0E0,0E0,0E0,0E0,0E0,0E0,0E0,0E0,0E0,0E0,0E0,0E0,0E0,0E0,0E0,0E0,0E0,0E0,0E0,0E0,0E0,0E0,0E0,0E0,0E0,0E0,0E0,0E0,0E0,0E0,0E0,0E0,0E0,0E0,0E0,0E0,0E0,0E0,0E0,0E0,0E0,0E0,0E0,0E0,0E0,0E0,0E0,0E0,0E0,0E0,0E0,0E0,0E0],"parents":[2147483647,0,0,1,1,2,2,3,3,4,4,5,5,6,6,7,7,8,8,9,9,10,10,11,11,12,12,13,13,14,14,15,15,16,16,17,17,18,18,19,19,20,20,21,21,22,22,23,23,24,24,25,25,26,26,27,27,29,29,30,30,31,31,32,32,33,33,34,34,35,35,36,36,37,37,38,38,39,39,40,40,41,41,42,42,43,43,44,44,45,45,46,46,47,47,48,48,49,49,50,50,52,52,55,55,56,56,57,57,58,58,59,59,60,60],"right_children":[2,4,6,8,10,12,14,16,18,20,22,24,26,28,30,32,34,36,38,40,42,44,46,48,50,52,54,56,-1,58,60,62,64,66,68,70,72,74,76,78,80,82,84,86,88,90,92,94,96,98,100,-1,102,-1,-1,104,106,108,110,112,114,-1,-1,-1,-1,-1,-1,-1,-1,-1,-1,-1,-1,-1,-1,-1,-1,-1,-1,-1,-1,-1,-1,-1,-1,-1,-1,-1,-1,-1,-1,-1,-1,-1,-1,-1,-1,-1,-1,-1,-1,-1,-1,-1,-1,-1,-1,-1,-1,-1,-1,-1,-1,-1,-1],"split_conditions":[8.215143E1,2.1015E1,8.578735E1,2.7912294E1,6.05E0,3.525E0,4.545935E5,1.735E0,3.23963E5,2.9994999E1,7.576318E1,1.565E0,1.711E1,3.6350002E0,1.05845535E2,9.825055E1,2.0149999E0,2.086E1,1.3385E1,2.496E1,6.5999997E-1,2.25E-1,2.105E0,2.111E1,1.615E0,1.235E0,3.655E0,1.398E1,-1.4212507E1,2.5535E1,2.005E0,1.11E0,2.6295563E1,3.01E0,2.3E0,9.938811E1,2.0915E1,1.0059634E2,7.902579E1,1.00545616E2,5.75E-1,-6.5E-2,3.3885E1,3.1169647E1,6.1499996E0,2.08E0,2.1505001E1,1.31E0,2.39E0,2.8405E1,1.685E0,-7.949341E-1,1.5945001E1,-6.054068E0,6.7177737E-1,9.05E0,1.325E0,1.145E0,1.795E0,1.3394318E2,2.0155E1,-5.1409707E0,3.756625E0,7.0979536E-1,6.331857E0,1.2551367E1,-5.3859377E0,-4.171263E0,1.7666749E0,5.3736086E0,1.4692128E1,-4.027588E0,4.342951E0,4.366011E0,1.4339941E1,2.3795006E0,-5.6477094E0,2.6803706E0,-5.556238E-1,1.1659423E0,-3.3656635E0,2.579326E0,1.6284533E1,5.561551E0,1.518083E-2,-1.3029956E1,2.9178956E-1,-3.4325376E0,5.0371485E0,6.3909183E0,-7.933594E-1,-6.0871677E0,-1.7367414E1,1.1659655E1,-7.042017E0,1.4470175E1,3.1910461E1,-6.7273197E0,3.145923E0,8.319602E0,8.7725836E-1,9.8767094E-2,4.7571044E0,2.4265203E0,1.4341339E1,-6.2536573E0,9.575026E-1,1.0258716E1,5.604369E0,2.5780518E0,2.6535784E1,1.2353595E0,-5.826521E0,4.911381E0,1.2117774E1],"split_indices":[4,0,4,4,3,2,6,1,6,0,4,1,0,2,4,5,1,0,0,0,2,2,2,0,1,1,2,0,0,0,1,2,4,2,2,5,0,5,4,5,2,2,0,4,3,2,0,1,2,0,1,0,0,0,0,3,1,1,1,4,0,0,0,0,0,0,0,0,0,0,0,0,0,0,0,0,0,0,0,0,0,0,0,0,0,0,0,0,0,0,0,0,0,0,0,0,0,0,0,0,0,0,0,0,0,0,0,0,0,0,0,0,0,0,0],"split_type":[0,0,0,0,0,0,0,0,0,0,0,0,0,0,0,0,0,0,0,0,0,0,0,0,0,0,0,0,0,0,0,0,0,0,0,0,0,0,0,0,0,0,0,0,0,0,0,0,0,0,0,0,0,0,0,0,0,0,0,0,0,0,0,0,0,0,0,0,0,0,0,0,0,0,0,0,0,0,0,0,0,0,0,0,0,0,0,0,0,0,0,0,0,0,0,0,0,0,0,0,0,0,0,0,0,0,0,0,0,0,0,0,0,0,0],"sum_hessian":[6.299E3,5.204E3,1.095E3,3.531E3,1.673E3,9E1,1.005E3,1.847E3,1.684E3,1.521E3,1.52E2,8.1E1,9E0,1.19E2,8.86E2,1.781E3,6.6E1,5.8E1,1.626E3,1.143E3,3.78E2,1.23E2,2.9E1,6.7E1,1.4E1,4E0,5E0,1.1E2,9E0,7.42E2,1.44E2,1.46E2,1.635E3,5.7E1,9E0,5.6E1,2E0,5.77E2,1.049E3,6.91E2,4.52E2,4.1E1,3.37E2,4.9E1,7.4E1,3E0,2.6E1,5.3E1,1.4E1,4E0,1E1,1E0,3E0,4E0,1E0,3.3E1,7.7E1,5.2E2,2.22E2,1.1E2,3.4E1,9.9E1,4.7E1,1.513E3,1.22E2,5.5E1,2E0,6E0,3E0,5E0,5.1E1,1E0,1E0,5.24E2,5.3E1,1.007E3,4.2E1,4.79E2,2.12E2,1.59E2,2.93E2,1.3E1,2.8E1,1.53E2,1.84E2,3E1,1.9E1,4.7E1,2.7E1,2E0,1E0,7E0,1.9E1,5.1E1,2E0,8E0,6E0,2E0,2E0,9E0,1E0,1E0,2E0,2.1E1,1.2E1,1.4E1,6.3E1,1.54E2,3.66E2,2.15E2,7E0,1.04E2,6E0,2.9E1,5E0],"tree_param":{"num_deleted":"0","num_feature":"7","num_nodes":"115","size_leaf_vector":"0"}},{"base_weights":[5.5511374E0,3.3262777E0,1.0158696E1,4.2508883E0,-1.7549832E0,6.5409365E0,1.4529605E1,4.874311E0,-4.605446E0,-2.5540383E0,2.3742716E1,6.861603E1,6.3136024E0,1.814049E1,-3.7072888E-1,4.2510724E0,2.4739613E1,-7.0450706E0,2.2216736E1,-1.8974375E0,-3.1590342E1,3.393984E1,-1.3636621E1,5.6513133E0,2.7321167E1,2.3303524E1,9.877608E0,-3.2351006E1,3.7771509E0,5.412824E0,-8.7500656E-1,5.5609844E1,1.5048156E1,2.5446813E0,-1.2845838E1,3.101477E1,-1.0380322E1,-1.4225312E1,-9.130435E-1,-6.5828636E1,-1.1312159E1,3.488654E1,9.869659E0,-1.9770676E1,5.4497986E0,8.244943E0,-4.899763E-1,1.1581262E1,5.5212555E1,2.1339819E1,4.9726948E1,1.8594011E1,-6.0432177E0,3.8305664E-1,-3.782796E1,5.8963003E0,-3.775351E1,4.3420177E0,4.1720844E1,-2.0453613E1,1.6517203E0,4.932949E1,9.935848E0,1.02736225E1,-1.1452236E1,-1.4969552E1,1.0346669E1,-2.5387695E1,3.646745E1,1.2519531E-2,-2.9758062E1,1.4121438E1,-2.1478176E0,5.855362E0,-1.9506147E1,1.7854445E1,7.0174985E0,-1.6021091E1,2.6065927E0,1.5761116E1,-2.2427805E-1,1.8451782E1,6.0719532E1,3.2077698E1,1.4507137E1,6.846988E1,9.424361E0,9.4700584E1,1.641299E1,-1.1920011E1,6.52337E1,-2.161914E1,1.4923503E1,-4.3260185E1,-1.5052149E1,8.053936E0,-1.6409458E1],"categories":[],"categories_nodes":[],"categories_segments":[],"categories_sizes":[],"default_left":[1,1,1,1,1,1,1,1,1,1,1,0,1,1,1,1,1,1,1,1,1,1,1,1,1,1,1,1,1,1,1,0,1,1,1,1,0,1,1,0,1,0,0,0,0,1,1,1,1,1,1,1,1,1,1,1,0,0,0,0,0,0,0,0,0,0,0,0,0,0,0,0,0,0,0,0,0,0,0,0,0,0,0,0,0,0,0,0,0,0,0,0,0,0,0,0,0],"id":16,"left_children":[1,3,5,7,9,11,13,15,17,19,21,-1,23,25,27,29,31,33,35,37,39,41,43,45,47,49,51,53,55,57,59,-1,61,63,65,67,-1,69,71,-1,73,-1,-1,-1,-1,75,77,79,81,83,85,87,89,91,93,95,-1,-1,-1,-1,-1,-1,-1,-1,-1,-1,-1,-1,-1,-1,-1,-1,-1,-1,-1,-1,-1,-1,-1,-1,-1,-1,-1,-1,-1,-1,-1,-1,-1,-1,-1,-1,-1,-1,-1,-1,-1],"loss_changes":[6.454861E4,1.9974758E4,3.2337203E4,1.9876828E4,1.3405651E4,1.5428414E4,4.9936297E4,4.1494406E4,1.5664863E4,1.2065564E4,8.0860586E3,0E0,1.5442172E4,3.1637969E4,2.4264557E4,1.941284E4,2.9679285E4,1.2159574E4,6.057745E3,7.547419E3,8.975402E3,2.0279297E1,6.9313184E2,1.7333953E4,1.4286834E4,2.2755328E4,4.0217574E4,3.7794355E3,1.4480174E4,1.0311999E5,2.9864066E4,0E0,1.3355152E4,9.096709E3,6.853463E3,5.846535E3,0E0,1.01733955E4,1.0760431E4,0E0,1.5209202E3,0E0,0E0,0E0,0E0,8.897977E3,1.5623946E4,1.13848E3,1.3089102E3,3.1009734E4,2.2771766E4,2.948582E4,4.39222E4,1.6023203E3,1.5758594E3,7.591955E3,0E0,0E0,0E0,0E0,0E0,0E0,0E0,0E0,0E0,0E0,0E0,0E0,0E0,0E0,0E0,0E0,0E0,0E0,0E0,0E0,0E0,0E0,0E0,0E0,0E0,0E0,0E0,0E0,0E0,0E0,0E0,0E0,0E0,0E0,0E0,0E0,0E0,0E0,0E0,0E0,0E0],"parents":[2147483647,0,0,1,1,2,2,3,3,4,4,5,5,6,6,7,7,8,8,9,9,10,10,12,12,13,13,14,14,15,15,16,16,17,17,18,18,19,19,20,20,21,21,22,22,23,23,24,24,25,25,26,26,27,27,28,28,29,29,30,30,32,32,33,33,34,34,35,35,37,37,38,38,40,40,45,45,46,46,47,47,48,48,49,49,50,50,51,51,52,52,53,53,54,54,55,55],"right_children":[2,4,6,8,10,12,14,16,18,20,22,-1,24,26,28,30,32,34,36,38,40,42,44,46,48,50,52,54,56,58,60,-1,62,64,66,68,-1,70,72,-1,74,-1,-1,-1,-1,76,78,80,82,84,86,88,90,92,94,96,-1,-1,-1,-1,-1,-1,-1,-1,-1,-1,-1,-1,-1,-1,-1,-1,-1,-1,-1,-1,-1,-1,-1,-1,-1,-1,-1,-1,-1,-1,-1,-1,-1,-1,-1,-1,-1,-1,-1,-1,-1],"split_conditions":[3.866615E5,2.8449998E0,7.6499996E0,3.67794E5,2.3449998E0,7.45E-1,1.0103865E2,3.601155E5,1.675E0,3.9125E1,4.25E0,2.0584808E1,2.0549998E0,2.3095001E1,7.8775085E1,1.0052768E2,4.5398407E1,-2.2E-1,2.6599998E0,1.2219857E1,2.13E0,3.71E0,3.82E0,1.8855E1,2.1715E1,1.525E0,9.990163E1,1.5965E1,3.74E0,1.0044658E2,1.00603546E2,1.6682955E1,1.0585E1,2.3880001E1,2.125E0,9.6500003E-1,-3.1140969E0,1.1635478E1,1.3584103E1,-1.9748592E1,2.2350001E0,1.0465962E1,2.960898E0,-5.931203E0,1.6349397E0,5.8594772E1,6.1957237E1,2.185E0,2.085E0,1.145E0,3.6750002E0,1.385E0,1.795E0,1.5425E1,2.1295E1,1.8189999E1,-1.1326054E1,1.3026054E0,1.2516253E1,-6.136084E0,4.955161E-1,1.4798848E1,2.9807546E0,3.0820868E0,-3.435671E0,-4.4908657E0,3.1040008E0,-7.6163087E0,1.0940235E1,3.7558593E-3,-8.927419E0,4.2364316E0,-6.443453E-1,1.7566086E0,-5.8518443E0,5.3563337E0,2.1052496E0,-4.806328E0,7.8197783E-1,4.728335E0,-6.7283414E-2,5.535535E0,1.821586E1,9.62331E0,4.3521414E0,2.0540964E1,2.8273084E0,2.8410177E1,4.9238973E0,-3.5760033E0,1.9570112E1,-6.4857426E0,4.4770513E0,-1.2978056E1,-4.515645E0,2.4161808E0,-4.9228377E0],"split_indices":[6,2,3,6,1,1,5,6,2,0,3,0,1,0,4,5,4,2,2,4,1,2,2,0,0,1,5,0,2,5,5,0,0,0,1,1,0,4,4,0,1,0,0,0,0,4,4,1,1,1,2,2,1,0,0,0,0,0,0,0,0,0,0,0,0,0,0,0,0,0,0,0,0,0,0,0,0,0,0,0,0,0,0,0,0,0,0,0,0,0,0,0,0,0,0,0,0],"split_type":[0,0,0,0,0,0,0,0,0,0,0,0,0,0,0,0,0,0,0,0,0,0,0,0,0,0,0,0,0,0,0,0,0,0,0,0,0,0,0,0,0,0,0,0,0,0,0,0,0,0,0,0,0,0,0,0,0,0,0,0,0,0,0,0,0,0,0,0,0,0,0,0,0,0,0,0,0,0,0,0,0,0,0,0,0,0,0,0,0,0,0,0,0,0,0,0,0],"sum_hessian":[6.299E3,4.249E3,2.05E3,3.595E3,6.54E2,1.123E3,9.27E2,3.359E3,2.36E2,6.35E2,1.9E1,3E0,1.12E3,7.46E2,1.81E2,3.258E3,1.01E2,2.17E2,1.9E1,6.22E2,1.3E1,1.5E1,4E0,1.087E3,3.3E1,4.58E2,2.88E2,2E1,1.61E2,2.656E3,6.02E2,2.3E1,7.8E1,8.2E1,1.35E2,1.5E1,4E0,4.5E1,5.77E2,4E0,9E0,1.4E1,1E0,3E0,1E0,7.64E2,3.23E2,2.2E1,1.1E1,4.28E2,3E1,1.86E2,1.02E2,3E0,1.7E1,1.54E2,7E0,2.581E3,7.5E1,6.8E1,5.34E2,9E0,6.9E1,5.3E1,2.9E1,1.24E2,1.1E1,1E0,1.4E1,2.4E1,2.1E1,4.3E1,5.34E2,3E0,6E0,8.5E1,6.79E2,5.3E1,2.7E2,1.6E1,6E0,2E0,9E0,1.65E2,2.63E2,2E1,1E1,4E0,1.82E2,9.5E1,7E0,1E0,2E0,1.3E1,4E0,1.41E2,1.3E1],"tree_param":{"num_deleted":"0","num_feature":"7","num_nodes":"97","size_leaf_vector":"0"}},{"base_weights":[3.9059336E0,2.7714097E0,9.02774E0,3.0720568E0,-7.872384E0,9.736601E0,-7.694372E0,2.7963839E0,2.1452198E1,-1.699705E1,2.595481E0,9.539688E0,1.1267786E2,-1.3033512E1,7.495752E1,3.0146332E0,-1.0684828E1,4.0012634E1,1.3343107E1,-7.9353123E0,-2.5849962E1,-4.170634E1,4.60025E0,1.1031878E1,1.1816983E0,1.8332356E0,-4.009407E1,2.486945E0,9.535769E0,-6.507356E0,-4.245323E1,4.477935E1,1.4849927E1,9.230952E0,3.904714E1,1.0517578E0,-9.287874E0,-1.5359734E1,-3.278105E1,1.3743743E1,-3.6297085E0,1.1900533E1,-4.47708E0,-5.907957E0,5.990847E0,-1.9790527E1,7.570996E1,-8.313998E1,-1.2969571E1,3.473106E0,-5.9645634E0,2.4455444E1,6.451427E0,-3.2217565E0,-4.1564392E1,5.0678916E0,-5.675468E1,4.812622E0,1.9937256E1,1.4750397E1,-8.096629E0,4.482129E1,1.6407837E1,5.893036E0,-5.7538657E0,-6.6152344E0,-1.3636444E1,-6.710986E0,-1.7504658E1,-3.5281834E1,-1.2707062E1,3.050065E1,-1.8502197E0,-1.2671291E1,5.6135254E0,7.8110075E0,1.6721607E1,4.6823597E0,-2.836438E1,7.7757163E0,-1.3074629E1,1.0104289E1,-4.4284163E0,1.6001953E1,-3.005181E1,1.8990112E1,8.199825E1,-9.196123E1,-1.9516846E1,3.674707E1,-2.1615942E1],"categories":[],"categories_nodes":[],"categories_segments":[],"categories_sizes":[],"default_left":[1,1,1,1,1,1,1,1,1,1,1,1,0,1,0,1,1,1,1,1,1,0,1,1,1,1,1,1,1,1,1,0,1,1,1,1,1,1,1,1,1,1,1,1,1,1,1,1,1,0,0,0,0,0,0,0,0,0,0,0,0,0,0,0,0,0,0,0,0,0,0,0,0,0,0,0,0,0,0,0,0,0,0,0,0,0,0,0,0,0,0],"id":17,"left_children":[1,3,5,7,9,11,13,15,17,19,21,23,-1,25,-1,27,29,31,33,35,37,-1,39,41,43,45,47,49,51,53,55,-1,57,59,61,63,65,67,69,71,73,75,77,79,81,83,85,87,89,-1,-1,-1,-1,-1,-1,-1,-1,-1,-1,-1,-1,-1,-1,-1,-1,-1,-1,-1,-1,-1,-1,-1,-1,-1,-1,-1,-1,-1,-1,-1,-1,-1,-1,-1,-1,-1,-1,-1,-1,-1,-1],"loss_changes":[3.6583094E4,1.6533125E4,1.3611781E4,2.5365754E4,1.3607355E4,2.1141469E4,2.171759E4,1.4581707E4,1.0603719E4,5.8918027E3,6.142459E3,1.3643484E4,0E0,1.8177113E4,0E0,1.6724258E4,1.020796E4,1.9737852E3,5.2416035E3,4.8383594E2,2.2594219E3,0E0,4.9411724E3,1.2568695E4,5.7292935E3,4.9423125E4,1.760329E4,3.7559516E4,1.659255E4,8.044111E3,6.404216E3,0E0,1.5936487E2,4.6144434E3,1.7963965E2,2.3159523E2,3.049453E2,1.978916E2,6.560879E2,8.1569375E3,2.996202E3,1.7219398E4,1.1072526E4,6.770179E3,4.3306494E3,9.295528E3,9.3953906E2,1.572625E3,5.5228765E3,0E0,0E0,0E0,0E0,0E0,0E0,0E0,0E0,0E0,0E0,0E0,0E0,0E0,0E0,0E0,0E0,0E0,0E0,0E0,0E0,0E0,0E0,0E0,0E0,0E0,0E0,0E0,0E0,0E0,0E0,0E0,0E0,0E0,0E0,0E0,0E0,0E0,0E0,0E0,0E0,0E0,0E0],"parents":[2147483647,0,0,1,1,2,2,3,3,4,4,5,5,6,6,7,7,8,8,9,9,10,10,11,11,13,13,15,15,16,16,17,17,18,18,19,19,20,20,22,22,23,23,24,24,25,25,26,26,27,27,28,28,29,29,30,30,32,32,33,33,34,34,35,35,36,36,37,37,38,38,39,39,40,40,41,41,42,42,43,43,44,44,45,45,46,46,47,47,48,48],"right_children":[2,4,6,8,10,12,14,16,18,20,22,24,-1,26,-1,28,30,32,34,36,38,-1,40,42,44,46,48,50,52,54,56,-1,58,60,62,64,66,68,70,72,74,76,78,80,82,84,86,88,90,-1,-1,-1,-1,-1,-1,-1,-1,-1,-1,-1,-1,-1,-1,-1,-1,-1,-1,-1,-1,-1,-1,-1,-1,-1,-1,-1,-1,-1,-1,-1,-1,-1,-1,-1,-1,-1,-1,-1,-1,-1,-1],"split_conditions":[4.458125E5,4.304335E5,3.3605E1,4.276725E5,4.384345E5,3.3585E1,1.865E0,4.3875E1,1.3945E1,1.3965E1,5.702475E1,1.05845535E2,3.380336E1,3.0549998E0,2.2487257E1,3.014E1,1.01283295E2,1.79E0,1.898E1,1.2135E1,2.635E0,-1.2511903E1,1.428E1,1.0097335E2,1.785E0,4.1824997E1,3.15E0,2.5E1,3.125E1,7.15E1,2.3249998E0,1.3433805E1,1.905E0,3.51E0,1.56E0,1.975E0,1.96E0,1.7725E1,1.0040512E2,1.5E0,1.345E0,2.085E0,3.6350002E0,1.275E0,2.2325E1,8.72986E1,1.67E0,1.795E0,3.165E0,1.0419319E0,-1.7893691E0,7.3366337E0,1.9354281E0,-9.66527E-1,-1.2469318E1,1.5203675E0,-1.7026405E1,1.4437866E0,5.981177E0,4.4251194E0,-2.428989E0,1.3446387E1,4.9223514E0,1.7679108E0,-1.7261598E0,-1.9845704E0,-4.0909333E0,-2.013296E0,-5.2513976E0,-1.0584551E1,-3.8121188E0,9.150195E0,-5.5506593E-1,-3.8013875E0,1.6840577E0,2.3433022E0,5.0164824E0,1.4047079E0,-8.509315E0,2.332715E0,-3.9223888E0,3.031287E0,-1.328525E0,4.800586E0,-9.015543E0,5.697034E0,2.4599478E1,-2.758837E1,-5.855054E0,1.1024121E1,-6.4847827E0],"split_indices":[6,6,0,6,6,0,1,0,0,0,4,4,0,2,0,0,5,1,0,0,2,0,0,5,1,0,2,0,0,0,1,0,1,2,1,1,1,0,5,1,1,2,2,1,0,4,1,1,2,0,0,0,0,0,0,0,0,0,0,0,0,0,0,0,0,0,0,0,0,0,0,0,0,0,0,0,0,0,0,0,0,0,0,0,0,0,0,0,0,0,0],"split_type":[0,0,0,0,0,0,0,0,0,0,0,0,0,0,0,0,0,0,0,0,0,0,0,0,0,0,0,0,0,0,0,0,0,0,0,0,0,0,0,0,0,0,0,0,0,0,0,0,0,0,0,0,0,0,0,0,0,0,0,0,0,0,0,0,0,0,0,0,0,0,0,0,0,0,0,0,0,0,0,0,0,0,0,0,0,0,0,0,0,0,0],"sum_hessian":[6.299E3,5.158E3,1.141E3,5.017E3,1.41E2,1.095E3,4.6E1,4.944E3,7.3E1,7.5E1,6.6E1,1.094E3,1E0,4.4E1,2E0,4.866E3,7.8E1,2.1E1,5.2E1,3.8E1,3.7E1,2E0,6.4E1,9.28E2,1.66E2,2.9E1,1.5E1,4.503E3,3.63E2,7E1,8E0,1.7E1,4E0,4.6E1,6E0,5E0,3.3E1,1.6E1,2.1E1,3E1,3.4E1,8.79E2,4.9E1,6.7E1,9.9E1,2.3E1,6E0,5E0,1E1,4.033E3,4.7E2,6.1E1,3.02E2,6.5E1,5E0,2E0,6E0,2E0,2E0,3.5E1,1.1E1,4E0,2E0,3E0,2E0,2.2E1,1.1E1,4E0,1.2E1,1.8E1,3E0,1.4E1,1.6E1,1.7E1,1.7E1,4.77E2,4.02E2,3.6E1,1.3E1,2.3E1,4.4E1,7.1E1,2.8E1,5E0,1.8E1,1E0,5E0,4E0,1E0,1E0,9E0],"tree_param":{"num_deleted":"0","num_feature":"7","num_nodes":"91","size_leaf_vector":"0"}},{"base_weights":[2.7406235E0,-2.9972646E-1,3.9398715E0,2.9283297E-1,-3.884888E1,9.799794E-1,5.598913E0,1.5955148E1,-4.0530518E-1,-4.4123974E1,2.5138855E0,-3.3304863E1,1.320301E0,8.749687E0,2.123968E0,1.9523972E1,3.5692072E0,3.8333434E-1,-8.294206E0,-2.844542E1,-4.8906586E1,2.97347E0,5.675659E-1,-4.0273403E1,1.0316609E1,7.4406824E0,-1.2273608E-1,3.7793114E1,7.836756E0,-3.938546E0,5.505615E0,1.0387812E1,2.4059114E1,-2.3878098E0,3.4150227E1,8.963606E0,-8.967191E-2,-1.4765135E1,-1.1865226E0,1.4602478E1,8.724365E-1,-4.0164124E-2,2.2043104E1,1.5660372E0,-5.9494495E0,1.38758545E1,3.9139065E1,8.204989E0,-3.112446E1,2.241773E1,-5.2145114E0,1.2786855E1,2.9810455E-1,-3.1209474E0,1.3749928E1,3.717586E1,1.5751372E1,-1.3023948E1,1.7509745E1,6.7208104E0,1.9056728E1,1.347151E-1,-1.797332E1,-1.7935057E1,-2.8501215E0,-7.893651E0,1.4029008E1,-7.4714184E0,2.8801136E1,5.0727913E1,1.2323508E1,-1.1047984E1,2.1650836E0,-1.2535634E1,6.5064025E0,1.1919597E1,4.0176125E1,4.3312902E0,1.2235164E1,1.4690821E1,-5.0919655E1,-2.3453186E1,3.6462605E1,-1.219375E1,-2.0514362E0,2.7044313E1,4.251008E0,5.9453564E0,-6.4511456E0],"categories":[],"categories_nodes":[],"categories_segments":[],"categories_sizes":[],"default_left":[1,1,1,1,1,1,1,1,1,1,1,1,1,1,1,1,1,1,1,0,0,0,0,0,1,1,1,1,1,1,1,1,1,1,0,1,1,1,1,0,0,1,1,1,1,0,1,1,1,1,1,1,1,0,0,0,0,0,0,0,0,0,0,0,0,0,0,0,0,0,0,0,0,0,0,0,0,0,0,0,0,0,0,0,0,0,0,0,0],"id":18,"left_children":[1,3,5,7,9,11,13,15,17,19,21,23,25,27,29,31,33,35,37,-1,-1,-1,-1,-1,39,41,43,45,47,49,51,53,55,57,-1,59,61,63,65,-1,-1,67,69,71,73,-1,75,77,79,81,83,85,87,-1,-1,-1,-1,-1,-1,-1,-1,-1,-1,-1,-1,-1,-1,-1,-1,-1,-1,-1,-1,-1,-1,-1,-1,-1,-1,-1,-1,-1,-1,-1,-1,-1,-1,-1,-1],"loss_changes":[2.2971828E4,4.0739848E4,2.2180523E4,1.9218312E4,6.002117E3,1.89926E4,3.167811E4,3.2455586E3,1.0473961E4,4.0846094E2,1.8903542E0,5.279131E3,1.42115E4,3.9953047E4,2.8272453E4,2.1532383E3,3.3606338E3,6.2144014E3,7.019459E3,0E0,0E0,0E0,0E0,0E0,1.086897E2,3.3537098E4,1.2830834E4,9.3771875E2,2.1388227E4,1.6729973E4,3.3552848E4,9.966914E2,3.5553086E3,3.6141763E3,0E0,1.6828682E3,5.8290913E3,2.970455E3,7.662626E3,0E0,0E0,4.3937902E4,2.8370559E4,7.6634253E3,2.4118268E4,0E0,7.349297E2,2.2740062E4,1.3444965E4,1.5672942E4,1.039479E4,4.479214E4,1.9743662E4,0E0,0E0,0E0,0E0,0E0,0E0,0E0,0E0,0E0,0E0,0E0,0E0,0E0,0E0,0E0,0E0,0E0,0E0,0E0,0E0,0E0,0E0,0E0,0E0,0E0,0E0,0E0,0E0,0E0,0E0,0E0,0E0,0E0,0E0,0E0,0E0],"parents":[2147483647,0,0,1,1,2,2,3,3,4,4,5,5,6,6,7,7,8,8,9,9,10,10,11,11,12,12,13,13,14,14,15,15,16,16,17,17,18,18,24,24,25,25,26,26,27,27,28,28,29,29,30,30,31,31,32,32,33,33,35,35,36,36,37,37,38,38,41,41,42,42,43,43,44,44,46,46,47,47,48,48,49,49,50,50,51,51,52,52],"right_children":[2,4,6,8,10,12,14,16,18,20,22,24,26,28,30,32,34,36,38,-1,-1,-1,-1,-1,40,42,44,46,48,50,52,54,56,58,-1,60,62,64,66,-1,-1,68,70,72,74,-1,76,78,80,82,84,86,88,-1,-1,-1,-1,-1,-1,-1,-1,-1,-1,-1,-1,-1,-1,-1,-1,-1,-1,-1,-1,-1,-1,-1,-1,-1,-1,-1,-1,-1,-1,-1,-1,-1,-1,-1,-1],"split_conditions":[3.153135E5,3.151405E5,4.8500004E0,4.8E0,1.4E1,3.6E-1,1.0008989E2,2.857E1,2.6E1,1.385E0,1.438E1,2.0425E1,1.635E0,7.45E-1,1.00549194E2,1.6949999E0,2.105E0,9.8369896E1,5.25E0,-8.533627E0,-1.4671976E1,8.92041E-1,1.7026979E-1,-1.2082022E1,2.5119999E1,3.306215E5,1.0031952E2,9.35E-1,3.475E0,2.0318409E1,1.845E1,1.993E1,2.2810001E1,3.18E1,1.0245069E1,2.955E0,3.14392E5,3.8575E1,2.9925E1,4.3807435E0,2.6173097E-1,1.795E0,2.4826004E1,1.2219857E1,1.0075557E2,4.1627564E0,1.2025E1,9.9401115E1,1.395E0,7.0000005E-1,1.295E0,7.5828545E1,1.0112508E2,-9.3628424E-1,4.1249785E0,1.1152759E1,4.725412E0,-3.9071844E0,5.2529235E0,2.0162432E0,5.7170186E0,4.041453E-2,-5.3919964E0,-5.380517E0,-8.550365E-1,-2.3680954E0,4.2087026E0,-2.2414255E0,8.640341E0,1.5218374E1,3.6970527E0,-3.3143954E0,6.495251E-1,-3.7606905E0,1.9519209E0,3.575879E0,1.2052838E1,1.2993871E0,3.6705492E0,4.4072466E0,-1.5275897E1,-7.035956E0,1.0938782E1,-3.6581252E0,-6.154309E-1,8.113295E0,1.2753024E0,1.783607E0,-1.9353437E0],"split_indices":[6,6,3,3,0,2,5,0,0,2,0,0,2,1,5,1,1,5,3,0,0,0,0,0,0,6,5,2,2,4,0,0,0,0,0,2,6,0,0,0,0,1,4,4,5,0,0,5,1,2,2,4,5,0,0,0,0,0,0,0,0,0,0,0,0,0,0,0,0,0,0,0,0,0,0,0,0,0,0,0,0,0,0,0,0,0,0,0,0],"split_type":[0,0,0,0,0,0,0,0,0,0,0,0,0,0,0,0,0,0,0,0,0,0,0,0,0,0,0,0,0,0,0,0,0,0,0,0,0,0,0,0,0,0,0,0,0,0,0,0,0,0,0,0,0,0,0,0,0,0,0,0,0,0,0,0,0,0,0,0,0,0,0,0,0,0,0,0,0,0,0,0,0,0,0,0,0,0,0,0,0],"sum_hessian":[6.299E3,1.782E3,4.517E3,1.756E3,2.6E1,1.623E3,2.894E3,7.4E1,1.682E3,2.3E1,3E0,1.5E1,1.608E3,1.517E3,1.377E3,5.7E1,1.7E1,1.53E3,1.52E2,7E0,1.6E1,2E0,1E0,1.3E1,2E0,3.06E2,1.302E3,4.5E1,1.472E3,4.93E2,8.84E2,2E1,3.7E1,1.5E1,2E0,7.9E1,1.451E3,7.9E1,7.3E1,1E0,1E0,2.03E2,1.03E2,1.01E3,2.92E2,3E0,4.2E1,1.459E3,1.3E1,2.2E1,4.71E2,3.68E2,5.16E2,4E0,1.6E1,1.3E1,2.4E1,1E1,5E0,6.6E1,1.3E1,1.434E3,1.7E1,6.2E1,1.7E1,5.1E1,2.2E1,1.62E2,4.1E1,2.5E1,7.8E1,4.5E1,9.65E2,1.91E2,1.01E2,2E0,4E1,7.45E2,7.14E2,4E0,9E0,5E0,1.7E1,1.46E2,3.25E2,1.37E2,2.31E2,2.81E2,2.35E2],"tree_param":{"num_deleted":"0","num_feature":"7","num_nodes":"89","size_leaf_vector":"0"}},{"base_weights":[1.9252094E0,1.5148879E0,6.692263E0,-2.010197E0,1.9143143E0,4.461936E1,4.932664E0,-6.975424E-1,-3.8103187E0,3.1971726E0,6.979768E-2,2.3266493E1,1.1256582E2,8.350251E0,-1.0098704E1,-2.869954E0,2.2185302E0,-1.1102636E0,-7.564143E0,3.1347225E0,5.0343994E1,4.09054E-1,-2.0336042E1,2.630651E1,6.0498047E0,-4.0792435E1,9.750829E0,3.05574E1,-2.012247E1,9.4437426E-1,-4.0381894E0,4.556816E0,-3.014594E0,-2.9529862E0,9.410218E0,-9.347234E0,-2.1328397E0,5.2384496E-1,4.0249286E0,5.901579E1,1.2164307E1,-5.6246085E0,1.4978602E0,-2.2875603E1,3.3004517E1,1.8289022E1,4.378235E1,-1.712085E1,1.9480307E1,-7.560526E1,1.6104004E1,1.7860811E1,2.515988E0,7.105835E0,6.639474E1,-4.341906E1,-1.2690962E1,6.4490333E0,-9.1674465E-1,-7.587961E0,-2.3102572E0,6.7759805E0,2.0182102E0,-8.19546E0,-9.4501E-1,-6.586368E0,-2.3200803E0,1.1729577E1,4.7567477E0,-1.0070955E1,-5.679191E-1,-1.2503052E-1,-3.505394E0,-2.584576E1,1.1789479E0,9.215636E0,2.7923446E0,-2.8939035E0,-3.1164648E1,9.06816E0,-2.4574967E-1,-1.3409966E1,-5.1962677E1,2.287495E1,-3.09375E0,-3.1487143E1,5.832715E1,2.6525116E1,-1.1491957E0,4.523544E-1,5.2502563E1,-1.1493347E1,3.544336E1,9.018955E1,4.605143E0,-7.952164E1,-1.0195093E1,-5.243758E1,-4.9740753E0],"categories":[],"categories_nodes":[],"categories_segments":[],"categories_sizes":[],"default_left":[1,1,1,1,1,1,1,1,1,1,1,1,0,1,1,1,1,1,1,1,1,1,1,1,1,1,1,1,1,1,1,1,1,1,1,1,1,1,1,0,0,1,1,1,0,1,0,0,0,0,1,1,1,1,1,1,1,0,0,0,0,0,0,0,0,0,0,0,0,0,0,0,0,0,0,0,0,0,0,0,0,0,0,0,0,0,0,0,0,0,0,0,0,0,0,0,0,0,0],"id":19,"left_children":[1,3,5,7,9,11,13,15,17,19,21,23,-1,25,27,29,31,33,35,37,39,41,43,45,47,49,51,53,55,57,59,61,63,65,67,69,71,73,75,-1,-1,77,79,81,-1,83,-1,-1,-1,-1,85,87,89,91,93,95,97,-1,-1,-1,-1,-1,-1,-1,-1,-1,-1,-1,-1,-1,-1,-1,-1,-1,-1,-1,-1,-1,-1,-1,-1,-1,-1,-1,-1,-1,-1,-1,-1,-1,-1,-1,-1,-1,-1,-1,-1,-1,-1],"loss_changes":[1.2312814E4,8.173133E3,3.308142E4,1.3938386E3,1.2332691E4,2.929973E4,2.4639672E4,2.1792415E3,2.51535E3,8.893049E3,1.481621E4,7.829531E2,0E0,2.7240729E4,3.688482E4,8.8165173E2,1.8125085E3,2.8581929E3,9.8725244E2,7.1355645E3,6.06459E2,1.3837198E4,5.4961533E3,1.3009482E3,1.5782933E3,2.300553E4,2.2251344E4,1.4656158E4,1.1914244E4,4.8741885E2,9.0866846E2,5.609502E2,4.8547812E2,2.7216785E2,1.8165271E2,4.89875E2,7.3969055E1,1.353937E4,1.4625645E4,0E0,0E0,2.2366836E4,2.3550404E4,8.664324E3,0E0,1.247488E3,0E0,0E0,0E0,0E0,1.1883795E4,2.95133E4,2.0813357E4,6.7320205E3,9.876564E3,1.9580275E4,1.6915498E4,0E0,0E0,0E0,0E0,0E0,0E0,0E0,0E0,0E0,0E0,0E0,0E0,0E0,0E0,0E0,0E0,0E0,0E0,0E0,0E0,0E0,0E0,0E0,0E0,0E0,0E0,0E0,0E0,0E0,0E0,0E0,0E0,0E0,0E0,0E0,0E0,0E0,0E0,0E0,0E0,0E0,0E0],"parents":[2147483647,0,0,1,1,2,2,3,3,4,4,5,5,6,6,7,7,8,8,9,9,10,10,11,11,13,13,14,14,15,15,16,16,17,17,18,18,19,19,20,20,21,21,22,22,23,23,24,24,25,25,26,26,27,27,28,28,29,29,30,30,31,31,32,32,33,33,34,34,35,35,36,36,37,37,38,38,41,41,42,42,43,43,45,45,50,50,51,51,52,52,53,53,54,54,55,55,56,56],"right_children":[2,4,6,8,10,12,14,16,18,20,22,24,-1,26,28,30,32,34,36,38,40,42,44,46,48,50,52,54,56,58,60,62,64,66,68,70,72,74,76,-1,-1,78,80,82,-1,84,-1,-1,-1,-1,86,88,90,92,94,96,98,-1,-1,-1,-1,-1,-1,-1,-1,-1,-1,-1,-1,-1,-1,-1,-1,-1,-1,-1,-1,-1,-1,-1,-1,-1,-1,-1,-1,-1,-1,-1,-1,-1,-1,-1,-1,-1,-1,-1,-1,-1,-1],"split_conditions":[4.74952E5,2.568745E5,4.75706E5,7.3500004E0,1.9935001E1,2.7185001E1,2.754E1,1.9107155E1,2.40292E5,4.74325E5,9.45E0,1.48E0,3.376975E1,4.768625E5,1.45E0,6.6499996E0,9.979927E1,1.00208435E2,2.1184286E1,9.6500003E-1,1.982E1,2.25E-1,3.6695E1,1.415E0,1.993E1,1.875E0,1.325E0,7.8500004E0,1.59E0,1.83E0,8.45E-1,2.4250002E0,1.175E0,4.5E-1,1.375E0,3.125E0,1.205E1,4.05E-1,3.32711E5,1.7704737E1,3.6492922E0,6.1499996E0,6.05E-1,2.8035E1,9.901356E0,1.385E0,1.3134706E1,-5.1362553E0,5.8440924E0,-2.268158E1,2.3564999E1,4.91021E5,8.55E0,1.41E0,1.17E0,1.17E0,2.8085E1,1.93471E0,-2.750234E-1,-2.2763884E0,-6.930772E-1,2.0327942E0,6.054631E-1,-2.4586382E0,-2.8350303E-1,-1.9759105E0,-6.960241E-1,3.5188732E0,1.4270244E0,-3.0212867E0,-1.7037573E-1,-3.750916E-2,-1.0516182E0,-7.7537284E0,3.536844E-1,2.7646909E0,8.377034E-1,-8.681711E-1,-9.349395E0,2.720448E0,-7.37249E-2,-4.02299E0,-1.5588803E1,6.8624854E0,-9.28125E-1,-9.446143E0,1.7498146E1,7.9575353E0,-3.4475872E-1,1.3570632E-1,1.575077E1,-3.4480042E0,1.0633008E1,2.7056868E1,1.3815429E0,-2.3856491E1,-3.0585282E0,-1.5731275E1,-1.4922227E0],"split_indices":[6,6,6,3,0,0,0,4,6,6,3,1,0,6,2,3,5,5,4,1,0,2,0,1,0,2,1,3,2,2,1,2,1,2,1,2,0,2,6,0,0,3,2,0,0,1,0,0,0,0,0,6,3,2,1,1,0,0,0,0,0,0,0,0,0,0,0,0,0,0,0,0,0,0,0,0,0,0,0,0,0,0,0,0,0,0,0,0,0,0,0,0,0,0,0,0,0,0,0],"split_type":[0,0,0,0,0,0,0,0,0,0,0,0,0,0,0,0,0,0,0,0,0,0,0,0,0,0,0,0,0,0,0,0,0,0,0,0,0,0,0,0,0,0,0,0,0,0,0,0,0,0,0,0,0,0,0,0,0,0,0,0,0,0,0,0,0,0,0,0,0,0,0,0,0,0,0,0,0,0,0,0,0,0,0,0,0,0,0,0,0,0,0,0,0,0,0,0,0,0,0],"sum_hessian":[6.299E3,5.801E3,4.98E2,5.9E2,5.211E3,2.1E1,4.77E2,3.42E2,2.48E2,3.073E3,2.138E3,1.7E1,4E0,3.89E2,8.8E1,1.96E2,1.46E2,1.45E2,1.03E2,3.07E3,3E0,2.104E3,3.4E1,1.4E1,3E0,1E1,3.79E2,1.7E1,7.1E1,4.6E1,1.5E2,1.01E2,4.5E1,1.24E2,2.1E1,7.7E1,2.6E1,7.81E2,2.289E3,2E0,1E0,3.21E2,1.783E3,3.3E1,1E0,1.1E1,3E0,1E0,2E0,6E0,4E0,1.78E2,2.01E2,1.1E1,6E0,1.6E1,5.5E1,1.1E1,3.5E1,4.8E1,1.02E2,5.3E1,4.8E1,1.2E1,3.3E1,1.7E1,1.07E2,1.3E1,8E0,7.1E1,6E0,1.1E1,1.5E1,1.8E1,7.63E2,4.38E2,1.851E3,2.91E2,3E1,3.33E2,1.45E3,2.6E1,7E0,9E0,2E0,2E0,2E0,1.22E2,5.6E1,1.94E2,7E0,7E0,4E0,4E0,2E0,7E0,9E0,8E0,4.7E1],"tree_param":{"num_deleted":"0","num_feature":"7","num_nodes":"99","size_leaf_vector":"0"}},